tree
version=v4
num_class=1
num_tree_per_iteration=1
label_index=0
max_feature_idx=84
objective=regression
feature_names=order_total_items order_subtotal order_num_distinct_items order_min_item_price order_max_item_price total_onshift_dashers total_busy_dashers total_outstanding_orders time_estimated_order_place_duration time_estimated_store_to_consumer_driving_duration time_hour time_day_of_week time_month time_is_weekend time_is_rush_hour time_minute_of_day time_bucket_48 time_hour_sin time_hour_cos time_dow_sin time_dow_cos load_telemetry_missing order_avg_item_price order_item_price_range order_percent_distinct_items order_high_value order_subtotal_bucket order_total_items_bucket order_distinct_items_bucket store_avg_order_place_duration store_avg_drive_duration store_order_volume load_busy_ratio load_demand_supply_ratio load_orders_per_busy_dasher load_roll_outstanding_mean load_roll_onshift_mean load_roll_busy_mean load_roll_busy_ratio_mean load_roll_demand_supply_mean load_roll_outstanding_std load_roll_busy_std load_recent_order_count load_demand_momentum load_supply_momentum load_busy_momentum load_supply_stress_index load_utilization_volatility load_pressure_index total_onshift_dashers_lag_5min total_onshift_dashers_lag_15min total_onshift_dashers_lag_30min total_busy_dashers_lag_5min total_busy_dashers_lag_15min total_busy_dashers_lag_30min total_outstanding_orders_lag_5min total_outstanding_orders_lag_15min total_outstanding_orders_lag_30min load_busy_ratio_lag_5min load_busy_ratio_lag_15min load_busy_ratio_lag_30min load_demand_supply_ratio_lag_5min load_demand_supply_ratio_lag_15min load_demand_supply_ratio_lag_30min total_onshift_dashers_roll10_std total_busy_dashers_roll10_std total_outstanding_orders_roll10_std load_busy_ratio_roll10_std load_demand_supply_ratio_roll10_std demand_spike_15m supply_drop_15m busy_growth_15m burst_index market_velocity_orders market_velocity_busy bucket_distance bucket_dashers store_primary_category_encoded store_id_encoded market_id_encoded order_protocol_encoded interaction__order_subtotal__x__store_id_encoded interaction__order_total_items__x__load_busy_ratio interaction__time_hour_sin__x__load_demand_supply_ratio interaction__store_id_encoded__x__order_avg_item_price
feature_infos=[1:34] [0:26800] [1:20] [0:14700] [0:14700] [0:171] [0:154] [0:285] [0:2715] [0:1739] [6:23] [0:6] [1:2] [0:1] [0:1] [391:1380] [13:46] [-1:1] [-1:0.96592581272125244] [-0.97492790222167969:0.97492790222167969] [-0.90096884965896606:1] [0:1] [0:14700] [-198:7674] [0.029411764815449715:1] [0:1] [0:3] [0:4] [0:2] [0:607.75] [15:1312.6666259765625] [1:936] [0:31] [0:47] [0:17] [0.40000000596046448:255.80000305175781] [0.20000000298023224:153.39999389648438] [0:140.60000610351562] [0:15.033333778381348] [0:12.695047378540039] [0:98.732467651367188] [0:58.088054656982422] [1:10] [-87.666664123535156:89.666664123535156] [-50.666667938232422:51.666667938232422] [-46:47.666667938232422] [0:846] [0:2.2627792358398438] [0:324.95260620117188] [0:171] [0:171] [0:171] [0:154] [0:154] [0:154] [0:285] [0:285] [0:285] [0:31] [0:31] [0:31] [0:47] [0:47] [0:47] [0:57.990036010742188] [0:58.088054656982422] [0:98.732467651367188] [0:10.448764801025391] [0:18.787881851196289] [-240:229] [-127:140] [-122:129] [0:138] [0:0.99650349650349646] [0:0.99354838709677418] [0:3] [0:3] [2264.6875:3466.875] [702:7131] [2731.41064453125:3001] [2385.5:3550.966552734375] [0:76173256] [0:153] [-33.234016418457031:11.5] [0:42244680]
tree_sizes=3021 3063 3070 3071 3052 3074 3073 3058 3083 3068 3053 3091 3094 3076 3061 3085 3070 3066 3080 3077 3059 3075 3077 3065 3067 3072 3059 3064 3093 3070 3068 3061 3061 3080 3062 3073 3075 3051 3076 3081 3064 3070 3054 3069 3081 3084 3074 3057 3070 3056 3081 3074 3062 3075 3054 3068 3049 3059 3051 3062 3060 3055 3039 3075 3052 3080 3081 3036 3076 3071 3063 3010 3051 3040 3039 3069 3072 3074 3077 3058 3036 3047 3044 3078 3053 3078 3068 3049 3069 3055 3026 3032 3041 3027 3049 3063 3021 3094 3064 3040 3032 3029 3055 3059 3064 3029 3042 3033 3037 3034 3010 3061 3068 3074 3040 3019 3050 3029 3057 3056 3043 3032 3030 3033 3045 3021 3010 3028 3001 2968 3008 3032 3023 3021 2988 3038 3048 3005 3051 3015 3013 3073 3043 3000 3028 3021 3070 3011 3053 3056 3036 3032 2985 3019 2989 2996 3012 3027 2939 3014 2988 2996 2977 2994 2980 2963 2994 2944 3046 3004 2965 3003 3053 3021 2916 3007 2985 2983 2992 3018 2972 2932 3043 2950 2934 3020 2918 3039 3027 2993 2940 2967 2962 3002 2985 2955 2884 3058 2990 2930 3070 2967 3002 2966 2961 2910 2942 2943 2924 2962 3016 3013 2925 2949 2985 2942 2986 2984 2986 2954 2928 3019 2943 2940 3034 2929 2918 2919 2989 2965 2977 2947 2958 2931 2966 2934 2926 2961 3011 2941 3011 2894 2961 3006 2926 2939 2951 2902 2956 2906 2940 2921 2908 3013 2868 2919 2977 2904 2978 2907 2929 2961 2938 2891 3005 2916 2885 2920 2948 2943 2966 3002 2925 3014 2986 2998 2929 2957 2915 2931 2963 2882 2905 2959 3018 3012 2900 2926 2998 2914 2917 2957 2904 3033 2857 2921 2931 2973 2977 2944 2866 2918 2934 2984 2988 2871 2978 2922 2933 2859 2906 2879 2930 2912 2885 2925 2920 3030 2967 2959 2933 2944 2930 2902 2930 2959 2959 2890 2912 2936 3005 2888 2898 3003 2925 3006 2921 2905 2906 3012 2935 2901 2882 2945 2907 2932 2927 2922 2917 2907 2906 2917 2902 2854 2937 2905 2917 2902 2938 2925 2857 2875 2865 2881 2935 2913 2955 2898 2892 2897 2950 2903 2899 2904 2970 2878 2953 2952 3025 2927 2908 2876 2911 2948 2908 2858 2944 2921 2896 2943 2873 2902 2880 2972 2935 2941 2933 2936 2913 2951 2942 2944 2948 2963 2958 2866 2855 2879 2907 2872 2933 3022 2995 2930 2975 2934 2844 2868 2934 2910 2880 2928 2874 2917 2947 2949 2969 2895 2930 2954 2950 2933 2897 2907 2881 2937 2903 2898 2936 2949 2881 2885 2885 2943 2976 2903 2932 2925 2975 2938 2911 2968 2917 3003 2919 2885 2975 2866 2939 2958 2908 2899 2869 2918 2907 2940 2911 2938 2950 2908 2912 2902 2877 2904 2925 2980 2896 2942 2910 2874 2891 2886 2874 2882 2940 2919 2967 2941 2936 2923 2923 2942 2904 2925 2897 2884 2939 2884 2899 2906 2892 2882 2874 2901 2865 2922 2901 2957 2880 2888 2940 2998 2952 2977 2889 2954 2923 2956 2895 2901 2934 2959 2882 2871 2899 2911 2892 2875 2904 2901 2973 2925 2920 2924 2921 2959 2909 3042 2907 3061 2854 2856 2859 2867 2854 2879 2916 2939 2920 2914 3023 2919 2901 2956 2922 2877 2903 2895 2895 2908 2951 2890 2904 2930 2903 2939 2958 2936 2899 2956 2930 2909 2974 2987 2916 2896 2945 2924 2869 2957 2963 2886 2921 2880 2917 2900 2915 2904 2920 2921 2876 2885 2903 2957 2943 2932 2898 2951 2922 2890 2957 2971 2921 2910 2957 2929 2928 2921 2968 2902 2930 2932 3005 2970 3012 2905 2914 2926 2907 2903 2951 2946 2928 2926 2942 2886 3008 2902 2933 3006 2897 2863 2906 2910 2926 2943 2950 2923 2965 2899 2918 2913 2921 2902 2906 2883 2919 2942 2926 2912 2919 2903 2900 2934 2930 2976 2896 2931 2920 2974 2898 2929 2975 2883 2971 2941 2965 2964 2952 2911 2893 2892 2889 2881 2873 2940 2952 2901 2963 2887 2895 2934 2924 2896 2948 2904 2901 2918 2906 2934 2895 2918 2907 2930 2976 2950 2890 2863 2883 2915 2896 2926 2894 2949 2863 2934 2934 2853 2919 2851 2942 2925 2910 2864 2912 2885 2926 2921 2883 2971 2909 2905 2911 2960 2928 2929 2954 2881 2906 2882 2870 2876 2937 2920 2870 2925 2905 2905 2901 2894 2925 2885 2948 2898 2934 2885 3016 2884 2906 2900 2887 2885 2871 2949 2976 2883 2896 2889 2942 3029 2912 2901 2900 2915 2872 2905 2976 2900 2931 2950 2902 2926 2926 2958 2939 2882 2873 2885 2888 2859 2998 2911 2894 2894 2911 2886 2895 2932 2891 2899 2940 2951 2889 2910 2900 2901 2914 2943 2913 2933 2971 2909 2890 2899 2939 2855 2875 2959 2904 2939 2946 2902 2892 2913 2870 2897 2909 2914 2913 2948 2892 2936 2946 2936 2911 2956 2920 2946 2981 2901 2886 2873 2906 2879 2903 2894 2922 2903 2911 2905 2934 2876 2929 2918 2878 2900 2922 2916 2913 2906 2926 2930 2901 2907 2905 2893 2873 2936 2909 2871 2937 2923 2868 2908 2964 2894 2899 2888 2903 2894 2901 2907 2897 2933 2896 2945 2898 2933 2924 2922 2920 2930 2953 2909 2937 2945 2893 2951 2902 2910 2884 2934 2881 2879 2914 2904 2841 2914 2909 2903 2895 2900 2929 2881 2891 2899 2908 2879 2906 2905 2851 2851 2902 2861 2946 2889 2921 2865 2915 2900 2912 2925 2955 2949 2943 2891 2906 2990 2906 2907 2929 2903 2918 2923 2904 2917 2945 2919 2922 2904 2912 2951 2890 2886 2916 2889 2919 2882 2901 2879 2888 2918 2884 2922 2916 2931 2870 2890 2902 2902 2892 2876 2920 2911 2887 2913 2897 2890 2876 2878 2870 2896 2860 2887 2875 2918 2889 2890 2876 2901 2909 2902 2914 2905 2931 2953 2932 2948 2945 2894 2914 2871 2919 2894 2895 2885 2907 2892 2898 2915 2923 2928 2907 2931 2953 2947 2884 2908 2898 2882 2914 2881 2897 2912 2912 2944 2926 2918 2924 2912 2898 2911 2950 2904 2865 2910 2904 2898 2904 2911 2908 2937 2939 2969 2891 2904 2925 2872 2907 2861 2934 2920 2899 2936 2912 2917 2882 2932 2885 2928 2913 2927 2871 2870 2952 2955 2946 2926 2926 2953 2878 2906 2906 2911 2909 2885 2950 2876 2873 2874 2913 2902 2958 2853 2908 2894 2903 2924 2898 2890 2879 2932 2896 2887 2957 2873 2915 2907 2952 2901 2946 2901 2937 2883 2954 2915 2894 2902 2907 2868 2901 2901 2895 2875 2875 2896 2890 2911 2921 2895 2897 2942 2888 2898 2939 2876 2907 2927 2859 2898 2945 2954 2905 2855 2910 2940 3000 2906 2950 2915 2932 2902 2882 2940 2879 2916 2888 2884 2987 2831 2903 2894

Tree=0
num_leaves=32
num_cat=0
split_feature=83 78 9 78 83 9 78 33 33 39 39 61 61 9 9 81 81 81 9 9 5 78 17 81 5 9 78 20 81 81 9
split_gain=1.30853e+10 6.18264e+09 2.2686e+09 1.72946e+09 1.5658e+09 1.12071e+09 9.75563e+08 7.22951e+08 6.67119e+08 5.55493e+08 4.55293e+08 4.20086e+08 3.32828e+08 3.19887e+08 3.06457e+08 2.7387e+08 2.71425e+08 2.46196e+08 2.33472e+08 2.24324e+08 2.19851e+08 2.08952e+08 2.0254e+08 1.96188e+08 1.95166e+08 1.83906e+08 1.72534e+08 1.67702e+08 1.67235e+08 1.66852e+08 1.49817e+08
threshold=-1.3781782388687132 2812.9030761718755 527.50000000000011 3261.454711914063 -1.7413833141326902 555.25000000000011 2890.5883789062505 1.1306379437446596 1.1352759003639223 1.9212964773178103 1.1350833773612978 1.1201503872871401 1.1629170775413515 633.50000000000011 503.50000000000006 6323317.0000000009 12371209.000000002 6879609.2500000009 440.50000000000006 758.50000000000011 4.5000000000000009 3745.9333496093755 -0.91597560048103321 7767438.7500000009 2.5000000000000004 619.50000000000011 3443.517211914063 1.0000000180025095e-35 16370378.000000002 14805106.000000002 479.25000000000006
decision_type=2 2 2 2 2 2 2 2 2 2 2 2 2 2 2 2 2 2 2 2 2 2 2 2 2 2 2 2 2 2 2
left_child=4 2 8 5 9 11 13 15 17 18 16 29 22 -6 -8 24 25 20 -1 -9 -2 30 -7 -10 -4 -5 -16 -11 -13 -3 -12
right_child=1 3 7 10 6 12 14 19 23 27 21 28 -14 -15 26 -17 -18 -19 -20 -21 -22 -23 -24 -25 -26 -27 -28 -29 -30 -31 -32
leaf_value=2843.8983226202422 2794.650824368799 2790.4478660121176 2827.0812990178492 2808.6365209669611 2819.7983441890146 2823.6594883612188 2838.6767734041605 2805.3879155220807 2786.0901014537312 2875.2987812138458 2825.2458573487183 2807.1646196312186 2828.9859426613252 2839.6997328542288 2855.3064641629949 2803.0322813398225 2839.1397173214755 2784.7474069828622 2867.7336241797693 2818.8889452099825 2767.6659528437458 2858.2488959546449 2807.5363501719257 2800.2003605686273 2787.2800670452129 2829.3641748108053 2881.397811218384 2913.3327963036245 2833.2440592845619 2814.7485162227176 2843.9236076586676
leaf_weight=1533 821 6973 319 2767 5910 3178 2738 9590 10248 486 1702 6780 6403 3067 3339 5157 1910 3806 3115 4530 9360 1550 5032 3243 8932 1745 782 718 676 786 2908
leaf_count=1533 821 6973 319 2767 5910 3178 2738 9590 10248 486 1702 6780 6403 3067 3339 5157 1910 3806 3115 4530 9360 1550 5032 3243 8932 1745 782 718 676 786 2908
internal_value=2810.46 2802.71 2791.8 2817.11 2845.61 2810.55 2837.45 2801.68 2781.55 2867.71 2832.66 2801.05 2820.44 2826.6 2851.64 2793.8 2823.34 2773.9 2859.87 2809.72 2769.84 2842.37 2813.78 2789.48 2788.65 2816.65 2860.26 2897.98 2809.53 2792.91 2837.03
internal_weight=120104 98416 56006 42410 21688 29828 15836 28528 27478 5852 12582 15215 14613 8977 6859 14408 6422 13987 4648 14120 10181 6160 8210 13491 9251 4512 4121 1204 7456 7759 4610
internal_count=120104 98416 56006 42410 21688 29828 15836 28528 27478 5852 12582 15215 14613 8977 6859 14408 6422 13987 4648 14120 10181 6160 8210 13491 9251 4512 4121 1204 7456 7759 4610
is_linear=0
shrinkage=1


Tree=1
num_leaves=32
num_cat=0
split_feature=83 78 9 78 39 9 78 33 33 61 11 39 9 9 9 81 17 81 16 25 83 78 81 9 5 81 81 81 5 39 9
split_gain=1.18095e+10 5.58418e+09 1.93806e+09 1.64159e+09 1.45247e+09 1.29981e+09 1.01931e+09 6.45068e+08 5.84909e+08 5.13254e+08 4.73181e+08 3.98564e+08 3.57254e+08 3.08215e+08 2.84351e+08 2.40155e+08 2.15003e+08 2.14372e+08 2.11672e+08 2.07529e+08 1.90266e+08 1.88724e+08 1.85069e+08 1.82722e+08 1.81028e+08 1.70628e+08 1.6815e+08 1.63675e+08 1.6018e+08 1.54779e+08 1.36357e+08
threshold=-1.3781782388687132 2790.0178222656255 527.50000000000011 3443.517211914063 1.8042904734611513 569.25000000000011 2924.7187500000005 1.1563858985900881 1.1352759003639223 1.1201503872871401 5.5000000000000009 1.1750000119209292 473.25000000000006 646.50000000000011 452.50000000000006 6323317.0000000009 -0.91597560048103321 6687756.7500000009 38.500000000000007 1.0000000180025095e-35 -1.5588346123695371 3460.083374023438 21225455.000000004 761.50000000000011 4.5000000000000009 13112770.500000002 13450868.500000002 13803111.000000002 2.5000000000000004 1.1093346476554873 392.50000000000006
decision_type=2 2 2 2 2 2 2 2 2 2 2 2 2 2 2 2 2 2 2 2 2 2 2 2 2 2 2 2 2 2 2
left_child=4 2 8 5 6 9 12 15 17 16 -6 18 -1 21 -5 28 -3 24 27 -11 -14 -8 29 -9 -2 30 -13 -7 -4 -16 -10
right_child=1 3 7 14 10 11 13 23 25 19 -12 26 20 -15 22 -17 -18 -19 -20 -21 -22 -23 -24 -25 -26 -27 -28 -29 -30 -31 -32
leaf_value=6.8243623214019848 -15.885994658533418 -5.2840190426393718 15.070272726017908 13.859915900815356 51.505863703981198 5.4353229810437824 29.193200191702829 -4.6604530559893744 -26.266714360652003 -5.8749012368681512 92.666453872303151 17.084312198349949 34.504353130422714 55.47236543223179 21.945333576435203 -7.3744688444662945 -20.708941520509711 -25.001403997814446 -10.997272755388382 8.7505007920890492 17.258611440351366 52.858187557678335 64.317006390563606 8.1876002325186601 -40.973692637250807 1.6294337585355301 37.551166682420124 24.982546631802645 -21.941500679271709 40.982249935676464 -15.616067497328093
leaf_weight=4317 782 3494 302 2457 2375 7136 3818 8900 6975 5229 989 6078 3039 2693 2125 5203 6392 3841 1696 4524 3376 1081 478 4016 8934 839 1202 1260 9127 2146 5280
leaf_count=4317 782 3494 302 2457 2375 7136 3818 8900 6975 5229 989 6078 3039 2693 2125 5203 6392 3841 1696 4524 3376 1081 478 4016 8934 839 1202 1260 9127 2146 5280
internal_value=0.00884265 -7.35127 -18.1089 5.83487 33.4076 1.5839 27.8635 -8.80916 -27.7216 -7.22881 63.6069 11.5466 17.9449 41.8844 27.6685 -15.9977 -15.2573 -35.0013 5.11426 0.909198 25.4285 34.4151 34.8126 -0.66558 -38.9545 -20.1845 20.4636 8.3688 -20.7561 31.5106 -21.6779
internal_weight=120104 98416 54199 44217 21688 37011 18324 27548 26651 19639 3364 17372 10732 7592 7206 14632 9886 13557 10092 9753 6415 4899 4749 12916 9716 13094 7280 8396 9429 4271 12255
internal_count=120104 98416 54199 44217 21688 37011 18324 27548 26651 19639 3364 17372 10732 7592 7206 14632 9886 13557 10092 9753 6415 4899 4749 12916 9716 13094 7280 8396 9429 4271 12255
is_linear=0
shrinkage=0.05


Tree=2
num_leaves=32
num_cat=0
split_feature=83 78 75 78 83 75 78 33 33 11 17 33 17 33 75 75 81 75 1 5 81 5 81 78 81 17 78 12 78 81 78
split_gain=1.06673e+10 4.99736e+09 1.82179e+09 1.44071e+09 1.4053e+09 8.91251e+08 8.49626e+08 5.64672e+08 5.35485e+08 4.48083e+08 4.23163e+08 3.1523e+08 2.8591e+08 2.94123e+08 2.70185e+08 2.55525e+08 2.50022e+08 2.29922e+08 2.24704e+08 2.12444e+08 2.10774e+08 1.91347e+08 1.80358e+08 1.80067e+08 1.78561e+08 1.74173e+08 1.6238e+08 1.61763e+08 1.58604e+08 1.47185e+08 1.42246e+08
threshold=-1.3646759986877439 2812.9030761718755 1.5000000000000002 3261.454711914063 -1.7413833141326902 1.5000000000000002 2812.9030761718755 1.1115900874137881 1.1400934457778933 5.5000000000000009 -0.91597560048103321 1.1214168667793276 -0.91597560048103321 1.3321078419685366 2.5000000000000004 2.5000000000000004 24190179.000000004 2.5000000000000004 5350.5000000000009 2.5000000000000004 6879609.2500000009 4.5000000000000009 7998746.7500000009 2991.127075195313 9687969.0000000019 -0.91597560048103321 3624.6999511718755 1.5000000000000002 3395.7661132812505 14805106.000000002 3799.7316894531255
decision_type=2 2 2 2 2 2 2 2 2 2 2 2 2 2 2 2 2 2 2 2 2 2 2 2 2 2 2 2 2 2 2
left_child=4 2 7 5 9 11 15 19 18 23 30 29 -7 -14 28 -6 17 26 21 -2 -21 -4 -9 -1 -10 -23 -12 -11 -8 -3 -5
right_child=1 3 8 10 6 12 14 22 24 27 16 -13 13 -15 -16 -17 -18 -19 -20 20 -22 25 -24 -25 -26 -27 -28 -29 -30 -31 -32
leaf_value=36.67231918897297 -2.4899955042126507 -18.541162672459823 8.8425793472947571 26.545675604060882 7.2157806462935827 16.582968090360772 25.446580551058425 -21.912692489762804 -2.817389910170184 24.379948920011522 -1.4945560090078367 -1.399534083640025 -2.2737338908561955 19.583039794184945 49.570274660281832 27.670514468923912 55.880122274557756 25.59481995884088 11.295076421994217 -38.043166661506284 -24.010065182674083 -8.9907518743971835 -8.6803154769235551 57.09553574275472 13.493667052425202 -21.620726799390038 17.255295261350977 83.541941649415918 45.755345568909156 4.7446356421353801 46.369589237843229
leaf_weight=2768 550 6707 731 4041 6244 6195 4986 11360 10966 128 3376 6974 6914 1980 2259 2021 315 1822 799 9756 3687 4060 3330 1769 1981 8331 1755 1187 1191 755 1166
leaf_count=2768 550 6707 731 4041 6244 6195 4986 11360 10966 128 3376 6974 6914 1980 2259 2021 315 1822 799 9756 3687 4060 3330 1769 1981 8331 1755 1187 1191 755 1166
internal_value=0.00840042 -7.15641 -16.9966 5.85864 30.9992 -0.160827 23.611 -25.7601 -7.64108 52.0841 20.1051 -9.04224 8.33623 2.59206 34.7737 12.2175 12.3106 10.3367 -14.4484 -32.9482 -34.1943 -16.0159 -18.9131 44.6354 -0.321661 -17.4824 4.91862 77.7832 29.3624 -16.1851 30.9848
internal_weight=120104 97551 55551 42000 22553 29525 16701 28683 26868 5852 12475 14436 15089 8894 8436 8265 7268 6953 13921 13993 13443 13122 14690 4537 12947 12391 5131 1315 6177 7462 5207
internal_count=120104 97551 55551 42000 22553 29525 16701 28683 26868 5852 12475 14436 15089 8894 8436 8265 7268 6953 13921 13993 13443 13122 14690 4537 12947 12391 5131 1315 6177 7462 5207
is_linear=0
shrinkage=0.05


Tree=3
num_leaves=32
num_cat=0
split_feature=83 78 9 39 78 39 78 9 61 78 11 39 9 78 9 39 78 81 81 5 17 9 78 83 49 25 9 81 15 19 81
split_gain=9.63233e+09 4.57654e+09 2.15047e+09 1.24016e+09 8.3285e+08 8.24151e+08 8.05402e+08 6.56917e+08 4.60767e+08 4.49783e+08 4.24737e+08 3.61652e+08 3.09837e+08 3.04113e+08 2.54305e+08 2.51647e+08 2.38843e+08 2.38007e+08 2.16459e+08 1.856e+08 1.98505e+08 1.81527e+08 1.79984e+08 1.63801e+08 1.60558e+08 1.48119e+08 1.45281e+08 1.39566e+08 1.34491e+08 1.34121e+08 1.24611e+08
threshold=-1.3781782388687132 2999.996704101563 619.50000000000011 1.786745071411133 2924.7187500000005 1.1944266557693484 3624.6999511718755 598.25000000000011 1.1306379437446596 2561.7614746093755 5.5000000000000009 1.1383483409881594 458.50000000000006 2607.051147460938 494.50000000000006 1.1867706775665285 2618.781860351563 13803111.000000002 9687969.0000000019 7.5000000000000009 -0.91597560048103321 407.50000000000006 3460.083374023438 -1.5296065807342527 6.5000000000000009 1.0000000180025095e-35 392.50000000000006 15029142.000000002 1199.5000000000002 0.87837970256805431 6930235.0000000009
decision_type=2 2 2 2 2 2 2 2 2 2 2 2 2 2 2 2 2 2 2 2 2 2 2 2 2 2 2 2 2 2 2
left_child=3 2 5 4 12 9 7 11 16 24 29 27 -1 -7 -6 28 -4 19 -10 -11 -21 -8 -16 -14 -2 -13 -15 -3 -9 -5 -26
right_child=1 6 8 10 14 13 21 15 18 17 -12 25 23 26 22 -17 -18 -19 -20 20 -22 -23 -24 -25 30 -27 -28 -29 -30 -31 -32
leaf_value=4.6746793037579941 -15.388089321742664 -11.394612263932776 -15.247886713348477 40.207414979586673 25.970636897218629 -17.886674880569196 14.549731716921308 13.637529327181708 1.9875581562780209 -7.5172888290895203 83.735919496123074 1.1486118940248633 29.640171803923142 -12.577427812099723 39.786966490025769 27.091305749847141 -1.841554102687994 0.73711647340303266 18.764253197273238 -15.196912613548941 -28.67838554350347 37.315973526473364 64.22125767917224 13.771719137519867 -37.212546217668226 16.693220292075456 0.17210524784671094 10.239702463800761 -8.5651029742203217 67.756693296270427 -24.368449853290372
leaf_weight=3974 1246 5556 6325 2107 2907 9397 1219 4838 10414 2049 1034 3251 3550 3811 3603 3852 6998 1329 2358 4271 7570 3108 953 3001 8436 2899 5401 861 794 559 2433
leaf_count=3974 1246 5556 6325 2107 2907 9397 1219 4838 10414 2049 1034 3251 3550 3811 3603 3852 6998 1329 2358 4271 7570 3108 953 3001 8436 2899 5401 861 794 559 2433
internal_value=0.0079804 -6.63915 -13.1636 30.1714 24.7488 -19.6743 11.1791 7.30892 -1.70092 -25.1998 56.534 -0.188136 15.6892 -11.5581 37.5254 17.2431 -8.20612 -19.4773 5.08492 -21.4114 -23.8157 30.9023 44.898 22.3709 -32.3885 8.47606 -5.10237 -8.49183 10.5074 45.9839 -34.3374
internal_weight=120104 98416 72038 21688 17988 45943 26378 22051 26095 27334 3700 12567 10525 18609 7463 9484 13323 15219 12772 13890 11841 4327 4556 6551 12115 6150 9212 6417 5632 2666 10869
internal_count=120104 98416 72038 21688 17988 45943 26378 22051 26095 27334 3700 12567 10525 18609 7463 9484 13323 15219 12772 13890 11841 4327 4556 6551 12115 6150 9212 6417 5632 2666 10869
is_linear=0
shrinkage=0.05


Tree=4
num_leaves=32
num_cat=0
split_feature=83 78 83 9 78 9 78 39 33 81 9 39 39 78 9 34 31 9 9 81 81 9 9 11 81 5 83 78 49 82 15
split_gain=8.71589e+09 3.76718e+09 1.6007e+09 1.38934e+09 1.14498e+09 9.21421e+08 8.97662e+08 5.18475e+08 4.61407e+08 3.78076e+08 3.15667e+08 3.0187e+08 2.9985e+08 2.72969e+08 2.56159e+08 2.48799e+08 2.3912e+08 2.1982e+08 2.13405e+08 1.76969e+08 1.73533e+08 1.71655e+08 1.71084e+08 1.61003e+08 1.45248e+08 1.44585e+08 1.38748e+08 1.37245e+08 1.31432e+08 1.31128e+08 1.26004e+08
threshold=-1.2856814861297605 2790.0178222656255 -1.6376281976699827 482.50000000000006 3443.517211914063 497.25000000000006 2924.7187500000005 1.8867594599723818 1.1004201769828799 15518140.500000002 635.50000000000011 1.1944266557693484 1.1867706775665285 2686.3142089843755 503.50000000000006 1.2284161448478701 30.500000000000004 437.50000000000006 761.50000000000011 6323317.0000000009 5944469.7500000009 446.50000000000006 716.50000000000011 5.5000000000000009 21225455.000000004 3.5000000000000004 -1.4942844510078428 3460.083374023438 5.5000000000000009 1.9537556767463686 1183.5000000000002
decision_type=2 2 2 2 2 2 2 2 2 2 2 2 2 2 2 2 2 2 2 2 2 2 2 2 2 2 2 2 2 2 2
left_child=2 3 7 11 5 15 10 13 16 12 26 20 18 -1 -8 25 -5 -6 30 -18 28 -15 -10 -9 -19 -3 -4 -16 -2 -27 -7
right_child=1 4 6 8 17 9 14 23 22 -11 -12 -13 -14 21 27 -17 19 24 -20 -21 -22 -23 -24 -25 -26 29 -28 -29 -30 -31 -32
leaf_value=22.082603761446617 -17.332295778296984 4.3201668507137141 11.464208286991713 -4.0986730986479811 9.6364497612217619 -1.9936625777689423 18.253450225787272 52.87022948147245 -7.409204279124026 26.844568933800129 18.958446201168723 -18.719603224925532 13.000615260232847 29.474369417333374 33.00441803382629 -1.7827154569028882 -23.716850366415972 26.038691590913643 9.9618555227609349 -10.693661846270921 -23.068123731560284 49.062709670790127 3.7241022032384046 84.278561402219836 56.146623058818477 -25.805662498232465 -2.9620323956252932 55.161681798848967 -37.295934492291593 -12.16846446908621 -18.753826937165464
leaf_weight=2392 924 841 2437 3409 2170 6599 2913 908 9241 2136 3965 8180 6710 1671 3587 5782 7485 4096 3509 4004 4554 3382 5507 741 444 2916 5273 868 7652 4457 1351
leaf_count=2392 924 841 2437 3409 2170 6599 2913 908 9241 2136 3965 8180 6710 1671 3587 5782 7485 4096 3509 4004 4554 3382 5507 741 444 2916 5273 868 7652 4457 1351
internal_value=0.00758142 -7.44265 24.359 -16.5212 3.83736 0.142244 16.1177 41.6164 -9.52136 6.94596 7.49377 -26.2591 4.60662 35.9978 29.7828 -9.72839 -15.7276 22.7265 -0.308618 -19.1782 -30.9563 42.585 -3.25195 66.984 28.9832 -15.3215 1.59786 37.3215 -35.145 -17.5619 -4.84184
internal_weight=120104 91967 28137 50956 41011 34301 19043 9094 29646 20305 11675 21310 18169 7445 7368 13996 14898 6710 11459 11489 13130 5053 14748 1649 4540 8214 7710 4455 8576 7373 7950
internal_count=120104 91967 28137 50956 41011 34301 19043 9094 29646 20305 11675 21310 18169 7445 7368 13996 14898 6710 11459 11489 13130 5053 14748 1649 4540 8214 7710 4455 8576 7373 7950
is_linear=0
shrinkage=0.05


Tree=5
num_leaves=32
num_cat=0
split_feature=83 78 9 83 33 78 78 9 61 39 81 81 5 9 9 11 81 9 31 5 81 9 81 78 83 17 25 78 78 39 15
split_gain=7.86109e+09 3.90409e+09 1.82238e+09 9.62173e+08 6.99046e+08 6.86277e+08 6.85094e+08 5.56457e+08 4.47708e+08 3.97742e+08 3.67754e+08 3.03697e+08 2.71741e+08 2.58158e+08 2.41781e+08 2.34136e+08 2.29544e+08 2.26882e+08 2.09873e+08 2.06014e+08 2.05631e+08 2.05173e+08 1.85188e+08 1.75024e+08 1.66592e+08 1.45161e+08 1.42324e+08 1.41012e+08 1.38796e+08 1.32882e+08 1.31625e+08
threshold=-1.4085613489150999 2999.996704101563 470.25000000000006 -1.8565564155578611 1.1563858985900881 3624.6999511718755 2809.135620117188 678.50000000000011 1.1306379437446596 1.1837799549102785 8876964.5000000019 9446527.5000000019 4.5000000000000009 479.25000000000006 719.50000000000011 5.5000000000000009 10198817.500000002 581.50000000000011 25.500000000000004 2.5000000000000004 5430874.7500000009 770.50000000000011 15029142.000000002 3411.118530273438 -1.1249713301658628 -0.91597560048103321 1.0000000180025095e-35 4281.6000976562509 2536.9265136718755 1.5612291693687441 1169.5000000000002
decision_type=2 2 2 2 2 2 2 2 2 2 2 2 2 2 2 2 2 2 2 2 2 2 2 2 2 2 2 2 2 2 2
left_child=3 2 8 15 10 7 17 9 19 22 12 21 -4 -8 25 -1 28 -5 -7 -2 -21 -6 -3 29 -9 -14 -11 -20 -10 -15 -26
right_child=1 5 4 6 11 18 13 24 16 26 -12 -13 14 23 -16 -17 -18 -19 27 20 -22 -23 -24 -25 30 -27 -28 -29 -30 -31 -32
leaf_value=44.861613584433201 -1.4001133143143067 -8.0359105379820033 8.072775850690979 6.3046994493509265 -4.7749887055833709 15.668246803569469 22.313993479843312 31.429410985226156 -23.765518177749332 4.2240681672028861 0.81309899809430708 13.674365600992093 -11.959753497346107 28.880772584538938 -8.1426082402187969 74.315017171570517 -0.43504009366035468 23.137116716102568 33.713217866667335 -34.534945576854895 -22.217004391757982 7.9899068565644704 12.896960192281893 59.275215786545722 17.978918061257442 -24.334262146049245 18.827273612624428 71.06803257028821 -13.055179872659298 46.424855203299103 -2.7950920320698556
leaf_weight=2186 707 7645 1239 4670 12853 1825 3138 1909 5570 3601 4942 3992 3417 2629 6072 976 2210 3504 2288 7646 6084 4169 1226 995 4038 7734 3109 284 6620 1831 940
leaf_count=2186 707 7645 1239 4670 12853 1825 3138 1909 5570 3601 4942 3992 3417 2629 6072 976 2210 3504 2288 7646 6084 4169 1226 995 4038 7734 3109 284 6620 1831 940
internal_value=-0.0240327 -5.73243 -11.7117 28.654 -5.35738 10.5716 23.883 7.03633 -21.4992 1.80489 -11.301 1.26226 -14.5438 33.7404 -16.1708 53.9529 -15.2612 13.5204 28.6363 -27.7213 -29.0767 -1.64863 -5.14292 40.3135 18.8718 -20.5423 10.9903 37.8379 -17.9491 36.0833 14.0561
internal_weight=120049 100120 73255 19929 44418 26865 16767 22468 28837 15581 23404 21014 18462 8593 17223 3162 14400 8174 4397 14437 13730 17022 8871 5455 6887 11151 6710 2572 12190 4460 4978
internal_count=120049 100120 73255 19929 44418 26865 16767 22468 28837 15581 23404 21014 18462 8593 17223 3162 14400 8174 4397 14437 13730 17022 8871 5455 6887 11151 6710 2572 12190 4460 4978
is_linear=0
shrinkage=0.05


Tree=6
num_leaves=32
num_cat=0
split_feature=83 78 83 9 78 78 9 83 33 15 61 17 9 15 9 81 81 11 81 9 9 15 9 75 5 33 78 81 33 81 81
split_gain=7.14181e+09 3.13659e+09 1.31699e+09 1.13969e+09 9.86269e+08 6.98226e+08 6.51334e+08 4.63822e+08 3.52778e+08 3.0498e+08 2.83566e+08 3.01037e+08 2.79356e+08 2.42352e+08 2.32857e+08 2.29788e+08 2.2212e+08 2.20761e+08 1.92236e+08 1.90808e+08 1.86742e+08 1.70268e+08 1.61138e+08 1.59347e+08 1.56619e+08 1.48342e+08 1.40244e+08 1.29271e+08 1.28597e+08 1.26806e+08 1.23935e+08
threshold=-1.2856814861297605 2790.0178222656255 -1.580598711967468 560.50000000000011 3270.416625976563 2924.7187500000005 524.50000000000011 -1.8884173631668089 0.99599999189376842 1189.5000000000002 1.3980087637901308 -0.91597560048103321 503.50000000000006 1201.5000000000002 643.50000000000011 12954272.000000002 18779293.000000004 5.5000000000000009 16074845.000000002 368.50000000000006 651.25000000000011 1205.5000000000002 785.50000000000011 1.0000000180025095e-35 2.5000000000000004 1.1878094077110293 2795.032836914063 15256251.500000002 0.99599999189376842 30036098.000000004 9606216.0000000019
decision_type=2 2 2 2 2 2 2 2 2 2 2 2 2 2 2 2 2 2 2 2 2 2 2 2 2 2 2 2 2 2 2
left_child=2 3 7 8 6 14 16 17 24 15 11 -5 -9 18 -4 23 21 -1 22 -10 -7 25 28 -6 -2 -3 -14 -13 -8 -17 -26
right_child=1 4 5 10 9 20 13 12 19 -11 -12 27 26 -15 -16 29 -18 -19 -20 -21 -22 -23 -24 -25 30 -27 -28 -29 -30 -31 -32
leaf_value=43.423009989346866 0.70771436233886431 -13.012363783880023 -0.12125061670521119 -0.7637661509875695 1.3328295310314022 19.657685853594966 -4.6685266793299496 19.063792603129588 -23.35285594498589 -1.7561583052294734 7.9396612922668215 -14.397032269852472 27.923361648134854 -10.007156667348696 15.858297216345807 28.663014061245651 17.421436933410771 73.973667888312505 26.513086447269782 -12.926945219379574 37.32637498086995 -25.205072785956521 15.327302958171613 19.291479465452639 -32.742827652316066 -1.0005521514890499 44.893260408273768 13.514675844090803 7.4503358316986921 65.236003188488596 -15.813582561355719
leaf_weight=1846 417 6932 6987 7263 1634 4172 3631 3670 7961 1979 2846 12557 2206 2165 3384 2398 733 870 1271 9779 2331 1785 3444 5061 8482 4085 2717 429 5512 263 1239
leaf_count=1846 417 6932 6987 7263 1634 4172 3631 3670 7961 1979 2846 12557 2206 2165 3384 2398 733 870 1271 9779 2331 1785 3444 5061 8482 4085 2717 429 5512 263 1239
internal_value=-0.022831 -6.77761 21.9952 -15.0528 3.53733 13.1467 -1.27124 35.198 -21.8576 16.0765 -6.83857 -8.91565 29.5052 5.55044 5.09279 19.8485 -9.34689 53.2091 7.98096 -17.6057 25.991 -10.8796 6.10964 14.9084 -29.2979 -8.5585 37.289 -13.475 2.63752 32.2777 -30.5851
internal_weight=120049 91866 28183 50973 40893 16874 29558 11309 27878 11335 23095 20249 8593 16023 10371 9356 13535 2716 13858 17740 6503 12802 12587 6695 10138 11017 4923 12986 9143 2661 9721
internal_count=120049 91866 28183 50973 40893 16874 29558 11309 27878 11335 23095 20249 8593 16023 10371 9356 13535 2716 13858 17740 6503 12802 12587 6695 10138 11017 4923 12986 9143 2661 9721
is_linear=0
shrinkage=0.05


Tree=7
num_leaves=32
num_cat=0
split_feature=83 78 9 81 9 39 78 39 83 33 81 17 5 11 39 78 9 9 31 33 9 81 78 15 9 78 81 78 78 61 78
split_gain=6.46566e+09 3.33881e+09 1.13244e+09 1.02661e+09 7.49514e+08 7.02129e+08 4.53859e+08 4.34582e+08 4.32997e+08 4.24811e+08 3.34873e+08 3.1269e+08 2.94167e+08 2.86839e+08 2.61631e+08 2.4848e+08 1.98838e+08 1.97242e+08 1.83714e+08 1.76821e+08 1.63306e+08 1.4804e+08 1.47298e+08 1.43735e+08 1.36256e+08 1.31733e+08 1.23555e+08 1.17661e+08 1.16031e+08 1.11754e+08 1.05215e+08
threshold=-1.4487434625625608 2790.0178222656255 527.50000000000011 12371209.000000002 449.50000000000006 1.8042904734611513 2948.678588867188 1.1944266557693484 -1.1408995389938352 1.2489669322967532 30036098.000000004 -0.91597560048103321 4.5000000000000009 5.5000000000000009 1.1921954154968264 3460.083374023438 470.25000000000006 598.25000000000011 27.500000000000004 0.92365968227386486 470.25000000000006 13112770.500000002 3624.6999511718755 1201.5000000000002 681.25000000000011 3205.774536132813 5902923.5000000009 3261.454711914063 3460.083374023438 1.9040548205375674 3164.3874511718755
decision_type=2 2 2 2 2 2 2 2 2 2 2 2 2 2 2 2 2 2 2 2 2 2 2 2 2 2 2 2 2 2 2
left_child=5 2 7 4 14 6 17 18 25 11 16 -4 -10 30 -3 19 -5 -1 -2 -14 -8 -9 -18 -21 -13 -6 -20 -16 -22 -11 -7
right_child=1 3 9 10 8 13 20 21 12 29 -12 24 15 -15 27 -17 22 -19 26 23 28 -23 -24 -25 -26 -27 -28 -29 -30 -31 -32
leaf_value=9.6487615537872102 -16.497237053289883 -15.017133861096561 -1.9321188415971315 7.0396532155920442 13.067680952808312 33.970645190327723 22.331750974734675 -14.508060051265332 20.810634133861615 1.7650908497021172 54.480368962969465 -20.437394401516229 -9.6468887692772274 71.865619668170837 -4.6320647354879849 16.702352247695202 18.963912562068842 25.09670999922416 -32.78129760868152 4.7945039111808248 35.235551112165034 7.8431537298997043 40.358405897301566 -12.247892408578831 -9.9388899617940965 29.179453625283699 -22.158723347075455 12.962726752069457 56.020762784689808 27.953157427572759 60.662483014098477
leaf_weight=5161 4051 7178 7291 3263 4167 1854 2005 11062 1950 8455 636 5950 4999 954 3671 2010 5049 3446 7390 7674 2965 794 957 1475 6431 1824 4348 1282 868 428 461
leaf_count=5161 4051 7178 7291 3263 4167 1854 2005 11062 1950 8455 636 5950 4999 954 3671 2010 5049 3446 7390 7674 2965 794 957 1475 6431 1824 4348 1282 868 428 461
internal_value=-0.0216895 -4.84942 -13.0322 5.11854 1.21867 27.8685 23.1329 -20.2456 6.32107 -6.04864 19.3833 -10.1467 2.46604 48.7938 -8.91757 0.252155 16.9751 15.8337 -25.678 -2.08492 33.8942 -13.0112 22.3729 2.04693 -14.9842 17.973 -28.8465 -0.0779515 39.9425 3.02688 39.286
internal_weight=120049 102335 56200 46135 36230 17714 14445 27645 24099 28555 9905 19672 18108 3269 12131 16158 9269 8607 15789 14148 5838 11856 6006 9149 12381 5991 11738 4953 3833 8883 2315
internal_count=120049 102335 56200 46135 36230 17714 14445 27645 24099 28555 9905 19672 18108 3269 12131 16158 9269 8607 15789 14148 5838 11856 6006 9149 12381 5991 11738 4953 3833 8883 2315
is_linear=0
shrinkage=0.05


Tree=8
num_leaves=32
num_cat=0
split_feature=61 78 17 39 75 78 78 75 17 11 17 78 78 75 81 75 75 81 75 78 81 78 78 5 61 75 75 39 79 15 25
split_gain=5.62964e+09 2.89485e+09 1.29676e+09 9.56488e+08 8.99292e+08 5.37425e+08 5.2158e+08 4.70046e+08 4.52812e+08 3.97572e+08 3.68681e+08 3.13372e+08 2.57884e+08 2.35779e+08 2.09093e+08 2.01384e+08 1.9021e+08 1.61323e+08 1.56143e+08 1.46747e+08 1.44319e+08 1.4212e+08 1.40398e+08 1.34473e+08 1.34101e+08 1.27243e+08 1.22358e+08 1.2106e+08 1.18299e+08 1.12212e+08 1.11871e+08
threshold=1.4921255111694338 2790.0178222656255 -0.91597560048103321 1.6247076988220217 1.5000000000000002 3205.774536132813 2799.2644042968755 2.5000000000000004 -0.91597560048103321 5.5000000000000009 -0.91597560048103321 3624.6999511718755 2812.9030761718755 1.5000000000000002 24190179.000000004 2.5000000000000004 2.5000000000000004 17861943.000000004 1.0000000180025095e-35 3411.118530273438 15029142.000000002 3799.7316894531255 3745.9333496093755 5.5000000000000009 0.98058068752288829 2.5000000000000004 1.5000000000000002 1.1944266557693484 2741.3308105468755 1072.5000000000002 1.0000000180025095e-35
decision_type=2 2 2 2 2 2 2 2 2 2 2 2 2 2 2 2 2 2 2 2 2 2 2 2 2 2 2 2 2 2 2
left_child=1 4 5 6 8 13 16 11 27 12 -6 14 26 -3 18 19 28 23 -4 -8 25 -7 30 -10 -25 -12 -5 -1 -2 -11 -9
right_child=3 2 7 9 10 21 15 22 17 29 20 -13 -14 -15 -16 -17 -18 -19 -20 -21 -22 -23 -24 24 -26 -27 -28 -29 -30 -31 -32
leaf_value=-17.43553011350593 -8.4345904846297763 0.33172941544923595 -19.03664812279025 11.275662716263236 0.58943486159344483 20.975759593802216 14.371482789181028 -0.47357034215522253 -10.381278278141112 33.716533528209048 -17.334496644751368 12.163169212415859 39.507122900597913 13.661894409992767 29.409836154865918 35.77299661674239 18.308431926373277 11.03695072110494 -8.0751393066615424 33.372397993362917 14.540123542597096 39.282722923193859 35.63998023933523 -33.017154932893547 -23.267867082679658 -7.8824919480237758 29.466119441186734 -6.8086588845001064 5.8479756937070562 65.099838150391761 14.061145067863331
leaf_weight=5257 2232 6386 4808 1862 10101 5650 5100 3071 1271 377 7320 1652 3318 6903 317 2177 2064 300 10018 1269 502 1305 425 6060 8439 6933 1836 5467 4137 1165 2327
leaf_count=5257 2232 6386 4808 1862 10101 5650 5100 3071 1271 377 7320 1652 3318 6903 317 2177 2064 300 10018 1269 502 1305 425 6060 8439 6933 1836 5467 4137 1165 2327
internal_value=-0.0206051 -5.64884 3.95707 20.8094 -13.6204 13.1497 13.9394 -4.27074 -19.9749 34.4394 -6.77039 -8.51494 29.3871 7.25611 -10.7708 22.6447 5.11748 -25.2847 -11.6299 18.1573 -11.8088 24.4108 7.97062 -25.9757 -27.3427 -12.7368 20.3069 -12.018 0.842686 57.427 5.79214
internal_weight=120049 94512 42862 25537 51650 20244 16979 22618 26794 8558 24856 16795 7016 13289 15143 8546 8433 16070 14826 6369 14755 6955 5823 15770 14499 14253 3698 10724 6369 1542 5398
internal_count=120049 94512 42862 25537 51650 20244 16979 22618 26794 8558 24856 16795 7016 13289 15143 8546 8433 16070 14826 6369 14755 6955 5823 15770 14499 14253 3698 10724 6369 1542 5398
is_linear=0
shrinkage=0.05


Tree=9
num_leaves=32
num_cat=0
split_feature=83 78 83 9 78 33 83 81 9 9 9 78 78 78 81 78 33 31 78 11 81 9 33 15 6 5 9 61 81 9 15
split_gain=5.45502e+09 1.83676e+09 1.61892e+09 1.00801e+09 8.94897e+08 4.66037e+08 4.3679e+08 4.13028e+08 3.94266e+08 3.93042e+08 3.65311e+08 2.93795e+08 2.19412e+08 2.12325e+08 2.07671e+08 2.0721e+08 2.00151e+08 1.81829e+08 1.70992e+08 1.62182e+08 1.60755e+08 1.46409e+08 1.39478e+08 1.31227e+08 1.29678e+08 1.28783e+08 1.24436e+08 1.23967e+08 1.22682e+08 1.20122e+08 1.18142e+08
threshold=-1.1537225842475889 2999.996704101563 -1.5296065807342527 669.50000000000011 3019.9091796875005 1.3933025002479555 -1.8884173631668089 17059204.000000004 392.50000000000006 591.50000000000011 368.50000000000006 2795.032836914063 2553.9665527343755 3422.258911132813 25622008.000000004 3624.6999511718755 1.3849306702613833 34.500000000000007 3590.581420898438 5.5000000000000009 12503943.500000002 643.50000000000011 1.7510683536529543 1209.5000000000002 31.250000000000004 4.5000000000000009 479.25000000000006 1.9040548205375674 6323317.0000000009 470.25000000000006 1177.5000000000002
decision_type=2 2 2 2 2 2 2 2 2 2 2 2 2 2 2 2 2 2 2 2 2 2 2 2 2 2 2 2 2 2 2
left_child=2 3 6 5 8 7 19 10 -4 14 25 26 -12 29 18 22 17 -5 23 -1 24 -13 30 -3 -10 -2 -8 -7 -19 -6 -11
right_child=1 9 4 16 13 27 11 -9 20 15 12 21 -14 -15 -16 -17 -18 28 -20 -21 -22 -23 -24 -25 -26 -27 -28 -29 -30 -31 -32
leaf_value=38.315603307985732 -8.2149631349377277 -2.6581683923925326 -9.5444932109989971 5.7735731148443428 6.8435514239905828 -5.4104508816111414 6.3337321500626187 10.147486957981023 15.961458575369356 11.549451274651506 -21.331288169643216 26.174113338181513 -11.547773086519681 34.455797524743097 35.857653403298279 30.369948120042938 12.593217248218377 -11.441009275497798 10.989811733640318 64.501103722610694 19.857363766843633 42.896296169489155 48.267642510725011 -19.699991523056909 2.0319569521976986 -28.060902316370676 22.168240624458726 17.243284418205391 -0.57126706967269414 21.703863937650169 -4.8116969892053918
leaf_weight=1846 883 7694 5404 3591 2075 4360 2133 1219 1985 5847 10168 3739 13132 2295 370 1445 2082 6650 2003 870 1896 2014 227 1324 10557 11009 2966 701 4258 3946 1360
leaf_count=1846 883 7694 5404 3591 2075 4360 2133 1219 1985 5847 10168 3739 13132 2295 370 1445 2082 6650 2003 870 1896 2014 227 1324 10557 11009 2966 701 4258 3946 1360
internal_value=-0.0195748 -7.799 14.583 -12.3235 7.7465 -16.4894 28.771 -18.4655 1.97591 5.15897 -19.4566 24.283 -15.8172 21.5151 -0.988044 13.0451 -1.90358 -3.98526 -2.22504 46.7034 6.28788 32.0282 9.67749 -5.16021 4.23655 -26.5873 15.5444 -2.27268 -7.19794 16.5826 8.46201
internal_weight=120049 78323 41726 58053 28158 41472 13568 36411 19842 20270 35192 10852 23300 8316 11391 8879 16581 14499 11021 2716 14438 5753 7434 9018 12542 11892 5099 5061 10908 6021 7207
internal_count=120049 78323 41726 58053 28158 41472 13568 36411 19842 20270 35192 10852 23300 8316 11391 8879 16581 14499 11021 2716 14438 5753 7434 9018 12542 11892 5099 5061 10908 6021 7207
is_linear=0
shrinkage=0.05


Tree=10
num_leaves=32
num_cat=0
split_feature=83 78 39 78 9 81 9 9 83 33 81 78 49 81 33 78 31 78 15 39 11 78 9 9 49 33 1 9 81 11 9
split_gain=4.95903e+09 1.66149e+09 1.4534e+09 9.30021e+08 7.04938e+08 5.52674e+08 4.33639e+08 4.2097e+08 3.73978e+08 3.62532e+08 2.70882e+08 2.39783e+08 2.24895e+08 2.17307e+08 2.09199e+08 1.94812e+08 1.92738e+08 1.86923e+08 1.70746e+08 1.44451e+08 1.39481e+08 1.39341e+08 1.28021e+08 1.27662e+08 1.26252e+08 1.281e+08 1.23428e+08 1.15435e+08 1.13487e+08 1.11004e+08 1.07461e+08
threshold=-1.1537225842475889 2809.135620117188 1.5833430886268618 3087.380249023438 416.50000000000006 12801849.000000002 633.50000000000011 449.50000000000006 -1.8565564155578611 1.3933025002479555 8414564.5000000019 2890.5883789062505 3.5000000000000004 27401476.000000004 0.92365968227386486 3443.517211914063 48.500000000000007 2557.890747070313 1177.5000000000002 1.4320493936538699 3.5000000000000004 3171.244506835938 773.50000000000011 422.50000000000006 5.5000000000000009 0.92365968227386486 9202.0000000000018 591.50000000000011 12503943.500000002 5.5000000000000009 440.50000000000006
decision_type=2 2 2 2 2 2 2 2 2 2 2 2 2 2 2 2 2 2 2 2 2 2 2 2 2 2 2 2 2 2 2
left_child=2 4 3 6 24 7 17 19 23 10 16 27 -9 -7 -14 30 -6 -1 21 -3 -19 -16 -18 -4 -2 -26 -12 -10 -8 -25 -5
right_child=1 5 8 15 9 13 28 12 11 -11 26 -13 14 -15 18 -17 22 20 -20 -21 -22 -23 -24 29 25 -27 -28 -29 -30 -31 -32
leaf_value=-8.8926964287990788 -7.2317552576615256 -12.564058398012611 29.73676645779932 7.0910690431236789 -7.2599969034532066 11.327302263457556 10.507191448738855 20.427195804993715 10.781537031684547 4.6340058593610358 -3.0325810872708217 36.012679792767742 -6.9918176748256844 41.76759241969981 3.3560047478641146 34.160961633604607 -19.790352681782366 -2.6075371595200059 -8.035824619116779 11.323509324485796 9.0554822051079 16.810175170305406 -8.4173333164847133 45.853504727702116 -31.179011057960071 -20.752981756785232 35.055505408897055 27.218613128480957 26.870250855818991 72.541821004809663 22.394304968644391
leaf_weight=5242 1170 8467 703 1641 7050 5448 6958 1577 2554 3961 5080 2991 5787 657 5652 2725 11431 5635 2079 684 4703 2918 3158 1136 4518 8468 222 1836 1250 593 3812
leaf_count=5242 1170 8467 703 1641 7050 5448 6958 1577 2554 3961 5080 2991 5787 657 5652 2725 11431 5635 2079 684 4703 2918 3158 1136 4518 8468 222 1836 1250 593 3812
internal_value=-0.0452412 -7.46533 13.8659 8.69887 -13.7228 1.00946 3.69833 -2.04568 30.6976 -9.48988 -11.5664 25.0946 2.39082 14.6032 0.660264 23.2443 -14.0482 -1.20161 4.81864 -10.7786 2.69825 7.93702 -17.3285 47.7022 -22.963 -24.3803 -1.4378 17.6559 12.9991 55.0069 17.789
internal_weight=120106 78327 41779 31966 45058 33269 23788 27164 9813 30902 26941 7381 18013 6105 16436 8178 21639 15580 10649 9151 10338 8570 14589 2432 14156 12986 5302 4390 8208 1729 5453
internal_count=120106 78327 41779 31966 45058 33269 23788 27164 9813 30902 26941 7381 18013 6105 16436 8178 21639 15580 10649 9151 10338 8570 14589 2432 14156 12986 5302 4390 8208 1729 5453
is_linear=0
shrinkage=0.05


Tree=11
num_leaves=32
num_cat=0
split_feature=83 78 75 39 78 78 81 39 5 33 11 11 25 75 78 31 75 79 39 81 78 1 81 25 39 75 61 19 39 15 15
split_gain=4.48802e+09 1.9882e+09 1.03903e+09 8.84038e+08 5.69124e+08 3.8781e+08 3.73044e+08 3.12571e+08 2.96115e+08 3.23685e+08 2.32153e+08 2.29267e+08 2.27059e+08 1.99844e+08 1.61466e+08 1.55547e+08 1.51192e+08 1.47525e+08 1.59358e+08 1.42728e+08 1.36501e+08 1.35315e+08 1.31458e+08 1.28242e+08 1.22571e+08 1.18779e+08 1.18521e+08 1.11072e+08 1.07854e+08 1.06592e+08 1.01668e+08
threshold=-1.2915432453155515 3126.284301757813 1.5000000000000002 1.6914602518081667 2761.1101074218755 2553.9665527343755 11279394.000000002 1.1483503580093386 4.5000000000000009 0.92912945151329052 3.5000000000000004 5.5000000000000009 1.0000000180025095e-35 1.0000000180025095e-35 3087.380249023438 24.500000000000004 1.0000000180025095e-35 2741.3308105468755 1.2295705676078799 9764303.0000000019 3422.258911132813 9202.0000000000018 24190179.000000004 1.0000000180025095e-35 1.1944266557693484 1.0000000180025095e-35 0.98058068752288829 0.87837970256805431 1.2628936171531679 1189.5000000000002 1161.5000000000002
decision_type=2 2 2 2 2 2 2 2 2 2 2 2 2 2 2 2 2 2 2 2 2 2 2 2 2 2 2 2 2 2 2
left_child=3 2 5 4 16 15 8 13 -4 -10 25 14 24 -3 27 -2 -1 -11 29 -15 -12 -8 28 -9 -7 -6 -17 -5 -14 -19 -27
right_child=1 7 6 11 10 12 21 23 9 17 20 -13 22 19 -16 26 -18 18 -20 -21 -22 -23 -24 -25 -26 30 -28 -29 -30 -31 -32
leaf_value=-6.5393202094085616 -10.866521786416801 -9.2394271682270706 15.471070213949268 20.335595748383213 -0.51113815104004368 -18.70858120933017 7.7101775449202128 11.428344476927455 -13.916564657854824 -8.0440295055689202 23.291532579912179 53.638097121523884 -8.8144181743259349 2.0321492916353803 46.153598432982612 -30.144996609161069 7.6585720294999931 -0.66109993776250453 8.7851057666727055 16.077044832642837 42.452779455468367 39.532576848595426 24.821386250104322 24.379850995975307 -8.4564300233971288 20.37824998726115 -19.770746493677382 44.596460302620599 3.7628404555963848 -15.106715872478112 1.154013367895514
leaf_weight=2557 3178 2217 1703 2885 1297 8000 4476 4111 8980 7839 5393 1275 7677 4359 1120 4157 7031 7774 4113 3092 1123 361 358 3572 4587 3585 8152 564 2191 1528 851
leaf_count=2557 3178 2217 1703 2885 1297 8000 4476 4111 8980 7839 5393 1275 7677 4359 1120 4157 7031 7774 4113 3092 1123 361 358 3572 4587 3585 8152 564 2191 1528 851
internal_value=-0.0429791 -5.33244 -8.85795 17.6182 12.9957 -14.6218 -2.85495 9.92169 -4.81479 -5.95744 20.1372 34.8907 -10.4763 3.93924 29.6591 -20.7282 3.87217 -2.59464 0.58969 7.86047 26.5939 10.0852 -4.94209 17.4498 -14.9725 12.7987 -23.2743 24.3029 -6.02188 -3.03402 16.6903
internal_weight=120106 92425 75074 27681 21837 38300 36774 17351 31937 30234 12249 5844 22813 9668 4569 15487 9588 21254 13415 7451 6516 4837 10226 7683 12587 5733 12309 3449 9868 9302 4436
internal_count=120106 92425 75074 27681 21837 38300 36774 17351 31937 30234 12249 5844 22813 9668 4569 15487 9588 21254 13415 7451 6516 4837 10226 7683 12587 5733 12309 3449 9868 9302 4436
is_linear=0
shrinkage=0.05


Tree=12
num_leaves=32
num_cat=0
split_feature=83 78 83 78 75 75 78 75 39 61 33 78 25 31 78 78 81 75 81 5 31 5 78 39 75 6 75 33 78 33 81
split_gain=4.09577e+09 1.39401e+09 1.23658e+09 6.64283e+08 5.93369e+08 4.77509e+08 3.76851e+08 3.72038e+08 3.68748e+08 2.95066e+08 2.94714e+08 2.7457e+08 2.53103e+08 2.04481e+08 1.88486e+08 1.81448e+08 1.70081e+08 1.44752e+08 1.44376e+08 1.38574e+08 1.36113e+08 1.22962e+08 1.15719e+08 1.13703e+08 1.07538e+08 1.06827e+08 1.02644e+08 1.02245e+08 9.71538e+07 9.51164e+07 9.32312e+07
threshold=-1.1537225842475889 2718.8583984375005 -1.5296065807342527 3205.774536132813 2.5000000000000004 1.0000000180025095e-35 3520.242065429688 1.0000000180025095e-35 1.9212964773178103 1.6061798930168154 1.3933025002479555 2761.1101074218755 1.0000000180025095e-35 19.500000000000004 3443.517211914063 2634.690551757813 5744831.7500000009 2.5000000000000004 30036098.000000004 4.5000000000000009 25.500000000000004 7.5000000000000009 4070.369506835938 1.5344290733337405 1.0000000180025095e-35 31.250000000000004 1.0000000180025095e-35 0.92365968227386486 3745.9333496093755 1.3321078419685366 17861943.000000004
decision_type=2 2 2 2 2 2 2 2 2 2 2 2 2 2 2 2 2 2 2 2 2 2 2 2 2 2 2 2 2 2 2
left_child=2 5 8 7 6 29 9 -4 11 12 13 24 19 -7 21 -9 -15 23 26 -3 -8 -6 -22 -13 -1 -17 -14 -21 -5 -2 -23
right_child=1 4 3 28 14 10 20 15 -10 -11 -12 17 18 16 -16 25 -18 -19 -20 27 22 30 -24 -25 -26 -27 -28 -29 -30 -31 -32
leaf_value=1.5768601838644449 -24.861118546036391 3.8361816617785744 -7.7119113794478116 19.93396785534075 22.198647470983762 -0.84650852338356131 -0.65594134078210475 0.25200206338928682 49.598330327074457 17.475901441293498 3.0184916800019095 16.032359143447657 -9.7390310032040226 -17.560448933375003 26.700339996569639 21.171169679645018 -8.2311324683638674 40.743192692913873 37.563230217299584 -19.271148202669998 15.323793142744869 3.530254862186422 50.517873331851789 30.936074628262265 17.85688208845729 8.4052896791145297 0.88522254363354858 -9.8635782127292462 37.858997304464459 -11.503558229225897 25.362194416979115
leaf_weight=1386 8725 1317 5923 3983 1196 3400 1317 6575 1370 1283 3652 2277 3247 13057 1447 2015 7806 1835 232 4482 1773 7323 269 2922 3783 8777 7582 8122 933 1573 524
leaf_count=1386 8725 1317 5923 3983 1196 3400 1317 6575 1370 1283 3652 2277 3247 13057 1447 2015 7806 1835 232 4482 1773 7323 269 2922 3783 8777 7582 8122 933 1573 524
internal_value=-0.0408302 -6.78423 12.6016 6.63447 -0.273877 -13.6185 -3.89256 3.10916 25.002 -5.9093 -10.2237 22.2407 -7.11029 -12.2168 9.94536 6.79968 -14.0698 28.67 -1.46426 -11.5964 11.8769 7.26434 19.96 24.4087 13.4916 10.7888 -2.30039 -13.2089 23.3359 -22.8208 4.98813
internal_weight=120106 78327 41779 28206 40114 38213 29624 23290 13573 26265 27915 12203 24982 24263 10490 17367 20863 7034 11061 13921 3359 9043 2042 5199 5169 10792 10829 12604 4916 10298 7847
internal_count=120106 78327 41779 28206 40114 38213 29624 23290 13573 26265 27915 12203 24982 24263 10490 17367 20863 7034 11061 13921 3359 9043 2042 5199 5169 10792 10829 12604 4916 10298 7847
is_linear=0
shrinkage=0.05


Tree=13
num_leaves=32
num_cat=0
split_feature=83 78 39 75 78 5 81 83 75 39 15 78 75 75 81 78 31 5 39 78 6 15 81 78 78 33 78 75 11 78 78
split_gain=3.69653e+09 1.26851e+09 1.14811e+09 6.9842e+08 6.78686e+08 3.83861e+08 3.83985e+08 3.53524e+08 3.36102e+08 3.26107e+08 2.75722e+08 2.51284e+08 2.24083e+08 2.11763e+08 1.75528e+08 1.64027e+08 1.64148e+08 1.54986e+08 1.40143e+08 1.39089e+08 1.29704e+08 1.2742e+08 1.23818e+08 1.2068e+08 1.15228e+08 1.0991e+08 1.05856e+08 9.93547e+07 9.48558e+07 9.0328e+07 8.7455e+07
threshold=-1.1408995389938352 3040.1367187500005 1.540729880332947 2.5000000000000004 3087.380249023438 4.5000000000000009 15518140.500000002 -1.8565564155578611 2.5000000000000004 1.2295705676078799 1179.5000000000002 2665.720825195313 2.5000000000000004 1.0000000180025095e-35 9446527.5000000019 3858.5549316406255 25.500000000000004 6.5000000000000009 1.0462610125541689 3443.517211914063 36.500000000000007 1195.5000000000002 11858390.500000002 3302.9545898437505 2553.9665527343755 1.3615739345550539 2500.773559570313 1.0000000180025095e-35 5.5000000000000009 3443.517211914063 2553.9665527343755
decision_type=2 2 2 2 2 2 2 2 2 2 2 2 2 2 2 2 2 2 2 2 2 2 2 2 2 2 2 2 2 2 2
left_child=2 3 4 5 8 -2 9 27 14 13 12 -9 15 -7 20 18 -17 -5 -3 -6 -1 24 25 -13 -15 -19 -11 -4 -29 -14 -22
right_child=1 10 7 17 19 6 -8 11 -10 26 -12 23 29 21 -16 16 -18 22 -20 -21 30 -23 -24 -25 -26 -27 -28 28 -30 -31 -32
leaf_value=2.5720404894040616 4.0523738973486507 -4.0052326144381309 24.059978971574498 16.379803270649472 14.610591589109731 -23.810849427961479 7.4700303634974823 9.2558608933844848 12.943185593974054 -13.864990821996418 -7.7313400285812683 23.260525272695286 13.323877885426853 -18.050869312377625 7.2056846559549275 -0.64987858578193292 37.186776249820781 -5.6677297878945341 8.1470115531098717 28.636727664942271 -14.571579858003989 -24.783251849656242 11.881262778121137 41.793832804276605 -9.7652505017847684 8.6829800856585937 -3.3195537569170406 39.151344402919875 62.542833345450106 29.901990329641286 -3.8698196995874028
leaf_weight=4567 3032 4766 614 1251 5256 10308 1921 3229 5644 3969 3428 4968 2847 7401 4642 484 703 10028 4724 2663 3095 2844 1421 1067 9690 1539 5943 1266 659 1155 4982
leaf_count=4567 3032 4766 614 1251 5256 10308 1921 3229 5644 3969 3428 4968 2847 7401 4642 484 703 10028 4724 2663 3095 2844 1421 1067 9690 1539 5943 1266 659 1155 4982
internal_value=-0.0387887 -6.54806 11.7817 -10.0825 6.70754 -13.13 -14.3681 25.0439 2.34924 -15.4129 5.03629 20.5138 8.01793 -17.9924 -1.10975 4.23577 21.7589 -0.428294 2.044 19.3273 -4.1626 -14.9839 -2.04724 26.5373 -13.3532 -3.75835 -7.5422 41.5731 47.1591 18.1084 -7.97059
internal_weight=120106 77454 42652 59347 30849 45108 42076 11803 22930 40155 18107 9264 14679 30243 17286 10677 1187 14239 9490 7919 12644 19935 12988 6035 17091 11567 9912 2539 1925 4002 8077
internal_count=120106 77454 42652 59347 30849 45108 42076 11803 22930 40155 18107 9264 14679 30243 17286 10677 1187 14239 9490 7919 12644 19935 12988 6035 17091 11567 9912 2539 1925 4002 8077
is_linear=0
shrinkage=0.05


Tree=14
num_leaves=32
num_cat=0
split_feature=33 78 14 39 9 78 78 25 39 9 9 9 11 2 9 9 9 31 9 19 78 1 15 39 9 39 9 79 78 33 1
split_gain=3.29491e+09 1.64322e+09 6.28749e+08 5.88731e+08 5.29911e+08 3.89797e+08 3.13338e+08 3.09341e+08 2.31049e+08 1.96023e+08 1.9538e+08 1.93685e+08 1.90929e+08 1.60339e+08 1.5183e+08 1.47323e+08 1.3534e+08 1.33298e+08 1.27075e+08 1.25129e+08 1.21876e+08 1.14621e+08 1.12767e+08 1.12691e+08 1.12647e+08 1.12549e+08 1.0575e+08 1.04201e+08 1.03372e+08 1.01753e+08 9.73033e+07
threshold=1.4866060614585879 2769.518676757813 1.0000000180025095e-35 1.6914602518081667 595.50000000000011 2761.1101074218755 3205.774536132813 1.0000000180025095e-35 1.1944266557693484 651.25000000000011 354.50000000000006 713.50000000000011 5.5000000000000009 4.5000000000000009 619.50000000000011 437.50000000000006 371.50000000000006 27.500000000000004 837.50000000000011 0.87837970256805431 3460.083374023438 5010.5000000000009 1050.5000000000002 1.3644480705261233 312.50000000000006 1.1921954154968264 563.50000000000011 2741.3308105468755 2674.3012695312505 1.8341924548149111 4190.5000000000009
decision_type=2 2 2 2 2 2 2 2 2 2 2 2 2 2 2 2 2 2 2 2 2 2 2 2 2 2 2 2 2 2 2
left_child=1 4 7 5 8 16 9 14 17 22 -5 21 19 18 -3 -9 -2 -1 25 28 -17 29 -4 26 -19 -6 -8 -18 -12 -7 -10
right_child=3 2 6 10 13 11 23 15 30 -11 12 -13 -14 -15 -16 20 27 24 -20 -21 -22 -23 -24 -25 -26 -27 -28 -29 -30 -31 -32
leaf_value=-10.79671216700163 -7.0706628040447175 -10.913235407751076 -7.7185238481365648 11.923388633222558 -11.794881563506351 8.962265725566418 9.090403793737833 -4.6986028515642388 -11.067132014242365 13.57551404021782 13.288987059464461 30.331271054446333 52.622675256291409 8.8988523798315207 -0.52117741737021961 5.3096650813973794 -0.2935004778562173 -28.090084179455552 2.2875404778385198 48.856082975348961 23.63611362499794 30.188118564901199 4.6652367649860924 36.459538476393583 -17.973428914849581 -2.4874391881513418 22.972500901154586 12.269050874573296 31.27482644128375 24.203079804454731 2.7763595779571615
leaf_weight=4427 2163 9543 2802 1349 8072 5556 2698 3363 10547 4326 1257 2449 1024 2086 5564 6401 2743 3804 3812 636 1057 986 5345 780 9946 5435 2791 4145 2192 1364 1443
leaf_count=4427 2163 9543 2802 1349 8072 5556 2698 3363 10547 4326 1257 2449 1024 2086 5564 6401 2743 3804 3812 636 1057 986 5345 780 9946 5435 2791 4145 2192 1364 1443
internal_value=-0.0368492 -4.37531 2.57983 15.7714 -10.6427 11.4197 9.55697 -2.46358 -14.7888 4.97363 28.8482 18.0448 33.317 -4.19708 -7.08578 3.98939 3.84005 -18.3427 -5.77443 28.4776 7.90702 14.2389 0.406086 18.6761 -20.7722 -8.04972 16.1491 7.26628 24.7198 11.9664 -9.40106
internal_weight=120106 94242 44670 25864 49572 19406 18742 25928 30167 12473 6458 10355 5109 19405 15107 10821 9051 18177 17319 4085 7458 7906 8147 6269 13750 13507 5489 6888 3449 6920 11990
internal_count=120106 94242 44670 25864 49572 19406 18742 25928 30167 12473 6458 10355 5109 19405 15107 10821 9051 18177 17319 4085 7458 7906 8147 6269 13750 13507 5489 6888 3449 6920 11990
is_linear=0
shrinkage=0.05


Tree=15
num_leaves=32
num_cat=0
split_feature=39 81 9 81 78 78 78 17 9 33 33 78 81 39 76 33 78 34 9 78 34 36 31 17 52 68 9 9 36 31 33
split_gain=3.03378e+09 1.76654e+09 8.38999e+08 5.85868e+08 5.04312e+08 4.82361e+08 3.60855e+08 3.21666e+08 2.13811e+08 2.12783e+08 2.01892e+08 2.00837e+08 1.85185e+08 1.76442e+08 1.51406e+08 1.46065e+08 1.44486e+08 1.2864e+08 1.27351e+08 1.24304e+08 1.1698e+08 1.09155e+08 1.01954e+08 1.01595e+08 9.48612e+07 9.2804e+07 8.96906e+07 8.62909e+07 8.58479e+07 8.25832e+07 8.10552e+07
threshold=1.4815385937690737 8477713.5000000019 422.50000000000006 19334439.000000004 2615.1513671875005 2799.2644042968755 3156.4096679687505 -0.91597560048103321 699.50000000000011 1.9447496533393862 1.3321078419685366 2607.051147460938 30036098.000000004 1.8042904734611513 1.5000000000000002 0.99599999189376842 3799.7316894531255 1.3756188154220583 575.25000000000011 3460.083374023438 1.1821789145469668 15.750000000000002 21.500000000000004 -0.98296290636062611 17.500000000000004 0.51443001627922069 589.50000000000011 773.50000000000011 20.849999427795414 27.500000000000004 0.92912945151329052
decision_type=2 2 2 2 2 2 2 2 2 2 2 2 2 2 2 2 2 2 2 2 2 2 2 2 2 2 2 2 2 2 2
left_child=1 2 11 6 15 9 8 14 17 18 21 29 -5 19 -6 -4 20 -3 -2 24 -8 -9 -17 -13 -7 30 -26 -24 -12 -1 -25
right_child=5 3 4 12 7 13 16 10 -10 -11 28 23 -14 -15 -16 22 -18 -19 -20 -21 -22 -23 27 25 26 -27 -28 -29 -30 -31 -32
leaf_value=-13.063157112994705 2.4927969669620769 -6.4714144918044711 -16.234102649239002 18.618503952724563 13.350021311707602 36.433023692412696 1.6750966555738946 -0.053528272479053556 8.7532387428664613 28.645548308667685 16.074822875670698 -0.5915935830567397 45.19773597140027 39.482932158824561 1.5917672740543267 5.0580916199664721 26.889064001588487 3.9858523174373368 14.57086815757104 38.812573243496246 15.379932080606345 -9.837008928888558 -11.087558027165725 -22.29707830040276 11.895674770600273 -1.1594025559314127 24.811283116218505 -0.30863512270136745 -0.031949785478187331 -23.702786075654789 -12.118256003351254
leaf_weight=2396 5032 9578 6833 3450 4864 772 2738 4062 5059 1409 1421 1785 809 1999 6263 1504 1465 4244 3854 1027 3610 9563 8790 2847 2990 1329 2442 2354 1980 7637 6248
leaf_count=2396 5032 9578 6833 3450 4864 772 2738 4062 5059 1409 1421 1785 809 1999 6263 1504 1465 4244 3854 1027 3610 9563 8790 2847 2990 1329 2442 2354 1980 7637 6248
internal_value=-0.00477625 -3.49807 -7.90288 6.44573 -4.15905 18.0349 3.69805 0.120558 -0.0415558 10.5936 -4.20003 -15.9207 23.6672 26.3348 6.73171 -10.3437 12.7352 -3.26054 7.73125 22.7 9.4688 -6.92028 -7.16151 -11.6137 20.0328 -13.5011 17.702 -8.81067 6.69775 -21.1619 -15.3045
internal_weight=120354 100829 69876 30953 47634 19525 26694 28153 18881 10295 17026 22242 4259 9230 11127 19481 7813 13822 8886 7231 6348 13625 12648 12209 6204 10424 5432 11144 3401 10033 9095
internal_count=120354 100829 69876 30953 47634 19525 26694 28153 18881 10295 17026 22242 4259 9230 11127 19481 7813 13822 8886 7231 6348 13625 12648 12209 6204 10424 5432 11144 3401 10033 9095
is_linear=0
shrinkage=0.05


Tree=16
num_leaves=32
num_cat=0
split_feature=83 81 83 9 5 81 9 81 75 9 34 5 80 81 9 39 33 9 81 39 9 80 39 9 5 5 58 11 79 81 11
split_gain=2.89832e+09 9.46082e+08 8.89987e+08 6.78371e+08 4.58919e+08 4.32178e+08 3.25482e+08 3.0722e+08 2.72441e+08 2.61781e+08 2.46216e+08 2.07133e+08 1.84943e+08 1.63975e+08 1.47417e+08 1.40113e+08 1.32237e+08 1.24829e+08 1.07593e+08 1.0715e+08 1.01409e+08 8.67037e+07 8.62959e+07 8.54179e+07 8.42928e+07 7.99933e+07 8.71741e+07 7.83247e+07 7.61491e+07 7.59279e+07 7.57151e+07
threshold=-1.1408995389938352 11509164.000000002 -1.5588346123695371 666.25000000000011 4.5000000000000009 10198817.500000002 312.50000000000006 25622008.000000004 1.0000000180025095e-35 598.25000000000011 1.3811978101730349 3.5000000000000004 2812.8488769531255 4956476.2500000009 788.50000000000011 1.9212964773178103 1.3615739345550539 638.50000000000011 10860066.000000002 1.0312484502792361 892.50000000000011 2812.8488769531255 1.9212964773178103 758.50000000000011 6.5000000000000009 17.250000000000004 0.86640420556068432 1.5000000000000002 2786.665649414063 7767438.7500000009 3.5000000000000004
decision_type=2 2 2 2 2 2 2 2 2 2 2 2 2 2 2 2 2 2 2 2 2 2 2 2 2 2 2 2 2 2 2
left_child=2 3 9 4 19 8 -6 14 -4 18 13 -5 23 25 24 27 20 -7 22 -2 -13 -15 -1 -10 -3 26 -8 -11 -18 -29 -14
right_child=1 7 5 11 6 17 10 -9 12 15 -12 16 30 21 -16 -17 28 -19 -20 -21 -22 -23 -24 -25 -26 -27 -28 29 -30 -31 -32
leaf_value=9.8488801899692859 -1.4716926369855665 16.948588957881981 -7.5673004075138408 20.851939462813672 -20.721067806816226 10.790245747082452 -18.945859009446192 33.009798385101696 -0.92730880006063876 14.161678615745855 -1.0050223703857899 -5.0510518425621429 7.2888845991827296 -11.638176880833198 18.857239531245849 54.34228338701601 1.1730368529797761 23.250773595030477 25.698147603216672 15.463457337234843 5.2290315980472561 -3.3449327122934109 30.341045638297995 9.3640109499956843 0.68092558655627633 -18.603316446792814 -4.1047301839257289 23.277231926617386 18.74458049213359 37.849567848654935 19.270650571452943
leaf_weight=4754 2446 887 5480 1104 9960 5646 1694 1075 8197 866 5749 12862 2763 8097 1601 553 1336 3121 1986 1511 2949 5160 576 2674 7788 9889 2379 1705 1145 1879 2522
leaf_count=4754 2446 887 5480 1104 9960 5646 1694 1075 8197 866 5749 12862 2763 8097 1601 553 1336 3121 1986 1511 2949 5160 576 2674 7788 9889 2379 1705 1145 1879 2522
internal_value=-0.00453743 -5.7605 10.4549 -8.04472 -11.2982 5.86115 -12.8001 7.57752 2.06643 21.7921 -10.4071 -0.180241 5.33412 -12.3929 4.91698 30.6061 -1.44962 15.2261 15.7647 4.99508 -3.13365 -8.41021 12.0634 1.6041 2.34426 -16.1744 -10.2773 27.6564 9.28244 30.9171 13.0066
internal_weight=120354 77632 42722 66281 46885 30403 42928 11351 21636 12319 32968 19396 16156 27219 10276 5003 18292 8767 7316 3957 15811 13257 5330 10871 8675 13962 4073 4450 2481 3584 5285
internal_count=120354 77632 42722 66281 46885 30403 42928 11351 21636 12319 32968 19396 16156 27219 10276 5003 18292 8767 7316 3957 15811 13257 5330 10871 8675 13962 4073 4450 2481 3584 5285
is_linear=0
shrinkage=0.05


Tree=17
num_leaves=32
num_cat=0
split_feature=83 78 83 9 78 5 81 9 83 34 15 78 81 68 0 9 9 9 9 81 78 15 31 61 15 78 29 80 31 11 49
split_gain=2.61573e+09 9.73375e+08 8.07516e+08 5.74805e+08 4.77814e+08 3.19286e+08 2.89565e+08 2.74461e+08 2.25995e+08 2.17743e+08 1.95913e+08 1.77438e+08 1.59668e+08 1.54616e+08 1.44185e+08 1.43202e+08 1.42826e+08 1.35812e+08 1.25062e+08 1.15374e+08 1.05913e+08 9.85652e+07 9.47984e+07 8.89529e+07 8.82793e+07 8.72356e+07 8.3111e+07 8.06722e+07 7.64935e+07 7.54541e+07 7.4448e+07
threshold=-1.1408995389938352 3143.651245117188 -1.4942844510078428 672.25000000000011 2769.518676757813 4.5000000000000009 7328176.5000000009 464.50000000000006 -1.8565564155578611 1.2834576964378359 1179.5000000000002 3261.454711914063 25622008.000000004 0.38699834048748022 7.5000000000000009 280.50000000000006 380.50000000000006 392.50000000000006 470.25000000000006 9226851.0000000019 3799.7316894531255 1167.5000000000002 62.500000000000007 1.4291980266571047 1205.5000000000002 2615.1513671875005 267.69923400878912 2812.8488769531255 25.500000000000004 5.5000000000000009 3.5000000000000004
decision_type=2 2 2 2 2 2 2 2 2 2 2 2 2 2 2 2 2 2 2 2 2 2 2 2 2 2 2 2 2 2 2
left_child=2 3 7 5 17 -2 9 26 29 15 12 18 16 21 24 -7 -3 -4 -6 27 23 25 -17 30 -8 -5 -1 -10 -22 -9 -18
right_child=1 10 4 13 11 6 14 8 19 -11 -12 -13 -14 -15 -16 22 20 -19 -20 -21 28 -23 -24 -25 -26 -27 -28 -29 -30 -31 -32
leaf_value=6.2689607302681862 4.0312962106737773 -2.2200710097066061 -10.020628131599274 -5.9535345488016382 0.28967159810763909 -25.584797607807335 -6.0127986821114554 32.696668131463902 11.153310173726233 -7.5599535409846244 -5.7668392082787401 20.260598719206001 38.609644233130155 8.1359146704590639 9.0325832658113487 -11.452764350765825 22.822238368511023 1.170495837144754 11.87319842126314 27.965979730394658 9.5782215670809077 -12.837353932555473 -18.669429321763115 25.438922530268083 -19.693295798826838 2.6208175547788342 19.370105393127272 25.361319471494792 34.880102745653929 53.756854245810487 5.1717400719911524
leaf_weight=3907 3267 2462 3795 5367 3636 4232 9517 1389 3310 7706 2565 3904 454 4015 1459 8359 671 9491 6488 3004 493 2151 9988 742 1346 6632 1754 1431 758 613 5448
leaf_count=3907 3267 2462 3795 5367 3636 4232 9517 1389 3310 7706 2565 3904 454 4015 1459 8359 671 9491 6488 3004 493 2151 9988 742 1346 6632 1754 1431 758 613 5448
internal_value=-0.00431055 -5.47248 9.93214 -8.05192 4.76916 -11.0328 -12.1879 19.0846 24.1703 -14.8171 6.67971 11.205 9.57465 -0.524019 -5.72573 -17.2939 8.32801 -2.02613 7.71301 20.2995 11.5294 -2.98124 -15.3815 9.08979 -7.70791 -1.21438 10.3282 15.4418 24.909 39.1452 7.10727
internal_weight=120354 77632 42722 64039 27314 45874 42607 15408 9747 30285 13593 14028 11028 18165 12322 22579 10574 13286 10124 7745 8112 14150 18347 6861 10863 11999 5661 4741 1251 2002 6119
internal_count=120354 77632 42722 64039 27314 45874 42607 15408 9747 30285 13593 14028 11028 18165 12322 22579 10574 13286 10124 7745 8112 14150 18347 6861 10863 11999 5661 4741 1251 2002 6119
is_linear=0
shrinkage=0.05


Tree=18
num_leaves=32
num_cat=0
split_feature=39 78 17 78 9 9 78 17 9 15 33 17 78 39 33 78 9 9 5 81 9 52 31 78 5 32 37 9 9 31 31
split_gain=2.3863e+09 1.33949e+09 5.99993e+08 4.42334e+08 4.05194e+08 2.90219e+08 2.5578e+08 2.18891e+08 2.11698e+08 1.93939e+08 1.8172e+08 1.63528e+08 1.58747e+08 1.58685e+08 1.32135e+08 1.31356e+08 1.19384e+08 1.15299e+08 1.07402e+08 9.99119e+07 9.92306e+07 9.86863e+07 9.52815e+07 8.87992e+07 8.82166e+07 8.2403e+07 9.09948e+07 7.48541e+07 7.26181e+07 7.23167e+07 7.14167e+07
threshold=1.4554911851882937 2769.518676757813 -0.91597560048103321 2799.2644042968755 455.50000000000006 725.50000000000011 3460.083374023438 -0.91597560048103321 470.25000000000006 760.50000000000011 1.9618298411369326 -0.91597560048103321 3590.581420898438 1.8042904734611513 1.3277274966239931 3422.258911132813 530.50000000000011 912.50000000000011 36.500000000000007 27401476.000000004 284.50000000000006 17.500000000000004 24.500000000000004 3745.9333496093755 36.500000000000007 0.93360882997512828 18.150000572204593 824.50000000000011 648.50000000000011 24.500000000000004 92.500000000000014
decision_type=2 2 2 2 2 2 2 2 2 2 2 2 2 2 2 2 2 2 2 2 2 2 2 2 2 2 2 2 2 2 2
left_child=1 4 6 10 11 9 8 18 -3 19 16 -1 20 15 22 21 -2 24 -6 -4 -11 -5 -9 -7 -10 -22 -27 -24 -23 -13 -14
right_child=3 2 5 13 7 23 -8 14 17 12 -12 29 30 -15 -16 -17 -18 -19 -20 -21 25 28 27 -25 -26 26 -28 -29 -30 -31 -32
leaf_value=-8.8740926676366207 0.48384872523965811 -0.72625414895093288 1.4349806117299626 32.485573400636007 6.3801220547190489 5.7641436696752759 21.362102508128181 -2.1851506928062348 14.033910479538045 -20.605263579641647 25.713152327627849 -11.032392499911102 -1.2796683470655701 35.164132240815661 -0.43797679669470874 33.945990969657359 11.291595909271791 25.824650542894133 -3.5234934257959822 48.922707800316601 -13.146193530418214 10.503878922727292 -14.251170047633179 30.755469443259905 4.9744985017445087 5.4713884792055856 -8.4932962403053764 -3.7559867054076039 22.019035575478156 -20.405734692706687 21.559729850889937
leaf_weight=7526 5006 6619 5595 868 4070 5299 3404 2642 4698 2003 1320 2653 963 1999 3806 1316 5219 1101 8362 113 4945 3984 10860 381 6278 1674 3848 2014 2086 9171 531
leaf_count=7526 5006 6619 5595 868 4070 5299 3404 2642 4698 2003 1320 2653 963 1999 3806 1316 5219 1101 8362 113 4945 3984 10860 381 6278 1674 3848 2014 2086 9171 531
internal_value=-0.00409503 -3.31517 2.73403 14.9664 -8.93208 -2.51532 8.75582 -5.4566 6.46058 -5.38992 8.25417 -14.6355 -8.56398 22.5244 -8.78648 19.4632 6.00029 10.3994 -0.281238 2.37508 -10.4093 16.7161 -10.8343 7.4405 8.85215 -8.45811 -4.25989 -12.6093 14.4611 -18.3026 6.83795
internal_weight=120354 98556 47452 21798 51104 25352 22100 31754 18696 19672 11545 19350 13964 10253 19322 8254 10225 12077 12432 5708 12470 6938 15516 5680 10976 10467 5522 12874 6070 11824 1494
internal_count=120354 98556 47452 21798 51104 25352 22100 31754 18696 19672 11545 19350 13964 10253 19322 8254 10225 12077 12432 5708 12470 6938 15516 5680 10976 10467 5522 12874 6070 11824 1494
is_linear=0
shrinkage=0.05


Tree=19
num_leaves=32
num_cat=0
split_feature=83 78 9 81 39 81 39 15 49 80 17 79 6 39 12 1 15 36 9 81 9 33 9 49 32 19 78 9 46 49 61
split_gain=2.19428e+09 1.11737e+09 6.13033e+08 3.80451e+08 3.77771e+08 3.21087e+08 3.17569e+08 2.2794e+08 2.16843e+08 2.13368e+08 1.82741e+08 1.82253e+08 2.10712e+08 1.72511e+08 1.31675e+08 1.29537e+08 1.20548e+08 1.17615e+08 1.13668e+08 1.11925e+08 1.08762e+08 1.05053e+08 9.78555e+07 8.36205e+07 8.33814e+07 8.21072e+07 8.0358e+07 7.96843e+07 7.77022e+07 7.50271e+07 7.47434e+07
threshold=-1.3308567404747007 3143.651245117188 368.50000000000006 13275737.000000002 1.786745071411133 12371209.000000002 1.1921954154968264 1187.5000000000002 7.5000000000000009 2812.8488769531255 -0.91597560048103321 2741.3308105468755 28.500000000000004 1.1921954154968264 1.5000000000000002 9202.0000000000018 1219.5000000000002 19.849999427795414 470.25000000000006 21225455.000000004 702.50000000000011 0.99599999189376842 331.50000000000006 30.500000000000004 0.94466316699981701 -1.0000000180025095e-35 3590.581420898438 612.25000000000011 0.68501004576683056 1.0000000180025095e-35 1.741277873516083
decision_type=2 2 2 2 2 2 2 2 2 2 2 2 2 2 2 2 2 2 2 2 2 2 2 2 2 2 2 2 2 2 2
left_child=4 2 16 6 5 9 8 13 24 18 23 -8 -13 19 -6 -5 21 28 -1 22 25 -2 -3 -10 29 -11 -24 -16 -12 -4 -14
right_child=1 7 3 15 14 -7 11 -9 10 20 17 12 30 -15 27 -17 -18 -19 -20 -21 -22 -23 26 -25 -26 -27 -28 -29 -30 -31 -32
leaf_value=-3.0990473784597317 -17.918877042640577 -7.4339545198830876 10.768868701043642 6.6521117138904096 15.807300355894808 22.48532007803804 -5.9273143005724149 -4.5905880590616306 3.3029280232047249 17.538722855326764 -13.482150195650668 13.329313080305187 -1.4240259656036862 17.612477225588105 27.880503048101925 31.851641361160979 -25.800583397394231 -15.255832192380602 7.3345583117876103 25.229191713796748 28.092523397047184 -9.6170579171625761 3.9982336198076269 -6.8102070702681274 11.182636639074376 3.6453655205826907 16.677584678999143 46.944435888940703 -2.9063113957812923 -8.9532603255965597 20.586399583751454
leaf_weight=4176 5916 1389 679 4572 1406 4492 8108 2953 2909 2476 2909 3914 8988 5502 1427 574 1921 11913 6963 719 1293 10708 5027 6874 1752 1864 1663 890 4310 1664 403
leaf_count=4176 5916 1389 679 4572 1406 4492 8108 2953 2909 2476 2909 3914 8988 5502 1427 574 1921 11913 6963 719 1293 10708 5027 6874 1752 1864 1663 890 4310 1664 403
internal_value=-0.00389028 -3.45965 -6.00318 -3.53174 13.1856 10.6131 -4.76046 8.05633 -7.83665 7.43342 -9.3617 -0.0182394 3.58272 10.668 27.8783 9.46294 -13.9418 -12.2041 3.42301 6.32507 15.3638 -12.5714 4.64268 -3.80304 2.93182 11.5716 7.15007 35.2033 -7.168 -3.2378 -0.479483
internal_weight=120354 95367 78114 59569 24987 21264 54423 17253 33010 16772 28915 21413 13305 14300 3723 5146 18545 19132 11139 8798 5633 16624 8079 9783 4095 4340 6690 2317 7219 2343 9391
internal_count=120354 95367 78114 59569 24987 21264 54423 17253 33010 16772 28915 21413 13305 14300 3723 5146 18545 19132 11139 8798 5633 16624 8079 9783 4095 4340 6690 2317 7219 2343 9391
is_linear=0
shrinkage=0.05


Tree=20
num_leaves=32
num_cat=0
split_feature=39 81 9 78 81 9 33 78 78 78 78 61 33 81 11 79 9 9 31 16 34 49 79 34 9 17 6 61 16 80 9
split_gain=2.06025e+09 1.07508e+09 4.75201e+08 4.68323e+08 4.36712e+08 2.83748e+08 2.56593e+08 2.4134e+08 2.0729e+08 1.98788e+08 1.59198e+08 1.42201e+08 1.36703e+08 1.26021e+08 1.22445e+08 1.16716e+08 1.08143e+08 1.05833e+08 1.04675e+08 1.00925e+08 9.76306e+07 9.5166e+07 9.38401e+07 9.12806e+07 8.87205e+07 8.61286e+07 8.75296e+07 7.85481e+07 7.33496e+07 6.9418e+07 6.79797e+07
threshold=1.4060599803924563 7328176.5000000009 619.50000000000011 2618.781860351563 19334439.000000004 737.25000000000011 1.8237646818161013 2607.051147460938 3156.4096679687505 3314.039184570313 2618.781860351563 1.0822724103927615 1.9849547147750857 30036098.000000004 3.5000000000000004 2910.8200683593755 288.50000000000006 346.25000000000006 47.500000000000007 39.500000000000007 1.1974496245384219 4.5000000000000009 2812.4565429687505 1.4911497831344607 672.25000000000011 -0.91597560048103321 35.500000000000007 1.1924841403961184 40.500000000000007 2812.8488769531255 304.50000000000006
decision_type=2 2 2 2 2 2 2 2 2 2 2 2 2 2 2 2 2 2 2 2 2 2 2 2 2 2 2 2 2 2 2
left_child=1 2 7 12 5 8 9 18 16 14 -4 21 24 -6 15 -5 -3 -8 -1 22 -10 -9 -12 29 -2 26 -16 -7 -13 -18 -20
right_child=3 4 10 6 13 27 17 11 20 -11 19 28 -14 -15 25 -17 23 -19 30 -21 -22 -23 -24 -25 -26 -27 -28 -29 -30 -31 -32
leaf_value=-10.274092969387034 -2.3524872056666211 -12.689710536287443 -6.8423697289577348 2.1941355177422746 14.930091827657392 5.8191948743801065 11.504743197441799 -0.030992754731385463 0.09642340078059608 27.660363322690955 0.64251776717504416 -2.1762719716004089 22.476904663725982 38.224316821384228 35.242999997419069 26.530969666555634 -6.56974020351681 31.625519268092518 -25.489213272603809 -9.3431896313366209 12.201363698132827 -13.801721674348446 10.84643966140321 6.4198803030343514 9.5223926574803439 6.1827528506436868 16.116406442306399 16.671588857083464 -17.513859010311194 1.2860651400162206 -16.253246077775763
leaf_weight=5970 5875 2916 8634 4324 3127 3930 811 1473 3180 2116 7089 9652 802 713 698 556 8358 3366 2647 1674 3498 8462 3303 2566 2148 1850 4182 2896 848 4238 8055
leaf_count=5970 5875 2916 8634 4324 3127 3930 811 1473 3180 2116 7089 9652 802 713 698 556 8358 3366 2647 1674 3498 8462 3303 2566 2148 1850 4182 2896 848 4238 8055
internal_value=-0.0168529 -3.52538 -7.72841 12.2211 3.33376 1.39789 16.8679 -11.1143 -1.09074 13.5658 -1.65879 -7.47213 2.7943 19.2553 10.997 4.96694 -3.87152 27.7189 -15.5786 2.0504 6.43711 -11.76 3.88574 -2.17558 0.826778 15.3695 18.8521 10.4234 -3.41496 -3.92661 -18.5376
internal_weight=119957 93229 57807 26728 35422 31582 17903 37107 24756 13726 20700 20435 8825 3840 11610 4880 18078 4177 16672 12066 6678 9935 10392 15162 8023 6730 4880 6826 10500 12596 10702
internal_count=119957 93229 57807 26728 35422 31582 17903 37107 24756 13726 20700 20435 8825 3840 11610 4880 18078 4177 16672 12066 6678 9935 10392 15162 8023 6730 4880 6826 10500 12596 10702
is_linear=0
shrinkage=0.05


Tree=21
num_leaves=32
num_cat=0
split_feature=83 78 39 9 78 81 9 39 83 9 15 78 6 9 81 15 15 6 5 61 6 50 9 78 33 81 5 9 20 11 79
split_gain=1.88742e+09 7.10803e+08 5.75116e+08 4.03951e+08 3.94759e+08 2.63557e+08 2.32441e+08 2.21074e+08 1.93458e+08 1.89915e+08 1.70077e+08 1.64103e+08 1.5186e+08 1.30472e+08 1.26007e+08 1.18054e+08 1.1734e+08 1.164e+08 1.16004e+08 1.09558e+08 1.08947e+08 1.07751e+08 1.04507e+08 9.65736e+07 9.58102e+07 8.26343e+07 8.22812e+07 8.00166e+07 7.79132e+07 7.31642e+07 7.86275e+07
threshold=-1.1537225842475889 2618.781860351563 1.540729880332947 449.50000000000006 3261.454711914063 17861943.000000004 657.25000000000011 1.2295705676078799 -2.0257010459899898 666.25000000000011 1189.5000000000002 2665.720825195313 13.250000000000002 797.50000000000011 12503943.500000002 1215.5000000000002 1187.5000000000002 35.500000000000007 3.5000000000000004 0.85791924595832836 25.500000000000004 5.5000000000000009 346.25000000000006 3799.7316894531255 0.91701102256774913 30036098.000000004 4.5000000000000009 272.50000000000006 1.0000000180025095e-35 1.5000000000000002 2910.8200683593755
decision_type=2 2 2 2 2 2 2 2 2 2 2 2 2 2 2 2 2 2 2 2 2 2 2 2 2 2 2 2 2 2 2
left_child=2 9 4 16 6 7 14 10 -4 15 13 -10 -9 23 17 21 18 -1 -3 -20 -8 -2 -13 26 -23 -7 -5 -21 -19 30 -24
right_child=1 3 8 5 -6 25 20 12 11 -11 -12 22 -14 -15 -16 -17 -18 28 19 27 -22 24 29 -25 -26 -27 -28 -29 -30 -31 -32
leaf_value=3.3725141543640911 1.0986462255007889 10.14458474893717 38.423684154504826 9.1504135518123881 18.357233029717463 14.674429078735191 23.355690202082599 23.466200245945739 7.4313109585038575 -4.1673881724256683 -10.701836993915151 7.3880242185960334 5.1883917209612171 8.6232329778218109 8.9878942519334046 -24.02708680130732 -16.687390193714482 -2.7922842309503455 -14.234984646911389 -10.561116199233725 7.0700907633434618 -18.072960969856965 4.4655173377277544 17.666114539647214 -10.338470667814333 40.607071756215198 -3.4555620551779 -0.42655887596504694 -12.498609375013681 25.818323233004108 44.009694522819267
leaf_weight=5234 1477 1104 1050 1435 4608 1859 1214 1444 3709 8123 3902 1258 5335 4130 2785 2231 2769 6418 3515 2915 6665 6048 804 637 11847 368 13217 5869 3050 4788 149
leaf_count=5234 1477 1104 1050 1435 4608 1859 1214 1444 3709 8123 3902 1258 5335 4130 2785 2231 2769 6418 3515 2915 6665 6048 804 637 11847 368 13217 5869 3050 4788 149
internal_value=-0.0160102 -4.59694 8.57076 -0.865524 4.89449 2.36198 2.44884 1.13397 17.9425 -10.6849 -1.17631 15.9341 9.08176 0.737728 -0.763917 -13.1355 -7.31714 -2.6112 -5.38129 -6.77495 9.57938 -11.8812 20.4401 -1.39237 -12.9525 18.9597 -2.22095 -3.78975 -5.91906 23.3001 10.6482
internal_weight=119957 78225 41732 48499 29974 32327 25366 30100 11758 29726 23321 10708 6779 19419 17487 21603 16172 14702 13403 12299 7879 19372 6999 15289 17895 2227 14652 8784 9468 5741 953
internal_count=119957 78225 41732 48499 29974 32327 25366 30100 11758 29726 23321 10708 6779 19419 17487 21603 16172 14702 13403 12299 7879 19372 6999 15289 17895 2227 14652 8784 9468 5741 953
is_linear=0
shrinkage=0.05


Tree=22
num_leaves=32
num_cat=0
split_feature=34 81 33 81 9 81 9 17 17 5 5 9 78 5 78 9 83 9 79 68 33 81 58 9 78 17 81 15 78 79 49
split_gain=1.74368e+09 8.46832e+08 4.18436e+08 3.74564e+08 3.74441e+08 3.55344e+08 2.71797e+08 1.83972e+08 1.81504e+08 1.63298e+08 1.40042e+08 1.37987e+08 1.28572e+08 1.2738e+08 1.16476e+08 1.15167e+08 1.05598e+08 1.00775e+08 9.76417e+07 9.76066e+07 9.58453e+07 9.26285e+07 9.23518e+07 9.0247e+07 7.89366e+07 7.301e+07 7.03537e+07 7.01738e+07 6.8905e+07 6.59985e+07 6.584e+07
threshold=1.4976635575294497 6687756.7500000009 1.8341924548149111 19334439.000000004 470.25000000000006 7545421.2500000009 731.50000000000011 -0.91597560048103321 -0.91597560048103321 16.500000000000004 36.500000000000007 346.25000000000006 3253.244506835938 36.500000000000007 2545.829711914063 284.50000000000006 -2.0257010459899898 711.50000000000011 2812.4565429687505 0.5388464927673341 1.0379267334938052 30036098.000000004 0.86640420556068432 327.50000000000006 3858.5549316406255 -0.91597560048103321 17059204.000000004 1231.5000000000002 2645.3317871093755 2773.5715332031255 8.2500000000000018
decision_type=2 2 2 2 2 2 2 2 2 2 2 2 2 2 2 2 2 2 2 2 2 2 2 2 2 2 2 2 2 2 2
left_child=1 4 5 6 14 17 7 10 13 22 -3 -4 23 -6 -1 -9 -13 28 -8 25 -11 -5 -10 -7 30 -16 -25 -22 -2 -24 -17
right_child=2 3 11 21 8 12 18 15 9 20 -12 16 -14 -15 19 24 -18 -19 -20 -21 27 -23 29 26 -26 -27 -28 -29 -30 -31 -32
leaf_value=-17.495672302843143 -4.7939555973112853 8.1180059291764248 7.2646574592469806 13.607248096962358 7.9120705613863809 -0.48821506953014238 5.0174437273620391 -16.555271710006945 -7.1687041524336728 -14.631045969983029 -2.3375178798044325 39.676254326721697 24.420385629932962 -3.8256312453522812 -5.4363889361957742 5.0409361420435967 21.619521987885712 9.5712424679751873 17.313078480345474 3.8475536566637363 -4.542878028613913 34.179669516940912 -4.9654086955436245 11.255521822546079 15.538066685271986 -14.265371410228532 24.906273242078104 -17.563713307605862 3.2542445249188106 9.194403050654854 -6.4160843649882686
leaf_weight=8591 5008 5786 1360 2889 4230 1416 5189 2173 2869 6081 7173 1009 2269 5096 3494 1448 4099 3220 2344 1173 7251 675 1204 6372 495 7099 1108 1207 5671 2600 9358
leaf_count=8591 5008 5786 1360 2889 4230 1416 5189 2173 2869 6081 7173 1009 2269 5096 3494 1448 4099 3220 2344 1173 7251 675 1204 6372 495 7099 1108 1207 5671 2600 9358
internal_value=-0.0152097 -3.61501 10.0797 2.08308 -7.81678 7.15373 0.465037 -1.92267 -4.31523 -6.87116 2.33072 21.418 13.7962 1.49825 -13.0695 -6.01349 25.1863 1.81784 8.84341 -9.83779 -9.84326 17.5035 -0.395612 11.0864 -3.98647 -11.3532 13.2776 -6.40102 -0.520021 4.7127 -4.88085
internal_weight=119957 88425 31532 37530 50895 25064 33966 26433 30538 21212 12959 6468 11165 9326 20357 13474 5108 13899 7533 11766 14539 3564 6673 8896 11301 10593 7480 8458 10679 3804 10806
internal_count=119957 88425 31532 37530 50895 25064 33966 26433 30538 21212 12959 6468 11165 9326 20357 13474 5108 13899 7533 11766 14539 3564 6673 8896 11301 10593 7480 8458 10679 3804 10806
is_linear=0
shrinkage=0.05


Tree=23
num_leaves=32
num_cat=0
split_feature=39 81 78 75 81 83 75 78 36 2 17 17 79 52 68 11 78 47 33 31 32 78 78 81 12 75 39 36 15 6 15
split_gain=1.63268e+09 7.87288e+08 4.45951e+08 3.4305e+08 3.03516e+08 2.93254e+08 2.18371e+08 2.1641e+08 1.65603e+08 1.59875e+08 1.42943e+08 1.38743e+08 1.1796e+08 1.30559e+08 1.16723e+08 1.11346e+08 9.50126e+07 9.11906e+07 9.05032e+07 9.04887e+07 8.52613e+07 8.5232e+07 7.791e+07 7.62603e+07 7.51953e+07 7.03157e+07 7.00834e+07 6.70088e+07 6.49132e+07 6.49928e+07 6.29681e+07
threshold=1.3724374771118166 7328176.5000000009 3205.774536132813 2.5000000000000004 21225455.000000004 -1.6037621498107908 2.5000000000000004 2553.9665527343755 41.95000076293946 3.5000000000000004 -0.98296290636062611 -0.98296290636062611 2741.3308105468755 28.500000000000004 0.5388464927673341 1.5000000000000002 3156.4096679687505 0.49381130933761602 0.99599999189376842 20.500000000000004 0.98431348800659191 3799.7316894531255 3370.3508300781255 30036098.000000004 1.5000000000000002 2.5000000000000004 1.704792380332947 57.350000381469734 1235.5000000000002 22.500000000000004 1175.5000000000002
decision_type=2 2 2 2 2 2 2 2 2 2 2 2 2 2 2 2 2 2 2 2 2 2 2 2 2 2 2 2 2 2 2
left_child=1 3 5 7 6 8 10 19 24 12 -3 -9 27 -14 18 -10 -12 -5 -13 -1 -19 26 -8 -6 -2 -17 30 -7 29 -20 -4
right_child=2 4 21 17 23 9 22 11 15 -11 16 14 13 -15 -16 25 -18 20 28 -21 -22 -23 -24 -25 -26 -27 -28 -29 -30 -31 -32
leaf_value=-5.7100936172735883 11.774284881102412 6.4360500864388701 20.84282842856004 -2.755530178744936 13.820334214704273 -8.8402267077453285 6.1464226154952115 3.056124527088115 -4.177459944414613 12.295912856083879 -5.5213621114458009 -13.05838072683682 15.541333585779805 1.280977218865889 3.3882425965744809 11.500003764771634 2.6254954995218664 0.27457829097759767 0.84543835818607915 -15.414124932370939 15.194105562452586 39.324533469539638 19.778341704708694 33.176312295195821 37.641104761548412 25.171414934808119 32.614576779678465 1.8642885441822472 -17.466356624534132 -7.5485529355757528 2.9197987323332777
leaf_weight=2914 380 4734 2526 9277 1996 3249 7056 3376 894 4369 13244 8139 2238 5675 2108 3675 4904 2374 3267 13681 1605 753 1231 683 1078 1264 992 2658 1169 7840 608
leaf_count=2914 380 4734 2526 9277 1996 3249 7056 3376 894 4369 13244 8139 2238 5675 2108 3675 4904 2374 3267 13681 1605 753 1231 683 1078 1264 992 2658 1169 7840 608
internal_value=-0.0144492 -3.40994 10.0066 -7.06195 2.60517 7.35483 1.21708 -9.25257 15.8272 3.95873 -1.30151 -6.39635 1.32304 5.31417 -7.81319 12.0598 -3.3199 -0.0395794 -8.96982 -13.7101 6.29263 23.8551 8.17139 18.7551 30.8994 14.9988 21.032 -4.02347 -6.25911 -5.07955 17.3657
internal_weight=119957 89598 30359 55750 33848 25480 31169 42494 7291 18189 22882 25899 13820 7913 22523 5833 18148 13256 20415 16595 3979 4879 8287 2679 1458 4939 4126 5907 12276 11107 3134
internal_count=119957 89598 30359 55750 33848 25480 31169 42494 7291 18189 22882 25899 13820 7913 22523 5833 18148 13256 20415 16595 3979 4879 8287 2679 1458 4939 4126 5907 12276 11107 3134
is_linear=0
shrinkage=0.05


Tree=24
num_leaves=32
num_cat=0
split_feature=39 81 9 78 78 81 15 17 61 5 39 11 79 5 31 52 33 18 5 81 33 31 78 9 32 78 36 45 11 9 17
split_gain=1.47561e+09 8.89373e+08 5.50302e+08 3.20083e+08 2.45939e+08 2.27777e+08 2.10202e+08 1.73858e+08 1.52372e+08 1.51796e+08 1.38043e+08 1.32464e+08 1.25776e+08 1.15826e+08 1.12397e+08 1.04773e+08 9.73266e+07 9.54986e+07 9.87605e+07 8.81144e+07 8.58807e+07 8.32934e+07 7.90096e+07 7.87409e+07 7.79087e+07 7.48166e+07 6.97078e+07 6.70591e+07 6.69161e+07 6.51195e+07 6.29406e+07
threshold=1.4923323392868044 11394770.000000002 473.25000000000006 2615.1513671875005 2607.051147460938 25622008.000000004 1189.5000000000002 -0.91597560048103321 1.1526600718498232 9.2500000000000018 1.1350833773612978 5.5000000000000009 2910.8200683593755 36.500000000000007 48.500000000000007 25.500000000000004 0.99599999189376842 -0.7865660786628722 1.5000000000000002 12371209.000000002 1.0852361321449282 16.500000000000004 3745.9333496093755 843.50000000000011 0.99233704805374157 3198.299926757813 79.750000000000014 -4.4999999999999991 3.5000000000000004 524.50000000000011 -0.98296290636062611
decision_type=2 2 2 2 2 2 2 2 2 2 2 2 2 2 2 2 2 2 2 2 2 2 2 2 2 2 2 2 2 2 2
left_child=1 2 7 14 21 10 8 13 17 24 23 12 19 -1 -4 -10 -16 -5 -19 29 -11 -2 -17 -3 -9 -12 30 -14 -8 -6 -13
right_child=4 5 3 6 11 -7 28 9 15 20 25 26 27 -15 16 22 -18 18 -20 -21 -22 -23 -24 -25 -26 -27 -28 -29 -30 -31 -32
leaf_value=0.65050236731457745 27.637247663325844 -0.66432942344914014 -0.37943074548307243 -5.5715021995129561 4.7209984830045499 26.038422829940473 -12.826985992612009 -10.783289938054779 14.628076982586595 -18.43693326114008 7.2482714404360085 45.635382597760795 47.748362921587812 -8.9879276924736899 -14.948935534728882 3.8222448863394711 -5.898944943286712 22.976523906773537 1.5973676078270542 21.55741677687908 -11.088399950046375 2.9042525328562694 29.595421949193998 15.810098209079047 2.8528996326465679 17.35113678962821 -0.763281737463815 22.399395651318134 -0.84274820045847365 14.213734193024431 25.260559040788149
leaf_weight=5289 363 6724 5508 5153 3183 1563 2801 2107 3581 7821 5881 584 353 7590 4411 9471 9099 580 7869 2178 8087 5469 307 813 2083 2662 175 1000 1994 4178 1080
leaf_count=5289 363 6724 5508 5153 3183 1563 2801 2107 3581 7821 5881 584 353 7590 4411 9471 9099 580 7869 2178 8087 5469 307 813 2083 2662 175 1000 1994 4178 1080
internal_value=-0.0137268 -2.38653 -4.53583 -1.2695 12.9469 7.81616 1.80271 -9.56493 3.51825 -12.4711 6.04493 16.8422 14.7465 -5.02973 -6.39942 7.31113 -8.85376 -0.206873 3.06499 12.7229 -14.7012 4.4437 4.63145 1.11273 -4.00425 10.3963 29.2544 29.013 -7.84334 10.1089 32.4113
internal_weight=119957 101394 83751 50774 18563 17643 31756 32977 26961 20098 16080 12731 10892 12879 19018 13359 13510 13602 8449 9539 15908 5832 9778 7537 4190 8543 1839 1353 4795 7361 1664
internal_count=119957 101394 83751 50774 18563 17643 31756 32977 26961 20098 16080 12731 10892 12879 19018 13359 13510 13602 8449 9539 15908 5832 9778 7537 4190 8543 1839 1353 4795 7361 1664
is_linear=0
shrinkage=0.05


Tree=25
num_leaves=32
num_cat=0
split_feature=34 78 78 15 39 78 15 75 75 31 31 15 82 39 11 11 58 6 31 25 75 1 75 5 11 5 78 75 29 75 39
split_gain=1.3585e+09 6.97479e+08 3.30423e+08 2.93449e+08 2.63136e+08 2.61815e+08 2.46267e+08 2.22013e+08 2.13366e+08 1.71164e+08 1.50076e+08 1.47506e+08 1.46989e+08 1.23667e+08 1.20501e+08 1.01642e+08 9.13818e+07 8.62395e+07 7.32798e+07 7.25383e+07 7.12572e+07 7.03958e+07 6.89568e+07 6.78803e+07 6.65261e+07 6.27375e+07 6.19673e+07 6.07044e+07 5.8794e+07 5.40944e+07 5.05008e+07
threshold=1.4976635575294497 2790.0178222656255 3213.962280273438 1209.5000000000002 1.5547505617141726 3624.6999511718755 1205.5000000000002 1.0000000180025095e-35 2.5000000000000004 32.500000000000007 18.500000000000004 1046.5000000000002 2.9305008649826054 1.1837799549102785 3.5000000000000004 5.5000000000000009 0.97073099017143261 22.500000000000004 19.500000000000004 1.0000000180025095e-35 2.5000000000000004 4800.5000000000009 2.5000000000000004 36.500000000000007 3.5000000000000004 86.500000000000014 4281.6000976562509 2.5000000000000004 269.88636779785162 2.5000000000000004 1.5909169316291811
decision_type=2 2 2 2 2 2 2 2 2 2 2 2 2 2 2 2 2 2 2 2 2 2 2 2 2 2 2 2 2 2 2
left_child=1 6 4 5 12 8 7 18 11 21 -7 16 28 -11 23 22 -3 -18 -1 -10 30 -9 -6 -13 -5 29 -12 -14 -2 -17 -4
right_child=2 3 20 24 15 10 -8 9 19 13 26 14 27 -15 -16 25 17 -19 -20 -21 -22 -23 -24 -25 -26 -27 -28 -29 -30 -31 -32
leaf_value=-3.3337600335413651 -2.6662084057091793 -8.0043553547004915 13.036953595169605 -14.219133560485503 8.5176471279740724 2.1072617043226982 -17.013269967432855 1.6811767316327562 4.2134027576255795 -8.7161389902152191 20.739073185551192 5.1602526673709868 6.1858970363773702 -1.4354054707187229 10.792339737528962 23.446010588589946 7.0779056425777629 -4.892874436993992 -13.753385027617615 13.529994122516317 29.947205908178702 20.003362507311767 19.519979955747459 -5.4159274184837738 -3.0239831066476119 -11.047200343542009 46.626845248662512 17.316621783157043 5.6692336982840903 47.968760576148483 25.537391472102804
leaf_weight=2059 8063 6941 2657 2956 5704 1241 5658 6402 4293 14148 2084 2872 4722 9923 3944 1039 2690 3414 9350 4070 1423 571 1898 3216 2408 107 260 1654 2868 287 1161
leaf_count=2059 8063 6941 2657 2956 5704 1241 5658 6402 4293 14148 2084 2872 4722 9923 3944 1039 2690 3414 9350 4070 1423 571 1898 3216 2408 107 260 1654 2868 287 1161
internal_value=0.0295276 -3.14745 8.93187 1.69711 6.65068 3.36497 -7.21444 -5.90849 1.90521 -3.71649 16.1669 -0.574396 3.04 -5.71474 3.98401 13.5671 -4.07995 0.382584 -11.8729 8.74748 20.3974 3.18153 11.2646 -0.426639 -9.19342 25.7818 23.6106 9.07332 -0.479213 28.7537 16.8382
internal_weight=120083 88500 31583 40389 26342 35025 48111 42453 31440 31044 3585 23077 17307 24071 10032 9035 13045 6104 11409 8363 5241 6973 7602 6088 5364 1433 2344 6376 10931 1326 3818
internal_count=120083 88500 31583 40389 26342 35025 48111 42453 31440 31044 3585 23077 17307 24071 10032 9035 13045 6104 11409 8363 5241 6973 7602 6088 5364 1433 2344 6376 10931 1326 3818
is_linear=0
shrinkage=0.05


Tree=26
num_leaves=32
num_cat=0
split_feature=83 78 78 39 16 5 33 6 78 33 25 31 11 11 81 81 11 11 19 18 11 81 39 39 6 16 79 58 17 79 33
split_gain=1.25654e+09 4.96367e+08 3.96983e+08 3.16503e+08 2.90201e+08 2.7177e+08 2.4864e+08 1.69741e+08 1.64585e+08 1.45989e+08 1.38298e+08 1.12296e+08 1.08245e+08 1.02398e+08 9.89431e+07 9.28789e+07 9.21154e+07 9.1816e+07 8.30616e+07 7.9019e+07 7.76124e+07 7.56085e+07 7.33301e+07 6.84389e+07 6.81226e+07 6.75707e+07 6.47299e+07 6.40405e+07 6.114e+07 6.03859e+07 6.02893e+07
threshold=-1.1249713301658628 2618.781860351563 3205.774536132813 1.5479898452758791 38.500000000000007 3.5000000000000004 0.92365968227386486 35.500000000000007 3443.517211914063 1.3096914887428286 1.0000000180025095e-35 10.500000000000002 3.5000000000000004 5.5000000000000009 27401476.000000004 4138731.3750000005 4.5000000000000009 3.5000000000000004 0.87837970256805431 -0.37940952181816096 3.5000000000000004 7278395.0000000009 1.6914602518081667 1.241416931152344 22.500000000000004 38.500000000000007 2741.3308105468755 0.99221777915954601 -0.91597560048103321 2741.3308105468755 1.9170961976051333
decision_type=2 2 2 2 2 2 2 2 2 2 2 2 2 2 2 2 2 2 2 2 2 2 2 2 2 2 2 2 2 2 2
left_child=2 9 3 7 5 19 21 23 10 11 24 -2 25 18 30 -13 -14 22 -5 27 -6 -7 -4 -1 -8 -9 -11 -3 -19 -25 -12
right_child=1 4 17 13 20 6 8 12 -10 26 14 15 16 -15 -16 -17 -18 28 -20 -21 -22 -23 -24 29 -26 -27 -28 -29 -30 -31 -32
leaf_value=4.2998550308095469 1.1889890558471712 2.5657412014396925 9.0110868222167664 8.1353864321477669 -12.980174753233298 -8.9760733925560441 3.5041386606478753 -2.7693215727231055 15.704610333768514 -6.971099166774045 4.6545531684579791 -15.065473637690927 9.8389217283290726 24.134970033983866 35.117523516283633 -8.572941842886177 -1.315253676271448 24.558329308622127 23.6556580184285 26.843615288321338 -3.2473620292418746 -1.3179202954316431 34.323805100642716 -6.833734136744865 -4.8541235708034511 -13.992509590868437 4.2641393376397856 20.389608594640492 8.7715014779945264 16.273279734383028 32.492317297470628
leaf_weight=5917 1856 1240 3449 6957 5063 7240 3634 8370 2326 2553 8594 10366 3183 1543 287 11755 4423 3536 984 1010 3440 5809 312 318 7406 1597 2575 849 742 2550 199
leaf_count=5917 1856 1240 3449 6957 5063 7240 3634 8370 2326 2553 8594 10366 3183 1543 287 11755 4423 3536 984 1010 3440 5809 312 318 7406 1597 2575 849 742 2550 199
internal_value=0.0280513 -3.85321 6.7681 4.51582 -0.680904 1.16135 -0.0784143 1.69742 3.11233 -8.98656 1.65658 -10.6242 -1.13955 12.3487 6.22753 -11.6154 3.35261 16.8099 10.0586 15.3612 -9.04264 -5.56691 11.1109 7.37234 -2.10286 -4.5676 -1.32938 9.80962 21.8202 13.7112 5.28457
internal_weight=120083 76202 43881 35842 47097 38594 35495 26358 22446 29105 20120 23977 17573 9484 9080 22121 7606 8039 7941 3099 8503 13049 3761 8785 11040 9967 5128 2089 4278 2868 8793
internal_count=120083 76202 43881 35842 47097 38594 35495 26358 22446 29105 20120 23977 17573 9484 9080 22121 7606 8039 7941 3099 8503 13049 3761 8785 11040 9967 5128 2089 4278 2868 8793
is_linear=0
shrinkage=0.05


Tree=27
num_leaves=32
num_cat=0
split_feature=39 78 78 15 83 9 9 78 83 31 79 6 50 37 11 9 31 15 78 9 46 9 25 15 35 12 9 78 50 9 6
split_gain=1.16379e+09 5.70263e+08 3.39963e+08 3.0172e+08 2.35444e+08 2.34051e+08 2.14094e+08 1.97499e+08 1.6507e+08 1.61934e+08 1.56629e+08 1.79503e+08 1.52086e+08 1.28729e+08 1.20549e+08 1.15495e+08 9.65765e+07 8.67125e+07 8.48274e+07 8.14128e+07 7.45981e+07 6.9676e+07 6.72167e+07 6.53769e+07 6.43389e+07 6.22315e+07 6.19823e+07 6.17183e+07 6.10483e+07 6.04402e+07 5.9543e+07
threshold=1.3493844270706179 2757.447387695313 3213.962280273438 1185.5000000000002 -1.5296065807342527 331.50000000000006 788.50000000000011 3624.6999511718755 -0.99990895390510548 48.500000000000007 2741.3308105468755 28.500000000000004 8.2500000000000018 41.95000076293946 1.5000000000000002 304.50000000000006 25.500000000000004 1205.5000000000002 3858.5549316406255 521.50000000000011 0.78379952907562267 912.50000000000011 1.0000000180025095e-35 1048.5000000000002 120.92499923706056 1.5000000000000002 713.50000000000011 4070.369506835938 1.0000000180025095e-35 601.50000000000011 35.500000000000007
decision_type=2 2 2 2 2 2 2 2 2 2 2 2 2 2 2 2 2 2 2 2 2 2 2 2 2 2 2 2 2 2 2
left_child=1 6 4 5 13 -3 9 8 21 20 24 28 -10 25 -15 -11 -9 23 26 -16 -1 30 -14 -17 -6 -2 -4 -18 -12 -5 -7
right_child=2 3 18 29 10 7 -8 16 12 15 11 -13 22 14 19 17 27 -19 -20 -21 -22 -23 -24 -25 -26 -27 -28 -29 -30 -31 -32
leaf_value=-9.0639225189165327 8.7823037248808848 -5.9484331259217029 13.666542704289817 -12.457247967978319 -5.9232940583356601 11.793302359467226 2.1242482617398855 6.3919800140925407 9.9443909874205154 -18.117532694318196 53.330505492271634 2.2831422933411445 -5.0958143280829065 -5.1016354042582108 5.7635275951467033 -10.194634715297529 21.214324150735994 -19.104258020162703 35.743320882003182 17.108941194763712 -1.2186632377071174 23.680389367984532 1.9153885458065549 -3.9308651663161869 4.1891877444343519 29.279476109241006 26.96160400809606 48.673078803221387 15.232509136646437 -2.8377099604457512 3.7605390970291794
leaf_weight=4609 504 6180 3306 4050 5396 4207 5611 1162 3391 4346 109 7615 7446 1221 2857 12448 1389 1979 714 3541 8845 706 6320 6261 2220 1396 1193 240 2977 2736 5108
leaf_count=4609 504 6180 3306 4050 5396 4207 5611 1162 3391 4346 109 7615 7446 1221 2857 12448 1389 1979 714 3541 8845 706 6320 6261 2220 1396 1193 240 2977 2736 5108
internal_value=0.0266487 -3.00655 8.01453 1.09522 5.81997 2.91126 -7.00006 4.73825 3.43752 -8.33025 2.50501 6.4056 0.459477 12.1988 9.29519 -10.7078 17.4044 -9.15126 19.7329 12.0427 -3.90625 8.53624 -1.87696 -8.09845 -2.97559 23.8423 17.192 25.2598 16.5782 -8.57881 7.38843
internal_weight=120083 87034 33049 42935 27836 36149 44099 29969 27178 38488 18317 10701 17157 9519 7619 25034 2791 20688 5213 6398 13454 10021 13766 18709 7616 1900 4499 1629 3086 6786 9315
internal_count=120083 87034 33049 42935 27836 36149 44099 29969 27178 38488 18317 10701 17157 9519 7619 25034 2791 20688 5213 6398 13454 10021 13766 18709 7616 1900 4499 1629 3086 6786 9315
is_linear=0
shrinkage=0.05


Tree=28
num_leaves=32
num_cat=0
split_feature=34 17 33 5 81 75 36 39 32 81 29 20 46 33 75 75 75 5 81 5 80 11 15 79 83 75 83 12 34 79 17
split_gain=1.06223e+09 5.15522e+08 3.28658e+08 2.82164e+08 2.78889e+08 2.61574e+08 2.19026e+08 1.67364e+08 1.59652e+08 1.46766e+08 1.41881e+08 1.01042e+08 1.03439e+08 9.68776e+07 9.28619e+07 9.25155e+07 8.85269e+07 8.71903e+07 8.55692e+07 7.93485e+07 7.77208e+07 7.45058e+07 7.1391e+07 6.7395e+07 6.34877e+07 6.10057e+07 5.85644e+07 5.75531e+07 6.64595e+07 5.57784e+07 5.54777e+07
threshold=1.4065148234367373 -0.91597560048103321 1.8341924548149111 36.500000000000007 6829080.2500000009 1.0000000180025095e-35 18.849999427795414 1.241416931152344 0.86124861240386974 25622008.000000004 265.43940734863287 1.0000000180025095e-35 1.6528317332267763 1.0592625141143801 1.0000000180025095e-35 2.5000000000000004 1.5000000000000002 9.2500000000000018 19924526.000000004 1.0000000180025095e-35 2812.8488769531255 3.5000000000000004 1233.5000000000002 2773.5715332031255 -2.0257010459899898 2.5000000000000004 -1.0343213677406309 1.5000000000000002 0.75134408473968517 2846.1362304687505 -0.98296290636062611
decision_type=2 2 2 2 2 2 2 2 2 2 2 2 2 2 2 2 2 2 2 2 2 2 2 2 2 2 2 2 2 2 2
left_child=1 3 4 7 15 17 8 16 19 13 18 12 26 -8 -4 20 -1 -3 25 -7 -2 -12 -15 -10 -16 -6 -5 -9 -29 -17 -23
right_child=2 5 14 11 10 6 9 27 23 -11 21 -13 -14 22 24 29 -18 -19 -20 -21 -22 30 -24 -25 -26 -27 -28 28 -30 -31 -32
leaf_value=0.35681690686419754 -4.7945189478161536 -4.2728081960539885 6.7399902598086747 2.2024360433169186 2.3156096711542071 10.036797996925074 -10.788073782387562 9.8703748779662952 -2.3647869875063896 27.275110899395759 9.6164543591322555 -8.5454797351043847 19.372041693989559 -2.7920684108834073 31.881640522065453 4.6649081464460771 8.9418304100139476 -14.372581626612618 19.959905719296575 -7.5289710249070048 3.5335141885136339 30.241156698892947 -12.957223299014963 8.2363177486411523 17.552155949229952 11.117600178753769 -6.128316758229694 57.356374006693059 21.835821178675147 23.799308998612798 15.980294559250735
leaf_weight=6076 8358 2678 1685 5118 7355 734 11473 1003 2015 308 2480 5085 655 10613 959 3668 5937 10576 1007 5180 4214 1104 2063 5857 3985 2688 3589 147 1264 425 1784
leaf_count=6076 8358 2678 1685 5118 7355 734 11473 1003 2015 308 2480 5085 655 10613 959 3668 5937 10576 1007 5180 4214 1104 2063 5857 3985 2688 3589 147 1264 425 1784
internal_value=0.0253163 -3.28027 6.71532 2.0676 4.67921 -6.27879 -4.18094 7.01376 0.858988 -7.02187 9.30436 -2.87171 0.210022 -7.4593 16.8769 0.122606 4.59966 -12.3319 6.06471 -5.34884 -2.00305 15.9732 -4.44643 5.52275 20.3317 4.67145 -1.23148 19.0273 25.5364 6.65174 21.4318
internal_weight=120083 80371 39712 28874 33083 51497 38243 14427 13786 24457 16418 14447 9362 24149 6629 16665 12013 13254 11050 5914 12572 5368 12676 7872 4944 10043 8707 2414 1411 4093 2888
internal_count=120083 80371 39712 28874 33083 51497 38243 14427 13786 24457 16418 14447 9362 24149 6629 16665 12013 13254 11050 5914 12572 5368 12676 7872 4944 10043 8707 2414 1411 4093 2888
is_linear=0
shrinkage=0.05


Tree=29
num_leaves=32
num_cat=0
split_feature=39 81 81 78 9 9 78 39 78 9 15 81 58 25 80 6 80 15 31 9 11 9 5 83 19 15 31 17 9 9 78
split_gain=9.84738e+08 5.56813e+08 2.62414e+08 2.54846e+08 2.46525e+08 2.08139e+08 1.78461e+08 1.54518e+08 1.24039e+08 1.13667e+08 1.06025e+08 9.81267e+07 9.29662e+07 9.11748e+07 9.00737e+07 8.97739e+07 8.56951e+07 8.32275e+07 8.08658e+07 7.63231e+07 7.6056e+07 7.13436e+07 6.48459e+07 7.09364e+07 6.24171e+07 6.37708e+07 6.02131e+07 5.73182e+07 5.33146e+07 5.32306e+07 5.13576e+07
threshold=1.3978549242019656 6687756.7500000009 18308741.000000004 2611.051391601563 312.50000000000006 617.50000000000011 2665.720825195313 1.6914602518081667 3460.083374023438 254.50000000000003 1221.5000000000002 30036098.000000004 0.94649675488471996 1.0000000180025095e-35 2812.8488769531255 20.500000000000004 2812.8488769531255 1189.5000000000002 13.500000000000002 843.50000000000011 5.5000000000000009 734.50000000000011 1.0000000180025095e-35 -0.74648541212081898 0.87837970256805431 1205.5000000000002 50.500000000000007 -0.98296290636062611 878.50000000000011 446.50000000000006 3198.299926757813
decision_type=2 2 2 2 2 2 2 2 2 2 2 2 2 2 2 2 2 2 2 2 2 2 2 2 2 2 2 2 2 2 2
left_child=1 4 5 18 -1 9 17 8 13 -3 12 -4 22 -5 -7 -14 30 19 -2 26 24 -20 -8 -24 25 -9 -6 -18 -16 -15 -11
right_child=3 2 11 7 6 14 10 20 -10 16 -12 -13 15 29 28 -17 27 -19 21 -21 -22 -23 23 -25 -26 -27 -28 -29 -30 -31 -32
