tree
version=v4
num_class=1
num_tree_per_iteration=1
label_index=0
max_feature_idx=84
objective=regression
feature_names=order_total_items order_subtotal order_num_distinct_items order_min_item_price order_max_item_price total_onshift_dashers total_busy_dashers total_outstanding_orders time_estimated_order_place_duration time_estimated_store_to_consumer_driving_duration time_hour time_day_of_week time_month time_is_weekend time_is_rush_hour time_minute_of_day time_bucket_48 time_hour_sin time_hour_cos time_dow_sin time_dow_cos load_telemetry_missing order_avg_item_price order_item_price_range order_percent_distinct_items order_high_value order_subtotal_bucket order_total_items_bucket order_distinct_items_bucket store_avg_order_place_duration store_avg_drive_duration store_order_volume load_busy_ratio load_demand_supply_ratio load_orders_per_busy_dasher load_roll_outstanding_mean load_roll_onshift_mean load_roll_busy_mean load_roll_busy_ratio_mean load_roll_demand_supply_mean load_roll_outstanding_std load_roll_busy_std load_recent_order_count load_demand_momentum load_supply_momentum load_busy_momentum load_supply_stress_index load_utilization_volatility load_pressure_index total_onshift_dashers_lag_5min total_onshift_dashers_lag_15min total_onshift_dashers_lag_30min total_busy_dashers_lag_5min total_busy_dashers_lag_15min total_busy_dashers_lag_30min total_outstanding_orders_lag_5min total_outstanding_orders_lag_15min total_outstanding_orders_lag_30min load_busy_ratio_lag_5min load_busy_ratio_lag_15min load_busy_ratio_lag_30min load_demand_supply_ratio_lag_5min load_demand_supply_ratio_lag_15min load_demand_supply_ratio_lag_30min total_onshift_dashers_roll10_std total_busy_dashers_roll10_std total_outstanding_orders_roll10_std load_busy_ratio_roll10_std load_demand_supply_ratio_roll10_std demand_spike_15m supply_drop_15m busy_growth_15m burst_index market_velocity_orders market_velocity_busy bucket_distance bucket_dashers store_primary_category_encoded store_id_encoded market_id_encoded order_protocol_encoded interaction__order_subtotal__x__store_id_encoded interaction__order_total_items__x__load_busy_ratio interaction__time_hour_sin__x__load_demand_supply_ratio interaction__store_id_encoded__x__order_avg_item_price
feature_infos=[1:34] [0:26800] [1:20] [0:14700] [0:14700] [0:171] [0:154] [0:285] [0:2715] [0:1739] [6:23] [0:6] [1:2] [0:1] [0:1] [391:1380] [13:46] [-1:1] [-1:0.96592581272125244] [-0.97492790222167969:0.97492790222167969] [-0.90096884965896606:1] [0:1] [0:14700] [-198:7674] [0.029411764815449715:1] [0:1] [0:3] [0:4] [0:2] [0:607.75] [15:1312.6666259765625] [1:936] [0:30] [0:47] [0:17] [0.40000000596046448:264.20001220703125] [0.20000000298023224:153.39999389648438] [0:140.60000610351562] [0:15.033333778381348] [0:12.695047378540039] [0:98.732467651367188] [0:57.682655334472656] [1:10] [-87.666664123535156:89.666664123535156] [-50.666667938232422:51.666667938232422] [-46:47.666667938232422] [0:846] [0:2.2627792358398438] [0:324.95260620117188] [0:171] [0:171] [0:171] [0:154] [0:154] [0:154] [0:285] [0:285] [0:285] [0:30] [0:30] [0:30] [0:47] [0:47] [0:47] [0:57.990036010742188] [0:57.682655334472656] [0:98.732467651367188] [0:9.9397592544555664] [0:18.787881851196289] [-200:222] [-121:130] [-118:129] [0:129] [0:0.99650349650349646] [0:0.99354838709677418] [0:3] [0:3] [2264.6875:3466.875] [702:7131] [2731.41064453125:2986.607177734375] [2385.5:3550.966552734375] [0:76173256] [0:153] [-33.234016418457031:11.5] [0:42244680]
tree_sizes=3025 3061 3077 3056 3060 3059 3068 3058 3079 3066 3057 3095 3079 3079 3062 3072 3059 3077 3054 3078 3077 3060 3064 3072 3071 3069 3056 3069 3078 3050 3068 3080 3069 3059 3048 3063 3061 3058 3052 3083 3077 3056 3069 3074 3061 3029 3048 3066 3080 3057 3056 3053 3081 3084 3077 3046 3085 3075 3044 3083 3075 3079 3062 3044 3084 3087 3074 3058 3042 3078 3071 3057 3027 3032 3056 3053 3047 3062 3063 3040 3037 3058 3032 3089 3029 3091 3054 3064 3071 3045 3041 3036 3074 3030 3035 2999 3062 3050 3056 3034 3056 3055 3021 3063 3060 3042 3034 3048 3049 3038 2989 3054 3020 3048 3017 3078 3086 3052 3027 3045 3050 3086 3047 3006 3027 3067 3033 3069 3072 3011 3012 2988 3073 3012 3047 3052 3004 3022 3011 2976 3037 2992 2983 3014 3029 3061 2988 2992 3010 3010 2995 3041 3024 2994 3005 3053 3042 3008 3042 2980 2989 2963 2998 3014 3045 2965 3003 3023 2998 2979 2957 2944 2961 3042 3028 2946 2951 2961 2936 2944 2980 2983 2962 3001 2937 2936 2936 2977 2915 2934 2958 3013 2956 3025 3074 3028 2991 3039 2972 3003 2961 2951 2936 2945 2984 2930 2926 3002 2925 2968 2944 2912 2912 2986 3000 2975 2932 2911 3010 2942 2946 2923 2979 2981 2930 2979 3056 3023 2935 2898 3009 2962 2950 2902 2923 2882 2993 2984 2999 3020 2949 2950 2932 2958 2920 2936 2942 2953 2933 2917 3038 2906 3001 2933 2912 2976 2908 2942 3027 2893 2941 2950 2903 2869 2893 2964 2992 2944 2987 2986 2982 2942 2956 2963 3025 2941 2935 2964 2941 3001 3025 2948 2922 2993 2968 2930 2952 2901 2913 2907 2922 2923 2945 2931 2950 2995 2930 2911 2985 2944 2938 2961 2956 3006 2927 2866 2864 2893 2863 2906 2938 2935 2957 2903 2931 2955 2859 2938 2969 2877 2948 2953 2993 2908 2987 2879 2995 2914 2926 2930 2927 2939 2922 2902 2862 2885 2898 3001 2931 2877 2906 2949 2911 2947 2931 2887 2860 2931 2939 2888 2961 2941 2912 2986 2909 2912 2949 2890 2973 2892 2965 2898 2945 2942 2921 2910 2968 2970 2994 2948 2960 2959 2896 2929 2952 2952 2928 2931 2926 2972 2864 2945 2992 2895 2935 2952 2940 2886 2901 2923 2956 2969 2996 2987 2902 2918 2987 2945 2967 2952 2899 2902 2892 2971 2897 2866 2930 2869 2921 2854 2876 2867 2913 2905 2853 2923 2909 2917 2874 2932 2988 2944 2952 2923 2857 2914 2877 2866 2852 2950 2907 2908 2933 2845 2890 2886 2869 2884 2871 2913 2891 2909 2879 2883 2929 2933 2970 2907 2935 2916 2950 2920 2945 2936 3013 2923 2960 2931 2851 2934 2938 2883 2922 2948 2900 2876 2882 2884 2937 2999 2861 2938 2895 2857 2923 2970 2883 2966 3006 2923 2896 2906 2945 2878 2892 2896 2891 2889 2935 2869 2979 2869 2921 2955 2862 2947 2922 2900 2903 2978 2946 2962 2975 2897 2921 2890 2940 2935 2885 2935 2905 2934 2874 2888 2906 2915 2976 2910 2910 2883 2899 2891 2886 2891 2868 2942 2954 2886 2889 2897 2946 2907 2954 2930 2962 2922 2929 2893 2885 2881 2879 2880 2879 2919 2877 2928 2916 2943 2936 2907 2932 2915 2938 2911 2887 2930 2886 2875 2918 2896 2911 2929 2899 2942 2932 2895 2958 2937 2897 2912 2905 2904 2915 2932 2902 2948 2882 2989 2953 2889 2934 2980 2954 2967 2941 2903 2945 2859 2887 2938 2912 2896 2921 2958 2904 2913 2919 2928 2900 2916 2876 2875 2877 2906 2896 2921 2896 2931 2921 2983 2929 2882 2852 2918 2929 2960 2901 2981 2926 2952 2919 2902 2897 2892 2975 2940 2898 2915 2927 2930 2884 2927 2884 2935 2914 2964 2928 2882 2934 2955 2931 2928 2993 2910 2924 2924 2948 2850 2891 2908 2982 2869 2898 2925 2877 2908 2956 2876 2966 2911 2931 2881 2874 2904 2933 2910 2912 2886 2907 2972 3002 2923 2928 2932 2941 2880 2880 2885 2912 2916 2897 2914 2875 2868 2877 2922 2939 2915 2936 2898 2902 2866 2882 2924 2927 2965 2961 2938 2970 2897 2960 2902 2873 2877 2877 2902 2915 2919 2947 2950 2864 2871 2882 2963 2936 2892 2948 2927 2911 2932 2873 2871 2856 2922 2895 2930 2903 2876 2935 2893 2911 2890 2858 2906 2898 2946 2926 2873 2958 2923 2933 2891 2908 2883 2903 2954 3005 2879 2960 3054 2882 2891 2888 2879 2898 2912 2956 2951 2910 2915 2926 2892 2924 2922 2867 2877 2875 2894 2871 2928 2944 2893 2938 2886 2930 2885 2904 2894 2900 2902 2920 2921 2909 2863 2916 2929 2912 2921 2908 2878 2901 2884 2891 2963 2860 2917 2897 2902 2859 2923 2902 2920 2908 2912 2940 2900 2908 2923 2910 2904 2915 2875 2918 2856 2934 2875 2884 2884 2900 2935 2895 2929 2906 2865 2882 2931 2928 2904 2911 2908 2888 2930 2907 2917 2948 2901 2883 2902 2883 2834 2935 2891 2889 2908 2896 2982 2924 2924 2921 2955 2903 2882 2886 2891 2885 2893 2907 2874 2905 2956 2878 2957 2887 2921 2897 2913 2932 2903 2943 2907 2886 2907 2948 2920 2935 2890 2874 2871 2870 2885 2925 2906 2934 2932 2908 2919 2899 3005 2890 2930 2900 2954 2949 2885 2929 2966 2926 2924 2969 2896 2925 2941 2899 2925 2877 2921 2907 2890 2906 2940 2885 2860 2860 2881 2899 2888 2914 2904 2886 2958 2917 2934 2923 2905 2894 2906 2881 2930 2902 2933 2917 2889 2943 2908 2892 2903 2926 2869 2880 2912 2855 2852 2859 2889 2853 2898 2867 2879 2927 2882 2889 2869 2905 2898 2933 2912 3001 2882 2876 2893 2870 2917 2917 2959 2896 2896 2874 2923 2853 2894 2900 2904 2895 2914 2923 2965 2964 2907 2959 2940 2884 2961 2880 2914 2875 2868 2880 2893 2904 2895 2905 2886 2865 2885 2911 2887 2869 2881 2921 2894 2874 2887 2915 2869 2892 2903 2923 2895 2902 2994 2919 2946 2923 2924 2921 2912 2906 2930 2901 2898 2907 2894 2917 2905 2924 2917 2933 2906 2861 2859 2931 2881 2873 2884 2919 2917 2912 2878 2917 2925 2877 2912 2904 2923 2857 2889 2939 2967 2922 2905 2896 2935 2925 2870 2918 2963 2899 2923 2918 2920 2928 2952 2912 2935 2917 2888 2932 2895 2885 2910 2915 2885 2918 2919 2930 2857 2896 2873 2876 2889 2962 2925 2890 2899 2939 2915 2922 2919 2881 2955 2872 2896 2898 2889 2867 2891 2918 2952 2925 2886 2892 2906 2900 2873 2883 2916 2922 2910 2916 2957 2942 2878 2920 2904 2955 2920 2891 2891 2914 2878 2902 2900 2913 2823 2881 2867 2860 2902 2869 2912 2919 2926 2908 2911 2938 2921 2944 2868 2912 2896 2916 2876 2902 2893 2889 2924 2900 2942 2892 2935 2920 2921 2928 2895 2898 2900 2895 2893 2890 2904 2876 2885 2880 2892 2898 2905 2927 2869 2940 2922 2883 2912 2959 2889 2928 2917 2930 2906 2897 2912 2895 2889 2891 2916 2923 2880 2904 2929 2889 2897 2868 2906 2883 2884 2950 2874 2925 2899 2883 2910 2913 2879 2923 2884 2911 2906 2907 2916 2904 2936 2879 2968 2907 2864 2893 2953 2948 2916 2890 2950 2850 2938 2850 2900 2953 2990 2879 2887 2945 2963 2886 2886

Tree=0
num_leaves=32
num_cat=0
split_feature=83 78 9 78 39 78 9 33 33 9 39 13 83 61 78 12 1 83 9 1 9 31 81 61 9 17 5 81 78 9 9
split_gain=1.32835e+10 5.99221e+09 2.14971e+09 1.66759e+09 1.65989e+09 1.2469e+09 1.17189e+09 7.08487e+08 6.99306e+08 4.90073e+08 4.54928e+08 3.92327e+08 3.72731e+08 3.22973e+08 3.16619e+08 2.90878e+08 2.75609e+08 2.6076e+08 2.41142e+08 2.33468e+08 2.31071e+08 2.26931e+08 2.22634e+08 2.21963e+08 2.20765e+08 2.08333e+08 2.03014e+08 2.09402e+08 1.83385e+08 1.83007e+08 1.74083e+08
threshold=-1.3632510900497434 2809.583862304688 523.50000000000011 3271.9545898437505 1.8054684996604922 2930.8537597656255 555.25000000000011 1.1214168667793276 1.1561066508293154 643.50000000000011 1.0916253924369814 1.0000000180025095e-35 -1.0344509482383726 1.1400934457778933 3443.601928710938 1.5000000000000002 5390.5000000000009 -1.4996058940887449 391.25000000000006 6508.5000000000009 570.25000000000011 30.500000000000004 8310395.0000000009 1.6192583441734316 648.50000000000011 -0.91597560048103321 3.5000000000000004 7889176.0000000009 3657.140991210938 728.50000000000011 680.25000000000011
decision_type=2 2 2 2 2 2 2 2 2 2 2 2 2 2 2 2 2 2 2 2 2 2 2 2 2 2 2 2 2 2 2
left_child=4 2 7 6 5 9 12 26 16 17 18 -6 -3 25 24 -13 21 -1 -5 23 -12 -4 -9 -14 -7 -8 -2 -28 -20 -10 -23
right_child=1 3 8 10 11 14 13 22 29 -11 20 15 19 -15 -16 -17 -18 -19 28 -21 -22 30 -24 -25 -26 -27 27 -29 -30 -31 -32
leaf_value=2831.5037662110417 2801.6741934335287 2815.1001956013502 2806.6576537402334 2806.354383870515 2867.514032905176 2844.6116332191673 2826.0762984049766 2788.727700665047 2807.3407031273387 2846.175242176178 2834.9519685921655 2853.546298562258 2794.6600499826718 2830.7878990670192 2875.9997181258714 2916.215864279201 2823.2188142607083 2812.7687489041518 2822.9171012323286 2831.678366353201 2853.8315104808207 2784.8381701173712 2804.562886905393 2827.8597451346764 2864.4536972731107 2809.607879534472 2770.9870888669602 2786.7761353278343 2845.2795466384046 2819.3809081460199 2797.3495758586682
leaf_weight=4759 716 4533 3072 1400 2200 3867 3145 10680 8041 3755 3461 232 9702 6836 1740 917 896 3046 2751 491 3048 5377 2802 531 2199 4932 9988 2659 1375 5195 5757
leaf_count=4759 716 4533 3072 1400 2200 3867 3145 10680 8041 3755 3461 232 9702 6836 1740 917 896 3046 2751 491 3048 5377 2802 531 2199 4932 9988 2659 1375 5195 5757
internal_value=2812.95 2804.92 2794.07 2819.1 2847.38 2841.76 2812.82 2783.93 2803.68 2831.33 2834.84 2879.88 2803.08 2822.79 2857.2 2903.56 2796.32 2824.19 2824.29 2798 2843.79 2794.63 2792.02 2796.38 2851.8 2816.02 2775.77 2774.31 2830.37 2812.07 2791.31
internal_weight=120103 97388 55183 42205 22715 19366 30170 26845 28338 11560 12035 3349 15257 14913 7806 1149 15102 7805 5526 10724 6509 14206 13482 10233 6066 8077 13363 12647 4126 13236 11134
internal_count=120103 97388 55183 42205 22715 19366 30170 26845 28338 11560 12035 3349 15257 14913 7806 1149 15102 7805 5526 10724 6509 14206 13482 10233 6066 8077 13363 12647 4126 13236 11134
is_linear=0
shrinkage=1


Tree=1
num_leaves=32
num_cat=0
split_feature=83 78 9 83 78 78 61 61 9 11 81 39 5 9 78 9 81 81 39 39 17 9 39 78 9 9 78 9 39 9 17
split_gain=1.19884e+10 5.40962e+09 2.54181e+09 1.55081e+09 1.02493e+09 9.16362e+08 7.60813e+08 7.45527e+08 6.84436e+08 5.30874e+08 3.82794e+08 3.44419e+08 3.4067e+08 3.2975e+08 3.14788e+08 3.10466e+08 2.9933e+08 2.90853e+08 2.86516e+08 2.4893e+08 2.34403e+08 2.27938e+08 2.18695e+08 2.1409e+08 2.11577e+08 1.92659e+08 1.6828e+08 1.58952e+08 1.53083e+08 1.46286e+08 1.44678e+08
threshold=-1.3632510900497434 2995.384399414063 523.50000000000011 -1.7557695508003233 2812.9030761718755 3443.601928710938 1.1306379437446596 1.1306379437446596 584.50000000000011 5.5000000000000009 11392742.000000002 1.148536264896393 4.5000000000000009 639.50000000000011 2598.4279785156255 481.50000000000006 9544390.0000000019 10765997.500000002 1.0952547788619997 1.1900172233581545 -0.91597560048103321 689.50000000000011 1.7880489230155947 3443.601928710938 728.50000000000011 370.50000000000006 2930.8537597656255 388.50000000000006 1.5544592142105105 704.50000000000011 -0.91597560048103321
decision_type=2 2 2 2 2 2 2 2 2 2 2 2 2 2 2 2 2 2 2 2 2 2 2 2 2 2 2 2 2 2 2
left_child=3 2 6 9 13 8 14 10 11 21 12 -3 -4 28 -2 -6 24 25 27 -10 -14 26 -11 -17 -9 -8 -1 -7 -5 -22 -16
right_child=1 5 7 4 15 18 17 16 19 22 -12 -13 20 -15 30 23 -18 -19 -20 -21 29 -23 -24 -25 -26 -27 -28 -29 -30 -31 -32
leaf_value=30.395771532854344 -38.631338061573871 -11.00725655003113 11.542244676839223 -0.075877131311536103 25.212080908854016 -1.6225260299548474 -25.330706875356707 -6.2821243107915983 9.395555138340816 54.752816327336326 6.4782555606946932 7.0912058138578082 -8.2748077514981286 26.994308809638341 -16.398844196030289 40.364738004281463 15.202079759049258 -0.26717299935119365 36.721443051844481 26.47258821219619 -26.832590702949972 66.838628878376696 99.092404461048403 67.190905965206852 6.0104285160089024 -13.749327118692888 54.060465841005602 22.993559583081094 16.917521251864148 -14.954721941341134 -29.941834040010004
leaf_weight=1774 8786 5638 1100 3616 3252 886 7291 8984 5303 415 2289 4925 4935 2843 3034 4578 3284 2243 3675 3571 5765 1111 843 888 5735 7076 1303 2524 2092 4710 5634
leaf_count=1774 8786 5638 1100 3616 3252 886 7291 8984 5303 415 2289 4925 4935 2843 3034 4578 3284 2243 3675 3571 5765 1111 843 888 5735 7076 1303 2524 2092 4710 5634
internal_value=0.00864277 -7.62052 -14.8297 32.7178 25.3811 11.6421 -24.6723 -5.71933 6.03095 55.982 -12.6835 -2.56885 -15.3402 13.0817 -31.9618 37.4449 1.55279 -17.0124 27.0359 16.2676 -17.2591 47.4261 84.4653 44.7229 -1.49255 -19.6267 40.4169 16.5977 6.15226 -21.4918 -25.2015
internal_weight=120103 97388 70866 22715 17269 26522 34064 36802 19437 5446 18799 10563 16510 8551 17454 8718 18003 16610 7085 8874 15410 4188 1258 5466 14719 14367 3077 3410 5708 10475 8668
internal_count=120103 97388 70866 22715 17269 26522 34064 36802 19437 5446 18799 10563 16510 8551 17454 8718 18003 16610 7085 8874 15410 4188 1258 5466 14719 14367 3077 3410 5708 10475 8668
is_linear=0
shrinkage=0.05


Tree=2
num_leaves=32
num_cat=0
split_feature=83 78 75 83 78 75 78 33 11 33 17 33 33 78 78 75 75 81 81 81 1 5 81 75 17 17 12 75 75 61 5
split_gain=1.08195e+10 4.98903e+09 1.73367e+09 1.4156e+09 1.36001e+09 1.11694e+09 8.51702e+08 6.21678e+08 5.64525e+08 5.35909e+08 3.99846e+08 3.83268e+08 3.56288e+08 2.82858e+08 2.69229e+08 2.54015e+08 2.50313e+08 2.30518e+08 2.12058e+08 2.04421e+08 1.94907e+08 1.91343e+08 1.8483e+08 1.84436e+08 1.77015e+08 1.76345e+08 1.74325e+08 1.66548e+08 1.62046e+08 1.60897e+08 1.5027e+08
threshold=-1.3632510900497434 2809.583862304688 1.5000000000000002 -1.6969332098960874 3443.601928710938 1.5000000000000002 2809.583862304688 1.1352759003639223 5.5000000000000009 1.1561066508293154 -0.91597560048103321 1.0546699762344363 1.3238765597343447 2930.8537597656255 3443.601928710938 1.5000000000000002 1.0000000180025095e-35 6287709.2500000009 13292285.000000002 16435212.000000002 7795.5000000000009 4.5000000000000009 21264451.000000004 1.5000000000000002 -0.91597560048103321 -0.91597560048103321 1.5000000000000002 1.0000000180025095e-35 1.5000000000000002 1.6384766697883608 2.5000000000000004
decision_type=2 2 2 2 2 2 2 2 2 2 2 2 2 2 2 2 2 2 2 2 2 2 2 2 2 2 2 2 2 2 2
left_child=3 2 7 8 5 11 15 18 13 17 -7 25 -12 28 23 -5 -6 30 21 -13 27 -2 -18 -8 -23 -3 -10 -9 -1 -11 -4
right_child=1 4 9 6 16 10 14 20 26 29 12 19 -14 -15 -16 -17 22 -19 -20 -21 -22 24 -24 -25 -26 -27 -28 -29 -30 -31 -32
leaf_value=22.238716717366486 -12.838431939049876 -5.285390904678005 16.887939482031094 1.7545667042522095 9.2185820364861364 19.053171629424877 21.073698472662873 -24.331402409277842 24.929971267593405 -2.1556589107758222 -0.93979757859261248 -3.2344280033960118 20.96731260014889 55.151579218043338 55.114518293072472 19.980192265372278 27.946862443059185 -6.2168225132882373 -8.2315008894746953 21.884702500071608 23.79492299916113 -27.201558330145737 58.9271059961631 37.878717266411961 -39.866369052250946 -21.463292148394888 82.879521812804768 -13.292525289907307 44.420327613077205 17.496664841357742 -20.586964273459145
leaf_weight=1735 964 2547 276 3900 1741 7572 3058 7008 144 11227 8211 8523 2398 2464 1280 3750 4809 5220 825 895 272 4002 535 3503 8883 4974 1314 6668 1567 1148 8690
leaf_count=1735 964 2547 276 3900 1741 7572 3058 7008 144 11227 8211 8523 2398 2464 1280 3750 4809 5220 825 895 272 4002 535 3503 8883 4974 1314 6668 1567 1148 8690
internal_value=0.00821035 -7.23949 -17.1365 31.0819 5.70087 1.66951 22.5581 -25.6739 49.3602 -7.93671 10.2763 -7.56836 4.01197 42.3317 34.1384 10.6887 25.6841 -14.5701 -32.8582 -0.847337 -18.1156 -34.3252 31.0484 30.0461 -35.9328 -15.9846 77.1561 -18.9492 32.7652 -0.332558 -19.4334
internal_weight=120103 97388 55183 22715 42205 35120 15491 28622 7224 26561 18181 16939 10609 5766 7841 7650 7085 14186 14674 9418 13948 13849 5344 6561 12885 7521 1458 13676 3302 12375 8966
internal_count=120103 97388 55183 22715 42205 35120 15491 28622 7224 26561 18181 16939 10609 5766 7841 7650 7085 14186 14674 9418 13948 13849 5344 6561 12885 7521 1458 13676 3302 12375 8966
is_linear=0
shrinkage=0.05


Tree=3
num_leaves=32
num_cat=0
split_feature=83 78 83 9 78 78 9 39 61 39 81 9 9 81 81 9 39 15 81 81 11 39 5 33 61 5 9 78 83 78 5
split_gain=9.80007e+09 4.17404e+09 1.72722e+09 1.53326e+09 1.18e+09 9.92812e+08 8.1498e+08 5.88313e+08 4.78352e+08 3.99975e+08 3.55558e+08 3.47853e+08 2.95436e+08 2.88457e+08 2.57923e+08 2.56735e+08 2.56181e+08 2.32833e+08 2.2397e+08 2.07167e+08 1.99909e+08 1.93701e+08 1.83742e+08 1.80815e+08 1.7103e+08 1.67929e+08 1.66863e+08 1.65434e+08 1.52808e+08 1.52202e+08 1.49931e+08
threshold=-1.2915432453155515 2809.583862304688 -1.6664443612098692 508.50000000000006 3271.9545898437505 2925.594116210938 523.50000000000011 1.888039827346802 1.1214168667793276 1.1944366693496706 12377886.500000002 639.50000000000011 535.50000000000011 17136356.000000004 15559466.500000002 475.50000000000006 1.148536264896393 1197.5000000000002 7604077.2500000009 6695926.7500000009 5.5000000000000009 1.1926706433296206 5.5000000000000009 0.99599999189376842 1.5314980149269106 4.5000000000000009 609.25000000000011 3443.601928710938 -1.4996058940887449 2766.023315429688 3.5000000000000004
decision_type=2 2 2 2 2 2 2 2 2 2 2 2 2 2 2 2 2 2 2 2 2 2 2 2 2 2 2 2 2 2 2
left_child=2 3 7 9 6 11 14 12 18 19 16 28 29 17 21 -7 26 23 25 22 -9 -3 -2 30 -10 -5 -6 -17 -4 -1 -8
right_child=1 4 5 8 10 15 13 20 24 -11 -12 -13 -14 -15 -16 27 -18 -19 -20 -21 -22 -23 -24 -25 -26 -27 -28 -29 -30 -31 -32
leaf_value=15.363284747029633 -15.621026075614276 -17.443316734709605 12.348364941109599 5.6813194097241748 -3.6001825560080962 19.636962369669885 24.674040974053877 56.310815362278312 -4.7054726038018089 -18.13555586859 31.571450478439534 21.06316948374803 49.127341689684322 30.28292088247742 11.628969971731825 34.447835508759901 22.16886903278505 -10.584829679833172 -4.8953057554824593 -22.105407850280315 91.820355828397112 -3.9491521588694476 -37.297357828353448 12.193716881876393 11.241836493273404 -20.601653537711268 16.301306668765829 57.556309340999341 -2.1315280256878562 37.350512050357189 -3.3851061646251241
leaf_weight=1376 1089 7508 2825 646 2690 2634 536 863 11679 9312 3388 4014 3370 1191 1206 3940 3592 2129 3761 4326 733 4118 9560 7467 1964 10261 1731 964 5132 1839 4259
leaf_count=1376 1089 7508 2825 646 2690 2634 536 863 11679 9312 3388 4014 3370 1191 1206 3940 3592 2129 3761 4326 733 4118 9560 7467 1964 10261 1731 964 5132 1839 4259
internal_value=0.00780001 -7.81033 26.1001 -17.0556 4.40326 18.0135 -1.0492 45.3841 -9.14877 -26.2725 17.9921 9.06296 38.7831 6.63525 -10.3805 32.2277 12.2505 4.67817 -15.4169 -31.3324 72.6194 -12.6636 -35.0807 7.32822 -2.40975 -19.045 4.19205 38.9904 3.00932 27.9401 -0.248568
internal_weight=120103 92413 27690 52598 39815 19509 28414 8181 28311 24287 11401 11971 6585 15582 12832 7538 8013 14391 14668 14975 1596 11626 10649 12262 13643 10907 4421 4904 7957 3215 4795
internal_count=120103 92413 27690 52598 39815 19509 28414 8181 28311 24287 11401 11971 6585 15582 12832 7538 8013 14391 14668 14975 1596 11626 10649 12262 13643 10907 4421 4904 7957 3215 4795
is_linear=0
shrinkage=0.05


Tree=4
num_leaves=32
num_cat=0
split_feature=83 78 9 39 61 78 9 61 17 11 78 81 81 9 81 33 39 81 9 5 9 78 81 81 49 78 17 83 31 78 33
split_gain=8.87941e+09 4.20916e+09 2.00224e+09 1.05751e+09 7.4957e+08 7.3521e+08 7.22501e+08 5.45155e+08 4.19691e+08 4.06878e+08 3.83444e+08 3.30539e+08 3.26505e+08 2.67405e+08 2.46427e+08 2.46421e+08 2.41805e+08 2.32675e+08 2.1857e+08 2.17022e+08 2.13813e+08 2.08385e+08 2.08067e+08 1.9472e+08 1.7757e+08 1.62131e+08 1.55427e+08 1.49719e+08 1.48491e+08 1.45029e+08 1.44346e+08
threshold=-1.4082483053207395 3012.895385742188 484.50000000000006 1.8054684996604922 1.1214168667793276 2930.8537597656255 589.50000000000011 1.1561066508293154 -0.91597560048103321 5.5000000000000009 2570.9558105468755 8551829.0000000019 13468898.500000002 466.25000000000006 5790282.5000000009 1.4866060614585879 1.1900172233581545 8310395.0000000009 760.50000000000011 4.5000000000000009 496.50000000000006 3498.464233398438 27458196.000000004 14606801.500000002 3.5000000000000004 3621.442260742188 -0.91597560048103321 -1.5618602037429807 20.500000000000004 3053.816528320313 1.7819347381591799
decision_type=2 2 2 2 2 2 2 2 2 2 2 2 2 2 2 2 2 2 2 2 2 2 2 2 2 2 2 2 2 2 2
left_child=3 2 7 5 10 13 8 14 21 29 28 18 16 -1 24 22 -8 30 -6 -12 -7 -3 25 26 -2 -10 -21 -15 -4 -5 -9
right_child=1 6 4 9 11 20 12 17 15 -11 19 -13 -14 27 -16 -17 -18 -19 -20 23 -22 -23 -24 -25 -26 -27 -28 -29 -30 -31 -32
leaf_value=6.2421411933214408 -8.8095676662803406 8.3359051425874569 -4.8757669338834653 37.43200317906939 -5.7779195879165899 26.887014833466743 9.1344525213470202 -19.835632486496188 -11.716099354267032 83.749080208049918 16.323390306850499 12.075372401363923 36.098147348941893 30.68280138218287 -20.775911858175235 18.055576893217239 25.722642070655212 -3.7550340904397146 6.9531750413968894 -1.9558372610453902 44.970348592291479 29.630842775159266 49.925043176541664 12.938235312456682 -35.244520965256989 8.3822722861360273 -14.841744087904685 14.902296025701768 -22.748451189387982 65.311799710747607 5.682597605306337
leaf_weight=3840 684 4676 1378 1706 12123 2691 5347 10515 5854 956 979 5309 2583 3139 6540 1135 3729 3531 4670 3625 4164 1523 157 991 8915 1211 6602 2884 7419 642 585
leaf_count=3840 684 4676 1378 1706 12123 2691 5347 10515 5854 956 979 5309 2583 3139 6540 1135 3729 3531 4670 3625 4164 1523 157 991 8915 1211 6602 2884 7419 642 585
internal_value=0.00740992 -6.07342 -12.1821 30.4028 -5.2262 25.2943 11.1389 -21.9243 3.70999 56.251 -11.9921 1.20051 20.4137 16.5529 -28.2611 -3.60223 15.9499 -14.9345 -2.2375 -6.2534 37.8716 13.5677 -7.00594 -8.22369 -33.3608 -8.27107 -10.2743 23.1266 -19.9488 45.055 -18.4908
internal_weight=120103 100081 73866 20022 43096 16718 26215 30770 14556 3304 20994 22102 11659 9863 16139 8357 9076 14631 16793 12197 6855 6199 7222 11218 9599 7065 10227 6023 8797 2348 11100
internal_count=120103 100081 73866 20022 43096 16718 26215 30770 14556 3304 20994 22102 11659 9863 16139 8357 9076 14631 16793 12197 6855 6199 7222 11218 9599 7065 10227 6023 8797 2348 11100
is_linear=0
shrinkage=0.05


Tree=5
num_leaves=32
num_cat=0
split_feature=83 78 9 39 9 78 78 11 39 81 78 39 78 17 33 9 78 9 15 81 39 81 39 5 31 31 11 1 49 1 83
split_gain=8.00472e+09 3.65977e+09 1.24364e+09 1.23602e+09 1.1239e+09 8.01523e+08 7.94451e+08 4.65492e+08 4.05533e+08 3.51902e+08 3.38929e+08 3.26879e+08 2.9499e+08 2.72671e+08 2.90807e+08 2.56577e+08 2.3207e+08 2.26691e+08 2.14397e+08 2.07998e+08 1.9557e+08 1.88978e+08 1.82665e+08 1.69417e+08 1.65702e+08 1.45645e+08 1.43845e+08 1.43775e+08 1.38215e+08 1.30694e+08 1.27487e+08
threshold=-1.3248491883277891 2778.206665039063 560.50000000000011 1.6931281089782717 451.50000000000006 2762.1218261718755 3173.697387695313 5.5000000000000009 1.1944366693496706 9777583.0000000019 3422.744506835938 1.2324475646018984 3796.5905761718755 -0.91597560048103321 1.3167492151260378 648.50000000000011 2812.9030761718755 639.50000000000011 1201.5000000000002 7604077.2500000009 1.1926706433296206 5832824.0000000009 0.98809656500816356 7.5000000000000009 48.500000000000007 18.500000000000004 3.5000000000000004 7795.5000000000009 4.5000000000000009 9840.5000000000018 -1.4996058940887449
decision_type=2 2 2 2 2 2 2 2 2 2 2 2 2 2 2 2 2 2 2 2 2 2 2 2 2 2 2 2 2 2 2
left_child=3 2 8 5 9 17 13 16 21 20 15 19 18 -6 28 26 -5 30 22 24 -3 23 -8 -2 -4 -14 -7 -10 -15 -30 -1
right_child=1 4 11 7 6 10 12 -9 27 -11 -12 -13 25 14 -16 -17 -18 -19 -20 -21 -22 -23 -24 -25 -26 -27 -28 -29 29 -31 -32
leaf_value=9.481857111425759 -16.458031858052269 -17.894443880842012 -5.9478573259483767 26.972435800839062 11.072795414145931 9.321869485449076 8.9382216657545488 72.446160978625741 -16.146793737099582 4.1194890441362091 47.418649764866977 2.0660668122805377 19.894908349187514 14.289601197544958 13.519497256477379 35.331006929135263 49.491038148626927 18.968468478954794 -2.0400727913123085 -1.3486548915034078 -3.3213714771392597 -20.594502956802607 25.61474781508252 -34.150891599440548 -18.380598948224065 49.830508199906376 24.986790608942758 24.860362961423508 -8.4243309817771088 55.030644970986899 -5.5189913238191108
leaf_weight=2727 1584 6324 4002 2362 7176 2721 2440 1237 10961 4613 1851 6846 628 781 2523 3207 2219 2853 1273 4189 3620 6137 5021 9278 8113 1151 3176 218 7789 82 2947
leaf_count=2727 1584 6324 4002 2362 7176 2721 2440 1237 10961 4613 1851 6846 628 781 2523 3207 2219 2853 1273 4189 3620 6137 5021 9278 8113 1151 3176 218 7789 82 2947
internal_value=0.0205117 -6.65119 -15.6894 25.0062 4.03288 18.9668 9.74558 45.2295 -22.7438 -7.2944 27.9143 -7.10282 20.7051 3.46704 -1.41698 23.9487 37.8803 7.47151 16.9251 -10.9528 -12.5893 -27.6081 20.161 -31.5708 -14.2736 39.263 17.7587 -15.3471 -5.77259 -7.76326 1.69062
internal_weight=120049 94749 51328 25300 43421 19482 28864 5818 28178 14557 10955 23150 10513 18351 11175 9104 4581 8527 8734 16304 9944 16999 7461 10862 12115 1779 5897 11179 8652 7871 5674
internal_count=120049 94749 51328 25300 43421 19482 28864 5818 28178 14557 10955 23150 10513 18351 11175 9104 4581 8527 8734 16304 9944 16999 7461 10862 12115 1779 5897 11179 8652 7871 5674
is_linear=0
shrinkage=0.05


Tree=6
num_leaves=32
num_cat=0
split_feature=83 78 9 9 83 78 78 33 61 78 33 9 9 9 11 17 33 81 5 17 81 9 11 9 81 31 83 17 78 5 31
split_gain=7.23689e+09 3.43485e+09 1.24473e+09 1.02363e+09 9.63195e+08 7.28204e+08 6.2295e+08 5.14799e+08 4.2545e+08 4.08475e+08 2.84644e+08 2.7878e+08 2.73611e+08 2.73483e+08 2.16321e+08 2.07853e+08 2.07628e+08 1.919e+08 1.907e+08 1.79419e+08 1.76356e+08 1.71444e+08 1.70624e+08 1.65954e+08 1.64827e+08 1.59429e+08 1.47608e+08 1.4604e+08 1.45405e+08 1.35349e+08 1.24684e+08
threshold=-1.3632510900497434 2812.9030761718755 454.50000000000006 626.50000000000011 -1.8884173631668089 2809.583862304688 3498.464233398438 1.1924841403961184 1.0825214982032778 3443.601928710938 0.98229950666427623 680.25000000000011 654.50000000000011 651.25000000000011 5.5000000000000009 -0.91597560048103321 1.3238765597343447 18852968.000000004 4.5000000000000009 -0.91597560048103321 17913714.000000004 280.50000000000006 3.5000000000000004 716.50000000000011 7719765.7500000009 20.500000000000004 -1.4996058940887449 -0.91597560048103321 3857.3090820312505 2.5000000000000004 48.500000000000007
decision_type=2 2 2 2 2 2 2 2 2 2 2 2 2 2 2 2 2 2 2 2 2 2 2 2 2 2 2 2 2 2 2
left_child=4 2 10 6 14 13 8 11 18 15 29 27 22 26 -1 -5 -17 21 -3 -20 23 -10 -7 -9 -12 -8 -6 -4 -27 -2 -13
right_child=1 3 7 9 5 12 25 20 17 -11 24 30 -14 -15 -16 16 -18 -19 19 -21 -22 -23 -24 -25 -26 28 -28 -29 -30 -31 -32
leaf_value=43.724555673869908 -0.078352245855035252 4.9403365584538745 -10.782115140341109 18.867717999159765 12.10229826920567 15.777531520191232 3.2383442630705659 -6.018786827544865 -12.407105400699232 33.079205789293617 -22.558717393900636 2.6869530300048035 42.524673948045823 24.280290135896447 73.991408900575351 1.6515833463928251 21.402779789268973 26.504249549242317 -5.0759518846063481 -19.742365584539119 32.178695797032333 3.5095816988201118 31.950337911605772 5.2569997453822506 -9.6167248646457821 15.122378671074518 -3.1496088679946195 -22.595863986080474 39.627491000509906 -33.243391639005026 -10.55071609878893
leaf_weight=1841 322 1483 3991 5452 4179 2806 1304 9317 2087 2608 10302 2535 3440 3089 869 5924 1716 758 3277 5734 386 8935 3894 5022 3232 1541 2557 7593 997 6895 5963
leaf_count=1841 322 1483 3991 5452 4179 2806 1304 9317 2087 2608 10302 2535 3440 3089 869 5924 1716 758 3277 5734 386 8935 3894 5022 3232 1541 2557 7593 997 6895 5963
internal_value=0.0194861 -5.90457 -14.0516 4.91984 25.4593 21.6627 -1.14567 -8.27304 -4.35285 15.0095 -23.7444 -13.4799 31.0623 11.9617 53.4301 11.4099 6.08785 2.16933 -11.6743 -14.4087 -1.17184 0.49578 25.1771 -2.06963 -19.4681 17.4479 6.31264 -18.5257 24.7487 -31.7637 -6.60185
internal_weight=120049 97374 55558 41816 22675 19965 26116 34807 22274 15700 20751 20082 10140 9825 2710 13092 7640 11780 10494 9011 14725 11022 6700 14339 13534 3842 6736 11584 2538 7217 8498
internal_count=120049 97374 55558 41816 22675 19965 26116 34807 22274 15700 20751 20082 10140 9825 2710 13092 7640 11780 10494 9011 14725 11022 6700 14339 13534 3842 6736 11584 2538 7217 8498
is_linear=0
shrinkage=0.05


Tree=7
num_leaves=32
num_cat=0
split_feature=83 78 83 78 9 9 81 39 9 9 78 33 33 78 81 5 78 9 81 78 34 9 81 39 1 9 78 78 31 78 31
split_gain=6.59905e+09 2.28186e+09 1.98177e+09 1.10366e+09 8.81038e+08 8.2028e+08 5.41778e+08 4.93288e+08 4.45471e+08 3.75427e+08 3.71007e+08 3.58583e+08 2.60522e+08 2.5569e+08 2.55622e+08 2.20436e+08 2.19474e+08 2.14498e+08 2.13034e+08 1.97282e+08 1.83035e+08 1.8218e+08 1.60812e+08 1.5009e+08 1.4845e+08 1.3657e+08 1.35221e+08 1.34847e+08 1.29479e+08 1.28939e+08 1.26835e+08
threshold=-1.1537225842475889 2775.173461914063 -1.5618602037429807 3012.895385742188 617.50000000000011 448.50000000000006 16781172.000000004 1.921139180660248 382.50000000000006 493.50000000000006 3173.697387695313 1.3238765597343447 1.3975815773010256 3521.1298828125005 14606801.500000002 8.5000000000000018 3025.585815429688 376.50000000000006 19412740.000000004 2557.890747070313 1.3811978101730349 748.50000000000011 30108202.000000004 1.3456611633300783 6641.5000000000009 493.50000000000006 2766.023315429688 3621.442260742188 31.500000000000004 3318.5847167968755 34.500000000000007
decision_type=2 2 2 2 2 2 2 2 2 2 2 2 2 2 2 2 2 2 2 2 2 2 2 2 2 2 2 2 2 2 2
left_child=2 4 7 8 11 18 10 9 -4 26 15 14 24 25 17 -7 -11 -2 20 -10 29 -17 -8 27 30 -5 -1 -12 -19 -3 -6
right_child=1 5 3 13 12 6 22 -9 19 16 23 -13 -14 -15 -16 21 -18 28 -20 -21 -22 -23 -24 -25 -26 -27 -28 -29 -30 -31 -32
leaf_value=8.7773589906642648 -31.283016766261156 -17.680116604901954 -9.6882867834569808 10.718577519980506 -0.82129609482356247 13.781967230735953 23.717924235727438 61.523861732589239 -0.66440436092193544 30.441454343476121 6.0635808517510146 -8.6383068072023299 10.064454360931103 40.404327184323698 1.4308477570314775 -7.5837613289506196 49.905265542516219 -12.51381101568299 17.280022621898734 11.21355768634826 2.8622070540429219 5.900495477326686 60.990534178649682 32.514571303024262 20.427652042147287 25.032472599840904 26.222544467875963 22.742508365270297 -24.062998135199791 -3.4664615796618037 -12.842378339708294
leaf_weight=2008 8925 7210 5335 2720 2810 2132 1944 1351 5364 4098 4891 4400 2008 1845 932 8590 2240 3213 673 10037 1807 3536 340 852 408 4302 2486 1611 9918 2049 10014
leaf_count=2008 8925 7210 5335 2720 2810 2132 1944 1351 5364 4098 4891 4400 2008 1845 932 8590 2240 3213 673 10037 1807 3536 340 852 408 4302 2486 1611 9918 2049 10014
internal_value=0.0185118 -8.5473 16.0618 9.07644 -16.3533 0.79051 6.1075 33.0354 2.76329 29.4822 3.66002 -21.7153 -6.71703 23.8401 -24.2183 -1.04483 37.3204 -25.3022 -10.0328 7.07659 -11.6939 -3.65169 29.2664 12.7818 -9.26367 19.4879 18.4277 10.1961 -21.237 -14.5347 -10.2083
internal_weight=120049 78263 41786 29603 42628 35635 23896 12183 20736 10832 21612 27388 15240 8867 22988 14258 6338 22056 11739 15401 11066 12126 2284 7354 13232 7022 4494 6502 13131 9259 12824
internal_count=120049 78263 41786 29603 42628 35635 23896 12183 20736 10832 21612 27388 15240 8867 22988 14258 6338 22056 11739 15401 11066 12126 2284 7354 13232 7022 4494 6502 13131 9259 12824
is_linear=0
shrinkage=0.05


Tree=8
num_leaves=32
num_cat=0
split_feature=61 78 17 39 75 78 78 75 17 11 17 81 75 75 75 78 78 81 81 78 75 31 78 81 5 61 81 5 79 75 39
split_gain=5.63284e+09 2.95454e+09 1.25942e+09 9.7167e+08 8.7228e+08 5.79828e+08 5.79808e+08 4.75284e+08 4.41105e+08 3.72824e+08 3.55592e+08 3.27613e+08 2.68293e+08 2.54236e+08 2.26689e+08 2.1646e+08 1.92332e+08 1.6933e+08 1.67609e+08 1.66005e+08 1.60032e+08 1.53637e+08 1.51749e+08 1.50334e+08 1.36336e+08 1.3672e+08 1.29116e+08 1.3771e+08 1.27258e+08 1.26541e+08 1.1605e+08
threshold=1.4978260993957522 2775.173461914063 -0.91597560048103321 1.6931281089782717 1.5000000000000002 3206.947631835938 2762.1218261718755 2.5000000000000004 -0.91597560048103321 5.5000000000000009 -0.91597560048103321 17513424.000000004 2.5000000000000004 1.0000000180025095e-35 1.0000000180025095e-35 2817.328491210938 3621.442260742188 19972837.000000004 12510991.500000002 3796.5905761718755 1.0000000180025095e-35 18.500000000000004 3741.8249511718755 15559466.500000002 6.5000000000000009 0.92365968227386486 17136356.000000004 36.500000000000007 2741.3308105468755 2.5000000000000004 1.2696112990379336
decision_type=2 2 2 2 2 2 2 2 2 2 2 2 2 2 2 2 2 2 2 2 2 2 2 2 2 2 2 2 2 2 2
left_child=1 4 5 6 8 13 14 11 -1 15 -6 16 18 -3 -2 -5 20 24 -8 -7 -4 -21 -9 29 -10 -26 27 30 -16 -12 -15
right_child=3 2 7 9 10 19 12 22 17 -11 23 -13 -14 26 28 -17 -18 -19 -20 21 -22 -23 -24 -25 25 -27 -28 -29 -30 -31 -32
leaf_value=-12.279090936599603 -7.6213707982883214 -5.4881414859266258 -19.454049720176979 22.231484837949619 0.26440146594227448 20.652620675682172 14.578000607578529 5.7365762878363116 -11.751036367127391 61.880861567439574 -17.744986309223801 17.657048414910697 37.245352322592467 12.021743425997965 1.9439856149522834 42.756853482838743 7.3267310050661481 19.367636689356559 32.444713271490151 16.003316103084892 -8.3235998837744631 52.10869867270813 37.312544670759465 16.041739676538896 -34.131282019695725 -23.895852423592853 26.988606882240578 3.6592872825674458 16.095065687734071 -8.1572172057078429 35.143871115627938
leaf_weight=10408 2294 3247 4767 2792 9812 5714 5819 5645 1485 1273 7022 1127 2599 3312 2599 2379 1424 207 1695 439 10012 896 408 459 5180 8814 1067 5669 4087 6749 649
leaf_count=10408 2294 3247 4767 2792 9812 5714 5819 5645 1485 1273 7022 1127 2599 3312 2599 2379 1424 207 1695 439 10012 896 408 459 5180 8814 1067 5669 4087 6749 649
internal_value=0.0175862 -5.61225 3.78438 20.8535 -13.9293 12.6742 15.1874 -4.19681 -20.2598 37.6417 -7.05852 -8.40973 23.398 6.76605 5.94093 31.6745 -10.2228 -25.5552 18.6084 24.3615 -11.9138 40.2358 7.86494 -12.1079 -26.156 -27.6846 10.4857 8.65721 10.5942 -13.0461 15.8102
internal_weight=120049 94512 44376 25537 50136 20993 19093 23383 26094 6444 24042 17330 10113 13944 8980 5171 16203 15686 7514 7049 14779 1335 6053 14230 15479 13994 10697 9630 6686 13771 3961
internal_count=120049 94512 44376 25537 50136 20993 19093 23383 26094 6444 24042 17330 10113 13944 8980 5171 16203 15686 7514 7049 14779 1335 6053 14230 15479 13994 10697 9630 6686 13771 3961
is_linear=0
shrinkage=0.05


Tree=9
num_leaves=32
num_cat=0
split_feature=83 78 83 78 9 9 9 9 83 33 81 81 81 33 5 15 78 78 78 31 9 81 11 33 81 9 78 81 61 9 79
split_gain=5.50698e+09 1.85717e+09 1.63556e+09 9.2734e+08 7.88944e+08 6.54896e+08 4.03871e+08 3.90667e+08 3.16497e+08 3.0837e+08 3.06135e+08 3.05682e+08 2.41456e+08 2.29163e+08 2.26867e+08 2.19133e+08 2.17082e+08 2.09936e+08 1.83199e+08 1.70841e+08 1.61469e+08 1.55255e+08 1.48541e+08 1.48097e+08 1.38266e+08 1.32716e+08 1.32276e+08 1.29414e+08 1.25709e+08 1.15022e+08 1.10972e+08
threshold=-1.1537225842475889 2812.9030761718755 -1.5713884830474851 3012.895385742188 614.50000000000011 570.25000000000011 630.25000000000011 466.25000000000006 -1.8884173631668089 1.3238765597343447 18852968.000000004 12660856.500000002 7080763.2500000009 1.3975815773010256 3.5000000000000004 1219.5000000000002 3563.3610839843755 3264.182739257813 3237.1628417968755 33.500000000000007 280.50000000000006 5553049.0000000009 5.5000000000000009 0.92365968227386486 27458196.000000004 692.50000000000011 2584.586547851563 18852968.000000004 1.6459935903549197 305.50000000000006 2741.3308105468755
decision_type=2 2 2 2 2 2 2 2 2 2 2 2 2 2 2 2 2 2 2 2 2 2 2 2 2 2 2 2 2 2 2
left_child=2 4 7 6 9 10 20 -1 22 12 15 14 19 21 -7 17 25 28 -10 -2 -4 -6 -9 -16 -13 -5 -22 -14 -3 -21 -11
right_child=1 5 3 16 13 11 -8 8 18 30 -12 24 27 -15 23 -17 -18 -19 -20 29 26 -23 -24 -25 -26 -27 -28 -29 -30 -31 -32
leaf_value=18.603800267934059 -17.004257779736069 -9.9149693614093994 -13.237658456166152 13.97971930202759 -12.552407928823275 27.08113222940317 12.118602271007468 46.069439382538448 27.722474614206558 -16.335029409011266 18.91997740441052 19.339080055241929 -15.313763226210511 9.5757168018127068 -4.6271967072773617 -21.931794528865144 38.348142933887289 4.9656521580304158 51.368965943746517 -36.096507417727743 -6.3246126116501635 -2.0886614893208333 77.520426821708682 7.3716165427831601 54.241318898847808 28.784347595833765 4.908999282016012 11.564350926802332 15.644342966937266 -25.030934351487495 -0.69906674207737796
leaf_weight=4344 5209 9764 2736 5257 8054 1087 7423 1139 4699 2016 1207 2706 5845 2144 3960 2180 1641 3904 992 3120 4409 6332 560 7335 317 2126 6460 485 506 9496 2596
leaf_count=4344 5209 9764 2736 5257 8054 1087 7423 1139 4699 2016 1207 2706 5845 2144 3960 2180 1641 3904 992 3120 4409 6332 560 7335 317 2126 6460 485 506 9496 2596
internal_value=0.0167069 -7.8083 14.6725 8.49132 -14.3791 1.22028 2.73754 30.5033 37.498 -19.3811 -5.38026 8.74459 -21.6431 -5.67406 5.26444 -7.17373 21.899 -4.9039 31.8443 -24.6222 -2.38084 -7.94679 56.4359 3.16486 22.999 18.2428 0.352095 -13.2544 -8.65567 -27.7675 -7.53387
internal_weight=120049 78263 41786 30052 45297 32966 21028 11734 7390 28767 17561 15405 24155 16530 12382 16354 9024 14174 5691 17825 13605 14386 1699 11295 3023 7383 10869 6330 10270 12616 4612
internal_count=120049 78263 41786 30052 45297 32966 21028 11734 7390 28767 17561 15405 24155 16530 12382 16354 9024 14174 5691 17825 13605 14386 1699 11295 3023 7383 10869 6330 10270 12616 4612
is_linear=0
shrinkage=0.05


Tree=10
num_leaves=32
num_cat=0
split_feature=83 78 9 39 39 81 78 39 81 81 11 78 81 49 9 33 9 9 9 9 9 83 78 49 81 15 78 0 78 1 39
split_gain=5.03323e+09 2.44238e+09 1.21099e+09 6.37955e+08 5.69341e+08 5.15637e+08 3.71313e+08 3.58015e+08 3.07027e+08 2.9065e+08 2.51048e+08 2.42566e+08 2.33336e+08 2.19608e+08 2.08433e+08 2.02877e+08 1.75501e+08 1.58892e+08 1.46281e+08 1.43942e+08 1.42303e+08 1.32047e+08 1.30833e+08 1.30829e+08 1.25733e+08 1.19525e+08 1.19896e+08 1.18486e+08 1.18132e+08 1.17833e+08 1.16561e+08
threshold=-1.4232755303382871 2995.384399414063 630.25000000000011 1.8054684996604922 1.1926706433296206 11067372.000000002 2930.8537597656255 1.1900172233581545 7552581.5000000009 7333100.7500000009 5.5000000000000009 2619.772094726563 27458196.000000004 7.5000000000000009 671.50000000000011 1.3238765597343447 654.50000000000011 357.50000000000006 357.50000000000006 695.50000000000011 367.25000000000006 -1.0729150772094724 3443.601928710938 16.250000000000004 23001333.000000004 1235.5000000000002 3396.0698242187505 6.5000000000000009 3087.0312500000005 9206.5000000000018 1.0916253924369814
decision_type=2 2 2 2 2 2 2 2 2 2 2 2 2 2 2 2 2 2 2 2 2 2 2 2 2 2 2 2 2 2 2
left_child=3 2 4 6 9 7 16 14 15 13 28 -6 19 -2 -3 21 -1 -9 -8 30 -15 -4 -20 -23 -10 26 -19 -13 -5 -11 -7
right_child=1 5 8 10 11 12 18 17 24 29 -12 27 -14 20 -16 -17 -18 25 22 -21 -22 23 -24 -25 -26 -27 -28 -29 -30 -31 -32
leaf_value=8.2963499240120875 -9.1370805611770987 -6.7626558351426782 3.1329698629466698 28.210021485689722 -12.778849642922118 3.3508208886273119 12.819731628747391 -2.3353079235034131 6.5400795293751308 -11.591198249366427 65.113201331638024 -3.4475056975390106 45.816214425015183 -29.920796161640499 8.0665880924667306 5.9172558109303104 23.092757886610109 13.277568250135216 27.881865213459804 26.416573188367433 -20.452050268379754 -0.32366723538624553 46.811089191796839 -12.665321996662817 37.382649899993332 -7.2920778639600501 30.004349151053091 16.972173897481952 54.410332775199485 22.320250913062186 17.740625661965375
leaf_weight=6408 2937 7725 2618 1745 10553 2462 1213 1583 7346 7680 957 8905 704 6282 3418 3951 2916 4176 4128 2283 10772 2931 1172 8031 346 529 1441 772 571 265 3285
leaf_count=6408 2937 7725 2618 1745 10553 2462 1213 1583 7346 7680 957 8905 704 6282 3418 3951 2916 4176 4128 2283 10772 2931 1172 8031 346 529 1441 772 571 265 3285
internal_value=-0.0549624 -4.50735 -9.27619 23.4756 -13.924 8.17034 19.3225 3.52158 -0.400621 -18.55 43.5711 -7.53597 18.2152 -21.7652 -2.21394 -4.05468 12.9238 11.7905 28.4829 15.7954 -23.94 -6.95595 32.0677 -9.36543 7.92743 15.4289 17.5687 -1.81849 34.6696 -10.4601 11.5761
internal_weight=120105 100995 73389 19110 48166 27606 15837 18872 25223 27936 3273 20230 8734 19991 11143 17531 9324 7729 6513 8030 17054 13580 5300 10962 7692 6146 5617 9677 2316 7945 5747
internal_count=120105 100995 73389 19110 48166 27606 15837 18872 25223 27936 3273 20230 8734 19991 11143 17531 9324 7729 6513 8030 17054 13580 5300 10962 7692 6146 5617 9677 2316 7945 5747
is_linear=0
shrinkage=0.05


Tree=11
num_leaves=32
num_cat=0
split_feature=83 78 39 75 78 81 61 78 83 78 75 75 75 81 78 75 5 15 81 5 75 31 78 6 33 15 75 33 25 1 49
split_gain=4.59396e+09 1.54493e+09 1.41585e+09 9.05598e+08 8.41089e+08 4.55968e+08 4.28753e+08 3.62133e+08 3.53756e+08 3.45697e+08 2.77609e+08 2.3563e+08 2.35393e+08 2.23036e+08 2.21375e+08 1.99761e+08 1.85176e+08 1.81987e+08 1.70225e+08 1.62418e+08 1.5518e+08 1.37527e+08 1.34359e+08 1.31548e+08 1.31361e+08 1.30364e+08 1.22424e+08 1.19312e+08 1.18654e+08 1.18514e+08 1.14704e+08
threshold=-1.1537225842475889 3113.0820312500005 1.5831999182701113 2.5000000000000004 2785.766967773438 15559466.500000002 1.4708013534545901 2567.116333007813 -1.9719647765159605 3422.744506835938 1.0000000180025095e-35 2.5000000000000004 1.0000000180025095e-35 21264451.000000004 3081.8867187500005 1.0000000180025095e-35 6.5000000000000009 1191.5000000000002 13642234.500000002 3.5000000000000004 1.5000000000000002 23.500000000000004 3657.140991210938 34.500000000000007 1.8849306702613833 1201.5000000000002 1.0000000180025095e-35 1.3811541199684145 1.0000000180025095e-35 9840.5000000000018 3.5000000000000004
decision_type=2 2 2 2 2 2 2 2 2 2 2 2 2 2 2 2 2 2 2 2 2 2 2 2 2 2 2 2 2 2 2
left_child=2 3 4 5 12 6 7 21 -4 11 -3 28 -1 17 20 -9 -5 19 27 -12 -10 -2 -21 -14 -8 30 -23 -18 -6 -7 -17
right_child=1 10 8 16 9 29 24 15 14 -11 13 -13 23 -15 -16 25 18 -19 -20 22 -22 26 -24 -25 -26 -27 -28 -29 -30 -31 -32
leaf_value=-10.305076147560966 -13.035616460176048 -5.094159112925559 53.625616454950467 17.784838778912665 3.2827683153980289 2.4362962031424198 -4.3767433994961502 -19.188872817068034 13.851670364182286 31.961854179615244 31.276279436982794 23.779574868437663 15.723057908032736 36.983447304280084 40.386055793877716 12.228883029959032 -5.165227424098803 -4.9758171952524552 16.757454808837885 6.6425242674862197 29.358085501616365 -30.592249497906547 23.571048136962002 1.2050932161570553 17.661409244766983 -20.00238425473421 -20.859431285967393 9.5540828653839327 14.177330564045187 32.7032416923985 -8.5592440601830333
leaf_weight=4163 3393 3490 1354 1332 4899 1995 3450 7779 3247 2841 986 3586 1868 771 2059 700 11286 1882 1144 6398 3207 4947 1435 9473 841 2457 9314 1568 5102 386 12752
leaf_count=4163 3393 3490 1354 1332 4899 1995 3450 7779 3247 2841 986 3586 1868 771 2059 700 11286 1882 1144 6398 3207 4947 1435 9473 841 2457 9314 1568 5102 386 12752
internal_value=-0.0522143 -7.19666 13.3321 -10.6099 8.21679 -13.988 -15.101 -16.6624 29.8867 16.1001 7.2539 12.7834 -0.13632 11.0104 26.111 -12.6226 -0.0296165 9.13908 -1.72478 12.1512 21.5568 -22.0831 9.74382 3.59638 -0.0574504 -9.41185 -24.2356 -3.36969 8.84062 7.34308 -7.47749
internal_weight=120105 78306 41799 63344 31932 48014 45633 41342 9867 16428 14962 13587 15504 11472 8513 23688 15330 10701 13998 8819 6454 17654 7833 11341 4291 15909 14261 12854 10001 2381 13452
internal_count=120105 78306 41799 63344 31932 48014 45633 41342 9867 16428 14962 13587 15504 11472 8513 23688 15330 10701 13998 8819 6454 17654 7833 11341 4291 15909 14261 12854 10001 2381 13452
is_linear=0
shrinkage=0.05


Tree=12
num_leaves=32
num_cat=0
split_feature=83 78 81 75 75 39 33 39 17 81 75 15 75 78 6 81 39 5 78 33 39 78 81 5 49 39 1 79 20 39 79
split_gain=4.1961e+09 2.09563e+09 7.59844e+08 6.7167e+08 5.03985e+08 4.30689e+08 4.30308e+08 3.74856e+08 3.19867e+08 2.89608e+08 2.86551e+08 2.08969e+08 2.03951e+08 1.97468e+08 1.72211e+08 1.69099e+08 1.59417e+08 1.57659e+08 1.5702e+08 1.4802e+08 1.32787e+08 1.26438e+08 1.16104e+08 1.10809e+08 1.10802e+08 1.09957e+08 1.08461e+08 1.0327e+08 1.03252e+08 1.02271e+08 1.00755e+08
threshold=-1.47728556394577 2766.023315429688 10765997.500000002 1.0000000180025095e-35 1.0000000180025095e-35 1.888039827346802 1.3003496527671816 1.1702901721000674 -0.91597560048103321 27458196.000000004 2.5000000000000004 1177.5000000000002 2.5000000000000004 2762.1218261718755 22.500000000000004 5100458.2500000009 1.1944366693496706 3.5000000000000004 3796.5905761718755 0.92907443642616283 1.1926706433296206 3264.182739257813 16781172.000000004 36.500000000000007 7.5000000000000009 1.5285184383392336 9206.5000000000018 2741.3308105468755 -0.56174489110708226 1.1926706433296206 2741.3308105468755
decision_type=2 2 2 2 2 2 2 2 2 2 2 2 2 2 2 2 2 2 2 2 2 2 2 2 2 2 2 2 2 2 2
left_child=5 3 4 16 29 10 8 11 23 12 13 17 18 -1 30 24 -2 -6 20 -19 -4 -16 27 -5 -10 -15 -17 -8 -7 -3 -9
right_child=1 2 9 6 7 28 22 14 15 -11 -12 -13 -14 25 21 26 -18 19 -20 -21 -22 -23 -24 -25 -26 -27 -28 -29 -30 -31 -32
leaf_value=8.8313970448203296 -24.229752408998863 -15.368341920176054 -0.087755680797284297 2.917544746875842 17.728066425697865 27.811766971403799 -4.7918771835088858 -6.9001840700044657 -4.1108276959001087 39.913405367048313 32.788358869465299 -14.902990697879972 21.88960502578631 15.511746824735022 3.1601629066393908 -9.4303980117961128 -13.689206494510836 -7.689807416147338 26.817935876878749 3.9814656845243004 12.456795588564901 17.288114391943562 30.583584363345643 -7.4459867515701426 -20.168365828356805 28.908487068503714 34.234067970144338 5.2508606145991301 54.5203827560278 -4.1986206013043423 23.311744733551876
leaf_weight=4627 8299 5020 4633 4154 1210 507 4820 308 1211 972 3683 2646 3524 2932 7128 7416 6318 4954 974 6015 3873 2036 332 6804 9518 3207 145 5459 1264 3463 2653
leaf_count=4627 8299 5020 4633 4154 1210 507 4820 308 1211 972 3683 2646 3524 2932 7128 7416 6318 4954 974 6015 3873 2036 332 6804 9518 3207 145 5459 1264 3463 2653
internal_value=-0.0496036 -3.74245 3.71432 -10.5056 -0.179861 23.6021 -7.14354 3.16571 -10.2727 13.5872 20.7497 -2.16723 11.6194 16.6313 9.68619 -14.32 -19.6737 0.599735 7.80161 -1.28971 5.6241 6.29902 1.48161 -3.51734 -18.3559 22.5102 -8.59303 0.541648 46.8743 -10.8085 20.1691
internal_weight=120105 103885 49409 54476 35433 16220 39859 26950 29248 13976 14449 14825 13004 10766 12125 18290 14617 12179 9480 10969 8506 9164 10611 10958 10729 6139 7561 10279 1771 8483 2961
internal_count=120105 103885 49409 54476 35433 16220 39859 26950 29248 13976 14449 14825 13004 10766 12125 18290 14617 12179 9480 10969 8506 9164 10611 10958 10729 6139 7561 10279 1771 8483 2961
is_linear=0
shrinkage=0.05


Tree=13
num_leaves=32
num_cat=0
split_feature=83 78 39 75 78 34 75 5 81 83 15 6 81 78 75 1 33 62 75 81 31 15 75 75 39 78 78 75 15 78 33
split_gain=3.81791e+09 1.27017e+09 1.20019e+09 7.7665e+08 7.41239e+08 3.98081e+08 3.55203e+08 3.34366e+08 3.21062e+08 3.00051e+08 2.39836e+08 2.35963e+08 2.08241e+08 2.0355e+08 1.98375e+08 1.83727e+08 1.69482e+08 1.49903e+08 1.48943e+08 1.40697e+08 1.3314e+08 1.16824e+08 1.04031e+08 1.01772e+08 1.01532e+08 1.01422e+08 1.00654e+08 9.62485e+07 9.41572e+07 1.08703e+08 9.08382e+07
threshold=-1.1412513256072996 3113.0820312500005 1.5831999182701113 2.5000000000000004 3206.947631835938 1.4065148234367373 1.0000000180025095e-35 7.5000000000000009 5832824.0000000009 -2.0253205299377437 1177.5000000000002 28.500000000000004 9396259.5000000019 2812.9030761718755 2.5000000000000004 9840.5000000000018 1.6459935903549197 1.8849306702613833 1.0000000180025095e-35 12377886.500000002 32.500000000000007 1171.5000000000002 1.0000000180025095e-35 2.5000000000000004 1.3456611633300783 2549.7067871093755 3741.8249511718755 2.5000000000000004 1167.5000000000002 2615.5925292968755 0.92365968227386486
decision_type=2 2 2 2 2 2 2 2 2 2 2 2 2 2 2 2 2 2 2 2 2 2 2 2 2 2 2 2 2 2 2
left_child=2 3 4 5 6 7 -1 -2 18 -4 14 -8 25 23 19 22 20 -7 -9 24 -5 27 -10 -11 -3 -13 -15 -6 29 -22 -20
right_child=1 10 9 16 21 17 11 8 15 13 -12 12 -14 26 -16 -17 -18 -19 30 -21 28 -23 -24 -25 -26 -27 -28 -29 -30 -31 -32
leaf_value=-6.0623035217597367 -2.343641036609168 -0.36008467259732163 53.196000835785753 7.6236603799634253 22.212981396242061 -4.8636940005809537 19.194463779589316 -26.519591576915413 -17.951516761418794 12.858634539964967 -6.7019298707136032 -5.4881381022381381 13.175355605532728 30.16500589513322 20.180009212878616 28.616220704852914 24.51358024867411 18.395656359482494 -22.783316888535115 16.658434500434357 -7.539964467124034 8.3450336011772794 -8.8697724717126007 30.381699249791708 18.275217330726065 4.3840664492161041 62.088441972224885 37.905815553706184 -14.312039965936741 3.2867397687432751 -14.267288477622422
leaf_weight=6818 4650 5720 999 3380 3579 6983 3381 7114 4643 3517 2781 3959 5046 4038 3233 287 678 769 5093 2190 4305 1081 9828 1084 838 7588 263 1344 1762 5024 8130
leaf_count=6818 4650 5720 999 3380 3579 6983 3381 7114 4643 3517 2781 3959 5046 4038 3233 287 678 769 5093 2190 4305 1081 9828 1084 838 7588 263 1344 1762 5024 8130
internal_value=-0.0471234 -6.66789 11.9561 -9.77698 7.35004 -12.9211 3.79163 -14.9426 -16.612 27.213 6.52627 7.15521 4.70208 24.2971 9.59677 -10.998 0.0807577 -2.55636 -20.6859 5.68552 -1.06398 23.229 -11.7836 16.9871 2.02119 0.999286 32.1171 26.4972 -3.71155 -1.7094 -17.5473
internal_weight=120105 77408 42697 62646 32796 47497 26792 39745 35095 9901 14762 19974 16593 8902 11981 14758 15149 7752 20337 8748 14471 6004 14471 4601 6558 11547 4301 4923 11091 9329 13223
internal_count=120105 77408 42697 62646 32796 47497 26792 39745 35095 9901 14762 19974 16593 8902 11981 14758 15149 7752 20337 8748 14471 6004 14471 4601 6558 11547 4301 4923 11091 9329 13223
is_linear=0
shrinkage=0.05


Tree=14
num_leaves=32
num_cat=0
split_feature=33 78 9 39 25 9 78 78 11 78 39 78 78 1 15 9 39 15 31 9 79 39 1 50 79 14 9 15 15 1 9
split_gain=3.3713e+09 1.65779e+09 7.6942e+08 6.01962e+08 4.62471e+08 3.43217e+08 3.32783e+08 3.1221e+08 2.66272e+08 2.33982e+08 2.33041e+08 1.88129e+08 1.85414e+08 1.79928e+08 1.7972e+08 1.79478e+08 1.76651e+08 1.63664e+08 1.35988e+08 1.32959e+08 1.28076e+08 1.2045e+08 1.0625e+08 1.04763e+08 1.01094e+08 1.00938e+08 9.78352e+07 9.25827e+07 9.00215e+07 8.89956e+07 8.2969e+07
threshold=1.4980915784835818 2619.772094726563 630.25000000000011 1.6250048875808718 1.0000000180025095e-35 630.25000000000011 3206.947631835938 2995.384399414063 5.5000000000000009 3461.3916015625005 0.99912065267562877 3339.916625976563 2607.936645507813 3290.5000000000005 1193.5000000000002 463.50000000000006 1.1944366693496706 1045.5000000000002 23.500000000000004 357.50000000000006 2741.3308105468755 1.1733127236366274 3845.5000000000005 26.500000000000004 2910.8200683593755 1.0000000180025095e-35 496.50000000000006 1201.5000000000002 1063.5000000000002 7795.5000000000009 850.50000000000011
decision_type=2 2 2 2 2 2 2 2 2 2 2 2 2 2 2 2 2 2 2 2 2 2 2 2 2 2 2 2 2 2 2
left_child=1 5 4 7 10 13 14 15 12 16 -3 27 -5 18 17 -2 -6 23 -1 -9 -17 -20 30 -4 -14 -8 -10 28 -12 -15 -7
right_child=3 2 6 8 9 22 25 19 26 -11 11 -13 24 29 -16 20 -18 -19 21 -21 -22 -23 -24 -25 -26 -27 -28 -29 -30 -31 -32
leaf_value=-9.9059202725251154 -2.1396074834414791 -15.92385020468879 7.6369875456907739 10.461599886019656 -4.2883344382236777 -10.466382858600721 12.564364012485225 4.3693900520697291 29.996524325008206 18.690780846907639 -10.348914290460407 8.588717743496785 25.600549750655972 -9.639622213912828 -8.6025590965880436 1.4793784335151634 6.469555935801707 12.348508377637478 -24.870898038783412 24.12613079926945 15.621142031701797 -15.910656948377033 6.4484543496146962 -3.7454775406999925 48.773226534706708 26.331271189129986 55.869322041834529 -19.512859272841979 -0.63587319316716651 17.07129610713417 0.66214250133671859
leaf_weight=3463 4330 7429 3906 2143 9189 7295 2957 1052 601 1915 5039 2175 4403 4029 2270 2436 6526 6613 8433 4470 4671 6755 1491 4190 527 2422 932 1401 4530 338 2174
leaf_count=3463 4330 7429 3906 2143 9189 7295 2957 1052 601 1915 5039 2175 4403 4029 2270 2436 6526 6613 8433 4470 4671 6755 1491 4190 527 2422 932 1401 4530 338 2174
internal_value=-0.0447672 -4.40092 0.558439 16.0644 -3.75291 -13.2404 7.92542 10.5989 26.8348 2.18988 -8.84534 -4.84486 22.7403 -16.708 4.49198 5.8849 0.179117 6.51283 -18.8471 20.3623 10.7739 -20.8857 -5.95786 1.74611 28.0776 18.7632 45.7261 -7.50831 -5.75072 -7.57223 -7.91137
internal_weight=120105 94540 60562 25565 38204 33978 22358 16959 8606 17630 20574 13145 7073 23018 16979 11437 15715 14709 18651 5522 7107 15188 10960 8096 4930 5379 1533 10970 9569 4367 9469
internal_count=120105 94540 60562 25565 38204 33978 22358 16959 8606 17630 20574 13145 7073 23018 16979 11437 15715 14709 18651 5522 7107 15188 10960 8096 4930 5379 1533 10970 9569 4367 9469
is_linear=0
shrinkage=0.05


Tree=15
num_leaves=32
num_cat=0
split_feature=39 81 9 81 78 78 78 78 17 9 39 61 61 51 32 33 17 39 78 17 9 68 51 81 52 9 33 17 31 9 15
split_gain=3.11726e+09 1.69638e+09 8.23708e+08 5.45959e+08 4.63351e+08 4.60125e+08 4.09376e+08 2.57844e+08 2.54771e+08 2.42823e+08 2.26007e+08 1.87953e+08 1.76896e+08 1.66341e+08 1.64517e+08 1.51437e+08 1.49531e+08 1.36713e+08 1.35631e+08 1.34614e+08 1.19295e+08 1.18385e+08 1.16821e+08 1.11325e+08 1.00602e+08 1.00282e+08 9.70235e+07 9.1037e+07 9.10218e+07 8.58259e+07 8.36647e+07
threshold=1.4821335673332217 8310395.0000000009 466.25000000000006 22075849.000000004 2726.7817382812505 2619.772094726563 3206.947631835938 2562.2033691406255 -0.91597560048103321 796.50000000000011 1.8054684996604922 1.950308680534363 1.3455668091773989 17.250000000000004 0.95850551128387462 0.99599999189376842 -0.91597560048103321 1.049286484718323 3339.916625976563 -0.98296290636062611 654.50000000000011 0.40256576240062719 36.500000000000007 30108202.000000004 17.500000000000004 321.50000000000006 1.1400934457778933 -0.91597560048103321 24.500000000000004 433.50000000000006 1183.5000000000002
decision_type=2 2 2 2 2 2 2 2 2 2 2 2 2 2 2 2 2 2 2 2 2 2 2 2 2 2 2 2 2 2 2
left_child=1 2 7 6 11 15 9 28 22 12 18 20 19 14 -10 -4 -9 -8 24 -3 -2 -18 -7 -5 -6 -21 -15 -26 -1 -12 -19
right_child=4 3 5 23 10 8 17 16 13 -11 29 -13 -14 26 -16 -17 21 30 -20 25 -22 -23 -24 -25 27 -27 -28 -29 -30 -31 -32
leaf_value=-12.152492126619908 2.9578760522700787 5.2353077151270355 -16.235880202873915 20.770685959180341 35.895902662228899 13.228083016859285 5.1491661535388591 -4.5895817674880881 -4.5732438517681953 13.316604340733759 23.943012911293859 28.467854390662719 7.2664863747724899 -12.589718484873059 12.279803055110481 -6.4429026334190995 -17.960293169243311 21.800059632173745 34.761714832016402 -16.588081450751236 16.611336504875435 -5.6336722039126181 2.1494693012789075 42.8817881068871 20.175639376768821 -4.550163375314078 -2.3436935479909318 6.5556130754769057 -23.276524081713344 45.526480127949661 3.1752414451798763
leaf_weight=2354 5419 2930 6061 1921 740 4315 2793 5999 3089 3149 645 1174 4256 4621 2726 11322 7158 4098 1575 2121 2270 2676 5305 809 4395 9386 4621 1702 8404 1611 707
leaf_count=2354 5419 2930 6061 1921 740 4315 2793 5999 3089 3149 645 1174 4256 4621 2726 11322 7158 4098 1575 2121 2270 2676 5305 809 4395 9386 4621 1702 8404 1611 707
internal_value=0.0002425 -3.5415 -7.98125 5.93296 18.2831 -3.62647 3.94944 -14.8694 0.762767 0.471955 25.3026 9.83389 -1.69184 -3.29809 3.32726 -9.85746 -10.8109 13.9462 21.5338 -4.33274 6.98875 -14.606 7.11872 27.323 18.4866 -6.76902 -7.46671 16.3736 -20.8424 39.3557 19.0596
internal_weight=120352 100821 68651 32170 19531 42060 29440 26591 24677 21842 10668 8863 18693 15057 5815 17383 15833 7598 8412 14437 7689 9834 9620 2730 6837 11507 9242 6097 10758 2256 4805
internal_count=120352 100821 68651 32170 19531 42060 29440 26591 24677 21842 10668 8863 18693 15057 5815 17383 15833 7598 8412 14437 7689 9834 9620 2730 6837 11507 9242 6097 10758 2256 4805
is_linear=0
shrinkage=0.05


Tree=16
num_leaves=32
num_cat=0
split_feature=83 81 83 9 5 81 81 9 39 5 9 9 83 61 79 6 9 80 6 81 9 5 11 33 20 49 34 39 81 10 80
split_gain=2.96371e+09 9.53605e+08 9.30674e+08 7.02366e+08 4.32854e+08 4.05125e+08 2.97761e+08 2.89594e+08 2.87289e+08 2.54482e+08 2.47869e+08 2.20464e+08 1.94617e+08 1.83059e+08 1.81735e+08 1.81051e+08 1.5576e+08 1.36643e+08 1.1799e+08 1.14347e+08 9.96458e+07 9.83611e+07 9.71327e+07 9.36131e+07 9.03576e+07 9.0053e+07 8.74916e+07 8.00203e+07 7.64497e+07 7.50794e+07 7.17404e+07
threshold=-1.1412513256072996 11392742.000000002 -1.532228350639343 466.25000000000006 4.5000000000000009 10765997.500000002 25668513.000000004 490.25000000000006 1.2297986149787905 4.5000000000000009 370.50000000000006 790.50000000000011 -1.8569334745407102 0.92365968227386486 2741.3308105468755 36.500000000000007 805.50000000000011 2812.8488769531255 23.500000000000004 7834149.7500000009 692.50000000000011 6.5000000000000009 5.5000000000000009 1.8010416626930239 1.0000000180025095e-35 21.500000000000004 1.7784237861633303 0.98047912120819103 19412740.000000004 19.500000000000004 2812.8488769531255
decision_type=2 2 2 2 2 2 2 2 2 2 2 2 2 2 2 2 2 2 2 2 2 2 2 2 2 2 2 2 2 2 2
left_child=2 3 7 9 27 10 16 28 11 -2 -4 17 22 -11 -10 30 21 29 -15 -14 -7 -3 -9 25 -17 -16 -20 -5 -1 -6 -12
right_child=1 6 5 4 8 20 -8 12 14 13 15 -13 19 18 23 24 -18 -19 26 -21 -22 -23 -24 -25 -26 -27 -28 -29 -30 -31 -32
leaf_value=11.194757211608906 1.5072017873538015 18.237536294634285 -7.5146271309333219 6.8422495793671674 -11.965783546341518 11.972705669127595 32.026250397764684 33.920838171334672 -5.4977147657814882 -22.215717601819655 7.3540697521985656 0.32776607677985448 16.4444202715876 -6.5098155488663032 16.154160671063114 4.2797955764987128 19.850314870387884 -5.4936207144813203 -16.922824480526511 30.119119572434649 24.810137506849038 0.61326374618369528 58.410767866889778 29.478378432111128 -5.6649061702295285 1.2815115449508085 8.4564360329034667 23.232432537290848 37.747524483137198 -22.508605094631253 18.586423954567838
leaf_weight=5196 2212 877 5144 1670 11511 5546 1110 1310 4272 8250 3320 6169 3115 4833 1537 7355 1476 8764 9628 3002 2078 8136 586 482 3313 3013 352 1344 286 1979 2486
leaf_count=5196 2212 877 5144 1670 11511 5546 1110 1310 4272 8250 3320 6169 3115 4833 1537 7355 1476 8764 9628 3002 2078 8136 586 482 3313 3013 352 1344 286 1979 2486
internal_value=0.000230375 -5.82201 10.574 -8.14511 -4.08295 5.5616 7.39995 21.4354 -5.53965 -14.6929 2.06662 -8.03598 27.4937 -16.2467 2.08647 5.05836 4.79387 -10.3545 -12.9223 23.1555 15.4717 2.32817 41.49 8.52518 1.19142 6.30553 -16.0277 14.1509 12.58 -13.5124 12.1635
internal_weight=120352 77615 42737 66016 40741 29242 11599 13495 37727 25275 21618 28423 8013 23063 9304 16474 10489 22254 14813 6117 7624 9013 1896 5032 10668 4550 9980 3014 5482 13490 5806
internal_count=120352 77615 42737 66016 40741 29242 11599 13495 37727 25275 21618 28423 8013 23063 9304 16474 10489 22254 14813 6117 7624 9013 1896 5032 10668 4550 9980 3014 5482 13490 5806
is_linear=0
shrinkage=0.05


Tree=17
num_leaves=32
num_cat=0
split_feature=83 78 9 83 81 78 15 9 33 78 9 5 9 31 9 9 6 11 25 2 81 31 79 9 33 5 33 15 37 81 78
split_gain=2.68908e+09 1.22649e+09 6.70187e+08 5.39728e+08 3.41149e+08 3.30547e+08 3.1265e+08 2.91103e+08 2.32923e+08 2.32548e+08 1.95137e+08 1.89445e+08 1.88883e+08 1.82412e+08 1.66147e+08 1.61509e+08 1.42067e+08 1.20572e+08 1.20042e+08 1.1694e+08 1.08236e+08 1.06366e+08 9.77043e+07 8.78624e+07 8.67762e+07 8.3611e+07 8.47316e+07 8.15807e+07 8.09742e+07 8.06106e+07 7.47427e+07
threshold=-1.2856814861297605 3065.733276367188 674.50000000000011 -1.6969332098960874 13468898.500000002 3099.252319335938 1193.5000000000002 317.50000000000006 0.99599999189376842 3741.8249511718755 478.25000000000006 2.5000000000000004 598.25000000000011 25.500000000000004 439.25000000000006 892.50000000000011 22.500000000000004 5.5000000000000009 1.0000000180025095e-35 4.5000000000000009 10298349.000000002 33.500000000000007 2741.3308105468755 692.50000000000011 0.99599999189376842 5.5000000000000009 0.92365968227386486 1201.5000000000002 46.850000381469734 24238518.000000004 3237.1628417968755
decision_type=2 2 2 2 2 2 2 2 2 2 2 2 2 2 2 2 2 2 2 2 2 2 2 2 2 2 2 2 2 2 2
left_child=3 2 4 12 7 10 9 25 11 14 -5 -9 30 -11 -3 19 22 -14 -16 21 28 -4 -10 -7 -23 -2 -27 -18 -12 -6 -1
right_child=1 6 15 5 29 23 -8 8 16 13 20 -13 17 -15 18 -17 27 -19 -20 -21 -22 24 -24 -25 -26 26 -28 -29 -30 -31 -32
leaf_value=15.606221281646009 -4.9787632322591415 -1.0097393213671377 4.8346187585527884 -1.0182014470581442 0.99001403087343454 16.311836465689037 -7.3221419707501596 11.324208458591912 -13.472816031681702 8.0224183201407389 15.300323988508069 -15.754652185995958 29.966327334506111 35.299368852103697 5.2322174954214642 9.8074854460615697 -7.1492605537223541 55.107787126987034 16.044959241746174 10.513590832280288 19.54389925766775 -11.579010258763471 3.3667496502853171 30.733818161553366 -2.2609288236093747 -26.626483421606366 -16.770100391024648 -17.603955572449806 3.8203098589634261 21.282222465999453 32.888534540008195
leaf_weight=3538 1059 4577 3240 6201 3321 3597 3387 680 1041 1086 2205 12879 2309 1407 5327 3814 14480 601 4954 1763 2403 3808 4992 1495 7266 3115 7268 2142 5063 574 760
leaf_count=3538 1059 4577 3240 6201 3321 3597 3387 680 1041 1086 2205 12879 2309 1407 5327 3814 14480 601 4954 1763 2403 3808 4992 1495 7266 3115 7268 2142 5063 574 760
internal_value=0.00021885 -4.13155 -7.2389 13.5195 -10.2471 9.46147 6.57323 -11.4099 -9.21332 9.28567 5.90534 -14.3966 25.3222 23.417 6.9146 0.557267 -6.11112 35.1588 10.4424 -1.63719 10.3447 -3.13376 0.461066 20.5461 -5.46512 -18.3621 -19.7271 -8.49651 7.30317 3.98044 18.6622
internal_weight=120352 92180 71442 28172 51551 20964 20738 47656 36214 17351 15872 13559 7208 2493 14858 19891 22655 2910 10281 16077 9671 14314 6033 5092 11074 11442 10383 16622 7268 3895 4298
internal_count=120352 92180 71442 28172 51551 20964 20738 47656 36214 17351 15872 13559 7208 2493 14858 19891 22655 2910 10281 16077 9671 14314 6033 5092 11074 11442 10383 16622 7268 3895 4298
is_linear=0
shrinkage=0.05


Tree=18
num_leaves=32
num_cat=0
split_feature=39 78 17 9 78 9 78 17 33 15 9 32 33 39 17 9 6 5 50 5 78 31 6 33 78 81 78 39 81 29 33
split_gain=2.4563e+09 1.3709e+09 6.0458e+08 4.26537e+08 3.80315e+08 3.2787e+08 2.86801e+08 2.60662e+08 1.87503e+08 1.84049e+08 1.81374e+08 1.77e+08 1.6735e+08 1.52366e+08 1.39422e+08 1.28465e+08 1.25712e+08 1.20276e+08 1.11436e+08 1.05204e+08 1.00074e+08 9.22744e+07 9.08401e+07 9.03826e+07 7.81691e+07 7.79233e+07 7.70941e+07 7.70313e+07 7.63655e+07 7.51525e+07 7.21561e+07
threshold=1.4821335673332217 2775.173461914063 -0.91597560048103321 415.25000000000006 2809.583862304688 728.50000000000011 3396.0698242187505 -0.91597560048103321 2.0039062500000004 1209.5000000000002 418.50000000000006 0.97073099017143261 1.2827185392379763 1.8054684996604922 -0.91597560048103321 671.50000000000011 21.500000000000004 36.500000000000007 23.500000000000004 36.500000000000007 3479.240600585938 33.500000000000007 17.500000000000004 1.3238765597343447 3741.8249511718755 9239680.0000000019 4292.0832519531259 1.1900172233581545 25668513.000000004 445.12651062011724 1.2918509840965273
decision_type=2 2 2 2 2 2 2 2 2 2 2 2 2 2 2 2 2 2 2 2 2 2 2 2 2 2 2 2 2 2 2
left_child=1 3 6 14 8 9 10 19 15 11 -3 25 18 20 -1 29 -13 27 -9 -5 22 -8 -6 24 -7 -4 -23 -12 -18 -2 -16
right_child=4 2 5 7 13 23 21 12 -10 -11 17 16 -14 -15 30 -17 28 -19 -20 -21 -22 26 -24 -25 -26 -27 -28 -29 -30 -31 -32
leaf_value=-9.6793045745607458 1.8307922772099134 -1.7561534824635983 -11.11644398895965 5.8496760398666368 34.251975498966715 3.4525453537958009 11.798472122649352 -6.6568998344152197 30.535495730928343 -14.47569580295 9.8123249792145515 9.4717130417017792 -1.2764594468825878 36.126703526109488 -21.252353062467023 17.033254183811732 -4.4998412995345172 5.2449611438515191 -14.981739053593902 -3.3507516357475016 35.23685244538526 24.589340996720384 15.698097872193296 21.194171249601695 29.708343629539016 -0.066900453526296075 60.580377571537817 21.655951982581989 37.545994256423398 16.511677441326903 -10.939403756965918
leaf_weight=6587 5862 5127 5719 4569 752 4200 1710 6837 983 4304 3208 3574 5206 1948 7897 2614 3985 7664 9756 9711 973 2317 5375 1103 304 2213 159 2400 111 1024 2160
leaf_count=6587 5862 5127 5719 4569 752 4200 1710 6837 983 4304 3208 3574 5206 1948 7897 2614 3985 7664 9756 9711 973 2317 5375 1103 304 2213 159 2400 111 1024 2160
internal_value=0.000207921 -3.1437 2.96057 -8.71249 16.2294 -2.3137 8.91862 -5.65793 9.74734 -5.32195 6.23109 -2.79678 -9.09768 23.7395 -15.3338 7.59631 2.61899 9.31658 -11.5516 -0.407001 20.3409 20.7313 17.9753 8.36618 5.2247 -8.03366 26.9006 14.8809 -3.36042 4.01395 -19.0374
internal_weight=120352 100821 48098 52723 19531 25513 22585 36079 10483 19906 18399 15602 21799 9048 16644 9500 7670 13272 16593 14280 7100 4186 6127 5607 4504 7932 2476 5608 4096 6886 10057
internal_count=120352 100821 48098 52723 19531 25513 22585 36079 10483 19906 18399 15602 21799 9048 16644 9500 7670 13272 16593 14280 7100 4186 6127 5607 4504 7932 2476 5608 4096 6886 10057
is_linear=0
shrinkage=0.05


Tree=19
num_leaves=32
num_cat=0
split_feature=83 78 83 78 9 81 49 9 9 61 9 39 78 33 15 31 78 52 37 39 33 78 49 81 9 81 39 81 81 81 6
split_gain=2.26985e+09 8.0476e+08 7.33705e+08 4.10035e+08 4.06849e+08 2.9619e+08 2.63245e+08 2.49642e+08 2.40956e+08 2.26436e+08 2.15591e+08 2.06873e+08 1.64222e+08 1.62579e+08 1.52824e+08 1.32166e+08 1.31295e+08 1.27969e+08 1.07331e+08 1.33465e+08 1.01435e+08 9.88728e+07 1.05757e+08 9.04292e+07 8.94335e+07 8.52164e+07 8.48117e+07 8.32194e+07 8.16302e+07 8.07481e+07 7.84808e+07
threshold=-1.1241323947906492 2684.475219726563 -1.532228350639343 3206.947631835938 754.50000000000011 18381603.000000004 4.5000000000000009 415.25000000000006 337.50000000000006 0.92907443642616283 490.25000000000006 1.921139180660248 3328.762817382813 1.3975815773010256 1177.5000000000002 31.500000000000004 3410.815307617188 31.500000000000004 45.149999618530281 1.4667584300041201 1.8720676302909853 3443.601928710938 16.250000000000004 9618836.0000000019 289.50000000000006 17136356.000000004 1.0314111709594729 30108202.000000004 12963489.000000002 7604077.2500000009 22.500000000000004
decision_type=2 2 2 2 2 2 2 2 2 2 2 2 2 2 2 2 2 2 2 2 2 2 2 2 2 2 2 2 2 2 2
left_child=2 7 8 10 5 6 26 -2 -1 -8 28 12 18 15 16 -9 20 -12 19 -10 24 22 -6 -17 -11 -19 -3 -7 -4 -20 -26
right_child=1 4 3 -5 21 27 9 13 11 14 17 -13 -14 -15 -16 23 -18 25 29 -21 -22 -23 -24 -25 30 -27 -28 -29 -30 -31 -32
leaf_value=4.5073194249496007 -17.117885759862158 2.9084764024861172 -5.1294745497291894 17.500546930876904 16.933052183772798 10.049739231723841 -11.530717939592568 -1.9747374645262483 15.108068195750997 -12.570726798528966 16.343787227427928 42.316825447312461 35.416976081770422 2.6734497284364824 -11.818201561531231 -13.246067683073116 12.739625799792309 2.8486260080446026 7.9269974079027996 39.040097690220776 23.701331279575037 24.230102786064151 3.4706661740877034 -1.683385973473853 5.1950865584727239 20.154337243676817 19.500612091645898 34.835681875641839 7.6416864822185078 19.347438118524025 -3.8741038068268865
leaf_weight=2434 11044 2009 9048 5226 2066 1784 10611 4390 1269 1915 2489 1114 1408 3103 3448 13553 1748 11559 3151 1077 377 1000 4964 1932 3585 758 1249 418 1452 3042 7129
leaf_count=2434 11044 2009 9048 5226 2066 1784 10611 4390 1269 1915 2489 1114 1408 3103 3448 13553 1748 11559 3151 1077 377 1000 4964 1932 3585 758 1249 418 1452 3042 7129
internal_value=0.000197511 -5.21497 9.04118 4.74997 -0.61066 -2.98413 -4.20208 -10.94 18.7499 -5.72535 2.11682 21.884 19.5957 -7.97065 -2.34106 -9.63247 -0.126256 6.00324 16.9869 26.0948 -1.85542 9.51957 7.42704 -11.8034 -2.61834 3.91364 9.2693 14.7548 -3.36341 13.5367 -0.839472
internal_weight=120352 76325 44027 30532 42303 34273 32071 34022 13495 28813 25306 11061 9947 22978 18202 19875 14754 14806 8539 2346 13006 8030 7030 15485 12629 12317 3258 2202 10500 6193 10714
internal_count=120352 76325 44027 30532 42303 34273 32071 34022 13495 28813 25306 11061 9947 22978 18202 19875 14754 14806 8539 2346 13006 8030 7030 15485 12629 12317 3258 2202 10500 6193 10714
is_linear=0
shrinkage=0.05


Tree=20
num_leaves=32
num_cat=0
split_feature=39 81 78 9 9 78 78 81 17 34 11 79 49 32 9 9 31 81 9 31 33 78 16 78 6 34 61 61 16 52 36
split_gain=2.03252e+09 1.26457e+09 4.93237e+08 4.89156e+08 3.52879e+08 3.16322e+08 3.02314e+08 2.4229e+08 1.96237e+08 1.95263e+08 1.77323e+08 1.40585e+08 1.30213e+08 1.5611e+08 1.29317e+08 1.2338e+08 1.1e+08 1.03799e+08 1.02822e+08 1.02643e+08 1.00601e+08 9.92969e+07 9.27346e+07 9.13585e+07 8.82196e+07 8.70772e+07 8.61228e+07 8.34621e+07 8.06618e+07 7.73184e+07 7.41669e+07
threshold=1.5285184383392336 7080763.2500000009 3479.240600585938 669.50000000000011 698.50000000000011 2549.7067871093755 2628.822875976563 18852968.000000004 -0.98296290636062611 1.3004064559936526 5.5000000000000009 2910.8200683593755 3.5000000000000004 0.86636903882026683 874.50000000000011 254.50000000000003 24.500000000000004 23001333.000000004 714.50000000000011 38.500000000000007 0.99599999189376842 4292.0832519531259 40.500000000000007 2580.2019042968755 24.500000000000004 1.1992366909980776 1.1055161952972414 1.9959999918937685 40.500000000000007 35.500000000000007 79.549999237060561
decision_type=2 2 2 2 2 2 2 2 2 2 2 2 2 2 2 2 2 2 2 2 2 2 2 2 2 2 2 2 2 2 2
left_child=1 3 4 5 7 16 27 8 -3 12 11 18 -7 -14 23 -10 -1 26 -8 -4 -17 -21 29 -5 -22 -18 -6 -2 -25 -15 -12
right_child=6 2 19 14 17 9 10 -9 15 -11 30 -13 13 22 -16 20 25 -19 -20 21 24 -23 -24 28 -26 -27 -28 -29 -30 -31 -32
leaf_value=-7.1191705822078966 4.3784395353960974 5.9764784601261924 11.210818577045206 -7.5010841313657721 3.5795922265104632 5.5700712137819002 13.1949787127762 13.202313450659169 -15.334277431653872 -0.23629089692332436 40.498884781378607 35.24803480703234 -17.876525022735482 -2.9129567447192652 8.0040464711730959 -8.6816442346974494 -21.087012062611951 32.139601552993817 26.391851271666948 22.365229510203974 6.7937623057884267 53.747690502887082 -19.582180129834441 2.4772154456642821 -3.2225920695675208 -13.205214043265086 13.155693214636702 22.736036791096506 -14.625479856864757 -12.208299372880083 3.0858659158014277
leaf_weight=3462 4537 5478 2266 5213 4140 1349 5931 2786 2411 8579 1429 1142 5107 7193 3920 5599 6878 511 1965 2374 3042 282 1383 7619 7926 7144 5424 717 758 3247 146
leaf_count=3462 4537 5478 2266 5213 4140 1349 5931 2786 2411 8579 1429 1142 5107 7193 3920 5599 6878 511 1965 2374 3042 282 1383 7619 7926 7144 5424 717 758 3247 146
internal_value=0.0228325 -2.51822 4.15068 -7.07244 2.18841 -9.86661 16.6927 -0.768457 -2.35999 -6.4593 21.5487 18.8507 -9.37999 -10.5712 0.00345524 -4.76631 -15.1007 10.1836 16.4792 19.028 -3.22836 25.6973 -7.41566 -2.30429 -0.444533 -17.0714 9.01046 6.88365 0.929663 -5.80395 37.0308
internal_weight=119958 104091 42239 61852 37317 44342 15867 27242 24456 26858 10613 9038 18279 16930 17510 18978 17484 10075 7896 4922 16567 2656 11823 13590 10968 14022 9564 5254 8377 10440 1575
internal_count=119958 104091 42239 61852 37317 44342 15867 27242 24456 26858 10613 9038 18279 16930 17510 18978 17484 10075 7896 4922 16567 2656 11823 13590 10968 14022 9564 5254 8377 10440 1575
is_linear=0
shrinkage=0.05


Tree=21
num_leaves=32
num_cat=0
split_feature=83 78 9 78 39 9 9 15 39 83 9 31 33 34 25 81 15 78 15 5 83 81 81 78 47 9 9 78 82 81 5
split_gain=1.8781e+09 1.04978e+09 5.29805e+08 3.8127e+08 3.01227e+08 2.5159e+08 2.34966e+08 2.00864e+08 1.84868e+08 1.81723e+08 1.64621e+08 1.52374e+08 1.40765e+08 1.37085e+08 1.20836e+08 1.15778e+08 1.15671e+08 9.66023e+07 9.08927e+07 8.67372e+07 8.76252e+07 8.19608e+07 8.04876e+07 7.84687e+07 7.72086e+07 7.57662e+07 7.27221e+07 7.15541e+07 6.99703e+07 6.89926e+07 6.77176e+07
threshold=-1.47728556394577 2619.772094726563 448.50000000000006 3461.3916015625005 1.184307396411896 466.25000000000006 680.25000000000011 1189.5000000000002 1.1944366693496706 -1.8569334745407102 814.50000000000011 24.500000000000004 1.9378858208656313 1.2284161448478701 1.0000000180025095e-35 7499193.7500000009 1181.5000000000002 3371.837524414063 1233.5000000000002 3.5000000000000004 -0.86601391434669484 30108202.000000004 13125911.000000002 3093.8598632812505 0.39038035273551946 276.50000000000006 892.50000000000011 3295.525024414063 2.6254770755767827 21264451.000000004 3.5000000000000004
decision_type=2 2 2 2 2 2 2 2 2 2 2 2 2 2 2 2 2 2 2 2 2 2 2 2 2 2 2 2 2 2 2
left_child=5 6 8 4 7 23 11 10 16 -7 19 -2 14 28 24 -11 22 -10 29 -4 -21 -16 30 -1 -6 -15 -8 -17 -13 -5 -3
right_child=1 2 3 18 12 9 26 -9 17 15 -12 13 -14 25 21 27 -18 -19 -20 20 -22 -23 -24 -25 -26 -27 -28 -29 -30 -31 -32
leaf_value=4.279258151391045 -3.7040304352831264 5.3309711390886552 12.220292881482742 18.01608780632095 0.14872784768332489 34.052580528806146 -4.446421007402888 -12.648189657583371 -1.7613066069436252 11.2218185339696 10.854734363570914 -20.279049652123547 36.726554540812536 -18.044152862848886 10.643945297219517 19.72355149939683 -19.801819721692539 12.858709500600956 -2.2729125720428427 2.812436650175731 -5.351065046078781 46.555709392936144 3.4319431149614625 17.565982491279353 10.730799340123543 -7.3610371933456662 6.6254386348349046 35.674368944246204 -12.402952637586722 38.693022894153081 -10.09960336052368
leaf_weight=4406 5244 780 1102 3825 6483 2015 7663 3187 7989 4018 3416 6731 409 2017 8253 3362 2069 1316 503 5204 8924 162 1607 1486 2348 9368 1839 889 4853 451 8039
leaf_count=4406 5244 780 1102 3825 6483 2015 7663 3187 7989 4018 3416 6731 409 2017 8253 3362 2069 1316 503 5204 8924 162 1607 1486 2348 9368 1839 889 4853 451 8039
internal_value=0.0216909 -2.44826 1.3512 4.49333 2.87904 15.8684 -9.10396 -1.04797 -5.02919 20.5883 0.934761 -11.3943 7.73536 -13.15 7.04782 17.3073 -9.00259 0.306393 17.8319 -1.29023 -2.34407 11.3353 -6.85953 7.63025 2.96231 -9.25369 -2.30359 23.0593 -16.9794 20.1969 -8.73484
internal_weight=119958 103782 66067 44267 39488 16176 37715 21833 21800 10284 18646 28213 17655 22969 17246 8269 12495 9305 4779 15230 14128 8415 10426 5892 8831 11385 9502 4251 11584 4276 8819
internal_count=119958 103782 66067 44267 39488 16176 37715 21833 21800 10284 18646 28213 17655 22969 17246 8269 12495 9305 4779 15230 14128 8415 10426 5892 8831 11385 9502 4251 11584 4276 8819
is_linear=0
shrinkage=0.05


Tree=22
num_leaves=32
num_cat=0
split_feature=34 78 9 78 33 17 17 82 5 5 9 17 36 1 9 78 33 9 31 9 9 81 15 9 9 83 78 81 6 11 79
split_gain=1.73269e+09 8.36953e+08 4.68466e+08 4.35945e+08 3.30103e+08 3.2638e+08 2.45268e+08 2.04574e+08 1.91077e+08 1.65896e+08 1.62373e+08 1.34363e+08 1.21905e+08 1.16908e+08 1.13932e+08 1.13828e+08 1.007e+08 9.56575e+07 9.26606e+07 9.22526e+07 9.00505e+07 8.92137e+07 8.47366e+07 8.38526e+07 7.88076e+07 7.83935e+07 7.61657e+07 7.50682e+07 7.45621e+07 7.22432e+07 7.01944e+07
threshold=1.494185268878937 3093.8598632812505 671.50000000000011 3173.697387695313 1.8326972126960757 -0.91597560048103321 -0.91597560048103321 2.8382736444473271 9.5000000000000018 36.500000000000007 280.50000000000006 -0.91597560048103321 18.94999980926514 9840.5000000000018 442.50000000000006 3657.140991210938 0.92365968227386486 842.50000000000011 19.500000000000004 787.50000000000011 337.50000000000006 15812644.000000002 1233.5000000000002 406.50000000000006 680.25000000000011 -1.2521759271621702 3621.442260742188 19972837.000000004 35.500000000000007 3.5000000000000004 2812.4565429687505
decision_type=2 2 2 2 2 2 2 2 2 2 2 2 2 2 2 2 2 2 2 2 2 2 2 2 2 2 2 2 2 2 2
left_child=1 2 5 4 7 9 23 19 -7 -1 -10 28 -13 16 -6 17 -12 -8 -17 29 -9 24 -18 -3 -5 -11 -25 30 -4 -2 -22
right_child=3 6 11 21 14 8 15 20 10 25 13 12 -14 -15 -16 18 22 -19 -20 -21 27 -23 -24 26 -26 -27 -28 -29 -30 -31 -32
leaf_value=2.2583425838861153 -5.5267194803073156 3.7745689198856747 11.823842162409196 15.098441959707419 8.2815215992907198 -2.7991072492846043 -3.6929796003282833 -0.61986704889517785 -21.850842797930945 -1.2213226692172914 -16.665937436760807 4.1953314270064208 -6.3208821271282769 31.351289718773717 23.986809390533743 -2.3820973832380496 -7.9620274822159134 13.877192217401669 19.501037140371189 11.07904782817827 9.3338131186878837 34.898489330338087 -19.276623047342738 12.222333091061735 29.1335268644414 -10.385593478620398 25.700558718778751 29.934691382478604 1.5769065573869714 2.8166058069828424 25.898331683124937
leaf_weight=7618 5407 2195 3008 3333 1757 4991 7567 1538 4739 3457 7435 4161 8160 157 3369 778 12299 863 1279 1688 5725 1137 1912 4813 1429 7181 1340 582 4332 4988 720
leaf_count=7618 5407 2195 3008 3333 1757 4991 7567 1538 4739 3457 7435 4161 8160 157 3369 778 12299 863 1279 1688 5725 1137 1912 4813 1429 7181 1340 582 4332 4988 720
internal_value=0.0206063 -3.57868 -6.11395 10.0532 7.24689 -8.69448 5.76957 4.42751 -11.7747 -3.37407 -13.4625 0.420917 -2.76939 -11.6393 18.6036 0.678916 -11.9511 -1.89428 11.2244 0.237333 10.3388 22.3147 -9.48433 12.1646 19.3101 -7.40751 15.1576 12.7373 5.7762 -1.52321 11.1843
internal_weight=119958 88285 69450 31673 25774 49789 18835 20648 31533 18256 26542 19661 12321 21803 5126 10487 21646 8430 2057 12083 8565 5899 14211 8348 4762 10638 6153 7027 7340 10395 6445
internal_count=119958 88285 69450 31673 25774 49789 18835 20648 31533 18256 26542 19661 12321 21803 5126 10487 21646 8430 2057 12083 8565 5899 14211 8348 4762 10638 6153 7027 7340 10395 6445
is_linear=0
shrinkage=0.05


Tree=23
num_leaves=32
num_cat=0
split_feature=39 81 78 78 81 33 15 75 81 75 78 81 61 31 78 39 75 80 18 78 5 6 36 34 80 81 75 79 15 33 31
split_gain=1.62449e+09 8.42656e+08 3.88194e+08 3.49734e+08 3.29058e+08 2.58754e+08 2.25448e+08 2.22302e+08 1.80963e+08 1.78505e+08 1.41883e+08 1.40746e+08 1.1736e+08 1.14008e+08 1.09447e+08 1.00056e+08 9.68269e+07 9.36482e+07 8.8672e+07 8.42832e+07 7.99342e+07 7.75271e+07 7.62748e+07 7.48222e+07 7.44037e+07 7.08466e+07 6.75453e+07 6.54576e+07 6.4723e+07 6.41119e+07 5.50551e+07
threshold=1.4064497947692873 7232949.0000000009 3206.947631835938 2553.8862304687505 16781172.000000004 1.9220486283302309 1201.5000000000002 2.5000000000000004 9313283.5000000019 1.0000000180025095e-35 3167.4082031250005 27458196.000000004 1.3236694335937502 24.500000000000004 2567.116333007813 1.8219137787818911 1.0000000180025095e-35 2795.861206054688 -0.37940952181816096 3741.8249511718755 36.500000000000007 27.500000000000004 16.44999980926514 1.1992366909980776 2812.8488769531255 19972837.000000004 1.5000000000000002 2741.3308105468755 1191.5000000000002 0.98229950666427623 23.500000000000004
decision_type=2 2 2 2 2 2 2 2 2 2 2 2 2 2 2 2 2 2 2 2 2 2 2 2 2 2 2 2 2 2 2
left_child=1 3 5 13 7 8 9 10 14 -5 17 -6 18 -1 30 19 -15 -3 22 -4 -20 27 -11 -12 -9 -10 -7 -16 29 -18 -2
right_child=2 4 15 6 11 26 -8 24 25 12 23 -13 -14 16 21 -17 28 -19 20 -21 -22 -23 -24 -25 -26 -27 -28 -29 -30 -31 -32
leaf_value=-4.5685340104794836 14.741724946715735 -7.3473857965380454 17.905804065824501 -8.9066327543788386 9.9922554302909568 14.300033630084911 -13.895087107889664 4.173105163479172 11.92267835160105 0.89897645454637132 -0.94017876223312236 29.952319940943994 7.0758852852882725 -19.760360784678586 -5.9743053191160973 42.951718908778695 -15.121616619128444 0.25407210283871384 7.4122875999216795 37.591699141506695 -2.9458610428267509 4.578979116778533 -7.8404501671407107 10.542831978208065 14.163163870624892 29.934973408664746 29.560872080410149 21.634134272522381 -21.44477803645087 -7.2732816674098677 -3.5087378892195318
leaf_weight=4279 448 9607 3022 7538 4887 1407 4794 4951 4738 3886 2737 1078 4628 4756 258 634 4086 7007 3822 663 3633 6879 6983 2945 2989 617 1496 1279 1422 7165 5324
leaf_count=4279 448 9607 3022 7538 4887 1407 4794 4951 4738 3886 2737 1078 4628 4756 258 634 4086 7007 3822 663 3633 6879 6983 2945 2989 617 1496 1279 1422 7165 5324
internal_value=0.019576 -3.09864 10.8769 -6.88792 2.8669 8.2355 -3.8157 0.749572 6.16644 -2.2309 -1.80888 13.5995 -0.038419 -11.8815 3.21055 24.6043 -13.6769 -4.14145 -1.83524 21.4477 2.36451 6.84737 -4.71584 5.0115 7.93385 13.998 22.1644 16.9998 -11.3939 -10.1235 -2.09221
internal_weight=119958 93193 26765 56992 36201 22446 35284 30236 19543 30490 22296 5965 22952 21708 14188 4319 17429 16614 18324 3685 7455 8416 10869 5682 7940 5355 2903 1537 12673 11251 5772
internal_count=119958 93193 26765 56992 36201 22446 35284 30236 19543 30490 22296 5965 22952 21708 14188 4319 17429 16614 18324 3685 7455 8416 10869 5682 7940 5355 2903 1537 12673 11251 5772
is_linear=0
shrinkage=0.05


Tree=24
num_leaves=32
num_cat=0
split_feature=39 81 9 81 9 15 78 78 17 11 9 78 79 81 33 52 34 5 39 5 9 78 31 47 31 33 5 36 15 45 15
split_gain=1.48415e+09 9.22477e+08 3.7078e+08 3.61174e+08 2.67958e+08 2.26094e+08 2.25405e+08 2.16574e+08 2.11611e+08 1.55631e+08 1.45936e+08 1.41003e+08 1.22271e+08 1.20165e+08 1.19504e+08 1.22046e+08 1.0084e+08 9.90483e+07 9.87007e+07 9.35123e+07 8.96559e+07 8.42983e+07 8.18021e+07 8.02657e+07 7.65493e+07 7.25117e+07 7.08215e+07 6.87541e+07 7.09517e+07 6.21431e+07 5.91734e+07
threshold=1.5285184383392336 7080763.2500000009 415.25000000000006 18852968.000000004 790.50000000000011 1213.5000000000002 2584.586547851563 2580.2019042968755 -0.98296290636062611 5.5000000000000009 254.50000000000003 3621.442260742188 2910.8200683593755 30108202.000000004 0.92907443642616283 21.500000000000004 1.2284161448478701 1.0000000180025095e-35 1.1092548966407778 7.5000000000000009 714.50000000000011 3167.4082031250005 24.500000000000004 0.51815345883369457 23.500000000000004 0.96039214730262767 7.5000000000000009 79.549999237060561 1071.5000000000002 -4.1666667461395255 1177.5000000000002
decision_type=2 2 2 2 2 2 2 2 2 2 2 2 2 2 2 2 2 2 2 2 2 2 2 2 2 2 2 2 2 2 2
left_child=1 2 16 4 8 7 24 22 21 12 -10 18 20 -5 17 -16 19 -9 26 -1 -8 -3 -4 -20 -2 -24 -12 28 -11 -14 -6
right_child=6 3 5 13 30 -7 9 14 10 27 11 -13 29 -15 15 -17 -18 -19 23 -21 -22 -23 25 -25 -26 -27 -28 -29 -30 -31 -32
leaf_value=-4.9420298839764891 25.985427700692522 4.4278333811274093 1.4288552740614351 12.820251090346474 14.186622318826048 -14.17978289405773 10.55406409235821 15.143323759689139 -12.938174598099415 19.093153835433764 5.6778833568285689 13.957796046573609 48.764050785583606 33.752312023867432 10.11950419585785 0.47904907373810418 -7.8734792655293209 -6.8129936838925609 -0.35715432119904628 -17.350954969115797 22.522132884801966 16.714796299546411 -14.127660446973227 11.485635431645221 3.0251840190498602 -5.9456677241988203 -7.0231232032030491 0.717773880396679 42.666486747983761 23.406769171064266 -0.5513544766297892
leaf_weight=1846 397 5224 2541 4011 4717 4400 6309 563 2744 459 1258 1525 340 827 4548 11803 8794 5860 8922 8551 2081 1905 3857 1704 4241 9089 8606 157 1048 835 796
leaf_count=1846 397 5224 2541 4011 4717 4400 6309 563 2744 459 1258 1525 340 827 4548 11803 8794 5860 8922 8551 2081 1905 3857 1704 4241 9089 8606 157 1048 835 796
internal_value=0.0185972 -2.15278 -6.04252 3.54311 1.88022 -3.44604 14.2633 -2.21167 0.120508 18.0933 -2.06511 -0.709861 15.6381 16.3983 0.890457 3.16052 -11.8144 -4.88844 -1.80152 -15.1477 13.5225 7.71114 -6.77341 1.54197 4.99052 -8.38333 -5.40331 32.2061 35.4866 30.7442 12.0587
internal_weight=119958 104091 61852 42239 37401 42661 15867 38261 31888 11229 24759 22015 9565 4838 22774 16351 19191 6423 20490 10397 8390 7129 15487 10626 4638 12946 9864 1664 1507 1175 5513
internal_count=119958 104091 61852 42239 37401 42661 15867 38261 31888 11229 24759 22015 9565 4838 22774 16351 19191 6423 20490 10397 8390 7129 15487 10626 4638 12946 9864 1664 1507 1175 5513
is_linear=0
shrinkage=0.05


Tree=25
num_leaves=32
num_cat=0
split_feature=39 78 15 78 33 33 75 5 78 31 81 75 83 11 33 6 79 75 78 75 82 81 81 6 78 39 82 81 5 31 31
split_gain=1.41964e+09 7.09023e+08 3.90053e+08 3.32734e+08 2.82013e+08 2.50397e+08 1.99957e+08 1.95161e+08 1.80639e+08 1.61134e+08 1.47925e+08 1.34745e+08 1.13159e+08 1.06591e+08 9.90507e+07 9.02518e+07 1.29493e+08 8.45356e+07 8.23575e+07 7.83106e+07 7.79882e+07 7.39677e+07 7.36885e+07 7.05472e+07 6.36272e+07 6.35733e+07 6.15868e+07 5.97575e+07 5.83686e+07 5.78733e+07 5.75215e+07
threshold=1.3981422185897829 2720.0788574218755 1187.5000000000002 3206.947631835938 1.1178786158561709 1.8326972126960757 1.0000000180025095e-35 1.5000000000000002 3361.973266601563 48.500000000000007 9313283.5000000019 2.5000000000000004 -0.70700165629386891 3.5000000000000004 0.92907443642616283 26.500000000000004 2741.3308105468755 2.5000000000000004 3741.8249511718755 1.5000000000000002 1.6666666865348818 10120926.000000002 27458196.000000004 24.500000000000004 3621.442260742188 1.8219137787818911 1.9948979616165163 19972837.000000004 23.500000000000004 26.500000000000004 55.500000000000007
decision_type=2 2 2 2 2 2 2 2 2 2 2 2 2 2 2 2 2 2 2 2 2 2 2 2 2 2 2 2 2 2 2
left_child=1 6 4 5 7 10 30 -3 11 26 15 22 24 -4 -11 16 -2 -7 25 -17 -14 -16 -6 -13 -9 -5 -8 -12 -22 -26 -1
right_child=3 2 13 18 8 17 9 12 -10 14 27 23 20 -15 21 19 -18 -19 -20 -21 28 -23 -24 -25 29 -27 -28 -29 -30 -31 -32
leaf_value=-9.3417709877876565 -9.1241743258473011 15.588283996723579 -14.15220494541839 16.58841819326431 1.7446394739164277 14.129981311849376 -4.6556123563817788 0.62599138948956623 16.7851142668998 -13.250256620936511 10.253427546284723 22.547907903055091 -10.444708141615799 -1.952786984953665 -7.1357804561048654 -3.7932734538144013 17.989134419052743 29.837748350272665 36.983055367914048 4.5771593314503756 2.1763737117071256 3.3105940520855377 30.871356332463918 8.4652057748487177 -0.57449929915683373 35.431822972635011 3.3428609407012853 26.951445223616538 -7.675337698254876 29.049801799116548 -16.385843603432594
leaf_weight=5253 588 1617 4570 3105 12460 3400 4352 7601 3911 6312 4512 1232 4970 2944 13205 5595 1754 1145 805 5582 3528 1944 221 3197 284 523 5384 608 2620 393 6465
leaf_count=5253 588 1617 4570 3105 12460 3400 4352 7601 3911 6312 4512 1232 4970 2944 13205 5595 1754 1145 805 5582 3528 1944 221 3197 284 523 5384 608 2620 393 6465
internal_value=0.0165165 -2.95466 1.12016 9.96414 2.99582 7.56428 -7.65928 -1.10044 7.09051 -5.56756 4.99835 4.87452 -2.49174 -9.37245 -7.98788 2.25714 11.1819 18.0872 22.5151 0.387075 -5.78713 -5.79525 2.25225 12.3825 1.93423 19.3048 -0.232463 12.2363 -2.02198 16.6225 -13.2281
internal_weight=120080 92463 49548 27617 42034 23184 42915 21013 21021 31197 18639 17110 19396 7514 21461 13519 2342 4545 4433 11177 11118 15149 12681 4429 8278 3628 9736 5120 6148 677 11718
internal_count=120080 92463 49548 27617 42034 23184 42915 21013 21021 31197 18639 17110 19396 7514 21461 13519 2342 4545 4433 11177 11118 15149 12681 4429 8278 3628 9736 5120 6148 677 11718
is_linear=0
shrinkage=0.05


Tree=26
num_leaves=32
num_cat=0
split_feature=83 5 81 11 78 39 78 33 16 81 6 16 78 83 17 39 39 19 33 31 52 81 11 10 33 79 29 52 31 35 12
split_gain=1.29427e+09 4.81209e+08 4.09019e+08 4.06753e+08 2.87596e+08 2.81237e+08 2.42653e+08 1.92634e+08 1.66106e+08 1.30056e+08 1.2789e+08 1.15363e+08 1.11616e+08 1.10321e+08 1.08458e+08 1.03921e+08 1.03512e+08 9.77934e+07 9.36351e+07 8.90781e+07 8.88122e+07 8.72321e+07 7.82785e+07 7.51327e+07 7.37782e+07 6.66704e+07 6.47832e+07 6.46401e+07 6.37685e+07 6.28432e+07 6.20186e+07
threshold=-1.1241323947906492 4.5000000000000009 13468898.500000002 3.5000000000000004 2619.772094726563 1.6931281089782717 2925.594116210938 1.3089572191238406 38.500000000000007 30108202.000000004 35.500000000000007 40.500000000000007 3657.140991210938 -1.5501937866210935 -0.98296290636062611 1.3157095909118655 1.0095571279525759 0.87837970256805431 0.74923312664031994 20.500000000000004 21.500000000000004 18852968.000000004 4.5000000000000009 19.500000000000004 1.8967294692993166 2910.8200683593755 445.12651062011724 33.500000000000007 48.500000000000007 41.45000076293946 1.5000000000000002
decision_type=2 2 2 2 2 2 2 2 2 2 2 2 2 2 2 2 2 2 2 2 2 2 2 2 2 2 2 2 2 2 2
left_child=3 16 4 5 15 8 13 11 10 -4 -1 12 18 27 -8 23 -2 25 -6 -14 -20 -12 -15 28 -9 -7 -24 30 -3 -18 -5
right_child=1 2 9 6 7 17 14 24 -10 -11 21 -13 19 22 -16 -17 29 -19 20 -21 -22 -23 26 -25 -26 -27 -28 -29 -30 -31 -32
leaf_value=8.7625733434467588 4.05611822030958 -6.5524188639079846 4.3774873080366756 7.7301987968559649 -10.524769008151729 1.7522623324696021 25.071927151794938 3.3833056738424818 -9.5250397350804352 29.788485481822011 -1.8949074585459986 -13.415000188830852 -6.555202202298033 9.3049893908088119 13.646836714506618 -3.4381334820204525 14.234237901617744 34.327150614854688 1.4041705985561512 20.180162204918034 -5.4437430544656777 16.282650601914519 -2.9806909972611857 -19.758489550358725 23.666340556028885 33.985254696579872 11.151259441161484 10.830737820491215 -12.713276018186983 37.541760092884218 36.031554979574487
leaf_weight=5308 3536 6220 6474 299 5370 632 3368 4850 3562 546 10130 3613 497 4033 5420 4485 2199 798 7147 835 14028 706 3942 2608 494 215 1021 3928 12934 333 549
leaf_count=5308 3536 6220 6474 299 5370 632 3368 4850 3562 546 10130 3613 497 4033 5420 4485 2199 798 7147 835 14028 706 3942 2608 494 215 1021 3928 12934 333 549
internal_value=0.0156906 -3.92566 -5.09491 6.85244 -6.369 1.90581 11.534 -3.51911 0.247827 6.3539 2.40411 -5.00867 -3.91917 7.39169 18.0255 -10.3684 9.58222 21.7674 -4.62789 10.2046 -3.13243 -0.710582 4.13101 -11.7967 5.25827 9.93419 -0.073433 13.5335 -10.7126 17.2996 26.0527
internal_weight=120080 76169 70101 43911 63081 21351 22560 36834 19706 7020 16144 31490 27877 13772 8788 26247 6068 1645 26545 1332 21175 10836 8996 21762 5344 847 4963 4776 19154 2532 848
internal_count=120080 76169 70101 43911 63081 21351 22560 36834 19706 7020 16144 31490 27877 13772 8788 26247 6068 1645 26545 1332 21175 10836 8996 21762 5344 847 4963 4776 19154 2532 848
is_linear=0
shrinkage=0.05


Tree=27
num_leaves=32
num_cat=0
split_feature=39 81 9 81 9 9 9 80 17 39 76 78 15 11 50 78 78 39 9 9 78 79 79 81 81 50 61 12 79 39 34
split_gain=1.186e+09 7.61508e+08 3.55787e+08 2.75592e+08 2.26702e+08 2.1719e+08 1.91862e+08 1.90818e+08 1.65349e+08 1.38649e+08 1.27633e+08 1.14725e+08 1.0916e+08 9.62495e+07 9.60236e+07 9.52862e+07 8.70943e+07 8.13017e+07 8.02581e+07 7.7712e+07 7.83948e+07 7.17857e+07 6.79145e+07 6.53262e+07 6.33103e+07 5.84944e+07 5.7955e+07 5.54463e+07 5.16493e+07 5.13455e+07 5.12077e+07
threshold=1.5285184383392336 7333100.7500000009 748.50000000000011 21264451.000000004 802.50000000000011 280.50000000000006 630.25000000000011 2812.8488769531255 -0.91597560048103321 0.98047912120819103 1.5000000000000002 2607.936645507813 1209.5000000000002 5.5000000000000009 8.5000000000000018 2545.793579101563 3254.7402343750005 1.2324475646018984 993.50000000000011 249.50000000000003 3796.5905761718755 2910.8200683593755 2910.8200683593755 30108202.000000004 10298349.000000002 24.500000000000004 1.3236694335937502 1.5000000000000002 2741.3308105468755 1.0916253924369814 1.2072218656539919
decision_type=2 2 2 2 2 2 2 2 2 2 2 2 2 2 2 2 2 2 2 2 2 2 2 2 2 2 2 2 2 2 2
left_child=1 2 5 4 8 -1 11 12 10 -9 17 -2 15 22 -10 -7 -12 -3 26 -16 -21 -13 24 -5 -8 -6 -4 -23 -11 -17 -27
right_child=6 3 18 23 25 7 13 9 14 28 16 21 -14 -15 19 29 -18 -19 -20 20 -22 27 -24 -25 -26 30 -28 -29 -30 -31 -32
leaf_value=-14.287422831609817 1.1503411207249814 6.1216545720764159 -0.84207114123367188 13.254872069875171 19.842597690747194 -10.840556627378032 11.837913233083729 -7.1416881663678113 6.4083667980465711 -4.1599282978103291 -1.3188062345780596 10.066289467621386 -17.60407790223277 36.136467537885821 -17.126985671983828 -8.1709276685805445 10.860434170004758 18.804331979855526 15.399714275747938 -4.7566632791295813 15.058928598926181 5.8973920938409412 36.591625570830182 29.480784677817987 25.201428246275192 0.044727765378615669 7.8503308729687689 30.128677267137615 3.970295205498517 -1.8991433748435851 12.829194501933239
leaf_weight=8648 3373 5044 7741 2438 1634 10179 3107 6786 2119 2577 9415 5680 2812 812 1215 5483 1739 1686 1121 10129 525 324 425 832 1240 1205 2549 870 8073 8061 2238
leaf_count=8648 3373 5044 7741 2438 1634 10179 3107 6786 2119 2577 9415 5680 2812 812 1215 5483 1739 1686 1121 10129 525 324 425 832 1240 1205 2549 870 8073 8061 2238
internal_value=0.0149061 -1.92149 -5.30834 3.47047 2.23918 -7.04399 12.7663 -5.61939 0.676054 -1.55606 3.86107 8.70297 -8.28939 20.2229 -3.39607 -7.18527 0.580037 9.29892 2.69522 -5.14648 -3.78021 12.409 17.515 17.3833 15.6499 12.0521 1.31118 23.5534 2.00301 -4.43814 8.35482
internal_weight=120080 104249 64030 40219 36949 52619 15831 43971 31872 17436 17884 10247 26535 5584 13988 23723 11154 6730 11411 11869 10654 6874 4772 3270 4347 5077 10290 1194 10650 13544 3443
internal_count=120080 104249 64030 40219 36949 52619 15831 43971 31872 17436 17884 10247 26535 5584 13988 23723 11154 6730 11411 11869 10654 6874 4772 3270 4347 5077 10290 1194 10650 13544 3443
is_linear=0
shrinkage=0.05


Tree=28
num_leaves=32
num_cat=0
split_feature=34 17 33 5 5 81 32 75 39 79 5 75 81 75 75 15 83 11 75 11 11 80 81 15 12 6 12 48 61 83 80
split_gain=1.10553e+09 5.26306e+08 3.1848e+08 2.97995e+08 2.82553e+08 2.42461e+08 2.14468e+08 1.61722e+08 1.60825e+08 1.42703e+08 1.42537e+08 1.30228e+08 1.22059e+08 1.09462e+08 1.0526e+08 9.15825e+07 8.75046e+07 8.44941e+07 8.32105e+07 8.31248e+07 8.2826e+07 7.90259e+07 7.3841e+07 6.75593e+07 6.06217e+07 5.96957e+07 5.64766e+07 5.51115e+07 6.44142e+07 5.48601e+07 4.77797e+07
threshold=1.4822478890419009 -0.91597560048103321 1.8967294692993166 36.500000000000007 20.250000000000004 9396259.5000000019 0.86636903882026683 1.0000000180025095e-35 1.2416668534278872 2773.5715332031255 1.0000000180025095e-35 1.5000000000000002 24238518.000000004 1.0000000180025095e-35 2.5000000000000004 761.50000000000011 -1.0461105704307554 3.5000000000000004 2.5000000000000004 3.5000000000000004 5.5000000000000009 2812.8488769531255 6744409.5000000009 531.50000000000011 1.5000000000000002 2.5000000000000004 1.5000000000000002 1.0000000180025095e-35 0.81057780981063854 -1.5501937866210935 2812.8488769531255
decision_type=2 2 2 2 2 2 2 2 2 2 2 2 2 2 2 2 2 2 2 2 2 2 2 2 2 2 2 2 2 2 2
left_child=1 3 5 8 6 14 10 -6 18 -8 23 -11 15 -5 21 -9 19 -7 27 -15 -4 -2 -17 -3 -10 -26 -22 -1 -29 -21 -19
right_child=2 4 20 13 7 17 9 12 24 11 -12 -13 -14 16 -16 22 -18 30 -20 29 26 -23 -24 -25 25 -27 -28 28 -30 -31 -32
leaf_value=8.5984861442709501 -2.2585006464878972 46.760543547130766 15.969631577184476 -9.1978727628059538 -15.124143937011112 7.1839960320997607 -5.8308662187348226 -2.3799123293355966 9.2955215485015916 0.33788447431165919 -9.981241508441407 12.242021496651811 22.240628872820214 -1.0069508317750464 9.0984712570907309 -11.755508580932606 -5.8920731973518983 13.531876498326268 11.965964286250685 29.653464304147093 1.5954744734082904 5.6788303087141294 -5.007405667867717 4.802925060744391 58.613431347649673 21.425353694459766 35.519524053733555 -8.5591065701672644 2.779069747350599 6.9207140142841226 24.089070707626895
leaf_weight=2597 9411 105 3919 4389 7927 4004 3619 6725 1206 4932 7762 4301 354 5717 4596 10927 4415 3271 2992 290 140 4703 6445 1112 116 1548 992 1651 5192 3128 1594
leaf_count=2597 9411 105 3919 4389 7927 4004 3619 6725 1206 4932 7762 4301 354 5717 4596 10927 4415 3271 2992 290 140 4703 6445 1112 116 1548 992 1651 5192 3128 1594
internal_value=0.0141608 -2.91639 7.86818 2.03706 -5.95385 5.75419 -1.5577 -8.91797 7.16287 2.58462 -7.48677 5.88318 -6.90593 -2.33526 2.52642 -7.33411 -0.11238 12.5635 4.69999 2.68098 19.4108 0.386339 -9.25197 8.42293 17.8314 24.0178 31.324 2.39705 0.0435255 8.84947 16.9909
internal_weight=120080 87450 32630 33241 54209 27579 21831 32378 15302 12852 8979 9233 24451 17939 18710 24097 13550 8869 12432 9135 5051 14114 17372 1217 2870 1664 1132 9440 6843 3418 4865
internal_count=120080 87450 32630 33241 54209 27579 21831 32378 15302 12852 8979 9233 24451 17939 18710 24097 13550 8869 12432 9135 5051 14114 17372 1217 2870 1664 1132 9440 6843 3418 4865
is_linear=0
shrinkage=0.05


Tree=29
num_leaves=32
num_cat=0
split_feature=39 78 9 78 17 82 15 39 9 9 5 47 28 9 9 1 6 78 39 6 9 78 78 9 39 31 15 78 31 31 61
split_gain=1.01778e+09 5.43619e+08 3.37904e+08 2.64239e+08 2.38962e+08 2.07054e+08 2.02409e+08 1.73823e+08 1.33054e+08 1.19762e+08 1.17892e+08 1.01457e+08 1.01016e+08 9.63595e+07 9.17634e+07 8.69884e+07 8.80969e+07 7.69309e+07 7.29538e+07 7.23965e+07 7.23445e+07 7.14674e+07 6.66571e+07 5.80878e+07 5.89108e+07 5.5106e+07 5.33776e+07 5.29645e+07 5.65586e+07 5.04426e+07 4.98581e+07
threshold=1.3981422185897829 3065.733276367188 790.50000000000011 3206.947631835938 -0.98296290636062611 2.9094326496124272 1187.5000000000002 1.5907899141311648 606.50000000000011 598.25000000000011 4.5000000000000009 0.51815345883369457 1.5000000000000002 276.50000000000006 341.50000000000006 9840.5000000000018 13.250000000000002 3621.442260742188 0.95034784078598034 35.500000000000007 1045.5000000000002 3857.3090820312505 2481.882446289063 289.50000000000006 1.8219137787818911 19.500000000000004 1205.5000000000002 3857.3090820312505 25.500000000000004 38.500000000000007 1.1581552624702456
decision_type=2 2 2 2 2 2 2 2 2 2 2 2 2 2 2 2 2 2 2 2 2 2 2 2 2 2 2 2 2 2 2
left_child=1 2 4 7 19 10 8 11 18 29 -6 12 -2 -12 -7 16 -16 30 -3 -1 25 23 -15 -5 -25 -4 -24 -20 -29 -9 -10
