tree
version=v4
num_class=1
num_tree_per_iteration=1
label_index=0
max_feature_idx=26
objective=regression
feature_names=load_roll_outstanding_mean load_roll_onshift_mean load_roll_busy_mean load_roll_busy_ratio_mean load_roll_demand_supply_mean load_roll_outstanding_std load_roll_busy_std bucket_distance bucket_dashers order_avg_item_price order_percent_distinct_items order_item_price_range order_high_value time_estimated_order_place_duration time_estimated_store_to_consumer_driving_duration time_day_of_week time_is_rush_hour time_is_weekend time_bucket_48 load_demand_momentum load_supply_momentum load_busy_momentum load_recent_order_count interaction__order_subtotal__x__store_id_encoded interaction__order_total_items__x__load_busy_ratio interaction__time_hour_sin__x__load_demand_supply_ratio interaction__store_id_encoded__x__order_avg_item_price
feature_infos=[0.40000000596046448:264.20001220703125] [0.20000000298023224:153.39999389648438] [0:140.60000610351562] [0:15.033333778381348] [0:12.695047378540039] [0:98.732467651367188] [0:57.682655334472656] [0:3] [0:3] [0:14700] [0.029411764815449715:1] [-198:7674] [0:1] [0:2715] [0:1739] [0:6] [0:1] [0:1] [13:46] [-87.666664123535156:89.666664123535156] [-50.666667938232422:51.666667938232422] [-46:47.666667938232422] [1:10] [0:76173256] [0:153] [-33.234016418457031:11.5] [0:42244680]
tree_sizes=3048 3072 3087 3086 3076 3089 3068 3087 3071 3070 3082 3100 3095 3077 3087 3074 3080 3064 3087 3072 3069 3083 3072 3073 3057 3067 3070 3068 3054 3099 3064 3075 3074 3080 3088 3046 3068 3088 3084 3078 3091 3058 3097 3089 3048 3087 3109 3072 3061 3057 3066 3063 3057 3060 3045 3043 3044 3063 3068 3066 3041 3067 3035 3050 3059 3066 3071 3067 3043 3053 3055 3058 3058 3060 3048 3056 3052 3057 3047 3036 3056 3052 3053 3059 3058 3025 3044 3103 3026 3041 3073 3077 3068 3043 3066 3013 3061 3044 3035 3039 3042 3060 3060 3064 3066 3038 3037 3039 3034 3048 3043 3069 3039 3072 3026 3075 3077 3053 3028 3057 3078 3076 3050 3013 3046 3072 3052 3059 3033 3078 3048 3040 3066 3078 3077 3061 3047 3060 3024 3067 3040 3031 3040 3065 3022 2984 3034 3062 3024 3038 3045 3055 3008 3063 3036 3009 3024 3024 2968 2965 3041 2983 2948 3045 3042 2980 2984 3026 3020 3033 2967 3007 3057 3015 2958 3023 2981 3020 2963 3039 3102 2950 2967 3039 3015 2969 2926 2958 2949 2942 2965 3000 3005 2984 2973 2983 2926 2991 2956 2956 3043 2914 3061 2989 2994 3003 3047 2963 2980 3008 2958 2935 2950 2942 2928 2970 3019 3007 2928 2916 2982 2927 2981 2958 2952 2937 2913 2904 2979 2935 2914 2986 2983 2991 3047 2954 2994 2950 2943 2909 2959 2968 2978 3002 2940 2918 2960 2923 2920 2948 2950 3007 2955 2954 2976 2964 2910 2924 2951 2958 2913 2921 2881 2897 2874 3030 2944 2961 2921 2953 2964 2959 2934 2921 2930 2967 2978 2996 2921 3007 2906 2895 2960 2907 2947 2923 2979 2979 2937 2917 2964 2927 2907 2977 2955 2958 2927 2885 2969 2972 2869 2990 2938 2888 2896 2905 2888 2896 2926 2875 2920 2929 2974 2952 2928 2891 2965 2929 2996 2889 2949 2981 2940 2932 2933 2991 2906 2951 2924 2882 2932 2918 2974 2898 2895 2872 2898 2960 2983 2907 2899 2902 2897 2952 2925 2891 2893 2907 2918 2883 2996 2990 2905 2941 2925 2894 2928 2988 2954 2956 2892 2885 2846 2910 2851 2872 2883 2924 2891 2900 2938 2927 2904 2950 2931 2911 2880 2912 2931 2982 2872 2869 2887 2878 3017 2924 2929 2906 2925 2934 2927 2969 2920 2880 2906 2915 2945 2919 2978 2915 2888 2922 2920 2993 2882 2871 2873 2875 2860 2930 2905 2955 2907 2961 2936 2927 2901 2932 2961 2895 2889 2902 2883 2942 3021 2934 2888 2904 2988 2933 2916 2892 2901 2879 2942 2914 2921 2861 2903 2891 2907 2887 2902 2866 2908 2939 2926 2985 3006 2922 2914 2917 2926 2922 2942 2924 2934 2929 2899 2899 2926 2929 2983 2886 2925 2955 2893 2851 2858 2942 2917 2880 2852 2956 2986 2956 2930 2958 2921 2979 2976 3000 3006 2959 2988 2921 2962 2953 2914 2914 2859 2855 2872 2954 2943 2937 2891 2888 2903 2933 2896 2901 2891 2936 2910 2917 2906 2889 2918 2904 2922 2923 2924 2921 2875 2932 2924 2935 2889 2951 2908 2927 2936 2893 2880 2887 2898 2902 2865 2902 2946 2908 2876 2881 2951 3002 2881 2938 2915 2893 2879 2888 2893 2889 2881 2914 2934 2969 2882 2868 2851 2904 2902 2897 2916 2920 2880 2967 2916 2886 2935 2925 2920 2918 2882 2944 2889 2891 2937 2915 2975 2904 2925 2928 3005 2881 2960 2943 2932 2931 2926 2963 2889 2922 2851 2869 2887 2899 2967 2888 2972 2887 2906 2884 2916 2878 2906 2876 2916 2958 2920 2897 2918 2901 2954 2964 2890 2905 2896 2902 2874 2895 2865 2921 2893 2930 2933 2887 2957 2897 2949 2884 2916 2938 2899 2859 2877 2901 2895 2901 2931 2883 2927 2898 2974 3027 2943 2963 2912 2908 2924 2921 2935 2885 2951 2928 2904 2935 2920 2880 2881 2905 2884 2858 2886 2958 2942 2976 2917 2878 2874 2932 2910 2878 2945 2900 2887 2875 2882 2920 2866 2908 2881 2897 2888 2908 2836 2933 2907 2934 2976 2935 2952 2882 2905 2890 2894 2867 2907 2947 2859 2979 2876 2867 2925 2915 2944 2899 2957 2863 2886 2885 2915 2898 2942 2931 2900 2914 2911 2932 2910 2931 2916 2915 2918 2862 2930 2892 2878 2861 2940 2896 2923 2878 2872 2888 2960 2919 2942 2940 2847 2862 2847 2853 2877 2881 2924 2916 2923 2918 2867 2878 2865 2849 2927 2905 2872 2880 2913 2872 2900 2939 2873 2872 2915 2882 2914 2900 2869 2927 2902 2899 2905 2899 2957 2900 2926 2867 2950 2893 2847 2856 2879 2875 2881 2875 2926 2916 2980 2910 2889 2916 2890 2898 2906 2916 2903 2894 2913 2919 2942 2933 2908 2892 2957 2928 2878 2926 2931 2906 2866 2884 2879 2899 2896 2918 2919 2953 2936 2931 2911 2918 2934 2847 2871 2909 2884 2904 2885 2896 2898 2882 2920 2907 2887 2911 2929 2923 2909 2915 2857 2935 2938 2900 2890 2864 2875 2894 2849 2901 2876 2884 2894 2880 2901 2872 2930 2948 2876 2881 2868 2900 2840 2896 2879 2933 2875 2867 2921 2930 2877 2883 2868 2866 2904 2907 2919 2902 2887 2950 2909 2895 2893 2893 2900 2944 2893 2868 2865 2890 2863 2863 2886 2931 2916 2893 2897 2861 2922 2917 2856 2885 2849 2886 2863 2920 2914 2901 2892 2878 2874 2862 2879 2894 2881 2942 2882 2873 2920 2904 2859 2861 2873 2891 2938 2856 2874 2897 2898 2901 2876 2891 2901 2904 2886 2938 2962 2914 2954 2912 2885 2889 2881 2876 2882 2941 2956 2894 2899 2883 2902 2931 2960 2925 2908 2894 2914

Tree=0
num_leaves=32
num_cat=0
split_feature=4 23 14 4 14 4 4 23 23 15 23 4 4 14 8 8 14 14 16 3 16 23 14 14 16 18 8 14 8 16 14
split_gain=9.87715e+09 4.82365e+09 2.84694e+09 1.47337e+09 1.22414e+09 7.63829e+08 7.5566e+08 6.63925e+08 6.51112e+08 6.26503e+08 5.44663e+08 4.0716e+08 4.04287e+08 3.93835e+08 3.91161e+08 3.11327e+08 2.54151e+08 2.45817e+08 2.27389e+08 2.17193e+08 2.02994e+08 1.887e+08 1.744e+08 1.60368e+08 1.60038e+08 1.53943e+08 1.41958e+08 1.35103e+08 1.34344e+08 1.29981e+08 1.24917e+08
threshold=1.4821335673332217 8310395.0000000009 523.50000000000011 1.8054684996604922 570.25000000000011 1.1944366693496706 1.187207102775574 8421801.0000000019 16781172.000000004 5.5000000000000009 20583657.000000004 1.11316853761673 1.1786783933639529 523.50000000000011 1.0000000180025095e-35 1.0000000180025095e-35 589.50000000000011 760.50000000000011 1.0000000180025095e-35 1.1037927865982058 1.0000000180025095e-35 27458196.000000004 502.50000000000006 790.50000000000011 1.0000000180025095e-35 34.500000000000007 1.0000000180025095e-35 846.50000000000011 1.0000000180025095e-35 1.0000000180025095e-35 345.50000000000006
decision_type=2 2 2 2 2 2 2 2 2 2 2 2 2 2 2 2 2 2 2 2 2 2 2 2 2 2 2 2 2 2 2
left_child=1 2 5 7 8 15 14 13 11 22 12 -3 27 25 23 30 -9 29 28 -11 -7 -10 -5 -4 -17 -2 -20 -6 -8 -16 -1
right_child=3 4 6 9 10 20 18 16 21 19 -12 -13 -14 -15 17 24 -18 -19 26 -21 -22 -23 -24 -25 -26 -27 -28 -29 -30 -31 -32
leaf_value=2783.2586387165957 2805.3627483028513 2798.9799296897968 2807.5812331560433 2846.1575914646014 2818.3208408347755 2793.7502060440324 2826.0361389907684 2842.4591971258374 2827.3853360705389 2914.8778326395104 2860.2289272811063 2816.4135528610868 2839.2484985794977 2839.9276731361792 2788.0293358060862 2772.8818031526198 2863.3675925288444 2807.4048115761752 2850.762286274668 2856.8235414683636 2807.2273873634977 2857.7196415184626 2870.7563359155979 2824.0151557412023 2784.8036657065413 2825.5942056026033 2823.3546902815897 2834.8085267995084 2810.3089757547609 2800.511721772139 2795.4629920446814
leaf_weight=3832 1338 6129 6061 1249 5816 8303 1648 3299 2753 905 1638 7384 6078 5042 5438 7422 2598 4293 526 196 4211 630 1703 1966 4535 3163 4641 1580 7713 3383 4630
leaf_count=3832 1338 6129 6061 1249 5816 8303 1648 3299 2753 905 1638 7384 6078 5042 5438 7422 2598 4293 526 196 4211 630 1703 1966 4535 3163 4641 1580 7713 3383 4630
internal_value=2812.95 2806.64 2799.16 2845.52 2822.66 2788.56 2808.95 2838.48 2813.42 2872.35 2833 2808.51 2829.69 2830.33 2802.91 2782.6 2851.67 2797.59 2817.73 2904.54 2798.29 2833.03 2860.35 2811.61 2777.4 2819.58 2826.14 2821.84 2813.08 2792.82 2789.94
internal_weight=120103 100610 68602 19493 32008 32933 35669 15440 16896 4053 15112 13513 13474 9543 21141 20419 5897 13114 14528 1101 12514 3383 2952 8027 11957 4501 5167 7396 9361 8821 8462
internal_count=120103 100610 68602 19493 32008 32933 35669 15440 16896 4053 15112 13513 13474 9543 21141 20419 5897 13114 14528 1101 12514 3383 2952 8027 11957 4501 5167 7396 9361 8821 8462
is_linear=0
shrinkage=1


Tree=1
num_leaves=32
num_cat=0
split_feature=25 14 23 23 25 4 14 4 15 23 14 23 23 14 13 14 4 25 4 14 14 13 23 4 25 25 24 25 23 23 1
split_gain=1.2406e+10 3.68426e+09 1.79059e+09 1.70031e+09 1.53213e+09 7.6998e+08 6.81565e+08 6.55215e+08 5.2561e+08 4.34016e+08 3.92155e+08 3.64276e+08 3.411e+08 2.4959e+08 2.4158e+08 2.23214e+08 2.15024e+08 2.11097e+08 2.04061e+08 1.98848e+08 1.88715e+08 1.8337e+08 1.77686e+08 1.50554e+08 1.20939e+08 1.18354e+08 1.14441e+08 1.27718e+08 1.0923e+08 1.09024e+08 1.07479e+08
threshold=-1.3632510900497434 523.50000000000011 11174277.000000002 9029401.5000000019 -1.7557695508003233 1.187207102775574 645.50000000000011 1.1944366693496706 5.5000000000000009 18381603.000000004 742.50000000000011 25668513.000000004 9396259.5000000019 364.50000000000006 255.50000000000003 689.50000000000011 1.7880489230155947 -1.4996058940887449 1.0916253924369814 321.50000000000006 722.50000000000011 255.50000000000003 10298349.000000002 1.1092548966407778 -0.99985131621360768 -0.99985131621360768 1.0000000180025095e-35 -0.86601391434669484 30108202.000000004 4404233.7500000009 18.550000190734867
decision_type=2 2 2 2 2 2 2 2 2 2 2 2 2 2 2 2 2 2 2 2 2 2 2 2 2 2 2 2 2 2 2
left_child=4 3 5 7 8 10 12 13 15 18 21 23 17 -2 20 -1 -10 -6 -5 -9 -7 26 -8 -4 -12 -15 -3 -28 -11 -21 -26
right_child=1 2 11 9 6 14 22 19 16 28 24 -13 -14 25 -16 -17 -18 -19 -20 29 -22 -23 -24 -25 30 -27 27 -29 -30 -31 -32
leaf_value=40.956785628436393 -34.714673295845039 13.068733036479518 11.233380256284761 -14.329594823916366 19.841819660226093 -3.0633970899210903 33.76579775914459 -22.855516887271108 55.285963422533975 14.170096013148626 12.033723255453788 53.038756029938206 30.678219678117593 -12.384450608289306 15.814319996207661 67.103285194600446 99.251903003132497 2.8069731410904311 0.50380091250555004 -16.315824064294521 8.9927650701148867 -5.3301435334547387 52.307880604305893 24.606663220123146 4.8974538626370734 -26.224469547198112 -9.6640433775967622 -21.49018247804932 44.989402375013931 -4.8525199481470267 -7.6508361306153532
leaf_weight=3077 10274 309 4024 4118 4241 7928 3942 4996 415 1725 1642 825 3980 1871 4043 1111 843 3184 5306 3912 5496 4951 1922 4412 2717 8858 3319 7314 345 4415 4588
leaf_count=3077 10274 309 4024 4118 4241 7928 3942 4996 415 1725 1642 825 3980 1871 4043 1111 843 3184 5306 3912 5496 4951 1922 4412 2717 8858 3319 7314 345 4415 4588
internal_value=0.00864244 -7.75226 1.41479 -18.0693 33.2826 -2.94435 25.9903 -23.6428 56.4063 -1.42434 -8.60071 21.3287 18.8677 -29.1447 5.09961 47.893 84.748 12.5369 -5.97794 -14.9694 1.87259 -13.3144 39.8432 18.2276 -0.227594 -23.8109 -16.9271 -17.7988 19.3066 -10.2379 -2.98366
internal_weight=120103 97388 51568 45820 22715 42307 17269 34326 5446 11494 24840 9261 11405 21003 17467 4188 1258 7425 9424 13323 13424 15893 5864 8436 8947 10729 10942 10633 2070 8327 7305
internal_count=120103 97388 51568 45820 22715 42307 17269 34326 5446 11494 24840 9261 11405 21003 17467 4188 1258 7425 9424 13323 13424 15893 5864 8436 8947 10729 10942 10633 2070 8327 7305
is_linear=0
shrinkage=0.05


Tree=2
num_leaves=32
num_cat=0
split_feature=25 14 23 23 25 4 14 4 4 23 23 8 14 14 23 25 14 4 8 25 8 23 25 25 25 17 8 14 23 13 23
split_gain=1.11964e+10 3.33433e+09 1.70529e+09 1.45593e+09 1.39446e+09 6.76972e+08 5.79527e+08 5.70454e+08 5.59207e+08 4.31689e+08 3.60883e+08 3.01159e+08 3.00454e+08 2.96429e+08 2.9179e+08 2.33851e+08 2.24815e+08 2.20838e+08 1.95305e+08 1.83886e+08 1.78184e+08 1.70515e+08 1.54522e+08 1.52644e+08 1.4284e+08 1.4109e+08 1.35411e+08 1.22969e+08 1.14576e+08 1.13304e+08 1.0982e+08
threshold=-1.3632510900497434 560.50000000000011 9095737.5000000019 9699966.5000000019 -1.6969332098960874 1.1944366693496706 475.50000000000006 1.1926706433296206 1.921139180660248 18381603.000000004 21264451.000000004 1.0000000180025095e-35 364.50000000000006 598.25000000000011 10298349.000000002 -0.91396552324295033 370.50000000000006 1.1900172233581545 1.0000000180025095e-35 -1.1537225842475889 1.0000000180025095e-35 12510991.500000002 -0.91396552324295033 -1.1241323947906492 -1.4996058940887449 1.0000000180025095e-35 1.0000000180025095e-35 790.50000000000011 27458196.000000004 279.50000000000006 18852968.000000004
decision_type=2 2 2 2 2 2 2 2 2 2 2 2 2 2 2 2 2 2 2 2 2 2 2 2 2 2 2 2 2 2 2
left_child=4 2 5 7 8 12 21 11 13 17 23 27 26 30 24 -13 -7 -4 -9 -20 -14 -6 -22 -5 -8 -10 -2 -3 -11 -18 -1
right_child=1 3 9 10 6 16 14 18 25 28 -12 15 20 -15 -16 -17 29 -19 19 -21 22 -23 -24 -25 -26 -27 -28 -29 -30 -31 -32
leaf_value=31.948328645145228 -26.231059268220061 -3.8149515517817032 -10.842282843130608 24.937204615178008 6.7198207608088243 -19.77798665132471 31.934593002411766 18.757486959599564 61.525806453818802 12.695509709717477 42.410113228117361 -2.6193550303327937 -14.374356018599711 56.834318696571522 43.746289189318652 -16.977314524172218 -10.789966894795098 3.8064264290469505 10.74862437922522 -2.2235260769653427 -16.012453863217811 28.448445711000375 -30.825346890952922 10.980789664563915 17.232329132337863 95.11375859609943 -37.832524360329636 10.414954699887524 38.256866255004859 2.8525796933914478 69.65270652584914
leaf_weight=3334 4350 5453 6088 2743 4783 6822 3450 2263 569 1825 1369 4165 5225 2422 2975 8887 6460 4456 4403 7198 2562 1113 5628 6856 3170 694 5963 2104 577 1991 205
leaf_count=3334 4350 5453 6088 2743 4783 6822 3450 2263 569 1825 1369 4165 5225 2422 2975 8887 6460 4456 4403 7198 2562 1113 5628 6856 3170 694 5963 2104 577 1991 205
internal_value=0.00821045 -7.36465 -16.0176 2.52721 31.6185 -21.237 23.1586 -2.52103 49.7597 -0.293748 18.3941 -7.79644 -26.5221 43.3564 30.7396 -12.3956 -13.0262 -4.65159 5.32094 2.69988 -21.5889 10.8216 -26.1916 14.969 24.8944 79.9819 -32.9391 0.146901 18.8358 -7.57587 34.1324
internal_weight=120103 97388 51947 45441 22715 39001 15491 34473 7224 12946 10968 20609 23728 5961 9595 13052 15273 10544 13864 11601 13415 5896 8190 9599 6620 1263 10313 7557 2402 8451 3539
internal_count=120103 97388 51947 45441 22715 39001 15491 34473 7224 12946 10968 20609 23728 5961 9595 13052 15273 10544 13864 11601 13415 5896 8190 9599 6620 1263 10313 7557 2402 8451 3539
is_linear=0
shrinkage=0.05


Tree=3
num_leaves=32
num_cat=0
split_feature=25 23 7 4 23 7 7 4 15 4 23 25 8 25 23 4 8 25 25 4 25 23 8 7 1 7 7 4 8 25 8
split_gain=1.01048e+10 3.02897e+09 1.85173e+09 1.27007e+09 9.95577e+08 7.66452e+08 6.15421e+08 4.94008e+08 4.51396e+08 4.43695e+08 3.16021e+08 3.02299e+08 2.72433e+08 2.45798e+08 2.42774e+08 2.38617e+08 2.3809e+08 2.11894e+08 1.74024e+08 1.67481e+08 1.63308e+08 1.5217e+08 1.46191e+08 1.45736e+08 1.37012e+08 1.35289e+08 1.26325e+08 1.15783e+08 1.05837e+08 1.04718e+08 1.17364e+08
threshold=-1.3632510900497434 7333100.7500000009 1.5000000000000002 1.8054684996604922 15559466.500000002 1.5000000000000002 1.5000000000000002 1.1926706433296206 5.5000000000000009 1.187207102775574 27458196.000000004 -1.5618602037429807 1.0000000180025095e-35 -1.1039056777954099 12377886.500000002 1.184307396411896 1.0000000180025095e-35 -1.4996058940887449 -0.86909282207489003 1.5831999182701113 -0.99985131621360768 9168089.0000000019 1.0000000180025095e-35 1.0000000180025095e-35 47.850000381469734 2.5000000000000004 1.0000000180025095e-35 1.2384372353553774 1.5000000000000002 -1.1537225842475889 1.0000000180025095e-35
decision_type=2 2 2 2 2 2 2 2 2 2 2 2 2 2 2 2 2 2 2 2 2 2 2 2 2 2 2 2 2 2 2
left_child=3 2 7 6 5 13 14 16 -5 12 23 24 -4 28 17 25 -2 -1 -18 29 -14 -13 -9 -6 -8 -7 -24 -15 -3 -11 -31
right_child=1 4 9 8 10 15 11 22 -10 19 -12 21 20 27 -16 -17 18 -19 -20 -21 -22 -23 26 -25 -26 -27 -28 -29 -30 30 -32
leaf_value=18.585420724438414 -20.541017105805658 11.403544691934139 -1.9054904029812172 46.815088492487398 2.354271133912639 -3.6009437222493625 55.927019103341131 -2.9489757433117219 87.383930456266583 7.9452840150205803 45.331693253238036 19.22889634055953 -2.9833938652216481 -15.357021887331246 32.274921263987302 15.704610545682494 -23.106337472434976 1.4420638715658471 -36.22602559334009 22.264002385971587 -17.918792894414075 36.826267300704629 -22.487871220447417 20.585753729219249 37.366632827480302 8.9897212327193454 -11.299906927774293 -1.7235005867915689 -4.7190655874466954 9.836459843616657 -5.5921256728184483
leaf_weight=4826 7993 1729 6677 2387 1413 4192 1472 2290 962 3525 1119 3303 2327 7655 1868 6184 3809 2877 7513 991 8574 1956 5090 4888 3064 4345 5003 1955 2475 1545 6096
leaf_count=4826 7993 1729 6677 2387 1413 4192 1472 2290 962 3525 1119 3303 2327 7655 1868 6184 3809 2877 7513 991 8574 1956 5090 4888 3064 4345 5003 1955 2475 1545 6096
internal_value=0.00779993 -6.99642 -13.7424 30.0376 4.52977 0.287089 25.121 -22.1501 58.4685 -4.77964 20.8458 33.9317 -9.85897 -8.17217 16.104 8.22515 -27.1479 12.1825 -31.8122 2.56465 -14.7306 25.774 -14.3543 16.4973 43.3898 2.80721 -16.9421 -12.5835 1.91176 0.816305 -2.47249
internal_weight=120103 97388 61433 22715 35955 28535 19366 31698 3349 29735 7420 9795 17578 13814 9571 14721 19315 7703 11322 12157 10901 5259 12383 6301 4536 8537 10093 9610 4204 11166 7641
internal_count=120103 97388 61433 22715 35955 28535 19366 31698 3349 29735 7420 9795 17578 13814 9571 14721 19315 7703 11322 12157 10901 5259 12383 6301 4536 8537 10093 9610 4204 11166 7641
is_linear=0
shrinkage=0.05


Tree=4
num_leaves=32
num_cat=0
split_feature=25 14 25 23 23 14 14 15 25 25 23 8 23 14 8 23 25 23 25 8 23 25 14 25 24 23 8 24 8 14 25
split_gain=9.13964e+09 2.6168e+09 1.58461e+09 1.46287e+09 9.54312e+08 6.18896e+08 6.07086e+08 4.94239e+08 3.46756e+08 3.33194e+08 3.20593e+08 2.96e+08 2.91367e+08 2.5883e+08 2.56053e+08 1.85554e+08 1.70923e+08 1.69956e+08 1.63204e+08 1.92725e+08 1.60787e+08 1.48988e+08 1.44455e+08 1.42335e+08 1.41879e+08 1.4134e+08 1.31914e+08 1.2942e+08 1.14268e+08 1.118e+08 1.09421e+08
threshold=-1.2915432453155515 472.50000000000006 -1.6664443612098692 11392742.000000002 11067372.000000002 728.50000000000011 639.50000000000011 5.5000000000000009 -1.0780152082443235 -1.0833683013916013 25668513.000000004 1.0000000180025095e-35 7889176.0000000009 520.50000000000011 1.0000000180025095e-35 10298349.000000002 1.5669783284170968e-16 22075849.000000004 -1.0833683013916013 1.0000000180025095e-35 4507590.2500000009 -1.4996058940887449 805.50000000000011 -1.8884173631668089 1.0000000180025095e-35 4958630.5000000009 1.5000000000000002 0.8571428954601289 1.5000000000000002 341.50000000000006 1.3076977051445132e-16
decision_type=2 2 2 2 2 2 2 2 2 2 2 2 2 2 2 2 2 2 2 2 2 2 2 2 2 2 2 2 2 2 2
left_child=2 4 7 5 9 8 12 13 28 26 22 24 21 -1 -11 -8 25 -6 -7 -20 30 -4 -5 -9 -10 -13 -2 -26 -3 -14 -16
right_child=1 3 6 10 17 18 15 23 11 14 -12 16 29 -15 20 -17 -18 -19 19 -21 -22 -23 -24 -25 27 -27 -28 -29 -30 -31 -32
leaf_value=26.943716560488031 -2.686039412532423 9.6706472661079541 13.897226944278627 10.783442143838935 -3.0744453972904817 13.80580407776541 23.867149407566 82.389126331084128 16.171258418726978 -17.567691656202161 45.592021138911385 -23.290986958323959 8.2177974153043305 46.78060908234437 -37.889260995671158 41.580116159480276 -5.4647499093120917 21.015606877748358 9.817870367402703 -3.201761756723267 -23.35585973419435 -1.3769213073025788 26.691473633840801 51.868543750733402 -22.689236666192702 -12.741217228559989 -17.972432795128967 -3.3347978904574007 -4.0831975296520531 23.736090409820875 -24.661709959089318
leaf_weight=3025 2681 2766 2487 6663 4925 3129 4691 875 814 9138 899 6141 1620 3603 4842 2159 3577 860 4233 8652 8186 4459 1816 678 987 6573 2980 6916 3326 4093 2309
leaf_count=3025 2681 2766 2487 6663 4925 3129 4691 875 814 9138 899 6141 1620 3603 4842 2159 3577 860 4233 8652 8186 4459 1816 678 987 6573 2980 6916 3326 4093 2309
internal_value=0.00740996 -7.54269 25.2052 -0.83351 -18.094 -4.42322 17.4596 43.6759 -8.53542 -21.6647 17.2008 -11.1412 10.9714 37.7271 -24.1932 29.45 -15.1203 0.50679 3.56287 1.07547 -28.1408 4.09195 14.1906 69.0646 -3.70475 -17.8369 -10.7329 -5.75196 2.16157 19.3357 -33.6182
internal_weight=120103 92413 27690 56492 35921 47114 19509 8181 31100 30136 9378 25008 12659 6628 24475 6850 16291 5785 16014 12885 15337 6946 8479 1553 8717 12714 5661 7903 6092 5713 7151
internal_count=120103 92413 27690 56492 35921 47114 19509 8181 31100 30136 9378 25008 12659 6628 24475 6850 16291 5785 16014 12885 15337 6946 8479 1553 8717 12714 5661 7903 6092 5713 7151
is_linear=0
shrinkage=0.05


Tree=5
num_leaves=32
num_cat=0
split_feature=25 14 4 25 25 14 14 15 13 4 4 25 8 13 13 13 24 24 25 13 18 4 4 14 26 4 14 24 14 26 8
split_gain=8.25108e+09 2.56857e+09 1.05042e+09 8.85288e+08 6.70033e+08 6.29609e+08 5.77843e+08 3.64915e+08 3.24552e+08 2.73992e+08 2.60882e+08 2.57842e+08 2.23773e+08 2.04688e+08 1.92818e+08 1.71569e+08 1.68659e+08 1.58819e+08 1.58279e+08 1.33734e+08 1.2991e+08 1.29583e+08 1.27705e+08 1.26113e+08 1.2458e+08 1.23237e+08 1.18094e+08 1.16743e+08 1.14005e+08 1.10085e+08 1.07771e+08
threshold=-1.3632510900497434 472.50000000000006 1.8054684996604922 -1.1412513256072996 -1.0833683013916013 722.50000000000011 654.50000000000011 5.5000000000000009 279.50000000000006 1.0989435315132143 1.2832071185112002 -1.5713884830474851 1.0000000180025095e-35 411.50000000000006 411.50000000000006 411.50000000000006 1.0000000180025095e-35 1.0000000180025095e-35 -1.532228350639343 411.50000000000006 39.500000000000007 1.3307464122772219 1.2062979340553286 305.50000000000006 3083295.1250000005 1.2416668534278872 341.50000000000006 1.9377422332763674 763.50000000000011 3802407.0000000005 1.0000000180025095e-35
decision_type=2 2 2 2 2 2 2 2 2 2 2 2 2 2 2 2 2 2 2 2 2 2 2 2 2 2 2 2 2 2 2
left_child=2 4 6 13 14 8 11 -4 10 15 17 26 25 28 -2 30 -11 -5 -8 -13 24 29 -10 -18 27 -7 -1 -19 -3 -14 -6
right_child=1 3 7 5 9 12 18 -9 22 16 -12 19 21 -15 -16 -17 23 20 -20 -21 -22 -23 -24 -25 -26 -27 -28 -29 -30 -31 -32
leaf_value=13.106035770455158 -9.5023175235832529 4.539515214425009 42.640205850486609 14.935210817307524 -21.888828673778349 9.8629529213399252 42.685804099836965 79.245524639380221 -2.4769829284554992 25.732183181817135 0.37603922709706622 6.0396363058625573 -3.8060654567849115 22.562744222936555 6.3284207419680349 -17.52967110967198 -21.766110216751823 -22.167536180233572 26.766996010332669 21.243524795188257 -25.144555037074529 13.358235939358924 11.878031769530615 -11.211253261854463 -4.5948436291671184 30.228499342877861 28.849474578724934 -11.207663798591355 17.06847641334755 9.953400196609536 -32.194636019720292
leaf_weight=1655 6488 6348 2403 480 4117 4393 3310 950 7175 254 4294 5138 8092 3390 2734 5742 4728 3843 2956 2013 2344 1770 1976 7050 3731 894 4250 6607 2543 1772 6609
leaf_count=1655 6488 6348 2403 480 4117 4393 3310 950 7175 254 4294 5138 8092 3390 2734 5742 4728 3843 2956 2013 2344 1770 1976 7050 3731 894 4250 6607 2543 1772 6609
internal_value=0.0137757 -6.31178 27.1778 0.145945 -16.5237 -2.95547 22.6948 53.0115 -7.25251 -20.3144 -10.6361 16.7046 4.7772 12.1089 -4.80906 -24.5049 -14.5789 -13.4168 35.1761 10.3195 -14.2403 0.90105 0.622734 -15.4483 -12.4379 13.3066 24.437 -15.2382 8.12304 -1.33427 -28.2389
internal_weight=120049 97374 22675 59652 37722 47371 19322 3353 30450 28500 21299 13056 16921 12281 9222 16468 12032 17005 6266 7151 16525 11634 9151 11778 14181 5287 5905 10450 8891 9864 10726
internal_count=120049 97374 22675 59652 37722 47371 19322 3353 30450 28500 21299 13056 16921 12281 9222 16468 12032 17005 6266 7151 16525 11634 9151 11778 14181 5287 5905 10450 8891 9864 10726
is_linear=0
shrinkage=0.05


Tree=6
num_leaves=32
num_cat=0
split_feature=25 23 14 25 23 14 14 4 4 23 23 4 15 14 8 14 4 23 25 8 25 4 8 8 14 8 8 14 23 14 4
split_gain=7.4466e+09 2.47551e+09 1.5403e+09 9.54172e+08 7.60165e+08 5.60463e+08 5.58926e+08 4.73319e+08 3.29784e+08 2.80558e+08 2.51812e+08 2.40213e+08 2.03856e+08 1.95346e+08 1.89234e+08 1.81081e+08 1.62966e+08 1.56808e+08 1.45538e+08 1.3701e+08 1.33547e+08 1.26983e+08 1.20251e+08 1.14923e+08 1.12157e+08 1.11995e+08 1.11755e+08 1.0581e+08 1.02537e+08 1.02162e+08 9.83222e+07
threshold=-1.3632510900497434 8067727.7500000009 570.25000000000011 -1.8884173631668089 16781172.000000004 626.50000000000011 475.50000000000006 1.1452126502990725 1.1926706433296206 9313283.5000000019 30108202.000000004 1.1900172233581545 5.5000000000000009 376.50000000000006 1.0000000180025095e-35 329.50000000000006 1.6250048875808718 12510991.500000002 -0.87896600365638722 1.0000000180025095e-35 -1.1241323947906492 1.6158539056777956 1.0000000180025095e-35 1.5000000000000002 376.50000000000006 1.0000000180025095e-35 1.0000000180025095e-35 427.50000000000006 18852968.000000004 280.50000000000006 1.5544592142105105
decision_type=2 2 2 2 2 2 2 2 2 2 2 2 2 2 2 2 2 2 2 2 2 2 2 2 2 2 2 2 2 2 2
left_child=3 2 7 12 5 11 17 13 14 16 24 29 -1 -2 -4 -9 23 21 -16 -10 -7 -5 -15 -8 -6 -22 -17 -14 30 -3 -11
right_child=1 4 8 6 10 20 9 15 19 28 -12 -13 27 22 18 26 -18 -19 -20 -21 25 -23 -24 -25 -26 -27 -28 -29 -30 -31 -32
leaf_value=44.236579602385994 -28.870293592963478 -20.313138087256487 -0.44418411334986985 3.359296666775192 3.8130498365611496 20.930708736170551 30.516459216545798 -19.313652654690983 15.723148495519395 28.545246350164145 48.610802995416506 3.2472466287702364 46.9163770590608 -12.752452902931246 -3.2120697478292315 1.8952322624834246 34.351201670661474 26.31244276564815 -15.417488259044275 1.2012721467658896 17.472591623046704 19.058777966449167 -23.395015792506104 14.00172483624603 21.5706099699749 3.5343070202194831 -10.829770157762093 85.018390039622489 55.097979924265623 -6.7292863987800988 44.887025289269616
leaf_weight=1841 9077 1704 6428 4383 1135 2644 1416 5789 1946 2308 755 6617 260 4564 3702 2124 2188 1435 7178 9823 2057 1824 6343 4114 4106 4814 9194 609 766 7374 1531
leaf_count=1841 9077 1704 6428 4383 1135 2644 1416 5789 1946 2308 755 6617 260 4564 3702 2124 2188 1435 7178 9823 2057 1824 6343 4114 4106 4814 9194 609 766 7374 1531
internal_value=0.0130869 -5.99619 -11.4711 25.8189 5.61256 1.80673 22.0401 -18.2255 -2.85503 28.6281 21.6141 -3.99798 53.6583 -23.4514 -7.24596 -12.1208 22.8006 11.4166 -11.2645 3.60246 11.3816 7.97277 -18.9417 18.2305 17.725 7.70707 -8.44172 73.6185 38.3951 -9.27906 35.0624
internal_weight=120049 97374 66168 22675 31206 25210 19965 37091 29077 12323 5996 15695 2710 19984 17308 17107 7718 7642 10880 11769 9515 6207 10907 5530 5241 6871 11318 869 4605 9078 3839
internal_count=120049 97374 66168 22675 31206 25210 19965 37091 29077 12323 5996 15695 2710 19984 17308 17107 7718 7642 10880 11769 9515 6207 10907 5530 5241 6871 11318 869 4605 9078 3839
is_linear=0
shrinkage=0.05


Tree=7
num_leaves=32
num_cat=0
split_feature=25 23 7 23 4 7 7 25 4 4 15 23 23 7 8 7 8 13 7 4 4 24 25 25 8 4 25 25 18 2 8
split_gain=6.73853e+09 2.35301e+09 1.20994e+09 8.75555e+08 7.84122e+08 6.13659e+08 3.94288e+08 3.48841e+08 3.42532e+08 3.08075e+08 3.06551e+08 2.75112e+08 2.41662e+08 1.98226e+08 1.82676e+08 1.58157e+08 1.50147e+08 1.42551e+08 1.32959e+08 1.29073e+08 1.28996e+08 1.20286e+08 1.16289e+08 1.14926e+08 1.11054e+08 1.04844e+08 1.03829e+08 9.95104e+07 9.09746e+07 8.80318e+07 8.29595e+07
threshold=-1.3998034000396726 6695926.7500000009 1.5000000000000002 15056125.000000002 1.8054684996604922 2.5000000000000004 2.5000000000000004 -1.1039056777954099 1.1944366693496706 1.1673081517219546 5.5000000000000009 27458196.000000004 10765997.500000002 1.0000000180025095e-35 1.0000000180025095e-35 2.5000000000000004 1.5000000000000002 411.50000000000006 1.5000000000000002 1.5907899141311648 1.5987782478332522 1.0000000180025095e-35 -0.8543715476989745 -1.1241323947906492 1.0000000180025095e-35 1.3689554333686831 -1.532228350639343 -1.5815497040748594 39.500000000000007 55.049999237060554 1.0000000180025095e-35
decision_type=2 2 2 2 2 2 2 2 2 2 2 2 2 2 2 2 2 2 2 2 2 2 2 2 2 2 2 2 2 2 2
left_child=4 2 8 5 6 7 12 16 14 15 29 18 17 -9 -2 30 -3 27 -5 28 -10 -15 -16 -7 -25 -23 -8 -1 -11 -6 -4
right_child=1 3 9 11 10 23 26 13 20 19 -12 -13 -14 21 22 -17 -18 -19 -20 -21 -22 25 -24 24 -26 -27 -28 -29 -30 -31 -32
leaf_value=15.665261054041418 -17.376641220579511 13.688545055644164 -7.7751187462144813 7.2484121943881945 58.174040845708646 20.369394465358198 41.066405119936249 -15.721996183034225 -13.913683666580571 1.64766819719143 72.445777760359348 40.781862757772494 28.520249604733237 21.89622431307469 -20.351091135614386 -3.9907550620801402 -0.67245495903292496 23.215579167046446 20.834621619032404 19.385605162160587 4.9613131177811489 -6.9152684270912061 -31.458749708429192 17.716325112727031 3.3420477963775355 8.619807736428184 25.431735397806932 3.4628534024776907 -11.746456275569598 34.019982193838096 -18.33405630936144
leaf_weight=3201 7535 2962 3069 3391 470 2518 2617 5555 10801 10086 945 1151 3518 424 3610 7463 4721 2536 3840 924 988 10027 6785 1936 4392 1218 1787 3495 1450 1911 4723
leaf_count=3201 7535 2962 3069 3391 470 2518 2617 5555 10801 10086 945 1151 3518 424 3610 7463 4721 2536 3840 924 988 10027 6785 1936 4392 1218 1787 3495 1450 1911 4723
internal_value=0.0124326 -5.36006 -11.9436 3.61386 26.1323 0.0220977 21.8243 -3.99572 -18.9518 -4.42859 48.3509 18.0773 17.3691 -7.94776 -23.3044 -9.19283 4.86409 13.1198 14.4633 1.40436 -12.3318 -4.24685 -27.6013 11.3348 7.73974 -5.23259 34.7224 9.29617 -0.0358859 38.7879 -14.1753
internal_weight=120049 99569 57434 42135 20480 33753 17154 24907 29719 27715 3326 8382 12750 17224 17930 15255 7683 9232 7231 12460 11789 11669 10395 8846 6328 11245 4404 6696 11536 2381 7792
internal_count=120049 99569 57434 42135 20480 33753 17154 24907 29719 27715 3326 8382 12750 17224 17930 15255 7683 9232 7231 12460 11789 11669 10395 8846 6328 11245 4404 6696 11536 2381 7792
is_linear=0
shrinkage=0.05


Tree=8
num_leaves=32
num_cat=0
split_feature=25 23 14 25 23 14 14 4 15 14 4 23 8 4 23 14 25 14 8 13 14 25 13 1 13 25 23 23 14 4 26
split_gain=6.11916e+09 1.96115e+09 1.15749e+09 9.29905e+08 6.80154e+08 5.21111e+08 4.17948e+08 3.91223e+08 3.24415e+08 2.64812e+08 2.23822e+08 2.21288e+08 2.20063e+08 2.08735e+08 2.08263e+08 1.79331e+08 1.69799e+08 1.5241e+08 1.50028e+08 1.3865e+08 1.23002e+08 1.18059e+08 1.14484e+08 1.08893e+08 1.08227e+08 1.04239e+08 1.02852e+08 1.01973e+08 9.42029e+07 9.38918e+07 9.26769e+07
threshold=-1.3248491883277891 7333100.7500000009 448.50000000000006 -1.6969332098960874 16781172.000000004 617.50000000000011 475.50000000000006 0.98047912120819103 5.5000000000000009 838.50000000000011 1.1944366693496706 11983405.500000002 1.0000000180025095e-35 1.1900172233581545 30108202.000000004 680.25000000000011 -1.1412513256072996 671.50000000000011 1.5000000000000002 255.50000000000003 612.50000000000011 1.5669783284170968e-16 411.50000000000006 5.6499998569488534 255.50000000000003 -1.4875128269195554 3643971.2500000005 8620686.0000000019 418.50000000000006 1.1022765636444094 5238325.5000000009
decision_type=2 2 2 2 2 2 2 2 2 2 2 2 2 2 2 2 2 2 2 2 2 2 2 2 2 2 2 2 2 2 2
left_child=3 2 10 8 5 13 22 17 15 12 23 18 -9 24 28 27 -14 -4 -8 29 -10 -18 -5 -2 -3 -20 -25 -1 -6 -7 -15
right_child=1 4 7 6 14 19 11 9 20 -11 -12 -13 16 30 -16 -17 21 -19 25 -21 -22 -23 -24 26 -26 -27 -28 -29 -30 -31 -32
leaf_value=19.861497656549815 -3.5814822592418203 -13.363995996347477 -17.89516016463072 2.095860584362812 4.4744569886236167 -1.1696782825800478 30.353235022287791 4.7335316380055863 46.55035207452238 10.252813998163679 -14.037338928277586 34.713110260041667 1.2659984169241878 -0.1147747981551157 44.113023414327529 46.168642398062445 -13.224250661956958 -6.9258515908553981 21.083918309778852 16.725100795881595 76.473380553449076 -2.4900631306400829 16.52951912983962 -30.730284149049666 -2.9410953214861171 8.7035908339325978 -21.665857188883706 35.83001365999889 19.849607141354959 10.054603255899277 19.250250294285323
leaf_weight=2467 594 6448 7344 4954 1368 3402 1911 4967 871 3519 8223 2549 4365 6476 738 1571 9023 5567 3199 3771 567 3577 1901 5402 4058 3629 7439 1681 3666 4119 683
leaf_count=2467 594 6448 7344 4954 1368 3402 1911 4967 871 3519 8223 2549 4365 6476 738 1571 9023 5567 3199 3771 567 3577 1901 5402 4058 3629 7439 1681 3666 4119 683
internal_value=0.0118109 -5.82143 -11.2933 21.8574 3.63528 0.511263 15.8368 -6.07608 37.1196 -2.47975 -20.5344 21.7507 -4.5227 -4.85148 19.3079 31.7817 -7.23273 -13.1654 17.9698 8.90064 58.3489 -10.1769 6.09854 -24.511 -9.33809 14.5039 -25.4791 26.3328 15.6714 4.97749 1.73273
internal_weight=120049 94749 60020 25300 34729 28957 18143 38362 7157 25451 21658 11288 21932 17665 5772 5719 16965 12911 8739 11292 1438 12600 6855 13435 10506 6828 12841 4148 5034 7521 7159
internal_count=120049 94749 60020 25300 34729 28957 18143 38362 7157 25451 21658 11288 21932 17665 5772 5719 16965 12911 8739 11292 1438 12600 6855 13435 10506 6828 12841 4148 5034 7521 7159
is_linear=0
shrinkage=0.05


Tree=9
num_leaves=32
num_cat=0
split_feature=25 23 14 4 14 14 23 4 15 25 14 23 8 25 15 23 4 4 18 14 8 23 1 14 4 8 23 14 4 8 23
split_gain=5.5388e+09 1.70144e+09 1.34788e+09 9.8302e+08 4.8964e+08 4.275e+08 3.6844e+08 3.37061e+08 3.30167e+08 2.73669e+08 2.61343e+08 2.47195e+08 2.20549e+08 1.78837e+08 1.70265e+08 1.65473e+08 1.47055e+08 1.24347e+08 1.21391e+08 1.18783e+08 1.17441e+08 1.07804e+08 1.00997e+08 9.97065e+07 9.85093e+07 9.84058e+07 9.22349e+07 8.86267e+07 8.61557e+07 7.8914e+07 7.83221e+07
threshold=-1.2856814861297605 10864367.000000002 454.50000000000006 1.6931281089782717 466.25000000000006 790.50000000000011 23001333.000000004 0.99199581146240245 5.5000000000000009 -1.5061601996421812 707.50000000000011 4138139.0000000005 1.0000000180025095e-35 -1.1412513256072996 3.5000000000000004 13292285.000000002 1.0812993049621584 1.1311199665069582 39.500000000000007 654.50000000000011 1.0000000180025095e-35 7391126.7500000009 5.6499998569488534 612.50000000000011 0.97658094763755809 1.5000000000000002 34091504.000000007 941.50000000000011 1.3307464122772219 1.0000000180025095e-35 14606801.500000002
decision_type=2 2 2 2 2 2 2 2 2 2 2 2 2 2 2 2 2 2 2 2 2 2 2 2 2 2 2 2 2 2 2
left_child=3 2 11 4 14 7 10 20 19 21 17 22 -9 -14 -1 25 -13 -3 28 -5 -4 -6 -2 -10 -24 -11 -8 -7 -15 -18 -16
right_child=1 6 5 8 9 27 26 12 23 15 -12 16 13 18 30 -17 29 -19 -20 -21 -22 -23 24 -25 -26 -27 -28 -29 -30 -31 -32
leaf_value=-2.7495216455122442 -2.4383307409509323 -3.3057692365592226 -7.5966676183918951 25.931726714618556 21.228487079099338 2.4132027747942901 23.650164301391534 5.8197486044205249 48.720399984218659 22.326463679060367 17.247548377467908 -19.059905190001174 2.8140552967805466 -8.8932923464137179 9.1144638956103918 29.75547398396229 0.063408538844865747 7.5069142999595364 -19.218879661916922 43.083141862717213 -17.001757131477831 34.674790780060469 -31.122964739666475 77.479275349932394 -21.115585671863784 7.7633658204217131 51.474944890235079 13.292686793965505 0.81789816021240613 -11.90920714138824 29.245051699414987
leaf_weight=3866 535 5560 5950 3139 2809 7644 1659 5505 741 1491 3727 7612 4776 8886 3734 1425 1718 5096 2183 1488 7507 3176 3831 508 6867 5225 363 2479 3074 6920 555
leaf_count=3866 535 5560 5950 3139 2809 7644 1659 5505 741 1491 3727 7612 4776 8886 3734 1425 1718 5096 2183 1488 7507 3176 3831 508 6867 5225 363 2479 3074 6920 555
internal_value=0.0112204 -5.9338 -9.10549 19.4131 14.6154 -4.05012 8.66064 -6.4893 37.6053 20.2472 5.85113 -17.9356 -2.9884 -5.55137 4.86018 14.2801 -13.993 1.86516 -8.37633 31.4475 -12.8433 28.3639 -23.639 60.4174 -24.6993 10.9965 28.6454 5.07746 -6.39729 -9.52799 11.7194
internal_weight=120049 91892 75487 28157 22281 48004 16405 37881 5876 14126 14383 27483 24424 18919 8155 8141 16250 10656 14143 4627 13457 5985 11233 1249 10698 6716 2022 10123 11960 8638 4289
internal_count=120049 91892 75487 28157 22281 48004 16405 37881 5876 14126 14383 27483 24424 18919 8155 8141 16250 10656 14143 4627 13457 5985 11233 1249 10698 6716 2022 10123 11960 8638 4289
is_linear=0
shrinkage=0.05


Tree=10
num_leaves=32
num_cat=0
split_feature=25 25 14 23 14 23 4 23 23 14 4 14 4 14 23 13 13 18 14 24 24 23 24 4 13 23 23 14 1 4 14
split_gain=5.06963e+09 1.52329e+09 1.3313e+09 7.28914e+08 5.04113e+08 4.58061e+08 4.04641e+08 3.00256e+08 2.76959e+08 2.55557e+08 2.46442e+08 2.03773e+08 2.01081e+08 2.00183e+08 1.95903e+08 1.93559e+08 1.36077e+08 1.33679e+08 1.28655e+08 1.27619e+08 1.20536e+08 1.09578e+08 1.09496e+08 1.08411e+08 1.06773e+08 1.02799e+08 9.49866e+07 9.43716e+07 9.28162e+07 9.33633e+07 8.65887e+07
threshold=-1.1537225842475889 -1.5618602037429807 617.50000000000011 6118589.0000000009 633.50000000000011 13468898.500000002 1.921139180660248 8421801.0000000019 21264451.000000004 598.25000000000011 1.4821335673332217 325.50000000000006 1.3307464122772219 329.50000000000006 4577107.2500000009 411.50000000000006 411.50000000000006 39.500000000000007 272.50000000000006 1.0000000180025095e-35 1.0000000180025095e-35 19412740.000000004 1.0000000180025095e-35 0.97285765409469616 411.50000000000006 10668017.000000002 24238518.000000004 790.50000000000011 44.625000000000007 1.3856821656227114 337.50000000000006
decision_type=2 2 2 2 2 2 2 2 2 2 2 2 2 2 2 2 2 2 2 2 2 2 2 2 2 2 2 2 2 2 2
left_child=1 6 3 10 7 12 9 18 13 21 11 -2 14 -5 -4 25 -9 22 -3 -16 -15 30 -13 -24 -22 -6 -7 -21 29 -11 -1
right_child=2 4 5 8 15 26 -8 16 -10 28 -12 17 -14 20 19 -17 -18 -19 -20 27 24 -23 23 -25 -26 -27 -28 -29 -30 -31 -32
leaf_value=8.9249424163038018 -25.906575223859967 -13.026571088049042 -8.8180017414567882 -15.185811386481413 9.2111018747241413 14.945783667325598 54.831991058877804 5.897120041447117 16.193005131998838 29.885789273749637 0.083092553370824745 8.8158613052823451 9.5244645057743984 20.14472066383362 26.245158615079614 27.908493209177301 19.984075747551145 -26.776169419856526 0.49127301075319246 -3.5131334173275022 -8.1094205976030977 46.379304965376519 -20.360172958765418 -11.815103655935012 1.0541690086531401 22.486334974290894 38.269633353946311 5.3639901959500964 30.497989319051154 58.271052039153098 21.781305804573858
leaf_weight=1914 7735 2169 8917 5508 5757 2692 1337 4970 1366 487 1790 487 3685 500 474 2807 2617 2590 9338 7965 8920 353 6224 9196 4939 1953 521 4797 3234 715 4148
leaf_count=1914 7735 2169 8917 5508 5757 2692 1337 4970 1366 487 1790 487 3685 500 474 2807 2617 2590 9338 7965 8920 353 6224 9196 4939 1953 521 4797 3234 715 4148
internal_value=-0.0602424 14 -7.56546 -12.5723 7.87623 0.923521 28.8778 3.03446 -5.58475 25.6798 -17.867 -19.0919 -1.29048 -7.08213 -3.08947 16.6667 10.7562 -16.2421 -2.05676 0.769806 -3.97361 19.299 -14.5269 -15.2642 -4.84375 12.5738 18.7278 -0.176387 34.9073 46.7705 17.7221
internal_weight=120105 41799 78306 49255 29611 29051 12188 19094 21233 10851 28022 26232 25838 19867 22153 10517 7587 18497 11507 13236 14359 6415 15907 15420 13859 7710 3213 12762 4436 1202 6062
internal_count=120105 41799 78306 49255 29611 29051 12188 19094 21233 10851 28022 26232 25838 19867 22153 10517 7587 18497 11507 13236 14359 6415 15907 15420 13859 7710 3213 12762 4436 1202 6062
is_linear=0
shrinkage=0.05


Tree=11
num_leaves=32
num_cat=0
split_feature=25 23 14 14 25 4 23 14 25 23 8 25 23 25 14 25 8 14 4 15 13 14 13 24 4 13 8 23 14 8 18
split_gain=4.60599e+09 1.74399e+09 9.00871e+08 5.89124e+08 5.15956e+08 3.77248e+08 3.25356e+08 2.77225e+08 2.29971e+08 2.07142e+08 1.78599e+08 1.76095e+08 1.57314e+08 1.56003e+08 1.49321e+08 1.41142e+08 1.38305e+08 1.33872e+08 1.32734e+08 1.31223e+08 1.30112e+08 1.24171e+08 1.18392e+08 1.10949e+08 1.00279e+08 9.90059e+07 9.48873e+07 9.21563e+07 9.03077e+07 8.18806e+07 7.92965e+07
threshold=-1.4487434625625608 7080763.2500000009 630.25000000000011 639.50000000000011 -1.8884173631668089 1.1926706433296206 16435212.000000002 490.25000000000006 -1.0968698263168333 17136356.000000004 1.0000000180025095e-35 -1.0903366804122923 6466546.7500000009 -1.1241323947906492 424.50000000000006 -0.88621366024017323 1.0000000180025095e-35 285.50000000000006 1.5987782478332522 5.5000000000000009 411.50000000000006 321.50000000000006 411.50000000000006 1.0717967152595522 1.2297986149787905 411.50000000000006 1.0000000180025095e-35 30108202.000000004 415.25000000000006 1.5000000000000002 40.500000000000007
decision_type=2 2 2 2 2 2 2 2 2 2 2 2 2 2 2 2 2 2 2 2 2 2 2 2 2 2 2 2 2 2 2
left_child=4 2 5 6 14 10 8 25 20 13 28 29 -9 -5 -1 -12 -13 -10 21 -16 -3 -7 -14 -19 -18 -6 -15 -8 -2 -4 -23
right_child=1 3 11 9 7 18 27 12 17 -11 15 16 22 26 19 -17 24 23 -20 -21 -22 30 -24 -25 -26 -27 -28 -29 -30 -31 -32
leaf_value=25.508829280778158 -17.447794221417222 -0.65853212943486916 15.656995937325519 17.775747561692839 7.6707444409399361 -16.709156566011313 9.2824858835672082 17.268484551974751 -16.821308780129311 26.202058039925415 -14.206666653762603 2.9767606748573776 26.119486865860065 13.699637451475994 41.926708200487504 -24.850848605042803 -9.7900513853862723 10.845107528553454 6.5539734221129997 69.860792876963032 13.261363870951209 -5.3951779362927645 42.536929028628705 -6.0278503118292832 1.1373233458331771 21.824862898067643 2.1122025535064934 31.747695310049206 -7.8618143905373117 2.3197610736381655 -20.908214490536039
leaf_weight=811 4858 5009 1826 3887 4432 4196 3791 3572 2700 2190 4626 5398 3852 2542 1276 9531 7791 1075 1430 627 2525 10349 1536 10398 2874 1713 5793 519 4971 3112 895
leaf_count=811 4858 5009 1826 3887 4432 4196 3791 3572 2700 2190 4626 5398 3852 2542 1276 9531 7791 1075 1430 627 2525 10349 1536 10398 2874 1713 5793 519 4971 3112 895
internal_value=-0.0572302 -4.14404 -9.42224 3.93168 23.4022 -13.7484 -0.56053 19.7957 -3.05202 12.0412 -17.7777 -1.00606 25.4054 9.50375 43.4742 -21.3727 -3.54461 -6.80425 -8.01938 51.1304 4.00668 -9.36912 30.7997 -4.44688 -6.84535 11.6164 5.64613 11.9877 -12.5997 7.25167 -6.62998
internal_weight=120105 102286 61857 40429 17819 40856 26017 15105 21707 14412 23986 21001 8960 12222 2714 14157 16063 14173 16870 1903 7534 15440 5388 11473 10665 6145 8335 4310 9829 4938 11244
internal_count=120105 102286 61857 40429 17819 40856 26017 15105 21707 14412 23986 21001 8960 12222 2714 14157 16063 14173 16870 1903 7534 15440 5388 11473 10665 6145 8335 4310 9829 4938 11244
is_linear=0
shrinkage=0.05


Tree=12
num_leaves=32
num_cat=0
split_feature=25 25 14 23 7 23 4 13 23 14 14 8 18 14 23 24 14 4 13 14 18 24 23 15 4 15 4 18 4 23 13
split_gain=4.17555e+09 1.2523e+09 1.10926e+09 6.31028e+08 4.25964e+08 3.46191e+08 3.37549e+08 3.28713e+08 2.95223e+08 2.05809e+08 1.89941e+08 1.85445e+08 1.74106e+08 1.72315e+08 1.66821e+08 1.2859e+08 1.27581e+08 1.24675e+08 1.18273e+08 1.17844e+08 1.11205e+08 1.05298e+08 1.03119e+08 9.85738e+07 9.73001e+07 9.64858e+07 9.59445e+07 9.32834e+07 8.7745e+07 8.56302e+07 8.16189e+07
threshold=-1.1537225842475889 -1.5713884830474851 466.25000000000006 6118589.0000000009 1.0000000180025095e-35 11506923.500000002 1.888039827346802 411.50000000000006 17913714.000000004 680.25000000000011 695.50000000000011 1.0000000180025095e-35 39.500000000000007 793.50000000000011 10765997.500000002 1.0000000180025095e-35 249.50000000000003 1.0207040905952456 411.50000000000006 850.50000000000011 39.500000000000007 1.0000000180025095e-35 9396259.5000000019 3.5000000000000004 1.4772151708602907 5.5000000000000009 1.2764154076576235 38.500000000000007 1.4613297581672671 5170663.7500000009 279.50000000000006
decision_type=2 2 2 2 2 2 2 2 2 2 2 2 2 2 2 2 2 2 2 2 2 2 2 2 2 2 2 2 2 2 2
left_child=1 6 5 9 22 11 10 14 12 20 18 17 13 15 19 -5 -13 -2 -1 -6 26 -19 -3 -9 30 -8 -4 -11 29 -18 -17
right_child=2 4 3 8 7 -7 25 23 -10 27 -12 16 -14 -15 -16 24 28 21 -20 -21 -22 -23 -24 -25 -26 -27 -28 -29 -30 -31 -32
leaf_value=15.077573935111184 -15.848658811887441 -7.1127909317619924 -11.782310539310332 26.768822799236219 2.326888569565031 -0.92720295456536306 36.688237820029997 14.085765261892227 20.232551830391195 -0.44876482609052015 34.745395355164547 -27.505746926218066 -9.6377254759176214 13.03430889465632 15.896262297094674 -3.9062881422441942 -22.500612560122619 25.310806153920012 29.110277985488768 17.211798873783732 -22.045322350922536 -6.3903181623782803 5.4266968137327911 26.703063720343746 18.046809680863966 60.652277262946669 -1.0630788716779558 -13.030347525560641 -2.5470369329172402 -13.792784464949102 4.7501036738484492
leaf_weight=5366 5402 5053 10241 470 10872 4060 968 3029 2473 9549 2580 4073 2802 3906 3996 7905 6153 283 2085 1515 2085 3521 2427 3166 716 742 2622 1742 932 5217 4154
leaf_count=5366 5402 5053 10241 470 10872 4060 968 3029 2473 9549 2580 4073 2802 3906 3996 7905 6153 283 2085 1515 2085 3521 2427 3166 716 742 2622 1742 932 5217 4154
internal_value=-0.0543687 12.7059 -6.86569 -2.22133 7.29698 -14.4909 26.5533 10.723 3.9373 -7.48499 23.053 -16.6436 1.91764 3.80547 7.01308 1.08385 -19.8356 -10.9659 19.0043 4.1474 -11.3336 -4.0319 -3.04416 20.5339 0.138884 47.0867 -9.5973 -2.38988 -17.2961 -18.5051 -0.924395
internal_weight=120105 41799 78306 48665 30058 29641 11741 22578 22426 26239 10031 25581 19953 17151 16383 13245 16375 9206 7451 12387 14948 3804 7480 6195 12775 1710 12863 11291 12302 11370 12059
internal_count=120105 41799 78306 48665 30058 29641 11741 22578 22426 26239 10031 25581 19953 17151 16383 13245 16375 9206 7451 12387 14948 3804 7480 6195 12775 1710 12863 11291 12302 11370 12059
is_linear=0
shrinkage=0.05


Tree=13
num_leaves=32
num_cat=0
split_feature=4 14 4 16 26 4 13 14 13 13 4 13 15 18 14 1 18 24 14 9 26 4 24 8 14 8 18 3 3 16 18
split_gain=3.39608e+09 1.3698e+09 6.33561e+08 4.46963e+08 3.91963e+08 3.53536e+08 2.41946e+08 2.22301e+08 2.13305e+08 2.09127e+08 1.90993e+08 1.73752e+08 1.7298e+08 1.59554e+08 1.57888e+08 1.50579e+08 1.40834e+08 1.37607e+08 1.30843e+08 1.1408e+08 9.96712e+07 9.17088e+07 8.88241e+07 8.50598e+07 8.42925e+07 8.30772e+07 8.2306e+07 8.12422e+07 8.0568e+07 7.09319e+07 6.98315e+07
threshold=1.5285184383392336 617.50000000000011 1.0779834985733034 1.0000000180025095e-35 3343982.8750000005 1.8219137787818911 255.50000000000003 357.50000000000006 411.50000000000006 411.50000000000006 1.1926706433296206 411.50000000000006 5.5000000000000009 34.500000000000007 692.50000000000011 18.550000190734867 40.500000000000007 2.9162771701812749 376.50000000000006 1126.5833129882815 7791137.2500000009 1.0348168015480044 1.0000000180025095e-35 1.5000000000000002 430.50000000000006 1.0000000180025095e-35 39.500000000000007 1.0550587177276614 1.1037927865982058 1.0000000180025095e-35 40.500000000000007
decision_type=2 2 2 2 2 2 2 2 2 2 2 2 2 2 2 2 2 2 2 2 2 2 2 2 2 2 2 2 2 2 2
left_child=1 2 6 10 7 9 18 -4 13 14 15 19 24 -5 27 -3 17 22 -1 -6 26 -10 -9 -15 -7 -20 -8 -2 -14 -27 -12
right_child=5 3 4 8 11 12 20 16 21 -11 30 -13 28 23 -16 -17 -18 -19 25 -21 -22 -23 -24 -25 -26 29 -28 -29 -30 -31 -32
leaf_value=-22.244188208681628 12.566221382789516 2.2750585256041211 -12.823603492985592 -1.0233744778970386 21.293229948916846 14.811720812631306 -6.1033884949552517 29.684402773669277 10.880328466598876 28.773304451684695 6.4741313555599636 13.607007469661239 58.956805389042977 20.309823567951319 24.642483085605573 -8.5625948608595941 -20.823036965730552 2.3926970496757853 -7.6463725565991298 -2.0874035394927386 25.906403539212832 25.000587196466991 -7.3569491375080736 7.9605588939733085 34.332242748472801 -21.051283091195479 -19.91593248569178 -0.90999810458939234 23.772377537969334 -10.908015902693663 -7.4024115719797585
leaf_weight=7048 5378 5327 9498 4169 572 806 8237 165 1920 3052 8562 3642 854 1915 2418 8046 1085 8217 3893 5935 223 2867 8462 5129 1762 4060 1241 1412 201 2995 1014
leaf_count=7048 5378 5327 9498 4169 572 806 8237 165 1920 3052 8562 3642 854 1915 2418 8046 1085 8217 3893 5935 223 2867 8462 5129 1762 4060 1241 1412 201 2995 1014
internal_value=-0.0516503 -3.33385 -7.76177 4.08672 -3.53256 21.4857 -13.4994 -6.63898 10.5015 17.4305 -0.385635 4.86232 35.2081 6.72938 13.6709 -4.24552 -3.36264 -2.23794 -16.9305 -0.0321212 -7.13454 19.3371 -6.6485 11.3179 28.2055 -13.5098 -7.91193 9.7638 52.2534 -16.7452 5.00475
internal_weight=120105 104222 65273 38949 37576 15883 27697 27427 16000 12260 22949 10149 3623 11213 9208 13373 17929 16844 17996 6507 9701 4787 8627 7044 2568 10948 9478 6790 1055 7055 9576
internal_count=120105 104222 65273 38949 37576 15883 27697 27427 16000 12260 22949 10149 3623 11213 9208 13373 17929 16844 17996 6507 9701 4787 8627 7044 2568 10948 9478 6790 1055 7055 9576
is_linear=0
shrinkage=0.05


Tree=14
num_leaves=32
num_cat=0
split_feature=25 7 25 25 24 7 13 25 7 4 26 24 24 13 8 13 25 8 18 0 15 9 26 4 13 15 15 4 7 26 4
split_gain=3.53896e+09 1.14175e+09 7.03194e+08 4.3573e+08 4.16625e+08 3.88639e+08 2.68581e+08 2.41486e+08 2.24718e+08 2.20095e+08 1.85833e+08 1.7077e+08 1.45597e+08 1.4196e+08 1.4091e+08 1.38798e+08 1.34223e+08 1.29496e+08 1.12099e+08 1.09821e+08 1.08571e+08 9.84123e+07 9.6105e+07 8.96997e+07 8.95078e+07 8.88401e+07 8.39506e+07 8.1468e+07 8.1443e+07 7.51948e+07 7.41289e+07
threshold=-1.4232755303382871 1.0000000180025095e-35 -1.0780152082443235 -1.8884173631668089 1.0000000180025095e-35 2.5000000000000004 411.50000000000006 -1.0344509482383726 2.5000000000000004 1.3193203806877138 3036952.8750000005 1.9377422332763674 1.0000000180025095e-35 411.50000000000006 1.5000000000000002 255.50000000000003 1.5669783284170968e-16 1.0000000180025095e-35 38.500000000000007 22.750000000000004 5.5000000000000009 1045.1250000000002 6390070.0000000009 0.98047912120819103 411.50000000000006 3.5000000000000004 1.5000000000000002 1.2667039632797243 2.5000000000000004 4185605.0000000005 1.5544592142105105
decision_type=2 2 2 2 2 2 2 2 2 2 2 2 2 2 2 2 2 2 2 2 2 2 2 2 2 2 2 2 2 2 2
left_child=3 7 6 20 19 9 14 24 13 10 11 -6 27 26 -3 18 29 -13 23 -4 -1 -12 -23 -7 -2 -8 -5 -9 -16 -14 -28
right_child=1 2 4 8 5 15 25 12 -10 -11 21 17 16 -15 28 -17 -18 -19 -20 -21 -22 22 -24 -25 -26 -27 30 -29 -30 -31 -32
leaf_value=31.340849253530411 -9.095297002715883 10.504825807541044 10.514782310129771 0.0069511918580794753 -17.812375973175815 -5.0968681259551971 10.477458206175349 -0.40243675795286116 26.594472585274982 1.7378845145069257 11.664237184151254 -1.5927915337299012 -21.203808883243866 21.995778496503888 -3.0603583229566991 8.6353421299272153 -9.7352230454064745 -11.978150240378406 -12.648106802728009 35.933760613010342 52.73701514987264 -6.9216162378295669 10.866459023489128 4.3992202741677069 2.5850924818538061 22.828175326626742 7.261365724671478 50.504333083497158 6.3367374278701973 -9.4195472914378335 17.446955614253341
leaf_weight=1839 5446 4932 1177 1733 7535 4032 3152 620 4194 5436 990 4588 10933 3322 6634 5017 4578 8681 1830 665 875 7189 849 6489 2347 2706 3630 90 3534 1545 3517
leaf_count=1839 5446 4932 1177 1733 7535 4032 3152 620 4194 5436 990 4588 10933 3322 6634 5017 4578 8681 1830 665 875 7189 849 6489 2347 2706 3630 90 3534 1545 3517
internal_value=-0.0490678 -3.78249 -0.68801 19.6818 -3.68222 -4.50019 7.09511 -12.9157 16.6101 -7.51518 -9.20128 -11.8009 -16.1345 13.1783 3.56963 1.62215 -17.0581 -8.38722 -1.22663 19.6916 38.239 -3.21071 -5.04278 0.760001 -5.57754 16.1827 9.8797 6.05053 0.205705 -19.7447 12.2736
internal_weight=120105 100995 75436 19110 54478 52636 20958 25559 16396 35268 29832 20804 17766 12202 15100 17368 17056 13269 12351 1842 2714 9028 8038 10521 7793 5858 8880 710 10168 12478 7147
internal_count=120105 100995 75436 19110 54478 52636 20958 25559 16396 35268 29832 20804 17766 12202 15100 17368 17056 13269 12351 1842 2714 9028 8038 10521 7793 5858 8880 710 10168 12478 7147
is_linear=0
shrinkage=0.05


Tree=15
num_leaves=32
num_cat=0
split_feature=4 23 14 23 14 4 18 18 23 8 4 23 1 4 14 13 4 4 8 4 8 23 24 4 14 14 14 14 14 13 13
split_gain=2.83325e+09 1.53605e+09 6.06412e+08 5.61512e+08 3.41697e+08 2.94355e+08 2.46036e+08 2.82369e+08 2.33064e+08 2.09955e+08 1.97515e+08 1.96587e+08 1.67871e+08 1.29775e+08 1.24569e+08 1.18774e+08 1.18064e+08 1.12705e+08 1.03301e+08 1.02462e+08 8.95923e+07 8.6965e+07 7.85348e+07 7.35214e+07 7.17342e+07 7.09577e+07 6.88526e+07 6.77321e+07 6.69567e+07 6.66782e+07 6.65648e+07
threshold=1.5285184383392336 6695926.7500000009 442.50000000000006 13642234.500000002 472.50000000000006 1.7880489230155947 39.500000000000007 34.500000000000007 27458196.000000004 1.5000000000000002 1.0459834933280947 5553049.0000000009 18.774999618530277 0.97285765409469616 529.50000000000011 255.50000000000003 1.0459834933280947 1.0668289065361025 1.0000000180025095e-35 1.11316853761673 1.0000000180025095e-35 14843492.500000002 1.9774004220962527 1.2416668534278872 229.25000000000003 692.50000000000011 249.50000000000003 454.50000000000006 654.50000000000011 411.50000000000006 411.50000000000006
decision_type=2 2 2 2 2 2 2 2 2 2 2 2 2 2 2 2 2 2 2 2 2 2 2 2 2 2 2 2 2 2 2
left_child=1 2 13 4 19 11 7 12 17 23 30 28 22 -1 -7 -12 -14 -5 -13 -3 -15 27 -4 -9 -22 -19 -21 -20 -2 -16 -6
right_child=5 3 6 8 10 14 -8 9 -10 -11 15 18 16 20 29 -17 -18 25 21 26 24 -23 -24 -25 -26 -27 -28 -29 -30 -31 -32
leaf_value=-20.967470430283626 2.9462371535274445 -11.00080593834152 -4.913338816337852 4.137741806986007 -5.6141962785513151 21.527687659628338 -15.339034116395849 8.4640866361772318 33.665194985124252 -2.0332200341619924 5.0085221321607536 37.18353215506891 -15.495686364137692 -5.3753934158990537 33.440209115931793 15.238029492036214 -6.0492379928954803 11.504359831518865 7.5177069399546532 -10.535263007622014 -22.167918943583896 30.835255208585863 4.9706435109543516 24.075673559520926 -12.47042083964322 22.858573865494911 0.97940068242598588 19.662790968152958 16.651006695408025 52.719033636044884 3.9809149867155327
leaf_weight=6695 3051 5604 4755 3994 4747 2100 4684 3353 1243 7007 9414 820 5434 3353 1831 4062 8453 4844 1740 1732 2494 1134 3481 973 8102 1922 5184 3374 1259 594 2919
leaf_count=6695 3051 5604 4755 3994 4747 2100 4684 3353 1243 7007 9414 820 5434 3353 1831 4062 8453 4844 1740 1732 2494 1134 3481 973 8102 1922 5184 3374 1259 594 2919
internal_value=-0.00492492 -2.99839 -8.34258 3.88113 0.570329 19.6558 -4.60637 -3.10375 13.1661 3.31412 4.44692 15.3659 -6.39144 -15.2453 30.4425 8.09195 -9.74564 10.7981 20.4981 -5.97591 -12.4988 18.3083 -0.735808 11.9754 -14.7529 14.7297 -1.90426 15.5305 6.94956 38.1625 -1.96064
internal_weight=120352 104449 58784 45665 33662 15903 38140 33456 12003 11333 21142 11378 22123 20644 4525 13476 13887 10760 7068 12520 13949 6248 8236 4326 10596 6766 6916 5114 4310 2425 7666
internal_count=120352 104449 58784 45665 33662 15903 38140 33456 12003 11333 21142 11378 22123 20644 4525 13476 13887 10760 7068 12520 13949 6248 8236 4326 10596 6766 6916 5114 4310 2425 7666
is_linear=0
shrinkage=0.05


Tree=16
num_leaves=32
num_cat=0
split_feature=4 23 14 4 18 18 23 8 23 1 23 15 14 4 14 14 4 14 4 18 15 26 4 13 4 23 18 8 1 18 15
split_gain=2.57226e+09 1.30793e+09 8.10301e+08 3.74349e+08 3.3857e+08 4.14831e+08 2.50104e+08 2.49321e+08 2.30163e+08 2.26489e+08 2.18239e+08 1.74539e+08 1.74199e+08 1.44916e+08 1.31477e+08 1.30463e+08 1.06047e+08 1.06004e+08 1.01538e+08 9.35495e+07 9.05451e+07 8.89295e+07 8.79895e+07 8.56858e+07 8.49823e+07 8.11593e+07 7.70163e+07 7.0636e+07 6.78867e+07 6.74775e+07 6.6601e+07
threshold=1.4772151708602907 11392742.000000002 466.25000000000006 1.7385303378105166 39.500000000000007 34.500000000000007 27458196.000000004 1.5000000000000002 10965812.500000002 18.774999618530277 4138139.0000000005 5.5000000000000009 846.50000000000011 1.0916253924369814 674.50000000000011 842.50000000000011 1.2445352077484133 254.50000000000003 0.98047912120819103 35.500000000000007 3.5000000000000004 4298680.0000000009 1.0459834933280947 411.50000000000006 0.94644618034362804 7552581.5000000009 21.500000000000004 1.5000000000000002 5.6499998569488534 40.500000000000007 3.5000000000000004
decision_type=2 2 2 2 2 2 2 2 2 2 2 2 2 2 2 2 2 2 2 2 2 2 2 2 2 2 2 2 2 2 2
left_child=1 2 10 8 5 9 12 16 14 18 29 25 13 -3 23 22 -7 -12 -4 -13 -6 -15 -11 -2 -19 -5 28 -26 -20 -1 -9
right_child=3 6 4 11 20 7 -8 30 -10 15 17 19 -14 21 -16 -17 -18 24 26 -21 -22 -23 -24 -25 27 -27 -28 -29 -30 -31 -32
leaf_value=-16.250803854966453 2.2174311204710864 -0.031841773523645318 -2.7805681132499536 16.536972839583093 -18.113575013195597 9.9538261444169258 31.342791371324378 -2.1421324523795824 23.55073054988425 -13.976211327783393 -14.954436866500883 18.625196819166344 23.109154539493186 7.1337156280167751 17.414452359893883 2.9371230629964664 25.567898161625251 -12.975955178580007 12.88086013253821 50.456300397312546 -5.8130884359272512 18.99258089931001 -6.2394062269543351 14.675460040505897 -0.42786019053846386 29.936077397502771 11.364506941211369 -8.7110034270369727 -11.392917363939906 -29.156452144146165 6.2041388618583859
leaf_weight=11054 6075 6141 5717 2595 3598 5348 1184 6806 3279 6278 5271 300 1619 6461 2958 2474 1365 3867 437 1001 2561 2093 8863 1786 5523 2002 3232 4820 845 1115 3684
leaf_count=11054 6075 6141 5717 2595 3598 5348 1184 6806 3279 6278 5271 300 1619 6461 2958 2474 1365 3867 437 1001 2561 2093 8863 1786 5523 2002 3232 4820 845 1115 3684
internal_value=-0.00467866 -3.26756 -5.89067 16.3711 -2.00341 -0.500136 9.15364 5.60425 11.9461 -4.27137 -12.1801 26.9481 7.54325 5.8283 8.42899 -7.70798 13.1287 -8.89857 1.64554 43.1163 -12.9989 10.0354 -9.44736 5.04786 -6.65223 22.3723 7.25122 -4.28793 -3.11863 -17.4333 0.789008
internal_weight=120352 100356 82858 19996 51208 45049 17498 17203 14098 27846 31650 5898 16314 14695 10819 17615 6713 19481 10231 1301 6159 8554 15141 7861 14210 4597 4514 10343 1282 12169 10490
internal_count=120352 100356 82858 19996 51208 45049 17498 17203 14098 27846 31650 5898 16314 14695 10819 17615 6713 19481 10231 1301 6159 8554 15141 7861 14210 4597 4514 10343 1282 12169 10490
is_linear=0
shrinkage=0.05


Tree=17
num_leaves=32
num_cat=0
split_feature=25 23 25 23 7 7 15 25 23 18 7 13 4 8 4 4 7 8 23 1 13 26 7 8 18 4 23 0 1 8 5
split_gain=2.80342e+09 9.287e+08 5.12766e+08 3.97735e+08 3.96061e+08 2.57234e+08 2.29225e+08 1.60913e+08 1.56992e+08 1.47264e+08 1.34492e+08 1.31922e+08 1.30442e+08 1.29944e+08 1.27188e+08 1.17976e+08 1.13953e+08 1.08126e+08 1.04254e+08 9.14853e+07 9.1404e+07 8.55313e+07 8.38037e+07 7.96306e+07 7.82233e+07 7.64121e+07 7.49389e+07 6.90012e+07 6.71685e+07 6.71474e+07 6.40658e+07
threshold=-1.2856814861297605 6118589.0000000009 -1.6664443612098692 13468898.500000002 1.5000000000000002 2.5000000000000004 3.5000000000000004 -2.0253205299377437 25668513.000000004 39.500000000000007 2.5000000000000004 411.50000000000006 0.97285765409469616 1.0000000180025095e-35 0.97658094763755809 1.7385303378105166 2.5000000000000004 1.0000000180025095e-35 12510991.500000002 9.5500001907348651 411.50000000000006 5827285.5000000009 1.0000000180025095e-35 1.0000000180025095e-35 39.500000000000007 1.0881957411766054 8421801.0000000019 36.350000381469734 5.6499998569488534 1.5000000000000002 35.978080749511726
decision_type=2 2 2 2 2 2 2 2 2 2 2 2 2 2 2 2 2 2 2 2 2 2 2 2 2 2 2 2 2 2 2
left_child=2 4 7 5 12 9 15 27 24 11 20 25 19 -14 28 18 26 -16 22 -2 -8 -13 -4 -7 29 -3 -9 -1 -6 -5 -19
right_child=1 3 6 8 14 23 10 16 -10 -11 -12 21 13 -15 17 -17 -18 30 -20 -21 -22 -23 -24 -25 -26 -27 -28 -29 -30 -31 -32
leaf_value=18.982703649592239 -6.5206376145902984 -9.6392673027339821 -9.0742251295314542 13.437280309750244 10.046770405409179 14.081389504492657 7.7318669448187443 12.365907038084979 25.63380851140839 -13.962038956114647 23.919821104467601 1.218599167345773 -3.0833939884999504 -13.172632381754324 6.1056780548928762 33.791607434934456 32.617767842680898 -4.946416172771376 14.107643870700612 -20.262830320175151 19.634207581788289 20.707041825552782 3.24612674617986 3.09510867892579 -6.1212588643694312 -2.1312743221660888 24.510163341507283 46.457711765727801 -10.450358037733036 4.0739017723644881 8.1281696136177821
leaf_weight=294 1443 6091 1839 4107 422 2238 5616 2943 1367 3285 2793 6659 4293 12437 3519 316 1673 11137 1641 7536 2263 615 5533 6271 952 7639 2235 1026 7559 3587 1023
leaf_count=294 1443 6091 1839 4107 422 2238 5616 2943 1367 3285 2793 6659 4293 12437 3519 316 1673 11137 1641 7536 2263 615 5533 6271 952 7639 2235 1026 7559 3587 1023
internal_value=-0.00444474 -4.22314 13.7993 1.16625 -8.89661 -1.49661 9.48775 24.3531 9.88854 -4.11748 14.4924 -2.5778 -13.1929 -10.5837 -4.22831 3.76269 21.2732 -1.61281 2.70986 -18.0543 11.1504 2.8663 0.172724 5.98467 7.39909 -5.46202 17.6078 40.3383 -9.36656 9.072 -3.84647
internal_weight=120352 92180 28172 42811 49369 32798 20001 8171 10013 24289 10672 21004 25709 16730 23660 9329 6851 15679 9013 8979 7879 7274 7372 8509 8646 13730 5178 1320 7981 7694 12160
internal_count=120352 92180 28172 42811 49369 32798 20001 8171 10013 24289 10672 21004 25709 16730 23660 9329 6851 15679 9013 8979 7879 7274 7372 8509 8646 13730 5178 1320 7981 7694 12160
is_linear=0
shrinkage=0.05


Tree=18
num_leaves=32
num_cat=0
split_feature=25 25 14 23 23 23 14 25 23 14 8 8 8 23 1 5 14 5 14 13 8 24 24 24 14 14 26 25 5 13 23
split_gain=2.56147e+09 7.45655e+08 6.81625e+08 3.9408e+08 2.6999e+08 2.56391e+08 2.20408e+08 2.07631e+08 1.97345e+08 1.84106e+08 1.80779e+08 1.56753e+08 1.50245e+08 1.42482e+08 1.35627e+08 1.15631e+08 1.04688e+08 1.03797e+08 9.4394e+07 9.11565e+07 8.85616e+07 8.74008e+07 9.65272e+07 7.85861e+07 7.81763e+07 7.34494e+07 7.25794e+07 6.86916e+07 6.84462e+07 6.80831e+07 6.62093e+07
threshold=-1.1537225842475889 -1.532228350639343 617.50000000000011 5207395.5000000009 13642234.500000002 10765997.500000002 357.50000000000006 -1.9318348765373228 18852968.000000004 370.50000000000006 1.0000000180025095e-35 1.0000000180025095e-35 1.5000000000000002 6840700.5000000009 5.6499998569488534 26.973340988159183 254.50000000000003 29.96043682098389 305.50000000000006 411.50000000000006 1.5000000000000002 1.0000000180025095e-35 0.99618321657180797 1.0000000180025095e-35 892.50000000000011 874.50000000000011 4340998.5000000009 0.4432054609060288 30.990768432617191 255.50000000000003 25668513.000000004
decision_type=2 2 2 2 2 2 2 2 2 2 2 2 2 2 2 2 2 2 2 2 2 2 2 2 2 2 2 2 2 2 2
left_child=1 6 3 14 10 9 -1 -8 11 -3 21 23 28 -9 -2 18 -13 24 -16 -15 -7 -4 -23 -5 -12 -24 -18 -17 -11 -20 -6
right_child=2 5 4 8 30 20 7 13 -10 12 17 16 -14 19 15 27 26 -19 29 -21 -22 22 25 -25 -26 -27 -28 -29 -30 -31 -32
leaf_value=7.0371757342945962 3.8383887551997242 -5.8042542424205825 20.968831269450572 14.41705932662105 11.714480763713373 21.487583633267334 38.544926277199963 12.553909119734278 10.512512973690363 9.5013456555101463 -6.5149452948140256 -18.307635766583527 1.5558682036876037 21.134869934861577 -21.411644652494203 -6.2301240996972158 -8.5761402120288945 7.440865868998376 -15.565945630591365 36.031429821181618 9.6899370503025892 -9.8068442128074125 3.3811379198228781 -1.8141030893376575 3.4770825821839488 17.359911903702631 1.5859064858448075 27.057153675798887 25.454768321293486 -7.821472346270494 32.96216384265221
leaf_weight=2753 1067 5008 791 836 2710 2318 1770 3859 1985 4950 13659 2421 10239 3690 5217 2154 11468 1846 11200 1423 5070 1154 5179 6907 2285 1148 2075 167 778 3801 424
leaf_count=2753 1067 5008 791 836 2710 2318 1770 3859 1985 4950 13659 2421 10239 3690 5217 2154 11468 1846 11200 1423 5070 1154 5179 6907 2285 1148 2075 167 778 3801 424
internal_value=-0.00422251 9.98467 -5.33094 -8.91662 0.723554 5.38147 19.6594 22.8943 -4.63153 2.56011 -0.9438 -5.89955 5.18357 19.8067 -13.5804 -14.405 -8.7311 -3.7834 -15.6184 25.2807 13.3915 5.16312 3.49191 -0.061649 -5.08295 5.91751 -7.01916 -3.83505 11.6682 -13.6036 14.5891
internal_weight=120352 41858 78494 49298 29196 28363 13495 10742 25692 20975 26062 23707 15967 8972 23606 22539 15964 17790 20218 5113 7388 8272 7481 7743 15944 6327 13543 2321 5728 15001 3134
internal_count=120352 41858 78494 49298 29196 28363 13495 10742 25692 20975 26062 23707 15967 8972 23606 22539 15964 17790 20218 5113 7388 8272 7481 7743 15944 6327 13543 2321 5728 15001 3134
is_linear=0
shrinkage=0.05


Tree=19
num_leaves=32
num_cat=0
split_feature=25 23 25 14 13 13 14 4 14 23 14 2 4 23 14 4 23 24 4 4 14 24 26 4 14 1 23 14 24 14 13
split_gain=2.31187e+09 6.82896e+08 5.6758e+08 5.199e+08 2.25234e+08 2.22157e+08 2.00401e+08 1.93114e+08 1.69129e+08 1.60188e+08 1.42201e+08 1.35308e+08 1.60805e+08 1.30662e+08 1.24044e+08 1.22205e+08 1.06561e+08 9.69566e+07 8.67962e+07 8.53647e+07 8.42788e+07 7.89777e+07 7.79977e+07 7.71046e+07 7.02114e+07 6.46652e+07 6.4063e+07 6.37742e+07 6.3306e+07 5.75018e+07 5.64415e+07
threshold=-1.1943399906158445 11392742.000000002 -1.532228350639343 466.25000000000006 255.50000000000003 411.50000000000006 337.50000000000006 1.921139180660248 842.50000000000011 23001333.000000004 481.50000000000006 45.149999618530281 1.522095322608948 3354635.3750000005 796.50000000000011 1.0459834933280947 7604077.2500000009 1.0000000180025095e-35 1.3456611633300783 0.93070521950721752 897.50000000000011 1.0717967152595522 5978843.0000000009 1.6072353124618532 603.25000000000011 4.9500000476837167 9168089.0000000019 224.50000000000003 1.0000000180025095e-35 874.50000000000011 321.00000000000006
decision_type=2 2 2 2 2 2 2 2 2 2 2 2 2 2 2 2 2 2 2 2 2 2 2 2 2 2 2 2 2 2 2
left_child=2 3 6 13 8 10 -1 11 15 14 -4 12 -8 25 21 -5 -13 -15 29 -19 26 -3 24 28 -7 -2 -12 -21 -17 -6 -29
right_child=1 9 5 4 18 22 7 -9 -10 -11 20 16 -14 17 -16 23 -18 19 -20 27 -22 -23 -24 -25 -26 -27 -28 30 -30 -31 -32
leaf_value=5.6876115439069403 3.3651031229976152 19.266159675755681 -3.2044697449774788 -10.766314132062865 -0.10174964874107267 7.8834294251623396 19.355141899756966 41.27630872840674 3.6254192975899722 19.835764857268998 1.8308862623217104 9.1955605842609458 43.776859102585462 10.565245901042983 16.372374568668782 24.657784966342359 21.48913103290684 -15.557772177298029 14.318240433023446 -15.069097236199333 20.192511868838881 0.3930217114819291 34.263096683356039 12.160412539937402 19.080714748507251 -18.328059774516571 10.706609006599924 -8.7766537318541999 -5.0951470132423493 11.937240870902738 -0.80014927141046521
leaf_weight=2434 360 591 6341 11478 9922 3645 1810 1114 4489 1800 5992 3385 1074 573 1661 181 3678 5493 1400 2664 992 8930 429 708 2273 7509 3077 7505 14594 1102 3148
leaf_count=2434 360 591 6341 11478 9922 3645 1810 1114 4489 1800 5992 3385 1074 573 1661 181 3678 5493 1400 2664 992 8930 429 708 2273 7509 3077 7505 14594 1102 3148
internal_value=-0.00401138 -4.5531 10.5526 -6.4779 -3.10882 5.73347 18.6764 21.5347 -5.36048 5.99252 2.65982 19.3237 28.4498 -11.9019 3.76413 -6.85663 15.5973 -9.69595 2.59102 -10.3132 6.35582 1.56454 13.6765 -3.95827 12.1841 -17.3356 4.84231 -8.14986 -4.73066 1.10171 -6.41957
internal_weight=120352 84108 36244 71126 43874 22749 13495 11061 31450 12982 16402 9947 2884 27252 11182 26961 7063 19383 12424 18810 10061 9521 6347 15483 5918 7869 9069 13317 14775 11024 10653
internal_count=120352 84108 36244 71126 43874 22749 13495 11061 31450 12982 16402 9947 2884 27252 11182 26961 7063 19383 12424 18810 10061 9521 6347 15483 5918 7869 9069 13317 14775 11024 10653
is_linear=0
shrinkage=0.05


Tree=20
num_leaves=32
num_cat=0
split_feature=25 25 14 23 18 8 14 8 25 23 8 23 14 4 24 24 23 15 5 23 8 25 24 4 14 23 14 15 23 14 23
split_gain=2.0726e+09 6.2279e+08 6.09659e+08 4.16439e+08 2.66999e+08 2.24721e+08 2.15565e+08 2.02753e+08 1.93152e+08 1.65653e+08 1.43946e+08 1.28172e+08 1.23209e+08 1.183e+08 1.12376e+08 1.41428e+08 1.12084e+08 1.06671e+08 9.87926e+07 9.77668e+07 9.54224e+07 8.1727e+07 7.72468e+07 7.4452e+07 7.07275e+07 6.58195e+07 6.56845e+07 6.34876e+07 6.28241e+07 5.96683e+07 5.85623e+07
threshold=-1.1412513256072996 -1.47728556394577 421.25000000000006 11174277.000000002 39.500000000000007 1.5000000000000002 466.25000000000006 1.0000000180025095e-35 -1.8569334745407102 15056125.000000002 1.0000000180025095e-35 30108202.000000004 493.50000000000006 1.3193203806877138 1.0000000180025095e-35 0.99618321657180797 3771027.2500000005 1.5000000000000002 25.838601112365726 4747011.5000000009 2.5000000000000004 -0.82776132225990284 1.0717967152595522 1.1383750438690188 259.50000000000006 19412740.000000004 805.50000000000011 3.5000000000000004 8421801.0000000019 760.50000000000011 19412740.000000004
decision_type=2 2 2 2 2 2 2 2 2 2 2 2 2 2 2 2 2 2 2 2 2 2 2 2 2 2 2 2 2 2 2
left_child=1 6 10 4 7 18 25 14 -8 12 23 22 -7 16 -4 -16 -9 -10 24 -12 -19 -17 -5 -2 -3 -1 -24 -6 -26 -18 -21
right_child=2 5 3 11 27 9 8 13 17 -11 19 -13 -14 -15 15 21 29 20 -20 30 -22 -23 26 -25 28 -27 -28 -29 -30 -31 -32
leaf_value=7.7791612379395252 -9.1626807149828267 -4.8321838186450847 17.469663572448038 25.063292714100346 -17.67308349737181 -6.7269020262052939 34.859425849405767 -11.829060609030019 5.7907020037372909 14.118160519563313 -19.148587758166173 34.867336129470615 2.5885525527658704 2.460444125606049 -11.049286048129726 13.650290504154285 -5.8702571602975944 27.519880611466103 20.796492599064486 -12.104914038164654 15.388150095969676 1.6594146174607038 3.2447634236071168 1.3063413736424891 5.9406412883217232 32.168458959101812 15.01686150103216 -7.4655921340900093 15.875304627427548 1.4697857730020782 4.3200183218143078
leaf_weight=5601 6337 970 1186 538 3647 5977 2015 6621 1554 2007 6381 426 8740 4535 1932 1719 10711 2734 1800 8230 3981 8198 6271 2320 4327 291 1461 2616 2517 3734 581
leaf_count=5601 6337 970 1186 538 3647 5977 2015 6621 1554 2007 6381 426 8740 4535 1932 1719 10711 2734 1800 8230 3981 8198 6271 2320 4327 291 1461 2616 2517 3734 581
internal_value=0.0169405 8.88729 -4.85257 -1.89324 -3.8329 4.14466 16.6093 -2.28051 20.9782 0.642933 -11.5029 8.12156 -1.19472 -4.86505 2.79559 1.32682 -6.44206 17.5956 10.2361 -14.4353 20.3276 3.7379 6.74384 -6.35707 7.80344 8.98372 5.46916 -13.4095 9.59429 -3.97287 -11.0218
internal_weight=119958 42514 77444 53595 44899 26338 16176 38636 10284 16724 23849 8696 14717 25601 13035 11849 21066 8269 9614 15192 6715 9917 8270 8657 7814 5892 7732 6263 6844 14445 8811
internal_count=119958 42514 77444 53595 44899 26338 16176 38636 10284 16724 23849 8696 14717 25601 13035 11849 21066 8269 9614 15192 6715 9917 8270 8657 7814 5892 7732 6263 6844 14445 8811
is_linear=0
shrinkage=0.05


Tree=21
num_leaves=32
num_cat=0
split_feature=25 4 7 15 18 18 2 26 24 13 13 8 8 15 4 4 9 7 3 15 18 24 24 26 24 26 9 26 25 7 5
split_gain=1.87105e+09 5.67025e+08 5.36886e+08 2.90288e+08 2.2871e+08 2.08083e+08 2.03697e+08 1.81956e+08 1.77849e+08 1.64604e+08 1.63098e+08 1.54869e+08 1.34917e+08 1.26006e+08 1.24006e+08 1.12172e+08 1.08704e+08 1.01554e+08 9.85104e+07 7.88184e+07 7.76402e+07 7.61921e+07 1.50995e+08 7.61004e+07 7.96063e+07 7.54958e+07 7.18361e+07 7.1338e+07 7.07378e+07 6.86396e+07 6.75296e+07
threshold=-1.1537225842475889 1.5907899141311648 1.5000000000000002 3.5000000000000004 39.500000000000007 39.500000000000007 39.850000381469734 3325115.6250000005 1.0000000180025095e-35 255.50000000000003 411.50000000000006 1.0000000180025095e-35 1.5000000000000002 4.5000000000000009 1.921139180660248 1.3307464122772219 1145.0833129882815 1.0000000180025095e-35 1.122624456882477 3.5000000000000004 38.500000000000007 1.0000000180025095e-35 1.9441848397254946 3306440.5000000005 1.8468058109283449 3802407.0000000005 1245.0833129882815 4524384.0000000009 -0.86601391434669484 1.0000000180025095e-35 24.962749481201175
decision_type=2 2 2 2 2 2 2 2 2 2 2 2 2 2 2 2 2 2 2 2 2 2 2 2 2 2 2 2 2 2 2
left_child=1 3 5 12 8 7 18 11 -4 15 13 21 -1 -5 29 23 -9 -14 -3 -6 -19 -2 -23 24 -10 -12 -25 -18 -11 -8 -13
right_child=2 6 4 10 19 -7 14 16 9 28 25 30 17 -15 -16 -17 27 20 -20 -21 -22 22 -24 26 -26 -27 -28 -29 -30 -31 -32
leaf_value=6.9648627324881192 10.43951055874969 41.442060047358687 20.772421394412831 13.645826865541464 -15.432365552117432 -17.587393766339968 4.2052253128923693 15.027600392991889 -10.143756010806477 12.872327435684197 14.067666328129409 -13.591805263442442 -10.872428358844157 2.4049807903631812 31.609670687420209 6.1000828298892991 -7.116472388058412 2.3926162489470015 11.667850022898479 -3.0122354877840865 -10.909266683380977 -13.754906577593509 -0.26867109967182418 14.589593347858461 -2.4397509334593455 27.926687807420485 -0.94053741347600772 3.4338580529899616 3.2923530772242664 16.171995243487682 -5.421788958524516
leaf_weight=6093 825 1318 1115 4221 2983 5592 1559 998 5045 2692 3216 13525 2632 6090 1086 3752 3812 7205 352 2234 1294 3372 5398 958 9999 1415 3343 2764 6780 5179 3111
leaf_count=6093 825 1318 1115 4221 2983 5592 1559 998 5045 2692 3216 13525 2632 6090 1086 3752 3812 7205 352 2234 1294 3372 5398 958 9999 1415 3343 2764 6780 5179 3111
internal_value=0.0160935 8.57688 -4.53884 5.40776 -0.37219 -8.65303 19.3139 -7.17512 1.13661 0.464376 10.5075 -9.14626 0.983679 7.00663 15.9303 -1.81193 -0.348464 -2.29036 35.1663 -10.1139 0.367362 -4.08747 -5.45403 -3.34648 -5.02329 18.3023 2.51863 -2.682 6.01504 13.4032 -12.064
internal_weight=119958 41660 78298 32166 38901 39397 9494 33805 33684 32569 14942 26231 17224 10311 7824 23097 7574 11131 1670 5217 8499 9595 8770 19345 15044 4631 4301 6576 9472 6738 16636
internal_count=119958 41660 78298 32166 38901 39397 9494 33805 33684 32569 14942 26231 17224 10311 7824 23097 7574 11131 1670 5217 8499 9595 8770 19345 15044 4631 4301 6576 9472 6738 16636
is_linear=0
shrinkage=0.05


Tree=22
num_leaves=32
num_cat=0
split_feature=25 23 14 14 23 14 4 14 4 4 23 23 24 18 14 18 24 25 14 23 26 18 9 1 2 4 14 4 23 5 4
split_gain=1.70884e+09 8.29004e+08 3.8095e+08 3.1557e+08 2.37155e+08 1.91159e+08 1.88903e+08 1.6801e+08 1.62948e+08 1.46592e+08 1.39698e+08 1.14689e+08 1.0793e+08 9.56384e+07 9.43336e+07 8.89941e+07 8.0669e+07 8.10459e+07 7.93309e+07 7.87162e+07 7.73477e+07 7.60698e+07 7.48451e+07 7.457e+07 7.03885e+07 7.15629e+07 6.79049e+07 5.74394e+07 5.74333e+07 5.48913e+07 5.42113e+07
threshold=-1.47728556394577 5832824.0000000009 692.50000000000011 669.50000000000011 18852968.000000004 341.50000000000006 1.888039827346802 259.50000000000006 0.99912065267562877 1.1926706433296206 7499193.7500000009 15559466.500000002 1.0000000180025095e-35 17.500000000000004 276.50000000000006 38.500000000000007 1.0000000180025095e-35 -0.84452208876609791 941.50000000000011 18852968.000000004 4257740.2500000009 39.500000000000007 1346.1250000000002 43.049999237060554 45.149999618530281 1.5285184383392336 892.50000000000011 1.4613297581672671 3354635.3750000005 24.962749481201175 1.2353101968765261
decision_type=2 2 2 2 2 2 2 2 2 2 2 2 2 2 2 2 2 2 2 2 2 2 2 2 2 2 2 2 2 2 2
left_child=5 3 4 8 7 -1 10 -3 13 15 24 26 -10 -2 -14 16 -9 -18 29 23 -11 28 -22 27 25 -7 30 -12 -16 -5 -4
right_child=1 2 11 18 -6 6 -8 9 12 20 19 -13 14 -15 21 -17 17 -19 -20 -21 22 -23 -24 -25 -26 -27 -28 -29 -30 -31 -32
leaf_value=3.7423979300038592 8.8488814194112155 -10.477470741504254 2.3860124725029865 -3.42827809232619 12.097926708730792 11.504221391731949 34.809811810765474 18.395149197669351 22.207469290400311 1.7627030128351331 19.711198821171607 19.209322108356801 -13.959783231568537 -14.637321298625521 -8.0208157542118332 -11.848729747513893 1.902805857894271 -5.9565026792787119 10.067636667434316 36.009438498387645 37.945286056168229 -13.627219392080841 8.7169938813011445 15.22142209091183 6.2354519148098007 33.230974309487777 14.098017972134887 40.177929939341823 -2.0637414951094732 5.0557845727908308 10.412097971395047
leaf_weight=3001 449 4787 6319 10291 3378 1219 1441 472 315 11121 781 2304 4293 12522 6880 2695 5681 7762 1568 755 245 2656 2066 3916 3902 550 2661 611 9823 2340 3154
leaf_count=3001 449 4787 6319 10291 3378 1219 1441 472 315 11121 781 2304 4293 12522 6880 2695 5681 7762 1568 755 245 2656 2066 3916 3902 550 2661 611 9823 2340 3154
internal_value=0.0152888 -2.34074 2.06355 -6.87491 -0.551058 15.1311 17.7252 -1.77786 -9.31016 -0.391633 15.6271 8.98255 -6.86708 -13.8243 -7.2543 -3.53247 -1.92181 -2.63517 -0.539744 20.9034 3.49233 -5.7673 11.8156 18.7548 9.98614 18.2593 7.0407 28.6948 -4.51747 -1.85653 5.05827
internal_weight=119958 103782 52645 51137 38207 16176 13175 34829 36938 30042 11734 14438 23967 12971 23652 16610 13915 13443 14199 6063 13432 19359 2311 5308 5671 1769 12134 1392 16703 12631 9473
internal_count=119958 103782 52645 51137 38207 16176 13175 34829 36938 30042 11734 14438 23967 12971 23652 16610 13915 13443 14199 6063 13432 19359 2311 5308 5671 1769 12134 1392 16703 12631 9473
is_linear=0
shrinkage=0.05


Tree=23
num_leaves=32
num_cat=0
split_feature=25 23 4 14 15 18 2 23 14 8 23 18 18 8 13 14 15 3 23 23 14 18 4 25 1 8 24 15 25 13 4
split_gain=1.56261e+09 5.28011e+08 4.13209e+08 3.07356e+08 2.42039e+08 2.02556e+08 1.89157e+08 1.82441e+08 1.80497e+08 1.47002e+08 1.3063e+08 1.24991e+08 1.12394e+08 1.11103e+08 1.05497e+08 1.04775e+08 8.49657e+07 8.37763e+07 8.29155e+07 8.19531e+07 8.08511e+07 7.79296e+07 7.5016e+07 7.19879e+07 7.19459e+07 6.82977e+07 6.81326e+07 6.57165e+07 6.56188e+07 6.47694e+07 6.27346e+07
threshold=-1.1943399906158445 4613600.5000000009 1.5907899141311648 442.50000000000006 3.5000000000000004 39.500000000000007 39.549999237060554 15056125.000000002 674.50000000000011 1.5000000000000002 15559466.500000002 37.500000000000007 33.500000000000007 1.0000000180025095e-35 411.50000000000006 775.50000000000011 4.5000000000000009 1.122624456882477 30108202.000000004 4681493.7500000009 349.50000000000006 39.500000000000007 1.1926706433296206 0.36141209304332739 12.949999809265138 1.0000000180025095e-35 0.37617924809455877 3.5000000000000004 -1.0000000180025095e-35 321.00000000000006 0.99912065267562877
decision_type=2 2 2 2 2 2 2 2 2 2 2 2 2 2 2 2 2 2 2 2 2 2 2 2 2 2 2 2 2 2 2
left_child=2 8 4 21 11 7 17 9 13 12 14 20 24 30 16 19 -6 -4 -9 -8 -1 26 -15 -11 -5 -22 -3 -7 -14 -28 -2
right_child=1 3 6 5 10 27 15 18 -10 23 -12 -13 28 22 -16 -17 -18 -19 -20 -21 25 -23 -24 -25 -26 -27 29 -29 -30 -31 -32
leaf_value=-4.8428321432633492 -10.188022782810563 14.290398852995464 39.185590351289918 8.6254726822522372 11.719447128261855 -13.079893001330962 2.5676533946998763 11.033730772777968 -2.4488676208699194 -3.6369178129618742 24.162729181691745 -6.0097037223100553 9.6376982131253506 -16.514874714915294 16.161637552810088 28.386137143297699 1.1253857801676266 10.710718994228928 34.5170758703159 15.344698354188493 18.359903237911809 -14.536144556708354 -9.4590112943454656 15.678988116181742 -0.26234455777096821 4.6316398647672194 -7.8742933968188034 -1.044207794920891 30.26126309574073 -0.72863840870078389 -1.6049347228206312
leaf_weight=1975 4817 455 1274 3198 3222 2525 1683 3653 8482 9556 1549 4354 4373 8767 3298 1160 4587 324 419 4935 1048 2369 6605 508 7906 6685 9053 2059 423 4881 3815
leaf_count=1975 4817 455 1274 3198 3222 2525 1683 3653 8482 9556 1549 4354 4373 8767 3298 1160 4587 324 419 4935 1048 2369 6605 508 7906 6685 9053 2059 423 4881 3815
internal_value=0.0145244 -3.72925 8.71315 -0.574516 5.54399 2.11609 17.744 3.61019 -8.7186 2.06697 10.5603 1.02922 5.06015 -10.9341 8.6633 14.525 5.4965 33.4122 13.4501 12.0954 4.18615 -6.13298 -13.4831 -2.66191 2.29739 6.49214 -4.74948 -7.67381 11.4567 -5.37121 -6.39464
internal_weight=119958 83864 36094 51378 26718 34620 9376 30036 32486 25964 12656 14062 15900 24004 11107 7778 7809 1598 4072 6618 9708 16758 15372 10064 11104 7733 14389 4584 4796 13934 8632
internal_count=119958 83864 36094 51378 26718 34620 9376 30036 32486 25964 12656 14062 15900 24004 11107 7778 7809 1598 4072 6618 9708 16758 15372 10064 11104 7733 14389 4584 4796 13934 8632
is_linear=0
shrinkage=0.05


Tree=24
num_leaves=32
num_cat=0
split_feature=25 14 4 8 14 26 13 2 4 18 4 8 9 14 18 4 13 5 26 3 14 14 15 26 15 15 15 18 18 9 9
split_gain=1.42076e+09 4.50301e+08 4.3754e+08 2.40896e+08 2.34875e+08 1.86401e+08 1.7237e+08 1.61708e+08 1.52119e+08 1.25857e+08 1.23121e+08 1.12827e+08 1.07625e+08 9.97454e+07 9.84417e+07 9.76196e+07 9.01298e+07 8.6593e+07 8.06734e+07 7.96407e+07 7.61848e+07 7.60283e+07 7.56673e+07 6.98772e+07 6.24883e+07 6.75906e+07 6.17141e+07 6.09087e+07 5.97024e+07 5.73665e+07 5.58401e+07
threshold=-1.1412513256072996 671.50000000000011 1.5831999182701113 1.0000000180025095e-35 714.50000000000011 3363618.1250000005 255.50000000000003 39.250000000000007 0.99912065267562877 38.500000000000007 1.2867341041564944 1.5000000000000002 1126.5833129882815 349.50000000000006 40.500000000000007 1.921139180660248 255.50000000000003 28.422310829162601 3601473.1250000005 1.1868507266044619 976.50000000000011 249.50000000000003 3.5000000000000004 4524384.0000000009 3.5000000000000004 4.5000000000000009 1.5000000000000002 16.500000000000004 34.500000000000007 1279.0454711914065 1346.1250000000002
decision_type=2 2 2 2 2 2 2 2 2 2 2 2 2 2 2 2 2 2 2 2 2 2 2 2 2 2 2 2 2 2 2
left_child=2 3 4 8 6 10 11 19 27 16 14 -1 -7 -9 21 26 20 -10 -8 28 -3 -5 -6 29 -13 -26 -15 -2 -4 -14 -25
right_child=1 9 7 5 22 12 18 13 17 -11 -12 24 23 15 -16 -17 -18 -19 -20 -21 -22 -23 -24 30 25 -27 -28 -29 -30 -31 -32
leaf_value=5.3683858952858969 14.633724032252255 0.26685263991699593 9.7389749394684308 -19.500816976842898 7.6960261843903339 15.454845103952835 4.9604416325209666 2.1887186696720184 1.2770608655593545 -6.7116201926596135 -4.292533967095201 -6.3692453860234508 0.084474840375474564 2.5215725571129788 -22.921824155834784 31.763536176975848 8.9993224875911277 17.565670381153101 16.110585943620489 2.4776561080592954 14.21999893127358 -10.273641580261163 17.665426524486744 29.135402722078211 7.6856741937812147 -3.8447265547835343 16.293493750097465 -6.670261857888665 38.810285745461783 -12.287209338222228 -0.2647764284273213
leaf_weight=5661 347 12275 205 2566 4198 769 4856 1537 7746 3515 5671 6766 1371 981 2075 887 5472 912 2436 219 1063 17173 3482 170 2160 3088 4763 10127 1275 2960 3232
leaf_count=5661 347 12275 205 2566 4198 769 4856 1537 7746 3515 5671 6766 1371 981 2075 887 5472 912 2436 219 1063 17173 3482 170 2160 3088 4763 10127 1275 2960 3232
internal_value=0.0137981 -4.01789 7.35798 -6.44435 4.56939 -8.85449 2.21724 16.5846 -1.91093 1.97287 -10.8559 -0.451222 -2.38441 13.6653 -12.5622 16.3254 3.59573 2.99284 8.68531 30.6193 1.37888 -11.4731 12.216 -4.15842 -3.19342 0.901018 13.9414 -5.96447 34.7835 -8.37089 1.20437
internal_weight=119958 77444 42514 55119 32647 35987 24967 9867 19132 22325 27485 17675 8502 8168 21814 6631 18810 8658 7292 1699 13338 19739 7680 7733 12014 5248 5744 10474 1480 4331 3402
internal_count=119958 77444 42514 55119 32647 35987 24967 9867 19132 22325 27485 17675 8502 8168 21814 6631 18810 8658 7292 1699 13338 19739 7680 7733 12014 5248 5744 10474 1480 4331 3402
is_linear=0
shrinkage=0.05


Tree=25
num_leaves=32
num_cat=0
split_feature=25 23 14 25 18 23 14 14 23 4 18 8 14 14 4 14 13 8 2 8 5 4 18 0 23 8 23 8 18 14 8
split_gain=1.31883e+09 5.66289e+08 2.5656e+08 2.54097e+08 2.23446e+08 1.8405e+08 1.81995e+08 1.62771e+08 1.25359e+08 1.20116e+08 1.14923e+08 1.54273e+08 1.01623e+08 9.87048e+07 9.07729e+07 8.72183e+07 8.32067e+07 8.11495e+07 6.67383e+07 6.53899e+07 6.85025e+07 6.56711e+07 6.31605e+07 5.68435e+07 5.61965e+07 5.61936e+07 5.39403e+07 5.38403e+07 7.26095e+07 5.37221e+07 5.072e+07
threshold=-1.3248491883277891 7080763.2500000009 598.25000000000011 -1.7751075029373167 39.500000000000007 22075849.000000004 714.50000000000011 802.50000000000011 7499193.7500000009 1.4875580668449404 34.500000000000007 1.5000000000000002 305.50000000000006 874.50000000000011 1.419154226779938 379.50000000000006 321.00000000000006 1.0000000180025095e-35 59.750000000000007 1.5000000000000002 22.184203147888187 1.3811735510826113 40.500000000000007 32.649999618530281 18852968.000000004 1.5000000000000002 34091504.000000007 1.5000000000000002 33.500000000000007 412.50000000000006 1.0000000180025095e-35
decision_type=2 2 2 2 2 2 2 2 2 2 2 2 2 2 2 2 2 2 2 2 2 2 2 2 2 2 2 2 2 2 2
left_child=3 2 9 15 5 7 8 10 -5 12 17 14 -2 19 -12 -1 22 -3 23 20 -4 -21 27 -17 -10 -8 -7 28 -14 -19 -9
right_child=1 4 13 6 -6 26 25 30 24 -11 11 -13 16 -15 -16 18 -18 29 -20 21 -22 -23 -24 -25 -26 -27 -28 -29 -30 -31 -32
leaf_value=8.557472941219757 -13.734544502480549 3.4090245079232133 -1.991038159645611 0.60775531568535079 -8.3322674919980333 14.05380031400477 26.251611888405865 21.64751469293142 8.0497900482239313 2.5624389158927805 9.8309682141924775 -0.18517340789547626 -8.4134389436966099 5.9188340220704845 38.395492431803333 14.820379417231855 -2.7606202020805406 -10.321371352869088 18.874870743429355 -9.0568233439129386 11.076836482450286 3.403184654185067 -18.678810131441573 38.283773778830728 21.476433895092434 13.260645967143388 35.524364923356579 -11.890690345111004 1.7986139275671147 -2.0989394187745254 8.6879384417493153
leaf_weight=1199 8948 4818 10753 7889 4440 1955 1066 1004 6694 2331 4606 6518 7286 3655 296 340 6702 2836 2345 5888 1106 1289 1631 1072 882 3799 344 6425 2287 6632 3044
leaf_count=1199 8948 4818 10753 7889 4440 1955 1066 1004 6694 2331 4606 6518 7286 3655 296 340 6702 2836 2345 5888 1106 1289 1631 1072 882 3799 344 6425 2287 6632 3044
internal_value=0.00164491 -2.70468 -5.76217 10.1473 2.17996 3.63612 7.67258 2.58294 5.01921 -8.40986 1.11541 4.8546 -9.1784 -1.60703 11.5558 20.2989 -7.50283 -1.87365 24.046 -3.05203 -0.772295 -6.81899 -9.30567 32.6339 9.61292 16.1072 17.2664 -8.35008 -5.97377 -4.56185 11.9022
internal_weight=120080 94794 58301 25286 36493 32053 20330 29754 15465 35610 25706 11420 33279 22691 4902 4956 24331 14286 3757 19036 11859 7177 17629 1412 7576 4865 2299 15998 9573 9468 4048
internal_count=120080 94794 58301 25286 36493 32053 20330 29754 15465 35610 25706 11420 33279 22691 4902 4956 24331 14286 3757 19036 11859 7177 17629 1412 7576 4865 2299 15998 9573 9468 4048
is_linear=0
shrinkage=0.05


Tree=26
num_leaves=32
num_cat=0
split_feature=4 23 14 23 23 14 25 25 13 25 8 24 4 8 23 14 2 23 8 13 8 1 14 4 8 5 4 24 25 14 15
split_gain=1.22358e+09 5.67265e+08 2.84104e+08 2.80435e+08 2.2601e+08 1.75919e+08 1.69472e+08 1.49283e+08 1.16435e+08 1.03956e+08 1.00098e+08 9.98617e+07 9.83318e+07 9.76413e+07 9.06906e+07 8.835e+07 7.83553e+07 7.81323e+07 6.92403e+07 6.35892e+07 6.30863e+07 6.23895e+07 5.91481e+07 5.43266e+07 5.34249e+07 5.29577e+07 4.93693e+07 4.70084e+07 5.31949e+07 4.39744e+07 4.36358e+07
threshold=1.4064497947692873 5474063.7500000009 364.50000000000006 9396259.5000000019 13642234.500000002 376.50000000000006 -1.9318348765373228 -0.99985131621360768 411.50000000000006 -1.0344509482383726 1.5000000000000002 1.0000000180025095e-35 1.7880489230155947 1.5000000000000002 30108202.000000004 733.50000000000011 43.149999618530281 19972837.000000004 1.0000000180025095e-35 356.50000000000006 1.5000000000000002 5.6499998569488534 714.50000000000011 1.6350603103637698 1.0000000180025095e-35 20.734431266784672 0.95405375957489025 0.99618321657180797 -0.99985131621360768 912.50000000000011 3.5000000000000004
decision_type=2 2 2 2 2 2 2 2 2 2 2 2 2 2 2 2 2 2 2 2 2 2 2 2 2 2 2 2 2 2 2
left_child=1 5 19 6 7 -1 -2 10 15 16 -4 -9 17 21 27 23 -7 18 -5 -3 22 -11 -13 -8 25 -10 -23 -6 -29 -28 -20
right_child=3 2 4 12 14 9 8 11 24 13 -12 20 -14 -15 -16 -17 -18 -19 30 -21 -22 26 -24 -25 -26 -27 29 28 -30 -31 -32
leaf_value=-12.390815941800229 24.222513969770819 -9.1998072392330208 10.2397647633069 27.702470225978445 27.680905732693386 4.7502355331047683 -1.9453376549637165 15.329546216882765 13.398417255526006 7.3825574773176772 1.3035129132509653 -2.9381960521556798 28.856488199634942 -11.847816016604035 28.975797173109921 10.607543787302625 -5.3259260519441698 27.502816926079181 4.8482494397696705 -1.3307104405900601 -6.9043871084744302 -8.5517610651204006 4.7128698364449155 5.7381880873367992 9.0419529081433492 37.831873049300135 -3.7926318882745926 12.143925457567862 3.6682751738708128 11.926154992504323 14.13214449265266
leaf_weight=11068 1189 6890 5376 655 313 4068 7315 800 575 1006 7513 8364 1448 6638 594 2692 3670 995 2090 4092 6011 7123 3619 3356 2830 361 8345 3696 3709 470 3209
leaf_count=11068 1189 6890 5376 655 313 4068 7315 800 575 1006 7513 8364 1448 6638 594 2692 3670 995 2090 4092 6011 7123 3619 3356 2830 361 8345 3696 3709 470 3209
internal_value=0.00156266 -2.69826 0.855637 9.43705 2.8116 -6.97228 5.96863 0.88642 4.70155 -5.05746 5.03082 -1.95583 17.0034 -6.70755 10.1498 2.51311 -0.0287142 14.5335 12.3661 -6.26771 -2.72432 -4.69379 -0.627489 0.47111 12.4668 22.822 -5.45604 8.70092 7.89866 -2.95453 10.4704
internal_weight=120080 93365 50977 26715 39995 42388 18318 31683 17129 31320 12889 18794 8397 23582 8312 13363 7738 6949 5954 10982 17994 16944 11983 10671 3766 936 15938 7718 7405 8815 5299
internal_count=120080 93365 50977 26715 39995 42388 18318 31683 17129 31320 12889 18794 8397 23582 8312 13363 7738 6949 5954 10982 17994 16944 11983 10671 3766 936 15938 7718 7405 8815 5299
is_linear=0
shrinkage=0.05


Tree=27
num_leaves=32
num_cat=0
split_feature=4 23 14 23 26 4 14 25 25 14 25 25 14 24 23 13 14 13 13 2 13 9 26 25 1 23 25 13 14 9 15
split_gain=1.10576e+09 5.06262e+08 2.9057e+08 2.61616e+08 1.52431e+08 1.41728e+08 1.39037e+08 1.22498e+08 1.20565e+08 1.14723e+08 9.89184e+07 9.54273e+07 9.15108e+07 8.87533e+07 8.3941e+07 7.27549e+07 7.02344e+07 6.93676e+07 6.48681e+07 6.30601e+07 6.06197e+07 5.71952e+07 5.83144e+07 5.55103e+07 5.47855e+07 5.4069e+07 5.34532e+07 5.22257e+07 4.79607e+07 4.59525e+07 4.58284e+07
threshold=1.3981422185897829 4887846.7500000009 617.50000000000011 7662504.7500000009 6161618.2500000009 1.5831999182701113 345.50000000000006 -1.1039056777954099 -1.7291465401649473 264.50000000000006 -0.99985131621360768 -1.0000000180025095e-35 854.50000000000011 1.0000000180025095e-35 19412740.000000004 356.50000000000006 805.50000000000011 255.50000000000003 255.50000000000003 45.149999618530281 411.50000000000006 1889.5000000000002 9536683.0000000019 -0.99001169204711903 35.45000076293946 14412025.500000002 -1.0000000180025095e-35 411.50000000000006 532.50000000000011 3919.5000000000005 1.5000000000000002
decision_type=2 2 2 2 2 2 2 2 2 2 2 2 2 2 2 2 2 2 2 2 2 2 2 2 2 2 2 2 2 2 2
left_child=1 6 4 5 9 28 -1 19 24 -3 18 -12 15 -9 17 23 20 -10 -11 -4 -7 -6 -23 -8 -5 -13 -25 -15 -2 -24 -26
right_child=3 2 7 8 21 16 12 13 14 10 11 25 -14 27 -16 -17 -18 -19 -20 -21 -22 22 29 26 30 -27 -28 -29 -30 -31 -32
leaf_value=-13.092629345344363 -3.322300989619015 -9.8266474950444387 15.225176073014977 38.037302231220977 31.823854096646006 5.495945741994003 -3.7868531158285155 21.154313276070923 7.0062981345885937 -1.04379529303949 -7.2369720238782937 -1.0571648652161654 3.2817009143784674 -0.57181967567201164 24.912085855280434 -1.9472368589943063 23.991444455242757 17.425637346851556 7.1035190135200956 5.6191971995957202 17.683488378683485 1.8349603297465329 31.449103782732379 -12.406742223037263 3.1582215721892046 13.505900323636631 -6.0598177787233283 5.8390321623870349 3.9819515862715242 -5.834698934245993 23.097582027939431
leaf_weight=7921 4353 5622 3407 525 282 4651 5422 601 5832 7316 10594 4595 2632 9633 1047 6515 795 2200 3668 3427 1307 1233 352 7975 339 740 5680 4740 4646 108 1922
leaf_count=7921 4353 5622 3407 525 282 4651 5422 601 5832 7316 10594 4595 2632 9633 1047 6515 795 2200 3668 3427 1307 1233 352 7975 339 740 5680 4740 4646 108 1922
internal_value=0.00148453 -2.62073 0.343238 8.78079 -2.51177 4.55722 -7.23894 4.86113 14.388 -3.3305 -1.97349 -4.49066 -5.59611 2.32953 11.596 -6.50915 10.0322 9.8602 1.67692 10.4081 8.16951 10.9756 7.50292 -8.06709 23.4866 0.962829 -9.76664 1.54238 0.448736 22.6955 20.108
internal_weight=120080 92463 56318 27617 34510 15752 36145 21808 11865 32535 26913 15929 28224 14974 9079 25592 6753 8032 10984 6834 5958 1975 1693 19077 2786 5335 13655 14373 8999 460 2261
internal_count=120080 92463 56318 27617 34510 15752 36145 21808 11865 32535 26913 15929 28224 14974 9079 25592 6753 8032 10984 6834 5958 1975 1693 19077 2786 5335 13655 14373 8999 460 2261
is_linear=0
shrinkage=0.05


Tree=28
num_leaves=32
num_cat=0
split_feature=25 23 14 18 18 23 23 14 18 8 13 23 8 4 4 14 4 4 1 4 4 5 4 8 18 25 14 1 8 14 14
split_gain=1.01505e+09 5.28765e+08 2.86244e+08 1.77807e+08 1.6927e+08 1.47978e+08 1.46372e+08 1.44965e+08 1.29821e+08 1.33625e+08 1.00429e+08 9.30262e+07 8.83277e+07 7.81483e+07 7.7587e+07 7.47203e+07 6.88306e+07 6.56063e+07 6.44584e+07 8.5368e+07 6.43565e+07 6.3584e+07 5.85846e+07 5.65587e+07 7.37142e+07 7.19212e+07 5.36187e+07 5.2718e+07 5.0962e+07 5.04671e+07 4.80652e+07
threshold=-1.47728556394577 8421801.0000000019 728.50000000000011 39.500000000000007 38.500000000000007 22075849.000000004 3324776.1250000005 698.50000000000011 34.500000000000007 1.5000000000000002 321.00000000000006 14843492.500000002 1.0000000180025095e-35 1.888039827346802 1.0881957411766054 1045.5000000000002 1.2416668534278872 1.6931281089782717 42.649999618530281 1.4613297581672671 0.97285765409469616 22.760711669921879 1.9660534858703616 1.5000000000000002 35.500000000000007 0.47168432176113134 555.25000000000011 5.6499998569488534 1.0000000180025095e-35 280.50000000000006 799.50000000000011
decision_type=2 2 2 2 2 2 2 2 2 2 2 2 2 2 2 2 2 2 2 2 2 2 2 2 2 2 2 2 2 2 2
left_child=7 2 3 6 5 8 27 11 12 16 14 18 30 -9 -8 20 -10 -12 19 -1 -4 -5 -20 24 -16 -25 -14 -2 -22 -29 -3
right_child=1 4 15 21 -6 -7 10 13 9 -11 17 -13 26 -15 23 -17 -18 -19 22 -21 28 -23 -24 25 -26 -27 -28 29 -30 -31 -32
leaf_value=5.5594792199493241 4.0364019714698331 4.3041387049696089 -3.8879719549534926 -14.822889296019589 -4.51502849663874 16.910053770977363 -8.0616199732563683 17.330264684799598 11.671635029574906 3.8267402988215418 0.71186172995154873 20.615698836436287 -6.6060058811137754 39.484201459366112 -2.0327029494171835 18.560046088631829 27.317695461943778 32.779442896960695 3.5254679712108512 22.148969964022957 10.838473818181445 -2.9130357469667807 21.604491437551623 -5.8499529012052385 10.022143185451498 28.65915006314005 1.402111468064003 -15.865049390728059 1.7338528741397008 -8.0925258679709664 19.738698362799013
leaf_weight=1671 759 3477 4213 6480 5363 2459 9877 3704 3185 7277 10324 1479 4016 446 4867 655 902 162 6946 1447 1906 1355 479 7708 1715 154 4359 2546 7938 11621 590
leaf_count=1671 759 3477 4213 6480 5363 2459 9877 3704 3185 7277 10324 1479 4016 446 4867 655 902 162 6946 1447 1906 1355 479 7708 1715 154 4359 2546 7938 11621 590
internal_value=0.0014103 -1.81216 -4.17158 -5.76222 3.57984 5.23271 -4.65929 11.654 4.02652 7.89 -2.88299 8.87261 0.497782 19.7111 -4.64651 2.05263 15.1247 1.20728 7.22526 13.2583 1.28345 -12.7632 4.69178 -2.31121 1.1083 -5.17399 -2.43796 -8.80156 3.49669 -9.48935 6.54323
internal_weight=120080 103908 72280 57568 31628 26265 49733 16172 23806 11364 34807 12022 12442 4150 24321 14712 4087 10486 10543 3118 14057 7835 7425 14444 6582 7862 8375 14926 9844 14167 4067
internal_count=120080 103908 72280 57568 31628 26265 49733 16172 23806 11364 34807 12022 12442 4150 24321 14712 4087 10486 10543 3118 14057 7835 7425 14444 6582 7862 8375 14926 9844 14167 4067
is_linear=0
shrinkage=0.05


Tree=29
num_leaves=32
num_cat=0
split_feature=4 25 14 13 8 13 8 25 14 15 25 14 25 4 26 5 1 26 14 16 9 16 26 16 25 8 15 26 20 25 14
split_gain=9.36923e+08 4.89009e+08 2.50418e+08 2.37284e+08 1.66868e+08 1.51396e+08 1.42688e+08 1.1434e+08 1.07012e+08 9.8893e+07 9.72499e+07 8.92585e+07 8.5729e+07 8.08508e+07 7.05034e+07 6.85387e+07 6.18076e+07 5.97342e+07 5.70259e+07 5.50399e+07 5.35605e+07 5.30695e+07 4.73105e+07 4.70504e+07 6.22172e+07 4.46857e+07 4.46551e+07 4.42957e+07 4.4079e+07 4.54196e+07 4.40305e+07
threshold=1.5285184383392336 -0.99985131621360768 421.25000000000006 411.50000000000006 1.0000000180025095e-35 411.50000000000006 1.5000000000000002 1.4303247825008864e-16 466.25000000000006 3.5000000000000004 -2.0253205299377437 654.50000000000011 -1.0000000180025095e-35 0.94644618034362804 2885714.1250000005 22.184203147888187 2.7250000238418584 2529040.5000000005 820.50000000000011 1.0000000180025095e-35 987.70834350585949 1.0000000180025095e-35 3601473.1250000005 1.0000000180025095e-35 -1.0000000180025095e-35 1.0000000180025095e-35 4.5000000000000009 6646472.0000000009 -2.4166666269302364 -1.0000000180025095e-35 219.50000000000003
decision_type=2 2 2 2 2 2 2 2 2 2 2 2 2 2 2 2 2 2 2 2 2 2 2 2 2 2 2 2 2 2 2
left_child=1 3 12 6 13 10 15 14 -8 21 -2 -12 30 16 -6 27 -4 -7 22 -10 -16 -5 -11 -18 -25 -14 -9 -1 29 -15 -3
right_child=5 2 4 9 7 17 8 26 19 18 11 -13 25 28 20 -17 23 -19 -20 -21 -22 -23 -24 24 -26 -27 -28 -29 -30 -31 -32
leaf_value=2.0138189417741024 26.067372868422236 -17.425281231392944 26.685972136819874 -1.776666180396157 -8.772599728732585 12.203331157388959 -7.581713518316306 3.0016851330316623 -4.718473558405698 7.9662027895313576 4.3355652583731183 13.966819044895377 -1.0529942897931828 3.9049778494790455 12.833315466789944 12.527582972278154 -4.5565364907376695 24.822456773635771 27.367827917762902 2.5416335957265774 -3.8639420667321227 7.6986457653181395 18.313315250395139 0.45100589960855147 25.492898342460393 -8.6670139411131686 -6.2341277412111902 23.871446822976466 2.3624277217873733 16.150772305805855 -10.188816240047046
leaf_weight=7684 741 2739 186 2330 13213 1548 6644 5414 3776 3208 7655 3508 3628 1502 515 2270 6058 2379 643 8458 7124 4040 1685 1432 300 4110 1726 239 4759 1527 9039
leaf_count=7684 741 2739 186 2330 13213 1548 6644 5414 3776 3208 7655 3508 3628 1502 515 2270 6058 2379 643 8458 7124 4040 1685 1432 300 4110 1726 239 4759 1527 9039
internal_value=0.00133979 -1.71976 -4.47561 2.53553 -2.37487 11.335 0.100593 -4.69202 -2.47339 8.48093 8.52657 7.36221 -9.1856 1.73967 -6.56196 4.86776 -1.79867 19.8481 13.369 0.300816 -2.73826 4.23279 11.5294 -2.47879 4.78852 -5.09714 0.76905 2.67316 5.36342 10.0784 -11.8717
internal_weight=120080 104249 63272 40977 43756 15831 29071 27992 18878 11906 11904 11163 19516 15764 20852 10193 7976 3927 5536 12234 7639 6370 4893 7790 1732 7738 7140 7923 7788 3029 11778
internal_count=120080 104249 63272 40977 43756 15831 29071 27992 18878 11906 11904 11163 19516 15764 20852 10193 7976 3927 5536 12234 7639 6370 4893 7790 1732 7738 7140 7923 7788 3029 11778
is_linear=0
shrinkage=0.05


Tree=30
num_leaves=32
num_cat=0
split_feature=25 23 18 14 14 13 23 14 4 15 4 4 8 15 8 4 18 24 23 24 18 24 23 14 24 15 23 13 4 8 24
split_gain=8.45972e+08 3.68507e+08 2.50277e+08 2.04821e+08 1.88928e+08 1.29975e+08 1.18096e+08 1.09563e+08 9.70031e+07 8.73041e+07 1.05187e+08 8.70188e+07 8.0045e+07 7.79344e+07 7.64419e+07 7.53869e+07 7.38386e+07 6.68723e+07 6.60835e+07 6.31593e+07 6.16459e+07 5.69502e+07 5.60133e+07 5.42111e+07 5.25589e+07 5.09749e+07 5.09515e+07 5.07955e+07 4.59048e+07 5.48145e+07 4.50603e+07
threshold=-1.2856814861297605 4473096.7500000009 39.500000000000007 643.50000000000011 695.50000000000011 255.50000000000003 12510991.500000002 391.25000000000006 1.8219137787818911 3.5000000000000004 1.6931281089782717 1.187207102775574 2.5000000000000004 3.5000000000000004 1.5000000000000002 0.92697891592979442 39.500000000000007 0.94555336236953746 15812644.000000002 1.1036722064018252 38.500000000000007 1.0000000180025095e-35 13642234.500000002 854.50000000000011 1.0000000180025095e-35 5.5000000000000009 22075849.000000004 411.50000000000006 1.6158539056777956 1.5000000000000002 1.0202040672302248
decision_type=2 2 2 2 2 2 2 2 2 2 2 2 2 2 2 2 2 2 2 2 2 2 2 2 2 2 2 2 2 2 2
left_child=3 7 4 6 5 11 9 -2 12 10 -1 21 20 -4 22 -7 17 24 -14 -17 -5 -3 -6 28 -9 -10 30 -11 29 -19 -13
right_child=1 2 13 8 14 15 -8 16 25 27 -12 26 18 -15 -16 19 -18 23 -20 -21 -22 -23 -24 -25 -26 -27 -28 -29 -30 -31 -32
