tree
version=v4
num_class=1
num_tree_per_iteration=1
label_index=0
max_feature_idx=33
objective=regression
feature_names=total_onshift_dashers total_busy_dashers total_outstanding_orders load_busy_ratio load_demand_supply_ratio market_velocity_orders market_velocity_busy total_onshift_dashers_lag_5min total_onshift_dashers_lag_15min total_onshift_dashers_lag_30min total_busy_dashers_lag_5min total_busy_dashers_lag_15min total_busy_dashers_lag_30min total_outstanding_orders_lag_5min total_outstanding_orders_lag_15min total_outstanding_orders_lag_30min load_busy_ratio_lag_5min load_busy_ratio_lag_15min load_busy_ratio_lag_30min load_demand_supply_ratio_lag_5min load_demand_supply_ratio_lag_15min load_demand_supply_ratio_lag_30min total_onshift_dashers_roll10_std total_busy_dashers_roll10_std total_outstanding_orders_roll10_std load_busy_ratio_roll10_std load_demand_supply_ratio_roll10_std demand_spike_15m supply_drop_15m busy_growth_15m burst_index time_hour_sin time_hour_cos time_minute_of_day
feature_infos=[0:171] [0:154] [0:285] [0:30] [0:47] [0:0.99650349650349646] [0:0.99354838709677418] [0:171] [0:171] [0:171] [0:154] [0:154] [0:154] [0:285] [0:285] [0:285] [0:30] [0:30] [0:30] [0:47] [0:47] [0:47] [0:57.990036010742188] [0:57.682655334472656] [0:98.732467651367188] [0:9.9397592544555664] [0:18.787881851196289] [-200:222] [-121:130] [-118:129] [0:129] [-1:1] [-1:0.96592581272125244] [391:1380]
tree_sizes=3022 3062 3065 3068 3057 3061 3041 3062 3038 3031 3051 3050 3055 3055 3064 3072 3064 3058 3064 3056 3054 3066 3063 3068 3035 3062 3059 3062 3068 3048 3059 3055 3050 3069 3047 3032 3060 3042 3046 3039 3040 3062 3078 3041 3077 3047 3066 3040 3065 3063 3036 3051 3048 3048 3062 3045 3043 3046 3029 3036 3046 3035 3044 3026 3039 3052 3064 3048 2989 3002 3029 3030 3007 3017 3056 3036 3046 3000 3007 3005 3033 3051 3014 3000 3077 3019 3041 3027 3057 2975 3011 3011 3050 2993 2989 3031 2963 2994 3032 2993 2990 3001 2999 3023 2976 2970 2920 2952 2921 2946 2940 2955 2923 2993 2943 2952 2978 2916 2961 2906 3003 2960 2978 2903 2929 3004 3016 2992 2928 2984 2977 2959 2934 3009 2974 2959 2970 2918 2971 2936 2939 2939 2925 2945 2966 2984 2962 3025 2981 2968 2930 2957 2932 2957 3004 2909 2920 3004 2991 2945 2941 2951 2919 2927 2996 2946 2937 2935 2956 2921 2910 2975 2948 2953 2999 2898 2894 2929 2902 2919 2952 2911 2922 2963 2945 2903 2956 2900 2942 2981 2927 2936 2901 2937 2944 2958 2896 2919 2942 2900 2890 2889 2906 2888 2979 2941 2908 2936 2950 2907 2976 2876 2952 2938 2892 2961 2933 2870 2879 2958 2960 2934 2929 2919 2919 2935 2933 2915 2931 2960 3006 2953 2972 2938 2939 2915 2862 2889 2945 2931 2904 2930 2923 2929 2884 2880 2874 2883 2886 2868 2894 2851 2950 2908 2861 2934 2935 2902 2895 2913 2950 2924 2921 2962 2971 2905 2933 2896 2897 2867 2910 2889 2931 2896 2928 2928 2928 2915 2919 2930 2883 2885 2911 2871 2907 2927 2889 2923 2931 2906 2874 2890 2864 2890 2889 2937 2920 2930 2855 2934 2963 2918 2949 2998 2869 2880 2930 2938 2899 2905 2940 2893 2876 2963 2936 2976 2869 2975 2862 2929 2965 2907 2898 2931 2853 2910 2925 2918 2947 2892 2921 2919 2878 2927 2878 2945 2934 2922 2923 2886 2948 2921 2900 2873 2938 2919 2909 2934 2845 2943 2960 2946 2893 2871 2957 2857 2865 2887 2939 2887 2895 2905 2918 2979 2951 2870 2965 2885 2923 2926 2899 2922 2930 2927 2946 2920 2959 2961 2951 2957 2954 2929 2957 2893 2999 2923 2941 2902 2909 2885 2898 2923 2866 2914 2879 2978 2909 2911 2985 2917 2949 2926 2919 2905 2921 2933 2918 2928 2909 2912 2939 2968 2866 2878 2867 2898 2964 2963 2913 2930 2968 2993 2945 2961 2942 2940 2904 2915 2871 2929 2904 2885 2916 2876 2965 2903 2945 2895 2971 2861 2869 2891 2927 2890 2870 2888 2885 2885 2883 2900 2951 2919 2914 2962 2901 2910 2907 2946 2898 2897 2869 2863 2895 2898 2897 2913 2961 2907 2895 2888 2968 2926 2911 2881 2885 2933 2926 2922 2931 2969 2929 2861 2908 2900 2920 2875 2919 2867 2880 2920 2930 2882 2911 2891 2922 2908 2908 2905 2902 2891 2904 2925 2988 2948 2960 2882 2878 2923 2903 2866 2928 2916 2884 2946 2868 2983 2913 2929 2909 2896 2894 2895 2900 2914 2908 2908 2936 2906 2932 2907 2886 2895 2945 2867 2953 2896 2921 2874 2910 2931 2911 2858 2869 2891 2861 2965 2908 2901 2904 2901 2909 2884 2899 2904 2893 2895 2866 2858 2893 2880 2912 2881 2931 2864 2878 2907 2918 2922 2925 2951 2956 2933 2902 2917 2925 2899 2891 2881 2895 2911 2909 2894 2903 2914 2913 2879 2862 2895 2865 2904 2932 2915 2878 2957 2890 2879 2897 2916 2918 2883 2922 2892 2921 2883 2878 2900 2900 2886 2887 2898 2944 2904 2926 2945 2897 2958 2868 2933 2879 2942 2906 2877 2914 2873 2905 2920 2940 2920 2896 2888 2939 2912 2910 2866 2899 2879 2864 2863 2867 2944 2914 2888 2892 2947 2874 2949 2945 2965 2941 2924 2907 2882 2878 2866 2900 2939 2936 2926 2934 2918 2922 2894 2923 2902 2890 2905 2915 2910 2880 2837 2860 2902 2896 2909 2948 2890 2911 2902 2876 2902 2949 2946 2919 2923 2899 2937 2875 2863 2905 2929 2916 2946 2907 2902 2906 2927 2931 2934 2889 2957 2918 2966 2872 2883 2919 2935 2906 2886 2941 2886 2899 2881 2883 2887 2876 2918 2906 2953 2947 2953 2897 2867 2873 2885 2866 2902 2934 2830 2891 2898 2898 2874 2857 2880 2856 2881 2915 2888 2928 2930 2909 2897 2900 2892 2870 2896 2914 2874 2939 2891 2899 2897 2904 2891 2885 2907 2924 2926 2931 2910 2899 2916 2900 2903 2874 2899 2908 2894 2888 2889 2894 2887 2892 2912 2861 2903 2905 2890 2887 2890 2894 2932 2927 2908 2924 2897 2890 2903 2913 2888 2880 2943 2880 2906 2893 2898 2900 2886 2894 2894 2915 2911 2882 2898 2884 2921 2908 2899 2927 2862 2945 2914 2920 2908 2922 2888 2853 2935 2869 2882 2887 2874 2887 2891 2873 2899 2907 2872 2866 2851 2845 2853 2860 2879 2867 2933 2915 2914 2891 2923 2889 2908 2916 2903 2922 2916 2892 2887 2906 2885 2949 2914 2913 2906 2883 2865 2906 2886 2872 2931 2939 2904 2913 2937 2907 2857 2955 2907 2848 2923 2928 2892 2865 2900 2861 2926 2915 2911 2888 2910 2951 2889 2927 2903 2931 2916 2888 2920 2874 2887 2916 2908 2876 2863 2833 2881 2890 2937 2883 2919 2916 2870 2908 2860 2872 2945 2930 2937 2920 2885 2875 2905 2897 2880 2898 2877 2889 2862 2941 2888 2909 2932 2953 2950 2921 2874 2924 2877 2886 2915 2893 2890 2898 2886 2875 2851 2918 2849 2912 2856 2913 2906 2859 2901 2921 2907 2914 2912 2920 2872 2900 2877 2928 2889 2913 2881 2913 2912 2903 2908 2884 2879 2886 2886 2878 2885 2894 2901 2841 2871 2867 2874 2860 2866 2913 2879 2876 2927 2886 2878 2867 2871 2867 2896 2873 2905 2868 2880 2890 2858 2898 2926 2898 2906

Tree=0
num_leaves=32
num_cat=0
split_feature=4 31 31 4 19 4 0 4 0 1 0 4 0 1 16 4 4 31 1 33 33 31 16 24 33 4 24 3 33 19 23
split_gain=1.16297e+10 3.88203e+09 1.78048e+09 1.08608e+09 7.58718e+08 6.79171e+08 8.78043e+08 6.19998e+08 5.53054e+08 3.01757e+08 3.00169e+08 2.85268e+08 2.51432e+08 2.32856e+08 2.27225e+08 2.0302e+08 1.33075e+08 1.28371e+08 1.10417e+08 1.05768e+08 1.04112e+08 9.73078e+07 9.47832e+07 9.24842e+07 8.47602e+07 8.45975e+07 6.97043e+07 6.30016e+07 6.12779e+07 5.99096e+07 5.97692e+07
threshold=1.4921255111694338 -0.91597560048103321 -0.91597560048103321 1.8326972126960757 1.1924841403961184 1.1561066508293154 4.5000000000000009 1.8849306702613833 2.5000000000000004 28.500000000000004 35.500000000000007 2.0380986928939824 22.250000000000004 21.500000000000004 0.85653752088546764 0.82807883620262157 1.0036764740943911 -0.98296290636062611 62.500000000000007 1143.5000000000002 1255.5000000000002 -0.7865660786628722 1.2311741113662722 9.6136474609375018 1167.5000000000002 0.96039214730262767 28.934216499328617 1.1623311042785647 1049.5000000000002 1.3236694335937502 21.889748573303226
decision_type=2 2 2 2 2 2 2 2 2 2 2 2 2 2 2 2 2 2 2 2 2 2 2 2 2 2 2 2 2 2 2
left_child=1 4 3 18 8 6 -3 21 -1 26 15 -5 14 -7 -8 -10 -12 -11 28 -20 29 27 30 -9 -18 -14 -6 -4 -2 -15 -13
right_child=2 5 7 11 9 13 12 23 10 17 16 22 25 20 -16 -17 24 -19 19 -21 -22 -23 -24 -25 -26 -27 -28 -29 -30 -31 -32
leaf_value=2846.3592732585294 2834.6384719371499 2815.3677179129809 2833.4901630850341 2867.5998143554784 2833.8952168814203 2813.0897784232584 2787.6433251083477 2835.2025246599846 2804.0923237486218 2825.7138970711758 2796.859323641077 2909.4254892382919 2781.8188694884443 2799.2706181687477 2800.2420995236416 2821.1681475853406 2809.6533250286716 2817.1400659000074 2846.2275398706142 2832.8756998227018 2786.0276587926587 2816.2111637633343 2857.8865800770159 2853.9047666297765 2792.9766480456101 2789.1720937447717 2851.8697691225279 2814.1503093931992 2853.9862929581341 2806.4646233538333 2882.6196918500882
leaf_weight=979 456 3518 1662 2718 1823 4733 7290 1044 2612 7836 5194 762 9813 9043 7030 5218 5896 9858 4523 2207 1172 5535 137 1802 875 6504 766 564 3991 4256 286
leaf_count=979 456 3518 1662 2718 1823 4733 7290 1044 2612 7836 5194 762 9813 9043 7030 5218 5896 9858 4523 2207 1172 5535 137 1802 875 6504 766 564 3991 4256 286
internal_value=2812.95 2804.83 2842.78 2853.82 2816.39 2795.94 2791.71 2827.08 2809.67 2823.27 2807.86 2876.53 2788.99 2803.46 2793.83 2815.47 2802.88 2820.94 2845.89 2841.85 2800.31 2819.76 2897 2847.04 2807.5 2784.75 2839.21 2828.59 2852 2801.57 2902.11
internal_weight=120103 94416 25687 15080 41057 53359 34155 10607 20774 20283 19795 3903 30637 19204 14320 7830 11965 17694 11177 6730 14471 7761 1185 2846 6771 16317 2589 2226 4447 13299 1048
internal_count=120103 94416 25687 15080 41057 53359 34155 10607 20774 20283 19795 3903 30637 19204 14320 7830 11965 17694 11177 6730 14471 7761 1185 2846 6771 16317 2589 2226 4447 13299 1048
is_linear=0
shrinkage=1


Tree=1
num_leaves=32
num_cat=0
split_feature=4 31 31 4 19 4 0 4 0 1 0 4 0 1 16 4 4 31 4 33 31 3 24 33 33 19 6 33 24 1 1
split_gain=1.04958e+10 3.50354e+09 1.60689e+09 9.80189e+08 6.84743e+08 6.12952e+08 7.92434e+08 5.59548e+08 4.99131e+08 2.72336e+08 2.70902e+08 2.57454e+08 2.26918e+08 2.10152e+08 2.05538e+08 1.83226e+08 1.201e+08 1.15855e+08 1.06888e+08 9.59696e+07 8.78202e+07 8.55982e+07 8.4246e+07 7.90781e+07 7.6496e+07 7.53106e+07 7.07679e+07 6.62569e+07 6.33943e+07 6.33121e+07 5.75768e+07
threshold=1.4921255111694338 -0.91597560048103321 -0.91597560048103321 1.8326972126960757 1.1924841403961184 1.1561066508293154 4.5000000000000009 1.8849306702613833 2.5000000000000004 28.500000000000004 35.500000000000007 2.0380986928939824 22.250000000000004 21.500000000000004 0.86636903882026683 0.82807883620262157 1.0036764740943911 -0.98296290636062611 1.6007812619209292 1231.5000000000002 -0.7865660786628722 1.2311741113662722 12.814054965972902 1233.5000000000002 1167.5000000000002 0.92365968227386486 0.97014260249554385 1143.5000000000002 26.973340988159183 65.500000000000014 9.5000000000000018
decision_type=2 2 2 2 2 2 2 2 2 2 2 2 2 2 2 2 2 2 2 2 2 2 2 2 2 2 2 2 2 2 2
left_child=1 4 3 18 8 6 -3 20 -1 28 15 -5 14 -7 -8 -10 -12 -11 26 -15 -4 -13 -9 25 -18 -14 -2 -28 -6 -20 -22
right_child=2 5 7 11 9 13 12 22 10 17 16 21 23 19 -16 -17 24 -19 29 -21 30 -23 -24 -25 -26 -27 27 -29 -30 -31 -32
leaf_value=31.748890088722341 38.517332848148236 2.3069129718619021 14.868117208027776 51.927403785499955 19.466225012561097 0.14287042371470607 -23.737932534678013 22.884376277606936 -8.4047117936825693 12.135783682271246 -15.276062394434881 84.713838838074963 -28.878376305347839 -10.342398150212214 -11.727647454366805 7.8173211398867526 -3.1217603546126242 3.9906433738945708 41.231053181392674 -22.031302827287714 13.779626048966676 42.687591364087851 40.177015264398904 -36.061308468679783 -18.964603834231305 -21.607839569131244 26.98452401700645 12.643673820676659 36.102402307108825 31.273427427337982 0.67123238723171175
leaf_weight=979 845 3518 2226 2718 1734 4733 7664 1280 2612 7836 5194 1048 7608 12426 6656 5218 5896 9858 2719 2045 1029 137 1566 2012 875 6697 2575 1172 855 3866 4506
leaf_count=979 845 3518 2226 2718 1734 4733 7664 1280 2612 7836 5194 1048 7608 12426 6656 5218 5896 9858 2719 2045 1029 137 1566 2012 875 6697 2575 1172 855 3866 4506
internal_value=0.00864262 -7.70102 28.3465 38.8347 3.27919 -16.1497 -20.1681 13.4354 -3.10118 9.81402 -4.82476 60.4066 -22.7488 -9.00294 -18.1555 2.40583 -9.55652 7.59782 31.3019 -11.9942 6.48115 79.8551 32.3996 -26.78 -5.16909 -25.4746 25.4466 22.4989 24.9602 35.385 3.10819
internal_weight=120103 94416 25687 15080 41057 53359 34155 10607 20774 20283 19795 3903 30637 19204 14320 7830 11965 17694 11177 14471 7761 1185 2846 16317 6771 14305 4592 3747 2589 6585 5535
internal_count=120103 94416 25687 15080 41057 53359 34155 10607 20774 20283 19795 3903 30637 19204 14320 7830 11965 17694 11177 14471 7761 1185 2846 16317 6771 14305 4592 3747 2589 6585 5535
is_linear=0
shrinkage=0.05


Tree=2
num_leaves=32
num_cat=0
split_feature=4 31 31 4 19 0 4 4 0 0 1 4 0 19 16 1 4 4 33 31 16 16 0 6 33 24 31 33 19 33 33
split_gain=9.48506e+09 3.04851e+09 1.48295e+09 9.61523e+08 5.70001e+08 5.68112e+08 7.12966e+08 5.37185e+08 4.50593e+08 2.44849e+08 2.4283e+08 2.33679e+08 1.782e+08 1.6598e+08 1.42198e+08 1.41217e+08 1.32817e+08 1.08352e+08 9.93406e+07 9.68396e+07 8.85201e+07 8.36185e+07 1.77223e+08 8.1385e+07 7.68777e+07 7.65565e+07 7.21316e+07 6.87262e+07 6.50189e+07 5.89807e+07 5.79689e+07
threshold=1.4708013534545901 -0.91597560048103321 -0.91597560048103321 1.8326972126960757 1.1924841403961184 5.5000000000000009 1.0858679413795473 1.8849306702613833 2.5000000000000004 35.500000000000007 28.500000000000004 2.0728172063827519 21.500000000000004 0.81057780981063854 0.80972057580947887 21.500000000000004 1.6007812619209292 0.99599999189376842 1255.5000000000002 -0.98296290636062611 1.2311741113662722 0.99209472537040722 1.0000000180025095e-35 0.96799795186891979 671.50000000000011 9.6136474609375018 -0.7865660786628722 1167.5000000000002 1.3236694335937502 1147.5000000000002 1262.5000000000002
decision_type=2 2 2 2 2 2 2 2 2 2 2 2 2 2 2 2 2 2 2 2 2 2 2 2 2 2 2 2 2 2 2
left_child=1 4 3 16 8 21 12 26 -1 13 -6 -5 14 -10 -7 24 23 -11 28 -12 -13 22 -3 -2 -8 -9 -4 -19 -17 -25 -26
right_child=2 5 7 11 10 6 15 25 9 17 19 20 -14 -15 -16 18 -18 27 -20 -21 -22 -23 -24 29 30 -27 -28 -29 -30 -31 -32
leaf_value=30.16144604483226 37.174389164364122 10.37373350543796 12.975518326919426 50.186428621896034 23.415382129218489 -23.798857185821475 -16.65065779299352 20.005759797231704 -8.4573792451623735 -14.871117589036286 11.05155288366876 84.027171749500738 -26.305002660810985 7.2185559653376963 -12.729470682393501 -13.469260538981302 33.615761768059492 -3.2788028288828195 -26.190822609406609 3.4265139007192627 40.507947540989633 8.9720400587937643 -14.18924185874079 23.881746284082489 1.5289612316461945 37.021495176009118 2.6493909536772584 -17.887497473574975 -5.914354354868574 11.148728818635799 -16.876495765797067
leaf_weight=979 862 1219 2368 2899 2529 5561 888 1044 2464 4829 7471 869 14721 5366 6066 11234 6585 6210 1256 9407 135 1879 1847 3360 3868 1802 5917 925 3815 1247 481
leaf_count=979 862 1219 2368 2899 2529 5561 888 1044 2464 4829 7471 869 14721 5366 6066 11234 6585 6210 1256 9407 135 1879 1847 3360 3868 1802 5917 925 3815 1247 481
internal_value=0.00821036 -7.57451 26.0458 35.8168 2.8054 -15.4682 -17.1343 12.0386 -2.95076 -4.58847 8.96671 57.3863 -22.6506 2.28554 -18.0238 -10.3872 28.8327 -9.08726 -12.6815 6.80172 78.1755 0.666636 -4.42334 23.0736 -3.2441 30.7796 5.60078 -5.17271 -11.5541 20.4352 -0.506685
internal_weight=120103 93015 27088 15957 40180 52835 47890 11131 20773 19794 19407 3903 26348 7830 11627 21542 12054 11964 16305 16878 1004 4945 3066 5469 5237 2846 8285 7135 15049 4607 4349
internal_count=120103 93015 27088 15957 40180 52835 47890 11131 20773 19794 19407 3903 26348 7830 11627 21542 12054 11964 16305 16878 1004 4945 3066 5469 5237 2846 8285 7135 15049 4607 4349
is_linear=0
shrinkage=0.05


Tree=3
num_leaves=32
num_cat=0
split_feature=4 31 31 4 19 0 4 4 0 1 0 4 0 4 16 1 19 4 10 31 33 16 0 24 16 1 24 33 33 33 33
split_gain=8.56075e+09 2.76367e+09 1.34393e+09 8.44356e+08 5.20888e+08 5.08745e+08 6.62325e+08 4.81167e+08 4.06541e+08 2.21897e+08 2.2064e+08 2.12048e+08 1.66335e+08 1.5004e+08 1.49869e+08 1.29824e+08 1.07137e+08 9.84316e+07 9.24497e+07 8.82111e+07 7.95856e+07 7.54657e+07 1.59944e+08 7.09563e+07 7.01616e+07 7.01518e+07 6.97445e+07 6.4673e+07 6.24973e+07 6.11642e+07 6.08951e+07
threshold=1.4763764739036562 -0.91597560048103321 -0.91597560048103321 1.8326972126960757 1.1924841403961184 5.5000000000000009 1.1306379437446596 1.8849306702613833 2.5000000000000004 28.500000000000004 35.500000000000007 2.0380986928939824 22.250000000000004 0.82807883620262157 0.86636903882026683 26.500000000000004 1.692610561847687 1.0036764740943911 31.500000000000004 -0.98296290636062611 1251.5000000000002 0.99209472537040722 1.0000000180025095e-35 28.668023109436039 1.2311741113662722 23.500000000000004 12.814054965972902 1143.5000000000002 1167.5000000000002 1233.5000000000002 671.50000000000011
decision_type=2 2 2 2 2 2 2 2 2 2 2 2 2 2 2 2 2 2 2 2 2 2 2 2 2 2 2 2 2 2 2
left_child=1 4 3 16 8 21 12 23 -1 -6 13 -5 14 -10 -7 30 18 -12 -2 -11 -17 22 -3 25 -13 -4 -9 -20 -19 -14 -8
right_child=2 5 7 11 9 6 15 26 10 19 17 24 29 -15 -16 20 -18 28 27 -21 -22 -23 -24 -25 -26 -27 -28 -29 -30 -31 -32
leaf_value=28.653373485057784 36.746210041938291 9.8550476038426638 8.7340152439831709 46.821713480000291 22.29860616660909 -21.791697812900736 -15.370822775951474 20.583005870459019 -7.6114195989704427 10.532375055834656 -13.802403579976497 76.566196870471117 -23.337986638575369 7.0682309656889792 -11.05415840411672 -10.598033175198754 35.049825911959978 -2.8019629482336579 25.569752520597106 3.2997760965576419 -24.252946332989339 8.523437783741425 -13.479779343505484 14.552994961305425 38.517652099498001 -1.7409973331960904 36.31709051797521 15.213480238524481 -17.121998814119614 -32.831548305947443 -0.85785275840444042
leaf_weight=979 1321 1219 2908 2718 2556 7095 842 1280 2612 7567 5194 1048 13670 5218 5996 12239 3489 5896 4813 9519 1169 1879 1847 1665 137 3549 1566 2195 875 1937 5105
leaf_count=979 1321 1219 2908 2718 2556 7095 842 1280 2612 7567 5194 1048 13670 5218 5996 12239 3489 5896 4813 9519 1169 1879 1847 1665 137 3549 1566 2195 875 1937 5105
internal_value=0.00779984 -7.12745 24.9818 34.3535 2.72083 -14.6377 -16.2092 11.549 -2.79865 8.55841 -4.35417 54.517 -21.03 2.17126 -16.8736 -9.06136 27.6943 -8.62447 24.6131 6.50293 -11.7886 0.633304 -4.20217 5.34972 72.1673 2.97657 29.2406 22.326 -4.65251 -24.5162 -2.91266
internal_weight=120103 93414 26689 15721 40416 52998 48053 10968 20774 19642 19795 3903 28698 7830 13091 19355 11818 11965 8329 17086 13408 4945 3066 8122 1185 6457 2846 7008 6771 15607 5947
internal_count=120103 93414 26689 15721 40416 52998 48053 10968 20774 19642 19795 3903 28698 7830 13091 19355 11818 11965 8329 17086 13408 4945 3066 8122 1185 6457 2846 7008 6771 15607 5947
is_linear=0
shrinkage=0.05


Tree=4
num_leaves=32
num_cat=0
split_feature=4 31 31 4 4 0 4 0 4 4 24 1 4 4 4 26 4 20 6 0 24 1 3 16 0 32 24 3 0 4 1
split_gain=7.74848e+09 2.29027e+09 1.38414e+09 8.89337e+08 5.0723e+08 4.89736e+08 5.12781e+08 4.6468e+08 3.47963e+08 1.93201e+08 1.77647e+08 1.63215e+08 1.59007e+08 1.52641e+08 1.35542e+08 1.08625e+08 8.68511e+07 8.38213e+07 8.37574e+07 7.63166e+07 7.29741e+07 8.53321e+07 7.28216e+07 6.81078e+07 1.44349e+08 6.36982e+07 6.33715e+07 5.93903e+07 5.62567e+07 6.77305e+07 5.5692e+07
threshold=1.4262930154800417 -0.91597560048103321 -0.91597560048103321 1.8326972126960757 1.8849306702613833 5.5000000000000009 0.92907443642616283 36.500000000000007 1.1178786158561709 2.0728172063827519 21.98547458648682 21.500000000000004 1.6007812619209292 1.1115900874137881 1.1561066508293154 0.53733110427856456 1.3201941847801211 1.2060339450836184 0.96922348484848497 24.500000000000004 26.508804321289066 23.500000000000004 1.2311741113662722 0.99209472537040722 1.0000000180025095e-35 0.60355338454246532 9.6136474609375018 0.93201079964637767 2.5000000000000004 0.81057780981063854 65.500000000000014
decision_type=2 2 2 2 2 2 2 2 2 2 2 2 2 2 2 2 2 2 2 2 2 2 2 2 2 2 2 2 2 2 2
left_child=1 7 3 12 20 23 19 10 -9 -5 13 -8 18 28 -13 17 -10 -12 -2 27 21 -4 -11 24 -3 -16 -6 -7 -1 -30 -14
right_child=2 5 4 9 26 6 11 8 16 22 15 14 30 -15 25 -17 -18 -19 -20 -21 -22 -23 -24 -25 -26 -27 -28 -29 29 -31 -32
leaf_value=16.322532348914915 31.679556552000193 9.3622940776674461 7.3374075846245761 45.244477327550925 17.976321833549331 -21.379745819086541 -5.6966961317678049 -10.740868259384031 -0.85868124112215449 76.001709120011569 9.6152353006571474 -19.489816203456261 35.918614008768422 10.543985414565837 -10.008244999615121 35.282515248642497 7.3011442474424673 26.060920204435924 17.360265552409455 -26.180687182343327 11.913569456927034 -3.1782334912555221 36.529601608735547 8.0972658818043453 -12.80579056177784 -23.342075440788911 33.457596782948016 -11.076578552921967 -10.753883004675449 1.6941737385061146 26.579429926707945
leaf_weight=406 1225 1219 3524 2899 1044 8207 7975 8503 9169 869 3394 7475 2719 5481 11839 649 5061 1004 6139 8048 2189 4263 135 1879 1847 969 1802 1686 1775 2843 3866
leaf_count=406 1225 1219 3524 2899 1044 8207 7975 8503 9169 869 3394 7475 2719 5481 11839 649 5061 1004 6139 8048 2189 4263 135 1879 1847 969 1802 1686 1775 2843 3866
internal_value=0.0074099 -7.43044 21.6922 30.6936 9.15964 -14.3534 -15.9541 1.81776 -2.73839 51.7911 8.47766 -11.7568 24.7904 4.77362 -14.1395 16.1874 2.04342 13.3695 19.7423 -22.5651 3.84794 1.58061 70.6942 0.601639 -3.99206 -11.017 27.7786 -19.6238 -1.52163 -3.09043 30.4357
internal_weight=120103 89429 30674 17852 12822 51144 46199 38285 22733 3903 15552 28258 13949 10505 20283 5047 14230 4398 7364 17941 9976 7787 1004 4945 3066 12808 2846 9893 5024 4618 6585
internal_count=120103 89429 30674 17852 12822 51144 46199 38285 22733 3903 15552 28258 13949 10505 20283 5047 14230 4398 7364 17941 9976 7787 1004 4945 3066 12808 2846 9893 5024 4618 6585
is_linear=0
shrinkage=0.05


Tree=5
num_leaves=32
num_cat=0
split_feature=4 31 4 31 31 0 0 4 19 4 1 4 0 4 4 31 1 33 33 0 3 33 19 33 33 1 33 5 33 0 31
split_gain=6.95776e+09 1.89928e+09 1.30907e+09 7.93079e+08 5.17551e+08 4.73651e+08 4.43017e+08 4.16455e+08 2.54143e+08 2.45742e+08 1.85357e+08 1.6717e+08 1.40279e+08 2.57254e+08 1.11092e+08 8.97955e+07 8.53053e+07 7.79615e+07 7.7122e+07 7.38314e+07 7.27869e+07 7.23135e+07 6.60086e+07 6.49785e+07 6.12151e+07 6.04294e+07 6.43704e+07 6.18895e+07 5.94894e+07 5.58356e+07 6.71742e+07
threshold=1.3849306702613833 -0.91597560048103321 1.7510683536529543 -0.91597560048103321 -0.7865660786628722 4.5000000000000009 36.500000000000007 0.92365968227386486 2.0380986928939824 1.1115900874137881 21.500000000000004 1.5264912247657778 2.5000000000000004 0.92907443642616283 1.1924841403961184 -0.98296290636062611 37.500000000000007 1153.5000000000002 1069.5000000000002 23.500000000000004 0.93201079964637767 1221.5000000000002 1.9378858208656313 1205.5000000000002 1262.5000000000002 20.500000000000004 671.50000000000011 0.99307950191570893 1136.5000000000002 89.500000000000014 -0.98296290636062611
decision_type=2 2 2 2 2 2 2 2 2 2 2 2 2 2 2 2 2 2 2 2 2 2 2 2 2 2 2 2 2 2 2
left_child=1 6 3 11 8 -3 12 19 23 -8 24 16 -1 -14 -12 -10 -2 -11 -15 20 -7 -16 -6 29 -9 26 -5 -27 -18 30 -4
right_child=2 5 4 25 22 7 9 10 15 17 14 -13 13 18 21 -17 28 -19 -20 -21 -22 -23 -24 -25 -26 27 -28 -29 -30 -31 -32
leaf_value=25.904223014822254 26.602888384197332 2.6429831897414431 51.948693621759837 -4.8296662365025265 7.6572960669970884 -20.354882270017917 -10.322226041795863 -3.7129955372960097 77.392534217135676 2.7043560507301558 -18.29670581268358 25.270312653092471 -4.6095389760481824 3.0888565011433524 -8.7553786655578758 51.382795239702318 15.559844513927269 -7.2812591060313139 13.003828638968285 -24.767250501018314 -9.1386605066699165 -19.68508005233063 22.817583636454195 20.954977112164993 -18.52257793944889 -1.6133232432460329 11.895358469060209 20.697004124650196 4.5323939217238465 31.457233139872553 36.545753349408322
leaf_weight=979 1185 3940 1150 762 1219 8205 8273 7257 464 10130 8855 7725 3896 2634 8590 1165 3586 2422 7679 8278 1756 1837 1747 613 772 6687 2348 326 1856 1872 1841
leaf_count=979 1185 3940 1150 762 1219 8205 8273 7257 464 10130 8855 7725 3896 2634 8590 1165 3586 2422 7679 8278 1756 1837 1747 613 772 6687 2348 326 1856 1872 1841
internal_value=0.0194564 -7.63182 18.9567 12.7132 34.1299 -13.9887 1.10399 -15.4273 41.4534 -3.63197 -11.5203 20.2722 7.5977 6.33638 -14.1784 58.7913 14.4461 0.777559 10.4715 -21.2776 -18.3776 -10.6809 16.5868 36.2957 -5.13696 1.99635 7.79746 -0.576225 11.7989 38.2294 42.468
internal_weight=120049 85503 34546 24475 10071 49490 36013 45550 7105 20825 27311 14352 15188 14209 19282 1629 6627 12552 10313 18239 9961 10427 2966 5476 8029 10123 3110 7013 5442 4863 2991
internal_count=120049 85503 34546 24475 10071 49490 36013 45550 7105 20825 27311 14352 15188 14209 19282 1629 6627 12552 10313 18239 9961 10427 2966 5476 8029 10123 3110 7013 5442 4863 2991
is_linear=0
shrinkage=0.05


Tree=6
num_leaves=32
num_cat=0
split_feature=4 31 31 4 0 4 4 0 4 4 4 33 7 19 0 4 6 33 31 7 16 33 0 4 33 26 1 22 33 0 33
split_gain=6.28343e+09 1.78136e+09 1.10584e+09 7.52318e+08 4.22949e+08 4.12012e+08 3.93624e+08 3.85411e+08 2.53619e+08 1.67034e+08 1.47723e+08 1.43611e+08 1.54332e+08 1.34808e+08 2.04285e+08 8.0112e+07 7.91026e+07 7.74131e+07 7.46759e+07 7.2949e+07 7.30018e+07 6.76867e+07 6.63188e+07 6.3942e+07 5.80548e+07 5.75882e+07 5.62239e+07 5.54948e+07 5.38424e+07 5.2372e+07 5.13295e+07
threshold=1.4060235619544985 -0.91597560048103321 -0.91597560048103321 1.8326972126960757 6.5000000000000009 1.8010416626930239 0.92365968227386486 36.500000000000007 1.1178786158561709 1.5419176220893862 2.0728172063827519 1233.5000000000002 36.500000000000007 1.1115900874137881 2.5000000000000004 0.81057780981063854 0.96922348484848497 1147.5000000000002 -0.7865660786628722 3.5000000000000004 0.98467409610748302 1063.5000000000002 8.5000000000000018 1.2509842514991762 1173.5000000000002 0.35951869189739233 9.5000000000000018 26.989400863647464 1081.5000000000002 24.500000000000004 1266.5000000000002
decision_type=2 2 2 2 2 2 2 2 2 2 2 2 2 2 2 2 2 2 2 2 2 2 2 2 2 2 2 2 2 2 2
left_child=1 7 3 9 19 26 29 13 -9 16 -5 12 25 14 -1 -16 -2 -10 -7 -3 -21 -15 -12 -14 -18 -8 -4 28 -24 -6 -28
right_child=2 4 5 10 6 18 11 8 17 -11 22 -13 23 21 15 -17 24 -19 -20 20 -22 -23 27 -25 -26 -27 30 -29 -30 -31 -32
leaf_value=24.423202916195912 28.655500392555275 5.01743576904967 12.482663896561803 40.540855445831774 -18.134811149362758 32.959482216372486 -8.4458507314638176 -9.6725431183184263 3.4277050527531041 25.888289296853181 36.746433777978574 -20.398323001833202 -18.042102008715805 2.5309441436912801 -7.3018036500118573 3.8948137561578609 14.508349237250464 -5.6759125645296535 17.492875333792963 -13.553801367954188 2.1575150667621146 14.513226212051968 28.126862604164725 -8.6012558764424689 -2.8300976854926336 -1.4579279284800217 2.2323136629963227 33.775720741310899 77.983819837653414 -23.685569222185691 -13.012953011261875
leaf_weight=962 911 2971 1262 2837 9283 1134 11507 8485 10369 9059 197 3545 5738 1462 2508 4401 4487 3014 2503 1552 1412 6080 59 2609 541 3964 8010 98 659 7837 593
leaf_count=962 911 2971 1262 2837 9283 1134 11507 8485 10369 9059 197 3545 5738 1462 2508 4401 4487 3014 2503 1552 1412 6080 59 2609 541 3964 8010 98 659 7837 593
internal_value=0.0184835 -6.92902 18.8528 26.6771 -13.0568 7.93053 -14.7295 1.35799 -2.91004 21.6159 46.3933 -11.0092 -9.61172 7.41348 2.83614 -0.169612 15.099 1.37747 22.3153 -0.519341 -6.06919 12.1905 62.7837 -15.0912 12.6428 -6.6554 2.62719 69.0697 73.8869 -20.6758 1.18147
internal_weight=120049 87699 32350 18848 50418 13502 44483 37281 21868 14998 3850 27363 23818 15413 7871 6909 5939 13383 3637 5935 2964 7542 1013 8347 5028 15471 9865 816 718 17120 8603
internal_count=120049 87699 32350 18848 50418 13502 44483 37281 21868 14998 3850 27363 23818 15413 7871 6909 5939 13383 3637 5935 2964 7542 1013 8347 5028 15471 9865 816 718 17120 8603
is_linear=0
shrinkage=0.05


Tree=7
num_leaves=32
num_cat=0
split_feature=4 31 4 31 31 0 0 4 20 4 6 4 0 4 4 1 33 31 33 0 3 33 26 23 20 33 33 0 33 33 3
split_gain=5.68373e+09 1.49793e+09 1.12483e+09 6.75202e+08 4.23957e+08 3.92448e+08 3.62808e+08 3.25816e+08 2.09202e+08 1.89988e+08 1.54862e+08 1.44172e+08 1.1827e+08 2.02667e+08 9.06323e+07 8.57235e+07 8.25709e+07 7.64333e+07 6.21261e+07 6.00364e+07 6.42522e+07 5.895e+07 5.80134e+07 6.6054e+07 5.71977e+07 5.55247e+07 5.38771e+07 5.37725e+07 5.16073e+07 5.15019e+07 5.07723e+07
threshold=1.3730078935623171 -0.91597560048103321 1.7510683536529543 -0.91597560048103321 -0.7865660786628722 4.5000000000000009 37.500000000000007 0.92365968227386486 2.0380986928939824 1.0418859720230105 0.95553359683794481 1.5264912247657778 2.5000000000000004 0.92907443642616283 1.1561066508293154 37.500000000000007 1163.5000000000002 -0.98296290636062611 1069.5000000000002 23.500000000000004 0.93201079964637767 1231.5000000000002 0.47832790017127996 24.36310958862305 1.9378858208656313 1205.5000000000002 1145.5000000000002 34.250000000000007 1145.5000000000002 1262.5000000000002 1.2687616944313052
decision_type=2 2 2 2 2 2 2 2 2 2 2 2 2 2 2 2 2 2 2 2 2 2 2 2 2 2 2 2 2 2 2
left_child=1 6 3 11 8 -3 12 19 25 -8 29 15 -1 -14 -12 -2 -11 -10 -15 20 -7 -16 23 -5 -6 -4 -17 -13 -29 -9 -22
right_child=2 5 4 22 24 7 9 10 17 16 14 27 13 18 21 26 -18 -19 -20 -21 30 -23 -24 -25 -26 -27 -28 28 -30 -31 -32
leaf_value=23.398903569582192 24.382625221706078 2.3975226377185228 34.616160506756188 -1.1709585615852534 6.6897962429454525 -18.455264224895142 -11.061904928109179 -3.3176875919283351 70.400073576108397 1.1443262356968615 -17.207968793464733 31.549289387218796 -4.1830088773094998 2.5625449350778973 -8.673886287059533 13.317802622227099 -9.6580140146791145 46.403457365852702 11.417963036764711 -22.359394627177153 -2.8146087515732745 -18.974089755116058 10.088998268333611 16.274498864369274 20.802060593443731 18.647727325680204 2.6782077315538704 23.709875070079775 13.801832795985158 -17.04624245251928 -22.083467174935084
leaf_weight=979 1341 3940 4863 8413 1219 8205 6034 7089 464 11963 7625 1419 3959 2673 9674 4328 2076 1165 7646 8278 1291 1622 1675 580 1747 613 1641 4439 1867 756 465
leaf_count=979 1341 3940 4863 8413 1219 8205 6034 7089 464 11963 7625 1419 3959 2673 9674 4328 2076 1165 7646 8278 1291 1622 1675 580 1747 613 1641 4439 1867 756 465
internal_value=0.0175594 -7.07074 16.7159 11.1661 30.8799 -12.7342 0.775274 -14.0589 37.5081 -3.64211 -10.5471 17.9924 6.58704 5.4343 -12.996 12.9592 -0.453057 53.2386 9.12408 -19.2126 -16.5975 -10.1529 1.54546 -0.0458206 15.002 32.8286 10.3928 22.7553 20.7764 -4.64067 -7.91713
internal_weight=120049 84275 35774 25703 10071 48945 35330 45005 7105 20073 26766 15035 15257 14278 18921 7310 14039 1629 10319 18239 9961 11296 10668 8993 2966 5476 5969 7725 6306 7845 1756
internal_count=120049 84275 35774 25703 10071 48945 35330 45005 7105 20073 26766 15035 15257 14278 18921 7310 14039 1629 10319 18239 9961 11296 10668 8993 2966 5476 5969 7725 6306 7845 1756
is_linear=0
shrinkage=0.05


Tree=8
num_leaves=32
num_cat=0
split_feature=4 31 4 31 31 0 0 4 4 4 10 4 20 0 4 33 22 26 20 1 33 33 33 33 33 26 20 1 0 1 3
split_gain=5.13077e+09 1.39499e+09 9.69411e+08 5.81396e+08 3.82621e+08 3.50709e+08 3.2701e+08 2.96073e+08 1.89129e+08 1.87042e+08 1.47717e+08 1.20281e+08 1.05802e+08 1.67581e+08 8.60253e+07 7.26612e+07 1.01027e+08 6.85894e+07 6.76446e+07 6.29771e+07 6.07364e+07 5.82624e+07 5.50333e+07 5.43965e+07 5.22234e+07 5.1926e+07 5.1621e+07 5.01872e+07 4.94345e+07 4.9258e+07 4.84721e+07
threshold=1.3849306702613833 -0.91597560048103321 1.7510683536529543 -0.91597560048103321 -0.7865660786628722 3.5000000000000004 37.500000000000007 0.92907443642616283 2.0039062500000004 1.1115900874137881 21.500000000000004 1.5264912247657778 1.1115900874137881 2.5000000000000004 1.1924841403961184 1075.5000000000002 11.342153549194338 0.28636312484741216 0.81057780981063854 37.500000000000007 1153.5000000000002 1063.5000000000002 1221.5000000000002 1205.5000000000002 1177.5000000000002 0.29268239438533789 1.9378858208656313 121.50000000000001 69.250000000000014 95.500000000000014 1.3252907395362856
decision_type=2 2 2 2 2 2 2 2 2 2 2 2 2 2 2 2 2 2 2 2 2 2 2 2 2 2 2 2 2 2 2
left_child=1 6 3 11 8 -3 12 17 23 -8 -9 19 13 -1 -12 -10 -17 -7 -15 -2 -11 -14 -16 -4 29 -5 -6 -22 -13 30 -18
right_child=2 5 4 25 26 7 9 10 15 20 14 28 21 18 22 16 24 -19 -20 -21 27 -23 -24 -25 -26 -27 -28 -29 -30 -31 -32
leaf_value=22.032097011339889 22.881284223799966 4.6207630288033261 32.616391950871829 -1.4639022063784388 6.3553062495268984 -20.643249817321589 -9.0825275305364279 -4.1730657070535528 21.76818118776594 2.3701546367503399 -15.845907854857883 26.007491622130136 1.7244466557415823 -6.746500269756762 -7.422993800714309 76.065154186571419 61.704044594757718 -14.639066846989323 3.4615895673540815 10.161453072095338 -8.084655903148569 12.930364001610478 -16.957302256704196 16.481469978219799 31.761401814294146 5.7450688608115339 19.761957641042297 25.763835354939751 17.973256946865757 20.288662212063571 15.865435301311434
leaf_weight=962 1185 2982 4680 5638 1219 10201 8139 8314 210 10058 8649 3504 1440 2537 8595 368 682 8912 4504 5442 2294 5964 1837 588 415 4485 1747 115 4221 99 63
leaf_count=962 1185 2982 4680 5638 1219 10201 8139 8314 210 10058 8649 3504 1440 2537 8595 368 682 8912 4504 5442 2294 5964 1837 588 415 4485 1747 115 4221 99 63
internal_value=0.0166814 -6.55369 16.2787 10.9059 29.3359 -12.0017 0.933076 -13.0675 35.6327 -3.18679 -9.73526 17.3779 6.44317 2.45783 -12.1588 49.4472 53.0198 -17.8436 -0.21657 12.4359 0.662201 10.7509 -9.10192 30.8155 46.2837 1.73004 14.2519 -6.46881 21.6175 53.4245 57.8278
internal_weight=120049 85503 34546 24475 10071 49490 36013 46508 7105 20606 27395 14352 15407 8003 19081 1837 1627 19113 7041 6627 12467 7404 10432 5268 1259 10123 2966 2409 7725 844 745
internal_count=120049 85503 34546 24475 10071 49490 36013 46508 7105 20606 27395 14352 15407 8003 19081 1837 1627 19113 7041 6627 12467 7404 10432 5268 1259 10123 2966 2409 7725 844 745
is_linear=0
shrinkage=0.05


Tree=9
num_leaves=32
num_cat=0
split_feature=4 31 4 31 31 7 7 19 19 19 4 33 7 24 4 26 33 3 7 1 33 33 23 33 1 1 33 23 25 33 23
split_gain=4.63596e+09 1.21891e+09 9.1466e+08 5.50622e+08 3.45316e+08 3.22664e+08 2.82306e+08 2.65484e+08 1.72446e+08 1.54502e+08 1.16421e+08 1.05555e+08 1.32036e+08 9.64657e+07 9.73134e+07 7.3767e+07 7.15127e+07 7.08529e+07 1.35723e+08 7.05139e+07 7.01623e+07 5.72224e+07 5.53875e+07 5.29478e+07 5.0206e+07 5.00614e+07 6.6337e+07 5.30646e+07 4.96113e+07 4.87088e+07 4.86195e+07
threshold=1.3730078935623171 -0.91597560048103321 1.7510683536529543 -0.91597560048103321 -0.7865660786628722 7.5000000000000009 37.500000000000007 0.92365968227386486 2.0728172063827519 1.1115900874137881 1.5264912247657778 1233.5000000000002 36.500000000000007 21.453955650329593 1.1115900874137881 0.53733110427856456 1091.5000000000002 0.93952456116676342 1.0000000180025095e-35 37.500000000000007 1167.5000000000002 513.50000000000011 26.810134887695316 1154.5000000000002 121.50000000000001 20.500000000000004 671.50000000000011 23.01641941070557 0.06052877567708493 1136.5000000000002 12.794312953948976
decision_type=2 2 2 2 2 2 2 2 2 2 2 2 2 2 2 2 2 2 2 2 2 2 2 2 2 2 2 2 2 2 2
left_child=1 6 3 10 8 17 13 -7 -4 -8 19 12 -9 14 -1 28 -10 18 21 -2 22 -3 -18 -11 -25 26 -5 -27 -15 -21 -17
right_child=2 5 4 25 -6 7 9 11 16 23 -12 -13 -14 15 -16 30 20 -19 -20 29 -22 -23 -24 24 -26 27 -28 -29 -30 -31 -32
leaf_value=-1.946397066543867 22.09429597051663 46.004907698128768 29.98027154503475 -6.0424534374805781 13.539344318688359 -18.055404032537734 -8.5338027162767816 -5.8832324491778714 23.343281441899862 2.003373494576751 20.536647271979493 -18.242340710543729 -13.944010289745414 19.257319293736916 7.8200944252396711 104.38057785034181 70.279918917796735 5.095528775764766 -11.364295707669994 12.670362851528742 40.612135914460971 5.4021796833053957 24.93399314033358 -8.1066485714336771 28.13412914657593 -2.3138724504112904 10.555729863527743 11.643410907071257 6.4280784001181646 3.1564077405741049 25.125423949687502
leaf_weight=5005 1341 94 5698 794 2966 16538 8103 14555 220 9734 7725 3327 7804 964 5201 20 591 2624 2874 3921 520 1129 76 2155 100 6626 2489 759 3452 2048 596
leaf_count=5005 1341 94 5698 794 2966 16538 8103 14555 220 9734 7725 3327 7804 964 5201 20 591 2624 2874 3921 520 1129 76 2155 100 6626 2489 759 3452 2048 596
internal_value=0.0158473 -6.38584 15.0967 10.0922 27.8691 -11.4947 0.691813 -13.1144 33.8511 -3.20053 16.2567 -9.93311 -8.6967 5.82404 3.03063 11.4897 49.5268 -1.31927 -5.42774 11.7337 54.3797 8.52291 65.1131 0.404072 -6.49952 1.40431 6.54143 -0.8794 9.22866 9.40607 27.6986
internal_weight=120049 84275 35774 25703 10071 48945 35330 42224 7105 20092 15035 25686 22359 15238 10206 5032 1407 6721 4097 7310 1187 1223 667 11989 2255 10668 3283 7385 4416 5969 616
internal_count=120049 84275 35774 25703 10071 48945 35330 42224 7105 20092 15035 25686 22359 15238 10206 5032 1407 6721 4097 7310 1187 1223 667 11989 2255 10668 3283 7385 4416 5969 616
is_linear=0
shrinkage=0.05


Tree=10
num_leaves=32
num_cat=0
split_feature=4 31 31 4 19 0 4 0 19 1 4 0 31 4 0 33 16 0 33 16 23 33 31 3 26 4 33 24 6 33 1
split_gain=4.2359e+09 1.37661e+09 6.54731e+08 4.58444e+08 3.0486e+08 2.55174e+08 3.41224e+08 2.1116e+08 1.47311e+08 1.32967e+08 1.18814e+08 1.05112e+08 9.33625e+07 8.83156e+07 8.2205e+07 7.45259e+07 7.41728e+07 1.23704e+08 6.84202e+07 6.77818e+07 6.69638e+07 8.16128e+07 6.51694e+07 6.19137e+07 5.5857e+07 5.26114e+07 5.21344e+07 5.13485e+07 5.10629e+07 6.23167e+07 4.8488e+07
threshold=1.4980915784835818 -0.91597560048103321 -0.7865660786628722 1.8326972126960757 1.1924841403961184 7.5000000000000009 1.1055161952972414 2.5000000000000004 1.9220486283302309 31.250000000000004 2.0039062500000004 40.500000000000007 -0.98296290636062611 0.81057780981063854 16.250000000000004 1233.5000000000002 0.98467409610748302 1.0000000180025095e-35 1213.5000000000002 0.61128804087638866 21.313662528991703 1075.5000000000002 -0.98296290636062611 1.1517069339752199 0.35049758851528173 1.0036764740943911 613.50000000000011 26.973340988159183 0.98870020429009198 1165.5000000000002 9.5000000000000018
decision_type=2 2 2 2 2 2 2 2 2 2 2 2 2 2 2 2 2 2 2 2 2 2 2 2 2 2 2 2 2 2 2
left_child=1 4 3 12 7 16 14 -1 30 27 -5 13 -2 -9 19 24 17 26 -16 -7 21 -12 -11 -14 -8 -13 -3 -6 29 -23 -4
right_child=2 5 8 10 9 6 15 11 -10 22 20 25 23 -15 18 -17 -18 -19 -20 -21 -22 28 -24 -25 -26 -27 -28 -29 -30 -31 -32
leaf_value=20.75592162672179 23.674488138378184 32.275247683653959 11.538210144726925 30.211618024596266 11.733113006391006 -19.906057452342729 -6.9294667307402769 -6.8523028609968808 18.170389709778853 8.0780112512598006 20.466276294100069 -10.728667812306924 16.619128727251546 4.0122359562359717 -15.686348434490137 -14.504097208295011 4.9860076043152084 -11.130327255997349 -23.505259456937814 -8.263329823178541 32.62114065815129 71.139803586366142 1.9631965051880482 3.1865367394762161 0.1729784775816777 -3.7340345080081514 3.4577630953569916 26.239951841049727 21.792883395077141 45.095123054929402 -0.41836970347930102
leaf_weight=945 5031 185 1034 3051 1893 1606 14313 2708 1787 7812 167 4652 7139 6048 15321 2678 2806 2920 3423 5641 601 611 9853 975 3432 6369 1035 900 89 368 4712
leaf_count=945 5031 185 1034 3051 1893 1606 14313 2708 1787 7812 167 4652 7139 6048 15321 2678 2806 2920 3423 5641 601 611 9853 975 3432 6369 1035 900 89 368 4712
internal_value=-0.0446846 -4.92758 18.0124 23.1842 1.94046 -10.2279 -11.5655 -2.33411 5.6325 6.27019 36.2594 -3.43742 18.3231 0.65212 -15.3658 -6.72917 -1.28997 -5.54368 -17.1142 -10.8435 46.3095 52.9707 4.66735 15.005 -5.55581 -6.68649 7.82763 16.4077 58.0534 61.3498 1.73323
internal_weight=120105 94540 25565 18032 41180 53360 46414 20722 7533 20458 4887 19777 13145 8756 25991 20423 6946 4140 18744 7247 1836 1235 17665 8114 17745 11021 1220 2793 1068 979 5746
internal_count=120105 94540 25565 18032 41180 53360 46414 20722 7533 20458 4887 19777 13145 8756 25991 20423 6946 4140 18744 7247 1836 1235 17665 8114 17745 11021 1220 2793 1068 979 5746
is_linear=0
shrinkage=0.05


Tree=11
num_leaves=32
num_cat=0
split_feature=4 31 31 4 19 0 4 19 0 1 7 4 0 3 1 22 4 33 33 33 31 33 33 24 1 4 33 33 6 2 33
split_gain=3.8229e+09 1.24239e+09 5.90988e+08 3.82866e+08 2.75136e+08 2.32653e+08 3.10339e+08 2.03448e+08 1.90572e+08 1.20003e+08 1.18349e+08 9.90703e+07 9.4864e+07 9.06209e+07 8.60292e+07 8.38038e+07 7.97048e+07 6.14612e+07 6.01005e+07 5.92642e+07 5.88154e+07 5.44523e+07 5.28714e+07 5.19457e+07 5.03661e+07 4.90264e+07 4.87968e+07 4.78478e+07 4.73979e+07 5.71322e+07 5.49668e+07
threshold=1.4980915784835818 -0.91597560048103321 -0.91597560048103321 1.9378858208656313 1.1924841403961184 3.5000000000000004 1.1055161952972414 1.8849306702613833 2.5000000000000004 31.250000000000004 16.250000000000004 1.692610561847687 40.500000000000007 0.73820647597312938 22.500000000000004 19.95898532867432 0.81057780981063854 1213.5000000000002 744.50000000000011 671.50000000000011 -0.98296290636062611 671.50000000000011 1203.5000000000002 26.508804321289066 23.500000000000004 0.88273492455482494 688.50000000000011 1177.5000000000002 0.98870020429009198 16.250000000000004 1069.5000000000002
decision_type=2 2 2 2 2 2 2 2 2 2 2 2 2 2 2 2 2 2 2 2 2 2 2 2 2 2 2 2 2 2 2
left_child=1 4 3 11 8 22 10 23 -1 -6 13 -2 16 -7 19 28 -10 -12 -16 -8 -11 -9 -3 24 26 -14 -4 -27 29 -5 -31
right_child=2 5 7 15 9 6 14 21 12 20 17 -13 25 -15 18 -17 -18 -19 -20 -21 -22 -23 -24 -25 -26 27 -28 -29 -30 30 -32
leaf_value=19.718125733245145 16.531311801551585 6.8765366402994177 -3.9949593312031517 26.305058526992646 15.587326276512744 -15.464248011268774 -11.44145168023328 5.8780765497860088 -6.509687909887254 7.6741108149102208 -14.908949026197687 25.501948091383735 -12.954881425237151 -5.7620758226777626 -3.3168320057905429 31.688956352703929 3.8116239724698646 -22.325062506701521 -9.9487803579400484 1.7298023070556419 1.8650365635180444 23.0968080555987 -11.041005927034718 11.259537846793165 -2.8279855725070386 -3.5276410140922509 10.451046101432816 -16.615340716187276 25.746258807785907 19.736070343210727 63.324931506283178
leaf_weight=945 7554 2472 814 149 2793 3948 1047 577 2708 7812 15317 5194 2240 6165 4978 965 6048 3417 10888 4634 9853 2248 494 1839 3058 8016 2074 765 158 79 856
leaf_count=945 7554 2472 814 149 2793 3948 1047 577 2708 7812 15317 5194 2240 6165 4978 965 6048 3417 10888 4634 9853 2248 494 1839 3058 8016 2074 765 158 79 856
internal_value=-0.0424504 -4.6812 17.1118 23.515 1.84343 -9.71652 -10.5175 8.08625 -2.21741 5.95668 -13.9086 20.1863 -3.26555 -9.54969 -5.97748 42.7424 0.619514 -16.2616 -7.86799 -0.697641 4.43399 19.5799 3.89229 3.91546 1.64406 -6.35217 6.37935 -4.66784 51.3306 55.0597 59.642
internal_weight=120105 94540 25565 14955 41180 53360 50394 10610 20722 20458 28847 12748 19777 10113 21547 2207 8756 18734 15866 5681 17665 2825 2966 7785 5946 11021 2888 8781 1242 1084 935
internal_count=120105 94540 25565 14955 41180 53360 50394 10610 20722 20458 28847 12748 19777 10113 21547 2207 8756 18734 15866 5681 17665 2825 2966 7785 5946 11021 2888 8781 1242 1084 935
is_linear=0
shrinkage=0.05


Tree=12
num_leaves=32
num_cat=0
split_feature=4 4 31 31 31 0 0 4 19 33 7 1 4 0 4 4 26 26 23 24 24 4 33 0 6 3 23 33 1 31 33
split_gain=3.47648e+09 8.67048e+08 8.13449e+08 3.61645e+08 3.08135e+08 2.59322e+08 2.25123e+08 1.91625e+08 1.54427e+08 9.83149e+07 1.11177e+08 9.45447e+07 8.72879e+07 8.41769e+07 1.26679e+08 7.5671e+07 6.21405e+07 6.17225e+07 5.59714e+07 7.21065e+07 5.35455e+07 5.34781e+07 5.18022e+07 4.93366e+07 4.80822e+07 4.7869e+07 4.75954e+07 4.72027e+07 4.83561e+07 6.35521e+07 4.60524e+07
threshold=1.3238765597343447 1.692610561847687 -0.91597560048103321 -0.91597560048103321 -0.7865660786628722 37.500000000000007 4.5000000000000009 2.0039062500000004 0.92365968227386486 1233.5000000000002 36.500000000000007 27.500000000000004 1.0456280112266543 2.5000000000000004 0.92907443642616283 1.5264912247657778 0.38633175194263464 0.59372383356094371 21.313662528991703 16.519516944885257 22.184203147888187 1.9712095856666567 1163.5000000000002 24.500000000000004 0.98870020429009198 1.018019497394562 24.36310958862305 1235.5000000000002 87.500000000000014 -0.98296290636062611 1073.5000000000002
decision_type=2 2 2 2 2 2 2 2 2 2 2 2 2 2 2 2 2 2 2 2 2 2 2 2 2 2 2 2 2 2 2
left_child=2 3 5 11 7 13 17 27 23 10 -10 20 -7 -1 -15 -13 25 -4 19 -9 -2 -6 -14 -8 -21 26 -5 28 29 -3 -16
right_child=1 4 6 16 21 12 8 18 9 -11 -12 15 22 14 30 -17 -18 -19 -20 24 -22 -23 -24 -25 -26 -27 -28 -29 -30 -31 -32
leaf_value=19.197733724181052 12.974073258494379 35.685575988717297 -2.6471357503044342 0.56063469988505366 4.6867940814157976 -8.9033945281028561 -12.639747192536374 25.040282840892338 -5.1031589725064732 -16.875276172823778 -12.760123883006194 7.3538127266890561 -0.14885637374909433 -3.6884379888648535 1.4129792580377614 14.939772994562691 6.462883910350687 11.594013674218706 29.494982553123435 57.971546264463534 28.096064497766498 16.936797595865993 -9.6185546949122624 -17.89844857214328 19.407037222251464 -5.5688674044303283 23.401795758449193 4.3999669626104305 19.037516644910092 23.340508503691396 9.0782911363009511
leaf_weight=958 1101 1634 2683 4251 1952 6210 10447 266 14545 3292 7033 8819 9792 3947 2721 5241 3027 1062 601 880 1250 1639 1694 7783 89 4359 241 297 2410 2880 7001
leaf_count=958 1101 1634 2683 4251 1952 6210 10447 266 14545 3292 7033 8819 9792 3947 2721 5241 3027 1062 601 880 1250 1639 1694 7783 89 4359 241 297 2410 2880 7001
internal_value=-0.0403279 11.7894 -6.15738 6.92385 22.672 -0.0558895 -10.3674 27.5861 -11.3891 -8.82673 -7.59882 11.7334 -4.12757 4.8701 3.86594 10.1816 0.278797 1.39134 42.0095 48.0995 21.0143 10.2779 -1.54548 -14.8849 54.4295 -1.83613 1.78608 23.9189 24.7561 27.8092 6.93292
internal_weight=120105 40937 79168 28289 12648 32323 46845 9057 43100 24870 21578 16411 17696 14627 13669 14060 11878 3745 1836 1235 2351 3591 11486 18230 969 8851 4492 7221 6924 4514 9722
internal_count=120105 40937 79168 28289 12648 32323 46845 9057 43100 24870 21578 16411 17696 14627 13669 14060 11878 3745 1836 1235 2351 3591 11486 18230 969 8851 4492 7221 6924 4514 9722
is_linear=0
shrinkage=0.05


Tree=13
num_leaves=32
num_cat=0
split_feature=4 4 31 31 31 7 7 4 19 6 33 7 4 4 4 4 1 31 7 3 33 22 31 3 26 6 19 24 33 33 3
split_gain=3.13752e+09 7.82511e+08 7.34138e+08 3.26385e+08 2.78092e+08 2.24031e+08 2.02467e+08 1.72941e+08 1.42177e+08 8.53349e+07 8.2312e+07 8.8776e+07 7.55527e+07 1.16655e+08 7.20955e+07 6.9149e+07 5.81593e+07 7.12914e+07 5.66621e+07 8.72408e+07 5.25889e+07 7.86738e+07 5.05363e+07 5.03314e+07 5.02176e+07 4.98265e+07 4.85559e+07 4.81536e+07 4.64328e+07 4.63303e+07 4.45224e+07
threshold=1.3238765597343447 1.692610561847687 -0.91597560048103321 -0.91597560048103321 -0.7865660786628722 36.500000000000007 7.5000000000000009 2.0039062500000004 0.92365968227386486 0.96490147783251246 1233.5000000000002 36.500000000000007 1.0000000180025095e-35 0.82807883620262157 1.0456280112266543 1.5264912247657778 20.500000000000004 0.37940952181816107 1.5000000000000002 0.99209472537040722 1047.5000000000002 11.342153549194338 -0.98296290636062611 1.0193241238594057 0.59372383356094371 0.98882646691635467 2.0039062500000004 22.184203147888187 1163.5000000000002 1163.5000000000002 1.1517069339752199
decision_type=2 2 2 2 2 2 2 2 2 2 2 2 2 2 2 2 2 2 2 2 2 2 2 2 2 2 2 2 2 2 2
left_child=2 3 5 9 7 12 18 -3 -8 27 11 -10 -1 -14 30 -11 17 -5 24 -20 -9 -22 -15 25 -4 -18 -6 -2 -16 -23 -7
right_child=1 4 6 16 26 14 8 20 10 15 -12 -13 13 22 28 -17 23 -19 19 -21 21 29 -24 -25 -26 -27 -28 -29 -30 -31 -32
leaf_value=18.231117968591281 12.303984218911692 22.722918857264066 0.45850783683083673 9.2864633273929158 6.0316072885212222 -6.7729854234069 -14.721200017880472 11.118606432170084 -5.2041198062587277 6.9668134699418687 -16.21138412479625 -12.112912813384714 -5.7390473318475586 10.355244137250244 -0.12889295256180663 14.221410257195078 0.73012236566248512 -7.3069478761311517 -10.079883039298592 3.4219289456128763 62.224572325995865 44.019434497368351 3.289589180776133 -5.9866221798329953 19.731756327596923 29.108697989268332 18.820853479203716 26.623861967141405 -9.0635296294433996 24.672053221546779 -21.540213929648914
leaf_weight=948 1100 7221 1026 2833 2543 5764 16537 146 13714 8817 3158 7035 2666 4050 9884 5235 3937 839 2758 2113 386 799 6746 4108 504 161 1048 1259 1705 505 560
leaf_count=948 1100 7221 1026 2833 2543 5764 16537 146 13714 8817 3158 7035 2666 4050 9884 5235 3937 839 2758 2113 386 799 6746 4108 504 161 1048 1259 1705 505 560
internal_value=-0.0383115 11.2 -5.84952 6.57765 21.5384 -0.0530952 -9.84904 26.2068 -11.1568 11.1467 -8.69114 -7.54656 4.588 3.62725 -3.7866 9.66948 0.264857 5.4951 -1.5864 -4.22291 39.909 42.3962 5.94019 -2.07556 6.80734 1.84504 9.76403 19.9465 -1.44338 36.5268 -8.08065
internal_weight=120105 40937 79168 28289 12648 32323 46845 9057 40444 16411 23907 20749 14410 13462 17913 14052 11878 3672 6401 4871 1836 1690 10796 8206 1530 4098 3591 2359 11589 1304 6324
internal_count=120105 40937 79168 28289 12648 32323 46845 9057 40444 16411 23907 20749 14410 13462 17913 14052 11878 3672 6401 4871 1836 1690 10796 8206 1530 4098 3591 2359 11589 1304 6324
is_linear=0
shrinkage=0.05


Tree=14
num_leaves=32
num_cat=0
split_feature=4 31 4 31 31 0 0 4 4 26 6 4 24 4 4 26 33 33 25 19 33 26 24 24 3 22 0 22 3 16 23
split_gain=2.83417e+09 6.93675e+08 6.40951e+08 3.39219e+08 2.18076e+08 2.02651e+08 1.95169e+08 1.40854e+08 1.24395e+08 9.0085e+07 8.59046e+07 8.54038e+07 7.61089e+07 7.29052e+07 6.93125e+07 6.83483e+07 6.13224e+07 5.67962e+07 5.46176e+07 5.39388e+07 4.88639e+07 4.81887e+07 4.75949e+07 4.72701e+07 4.56609e+07 4.4311e+07 4.31281e+07 4.28748e+07 4.27297e+07 4.10918e+07 4.00888e+07
threshold=1.3526610732078554 -0.91597560048103321 1.7510683536529543 -0.91597560048103321 -0.91597560048103321 4.5000000000000009 36.500000000000007 0.92365968227386486 2.0380986928939824 0.31289640069007879 0.96490147783251246 1.0825214982032778 21.453955650329593 1.5627626180648806 1.1115900874137881 0.53733110427856456 1173.5000000000002 1233.5000000000002 0.016062808223068718 2.0039062500000004 1209.5000000000002 0.55152371525764476 22.184203147888187 9.7222537994384783 1.1676706671714785 16.0163106918335 24.500000000000004 30.800793647766117 1.1556999087333681 0.66533333063125621 13.086252212524416
decision_type=2 2 2 2 2 2 2 2 2 2 2 2 2 2 2 2 2 2 2 2 2 2 2 2 2 2 2 2 2 2 2
left_child=1 6 3 10 8 20 12 26 -4 17 22 28 14 16 -1 -14 -12 18 -9 24 -3 27 -2 -21 -6 -24 29 -5 -8 -7 -17
right_child=2 5 4 21 19 7 11 9 -10 -11 13 -13 15 -15 -16 30 -18 -19 -20 23 -22 -23 25 -25 -26 -27 -28 -29 -30 -31 -32
leaf_value=-2.1934944353235606 13.075353558925066 4.1373115718570377 24.711228143489578 -0.61084240276141921 13.320112890295867 -15.422970863289905 -6.1372556655149566 -2.2800229236161731 42.863733272279532 -2.9449852452545642 9.0707834290241554 -0.46235051674016958 7.4528447212490763 15.03892931364056 6.1718518819911861 91.662406089089131 -4.7298001745806806 -16.548013581658989 -9.8057382520265985 8.3275795394589434 -11.373689702000837 11.205178079036351 50.231164072023503 27.315140067619438 -1.1335586261429242 23.507331532707404 -16.251483585086103 26.86203798684809 -19.7204385569122 -8.9363222978937369 22.910211747731921
leaf_weight=4879 1100 3333 4576 10302 2050 3878 6785 2940 1189 7187 7621 11914 4201 5400 5028 22 900 2497 13396 483 599 1010 180 1020 745 1122 7795 144 633 6591 585
leaf_count=4879 1100 3333 4576 10302 2050 3878 6785 2940 1189 7187 7621 11914 4201 5400 5028 22 900 2497 13396 483 599 1010 180 1020 745 1122 7795 144 633 6591 585
internal_value=-0.0363959 -5.24579 11.2881 7.37154 22.0997 -9.10403 0.218101 -10.0699 28.4551 -7.70741 12.0003 -3.08467 4.55715 10.4936 2.05209 9.7189 7.61315 -9.52484 -8.45133 13.575 1.77437 0.776228 20.7326 21.2133 9.46752 27.2019 -13.4357 -0.232124 -7.29635 -11.3392 25.4021
internal_weight=120105 82263 37842 27779 10063 48216 34047 44284 5765 26020 16323 19332 14715 13921 9907 4808 8521 18833 16336 4298 3932 11456 2402 1503 2795 1302 18264 10446 7418 10469 607
internal_count=120105 82263 37842 27779 10063 48216 34047 44284 5765 26020 16323 19332 14715 13921 9907 4808 8521 18833 16336 4298 3932 11456 2402 1503 2795 1302 18264 10446 7418 10469 607
is_linear=0
shrinkage=0.05


Tree=15
num_leaves=32
num_cat=0
split_feature=19 31 19 31 31 0 26 33 19 3 6 6 24 31 26 25 7 19 16 7 16 23 1 6 33 23 33 19 33 24 1
split_gain=2.5628e+09 6.05247e+08 6.01295e+08 2.63303e+08 2.28675e+08 1.91312e+08 1.78087e+08 1.2189e+08 1.15277e+08 9.39285e+07 1.28294e+08 8.02288e+07 7.66948e+07 6.89274e+07 6.44278e+07 6.07817e+07 5.9541e+07 5.88255e+07 5.43266e+07 5.33037e+07 4.99934e+07 4.70929e+07 4.65614e+07 4.64568e+07 4.59031e+07 5.69836e+07 4.48426e+07 4.40977e+07 4.26381e+07 4.22015e+07 5.11874e+07
threshold=1.3274294734001162 -0.91597560048103321 1.692610561847687 -0.91597560048103321 -0.7865660786628722 36.500000000000007 0.59372383356094371 1233.5000000000002 2.0039062500000004 0.9631328582763673 0.97402159244264519 0.96490147783251246 21.98547458648682 -0.98296290636062611 0.53733110427856456 0.093245759606361403 1.5000000000000002 1.4262930154800417 0.83796653151512157 1.0000000180025095e-35 1.0193241238594057 24.159769058227543 25.500000000000004 0.88194444444444453 1067.5000000000002 15.626900196075441 930.50000000000011 0.88273492455482494 1264.5000000000002 26.508804321289066 9.5000000000000018
decision_type=2 2 2 2 2 2 2 2 2 2 2 2 2 2 2 2 2 2 2 2 2 2 2 2 2 2 2 2 2 2 2
left_child=1 5 3 11 8 12 7 9 -4 19 23 -2 15 -7 -14 -1 -8 -13 -18 -3 21 -5 28 -11 -10 -26 -21 -15 -22 30 -6
right_child=2 6 4 20 29 13 16 -9 24 10 -12 17 14 27 -16 -17 18 -19 -20 26 22 -23 -24 -25 25 -27 -28 -29 -30 -31 -32
leaf_value=6.0455778707527479 18.80461578752983 2.8114359367453359 20.6436831964158 2.5870385929954818 13.824353135542276 0.56959302195911465 18.830088043963983 -16.354199437561487 11.875472768551203 5.8032306127228477 -12.609229309237108 4.4031258057285196 7.3897295191948222 -12.853861284818898 25.196618482363164 -1.767218420576574 -8.6250613722818894 11.248191529187913 6.2805352002382282 -12.723934727711843 5.6487205202549395 22.521766169980552 -6.4216053022156814 -4.0099462813258802 48.188160760288909 29.338873219923542 -7.7788788667092099 -4.4215867861045481 -15.017546219668455 17.760923985110352 -0.29770680455633508
leaf_weight=4626 2361 703 7237 5873 1074 6793 494 5873 197 1372 4752 4857 3947 1853 583 5390 1078 8872 1412 14696 1871 312 3546 9972 702 935 6663 9497 288 929 1594
leaf_count=4626 2361 703 7237 5873 1074 6793 494 5873 197 1372 4752 4857 3947 1853 583 5390 1078 8872 1412 14696 1871 312 3546 9972 702 935 6663 9497 288 929 1594
internal_value=-0.00387476 -5.21439 10.2131 6.12119 19.2509 0.0109412 -8.8475 -9.6486 23.4812 -8.61653 -5.71224 10.2907 4.28286 -3.41403 9.68143 1.84121 2.97331 8.82657 -0.17257 -10.7354 0.478819 3.59264 -2.89699 -2.82309 34.678 37.4221 -11.1813 -5.79824 2.89194 8.5829 5.38711
internal_weight=120352 79704 40648 27980 12668 32689 47015 44031 9071 38158 16096 16090 14546 18143 4530 10016 2984 13729 2490 22062 11890 6185 5705 11344 1834 1637 21359 11350 2159 3597 2668
internal_count=120352 79704 40648 27980 12668 32689 47015 44031 9071 38158 16096 16090 14546 18143 4530 10016 2984 13729 2490 22062 11890 6185 5705 11344 1834 1637 21359 11350 2159 3597 2668
is_linear=0
shrinkage=0.05


Tree=16
num_leaves=32
num_cat=0
split_feature=4 4 31 31 31 7 26 33 4 4 1 7 24 19 7 26 4 25 7 4 24 1 33 3 33 33 7 31 3 6 3
split_gain=2.34148e+09 5.50199e+08 5.38414e+08 2.35955e+08 2.07395e+08 1.71823e+08 1.6177e+08 1.09348e+08 9.68666e+07 8.53894e+07 7.52355e+07 6.91583e+07 6.69447e+07 6.52175e+07 6.33292e+07 6.12992e+07 6.04613e+07 5.57591e+07 5.42748e+07 5.189e+07 4.851e+07 4.84772e+07 4.83139e+07 4.8244e+07 4.81212e+07 4.80917e+07 4.54888e+07 5.9524e+07 4.46845e+07 3.91288e+07 3.83851e+07
threshold=1.3238765597343447 1.692610561847687 -0.91597560048103321 -0.91597560048103321 -0.91597560048103321 36.500000000000007 0.59372383356094371 1233.5000000000002 2.0380986928939824 0.99599999189376842 31.250000000000004 16.250000000000004 21.98547458648682 2.0039062500000004 36.500000000000007 0.53733110427856456 0.99599999189376842 0.089444451034069075 1.5000000000000002 1.5419176220893862 28.934216499328617 19.500000000000004 1163.5000000000002 0.83796653151512157 1175.5000000000002 671.50000000000011 85.500000000000014 -0.98296290636062611 1.0193241238594057 0.98870020429009198 1.1623311042785647
decision_type=2 2 2 2 2 2 2 2 2 2 2 2 2 2 2 2 2 2 2 2 2 2 2 2 2 2 2 2 2 2 2
left_child=2 3 5 10 8 12 7 9 26 11 20 -4 17 30 -11 -14 -7 -1 -8 24 -2 25 -18 -20 -12 -5 27 -3 29 -23 -6
right_child=1 4 6 21 13 16 18 -9 -10 14 19 -13 15 -15 -16 -17 22 -19 23 -21 -22 28 -24 -25 -26 -27 -28 -29 -30 -31 -32
leaf_value=5.7988076591148081 12.603756629844938 32.597759657619292 -6.7712410564303829 -4.6614737236298875 10.301555375468887 -8.1668024400118053 17.989985473281717 -15.545632137667111 36.83529648309996 -3.8789013920428541 7.2249912703524046 -12.957529102604628 6.790596824830442 19.485614692085129 -10.081990747986048 24.198568464065421 -0.32792046535585251 -1.6914629504667724 -8.088022213833673 12.564396839884019 27.007808609845934 1.0708755645712331 -8.8868937960763272 5.9478206519236352 -5.3687038270870371 8.7688395101114711 16.238706105824793 19.532313021068138 -5.2030880205783134 25.093093963868199 -1.1200125257016647
leaf_weight=4536 1703 1481 7336 890 2715 4764 493 5880 1190 12972 8282 11760 3948 1524 6026 580 11181 5494 1085 4645 890 4009 1934 1405 835 2655 2611 2119 4223 177 1009
leaf_count=4536 1703 1481 7336 890 2715 4764 493 5880 1190 12972 8282 11760 3948 1524 6026 580 11181 5494 1085 4645 890 4009 1934 1405 835 2655 2611 2119 4223 177 1009
internal_value=-0.00368104 9.70619 -5.01284 5.83248 18.3757 -0.0587427 -8.43503 -9.19939 23.767 -8.21981 9.73508 -10.581 3.9741 10.7726 -5.84647 9.02042 -3.34249 1.69596 2.8328 8.26305 17.5477 0.493101 -1.59007 -0.168199 6.07157 5.39705 21.2632 24.9073 -1.57427 2.08663 7.20694
internal_weight=120352 40958 79394 28309 12649 32437 46957 43974 7401 38094 16355 19096 14558 5248 18998 4528 17879 10030 2983 13762 2593 11954 13115 2490 9117 3545 6211 3600 8409 4186 3724
internal_count=120352 40958 79394 28309 12649 32437 46957 43974 7401 38094 16355 19096 14558 5248 18998 4528 17879 10030 2983 13762 2593 11954 13115 2490 9117 3545 6211 3600 8409 4186 3724
is_linear=0
shrinkage=0.05


Tree=17
num_leaves=32
num_cat=0
split_feature=4 31 31 4 26 4 4 0 4 24 3 0 22 33 6 4 26 1 33 19 7 33 4 16 6 4 1 24 33 24 22
split_gain=2.11389e+09 5.75259e+08 3.89082e+08 2.54918e+08 1.67316e+08 1.43513e+08 1.43153e+08 1.41762e+08 1.03849e+08 8.07338e+07 6.90732e+07 1.10144e+08 5.81772e+07 5.81334e+07 5.67371e+07 5.41682e+07 4.83715e+07 4.57307e+07 4.51215e+07 4.46362e+07 4.26167e+07 6.00091e+07 4.22301e+07 4.63881e+07 4.11219e+07 4.10532e+07 4.04966e+07 4.22569e+07 3.98489e+07 3.91017e+07 4.20257e+07
threshold=1.4223180413246157 -0.91597560048103321 -0.91597560048103321 1.8326972126960757 0.40949356555938726 1.8849306702613833 1.1306379437446596 36.500000000000007 1.2472513914108279 21.98547458648682 0.85770529508590709 1.0000000180025095e-35 18.71496677398682 1211.5000000000002 0.96799795186891979 0.92907443642616283 0.48297268152236944 19.500000000000004 906.50000000000011 1.0685603022575381 89.500000000000014 1067.5000000000002 0.88273492455482494 0.75694981217384349 0.99312706660368455 1.5627626180648806 9.5000000000000018 19.538565635681156 1167.5000000000002 22.184203147888187 16.0163106918335
decision_type=2 2 2 2 2 2 2 2 2 2 2 2 2 2 2 2 2 2 2 2 2 2 2 2 2 2 2 2 2 2 2
left_child=1 7 3 14 6 26 13 9 22 15 11 -6 20 18 29 -1 19 -12 -3 -11 21 -5 -9 -24 -25 -16 -4 -28 -23 -2 -31
right_child=2 4 5 12 10 -7 -8 8 -10 16 17 -13 -14 -15 25 -17 -18 -19 -20 -21 -22 28 23 24 -26 -27 27 -29 -30 30 -32
leaf_value=-3.6638328482089686 12.616317346663703 -11.707047538258243 9.8837814970158693 11.592684734469714 9.4471599786223699 14.533385455120865 -5.078061729442954 -10.231340211268288 2.7123190399819848 1.7855887454402439 4.9719902781968468 -9.878075970757866 21.323943853143373 -16.369451088952502 8.049523332092102 4.2122942207575944 19.679936111702958 -4.1813771650272882 -6.6895055204181553 12.255773298313851 18.589713513632145 45.408852500728955 2.2978884648110252 -5.1627758073031842 40.768328390316093 13.997765661366632 -2.1366440943554972 5.0052098963825316 23.778166856913639 47.753882553200981 22.204995635890555
leaf_weight=3080 945 13748 1358 198 906 2861 15477 2518 8154 1959 3869 3960 1979 4467 4966 7496 964 2108 6647 2119 381 1067 2979 8855 49 6975 5397 3361 266 190 1053
leaf_count=3080 945 13748 1358 198 906 2861 15477 2518 8154 1959 3869 3960 1979 4467 4966 7496 964 2108 6647 2119 381 1067 2979 8855 49 6975 5397 3361 266 190 1053
internal_value=-0.00349698 -3.90638 11.2473 16.0011 -7.37105 4.64616 -8.8532 0.739019 -1.79648 4.4007 -1.85703 -6.27991 27.3334 -11.2033 12.8803 1.91857 9.60718 1.74373 -10.0718 7.22608 33.5535 37.2773 -4.34941 -3.10303 -4.91001 11.524 1.84986 0.604138 41.0925 20.2822 26.1103
internal_weight=120352 89355 30997 18020 51182 12977 40339 38173 22555 15618 10843 4866 3891 24862 14129 10576 5042 5977 20395 4078 1912 1531 14401 11883 8904 11941 10116 8758 1333 2188 1243
internal_count=120352 89355 30997 18020 51182 12977 40339 38173 22555 15618 10843 4866 3891 24862 14129 10576 5042 5977 20395 4078 1912 1531 14401 11883 8904 11941 10116 8758 1333 2188 1243
is_linear=0
shrinkage=0.05


Tree=18
num_leaves=32
num_cat=0
split_feature=4 4 31 31 31 0 26 33 20 3 6 24 1 0 4 24 26 0 6 7 0 0 3 26 3 6 20 33 33 1 31
split_gain=1.91958e+09 4.51295e+08 4.3892e+08 1.95696e+08 1.76342e+08 1.49836e+08 1.37634e+08 9.42398e+07 8.98925e+07 7.41243e+07 1.15453e+08 7.33734e+07 6.81446e+07 6.29793e+07 8.84903e+07 5.66693e+07 4.90386e+07 4.71729e+07 4.67669e+07 4.51347e+07 4.41591e+07 4.39013e+07 4.33856e+07 4.10494e+07 4.0553e+07 4.03029e+07 3.94461e+07 3.8898e+07 3.78427e+07 4.21365e+07 5.57027e+07
threshold=1.3238765597343447 1.692610561847687 -0.91597560048103321 -0.98296290636062611 -0.7865660786628722 40.500000000000007 0.59372383356094371 1233.5000000000002 2.0728172063827519 0.94649675488471996 0.97402159244264519 29.439297676086429 31.250000000000004 2.5000000000000004 0.92907443642616283 26.059866905212406 0.47832790017127996 1.5000000000000002 0.9917011019283748 8.5000000000000018 30.500000000000004 1.0000000180025095e-35 1.018019497394562 0.329852044582367 0.83181706070899974 0.91833333333333345 0.88273492455482494 930.50000000000011 1235.5000000000002 87.500000000000014 -0.98296290636062611
decision_type=2 2 2 2 2 2 2 2 2 2 2 2 2 2 2 2 2 2 2 2 2 2 2 2 2 2 2 2 2 2 2
left_child=2 3 5 12 8 13 7 9 28 21 25 16 -2 -1 -15 26 22 -8 -14 23 -13 -4 -5 -10 -19 -11 -7 -23 29 30 -3
right_child=1 4 6 11 -6 15 17 -9 19 10 -12 20 18 14 -16 -17 -18 24 -20 -21 -22 27 -24 -25 -26 -27 -28 -29 -30 -31 -32
leaf_value=15.752718342373393 24.457072927506573 28.766540828954039 2.8447069499011062 2.4044828379039549 7.2674828121879784 -12.656388345353921 16.861208488290963 -14.22523021380113 72.082214636462069 3.6528615633148265 -11.181936077151157 19.847905959874719 8.8538762087843654 -3.4390765013494153 5.1454705119630741 -0.01060333191539432 8.209663197189629 -7.5411173966027905 22.345119738328048 36.667492058896165 5.9755234338309045 -11.354758293470773 -3.4369483795061004 8.4007883584997955 5.3923636354573148 -3.7107109417447393 -4.3420196858254547 -6.6122238688589565 1.0934304357153699 13.755508123657075 17.604629407210663
leaf_weight=979 996 1768 703 7096 3593 1744 495 5880 28 2296 5267 641 5635 4231 10334 7312 1997 1045 725 1102 5461 13782 5758 263 1443 9746 7837 6300 309 2547 3039
leaf_count=979 996 1768 703 7096 3593 1744 495 5880 28 2296 5267 641 5635 4231 10334 7312 1997 1045 725 1102 5461 13782 5758 263 1443 9746 7837 6300 309 2547 3039
internal_value=-0.00332214 8.78835 -4.53879 5.28005 16.6401 -0.0657956 -7.62865 -8.33369 20.3587 -7.4243 -5.00739 2.81687 12.2962 3.47687 2.65174 -3.32556 0.920272 2.76467 10.3918 32.0426 7.43278 -9.43702 -0.212209 14.5282 -0.0399063 -2.30673 -5.85546 -9.86696 18.2347 18.955 21.7099
internal_weight=120352 40958 79394 28309 12649 32437 46957 43974 9056 38094 17309 20953 7356 15544 14565 16893 14851 2983 6360 1393 6102 20785 12854 291 2488 12042 9581 20082 7663 7354 4807
internal_count=120352 40958 79394 28309 12649 32437 46957 43974 9056 38094 17309 20953 7356 15544 14565 16893 14851 2983 6360 1393 6102 20785 12854 291 2488 12042 9581 20082 7663 7354 4807
is_linear=0
shrinkage=0.05


Tree=19
num_leaves=32
num_cat=0
split_feature=4 31 31 4 0 4 31 4 1 4 0 6 22 4 7 16 0 3 33 6 33 7 6 33 33 0 25 24 22 33 33
split_gain=1.73486e+09 4.7259e+08 3.21693e+08 2.02804e+08 1.33747e+08 1.40185e+08 1.33295e+08 1.18823e+08 7.26765e+07 7.72712e+07 6.64514e+07 5.18068e+07 5.10398e+07 5.07895e+07 4.93252e+07 4.75596e+07 6.13257e+07 4.66257e+07 3.96809e+07 3.77456e+07 3.73688e+07 5.17927e+07 3.73072e+07 4.84696e+07 4.06338e+07 3.62684e+07 5.02342e+07 3.61663e+07 3.79727e+07 3.56471e+07 3.83973e+07
threshold=1.4291980266571047 -0.91597560048103321 -0.91597560048103321 1.8326972126960757 7.5000000000000009 1.1306379437446596 -0.98296290636062611 1.8849306702613833 58.250000000000007 1.238278388977051 37.500000000000007 0.96799795186891979 18.71496677398682 1.07725465297699 16.250000000000004 0.98467409610748302 1.0000000180025095e-35 0.61128804087638866 1213.5000000000002 0.99293277394865653 1067.5000000000002 89.500000000000014 0.96362433862433872 665.50000000000011 744.50000000000011 3.5000000000000004 0.072857663035392775 22.184203147888187 16.0163106918335 1266.5000000000002 688.50000000000011
decision_type=2 2 2 2 2 2 2 2 2 2 2 2 2 2 2 2 2 2 2 2 2 2 2 2 2 2 2 2 2 2 2
left_child=1 6 3 11 15 14 8 29 9 -1 25 27 20 -12 17 16 -3 -6 -16 -15 -5 -22 23 -7 -24 -8 -27 -2 -29 30 -4
right_child=2 4 7 12 5 22 10 -9 -10 -11 13 -13 -14 19 18 -17 -18 -19 -20 -21 21 -23 24 -25 -26 26 -28 28 -30 -31 -32
leaf_value=4.871779737890094 11.564993233794945 5.8710572754519719 -4.9098785444450606 10.071285264660615 -13.948660248797331 -15.046985152459143 12.437764239536833 13.230483365338589 0.12644547492530608 16.252647207564429 -7.9230369655439539 10.566741150050831 19.182643311867935 -1.8647821653144785 -10.087189178039225 4.8492956329197812 -7.5248469345171429 -4.3652889551640319 -15.892796480102476 36.67489647045732 37.659971123410628 16.755843591650954 -1.3725210494006375 1.4041436446985018 -7.4998315221566081 5.842915428608304 -1.8859524325972754 45.828001911692567 21.027999862961064 -9.624788150477956 3.8876654874614989
leaf_weight=6936 908 1211 1482 198 1611 500 700 2861 5829 1900 4944 11597 1979 8683 16296 2822 2901 5982 3592 64 1333 381 4001 4283 8358 3127 6416 182 1016 655 7604
leaf_count=6936 908 1211 1482 198 1611 500 700 2861 5829 1900 4944 11597 1979 8683 16296 2822 2901 5982 3592 64 1333 381 4001 4283 8358 3127 6416 182 1016 655 7604
internal_value=-0.00315606 -3.47734 10.3697 14.7374 -6.60961 -7.61349 0.706456 4.27183 4.46013 7.319 -1.59352 11.8769 24.8114 -3.87234 -9.82687 -0.149267 -3.5797 -6.39858 -11.1357 -1.5828 30.6375 33.0133 -4.06514 -0.315606 -5.51623 1.4524 0.646602 19.0912 24.7956 1.6406 2.45271
internal_weight=120352 90156 30196 17594 51557 44623 38599 12602 14665 8836 23934 13703 3891 13691 27481 6934 4112 7593 19888 8747 1912 1714 17142 4783 12359 10243 9543 2106 1198 9741 9086
internal_count=120352 90156 30196 17594 51557 44623 38599 12602 14665 8836 23934 13703 3891 13691 27481 6934 4112 7593 19888 8747 1912 1714 17142 4783 12359 10243 9543 2106 1198 9741 9086
is_linear=0
shrinkage=0.05


Tree=20
num_leaves=32
num_cat=0
split_feature=19 24 4 33 4 33 7 33 33 33 33 16 6 0 26 26 16 6 6 4 33 6 0 33 22 2 33 6 22 24 33
split_gain=1.56908e+09 3.68457e+08 2.38416e+08 2.14397e+08 1.70976e+08 1.55815e+08 1.68982e+08 1.35841e+08 1.13581e+08 8.84817e+07 1.15063e+08 7.63997e+07 7.50183e+07 6.7359e+07 6.66528e+07 6.35305e+07 6.77785e+07 5.68393e+07 5.20061e+07 5.14027e+07 5.11416e+07 4.9581e+07 4.90693e+07 4.74278e+07 4.55972e+07 5.32431e+07 4.40888e+07 4.31147e+07 3.95323e+07 7.41061e+07 3.88604e+07
threshold=1.4978260993957522 26.745300292968754 1.1306379437446596 1053.5000000000002 1.9220486283302309 1165.5000000000002 2.5000000000000004 1233.5000000000002 954.50000000000011 1187.5000000000002 1049.5000000000002 1.2311741113662722 0.98290473407364132 31.500000000000004 0.62967675924301159 0.2843537330627442 0.66533333063125621 0.90454545454545465 0.95553359683794481 1.2594373226165774 1143.5000000000002 0.97402159244264519 25.250000000000004 688.50000000000011 22.40709209442139 16.250000000000004 671.50000000000011 0.99196774193548398 13.489913940429689 26.291633605957035 671.50000000000011
decision_type=2 2 2 2 2 2 2 2 2 2 2 2 2 2 2 2 2 2 2 2 2 2 2 2 2 2 2 2 2 2 2
left_child=1 2 5 17 7 6 -1 12 15 10 18 24 28 14 19 -8 -17 23 26 -3 27 -12 -10 -2 25 -6 -4 -14 -5 -30 -19
right_child=3 13 9 4 11 -7 8 -9 22 -11 21 -13 20 -15 -16 16 -18 30 -20 -21 -22 -23 -24 -25 -26 -27 -28 -29 29 -31 -32
leaf_value=8.0273465446938541 3.8424102038276033 4.2871472808490116 -7.20667734608669 26.724747691944902 1.8184242402474713 -13.437718212966875 -11.640153923086437 -3.9122857884145703 0.46355990302561695 -7.2605840370477113 7.6165544652840271 7.3689838720049181 12.378544153655238 1.8613658211463964 34.161819700384335 -13.001775073022245 -3.2824036439013633 -11.300796568979216 -4.424843250529622 18.81745515826621 5.8694171902386865 0.73221496889100635 -5.3677845251385961 18.958593221869986 18.939450944800647 35.45222497413274 4.6450813744556614 29.092943935950785 5.3035051841663661 20.901896371261138 3.1282122421989773
leaf_weight=2165 1024 2686 1018 1107 127 7486 10175 1248 5808 5032 5049 525 4500 14764 253 2453 6674 509 11712 787 3446 5426 9522 1052 869 1601 3424 422 1123 2365 5606
leaf_count=2165 1024 2686 1018 1107 127 7486 10175 1248 5808 5032 5049 525 4500 14764 253 2453 6674 509 11712 787 3446 5426 9522 1052 869 1601 3424 422 1123 2365 5606
internal_value=0.0207672 -2.95219 -4.49325 11.0201 14.1703 -6.86209 -5.52434 11.8427 -6.37152 -1.18005 -0.0310346 24.7652 13.3595 3.37743 9.38474 -8.92336 -5.89461 4.35401 -2.67769 7.57979 10.541 4.0505 -3.15849 11.5024 28.282 32.9803 1.92894 13.8116 18.4925 15.8798 1.92717
internal_weight=119958 94434 75944 25524 17333 44283 36797 14211 34632 31661 26629 3122 12963 18490 3726 19302 9127 8191 16154 3473 8368 10475 15330 2076 2597 1728 4442 4922 4595 3488 6115
internal_count=119958 94434 75944 25524 17333 44283 36797 14211 34632 31661 26629 3122 12963 18490 3726 19302 9127 8191 16154 3473 8368 10475 15330 2076 2597 1728 4442 4922 4595 3488 6115
is_linear=0
shrinkage=0.05


Tree=21
num_leaves=32
num_cat=0
split_feature=4 31 31 4 31 0 19 19 4 0 31 1 19 31 4 0 33 6 33 17 0 33 33 1 32 3 0 25 33 22 22
split_gain=1.41633e+09 4.60764e+08 2.28072e+08 1.55592e+08 1.37509e+08 1.12483e+08 1.21285e+08 6.59973e+07 5.95732e+07 6.23105e+07 5.89673e+07 5.39015e+07 5.85711e+07 5.08963e+07 5.05951e+07 5.03712e+07 4.9611e+07 4.94067e+07 4.69188e+07 4.18526e+07 4.54552e+07 4.80571e+07 3.80425e+07 3.58229e+07 4.37166e+07 3.50255e+07 3.42244e+07 3.34409e+07 3.32928e+07 3.15119e+07 3.01307e+07
threshold=1.4980915784835818 -0.91597560048103321 -0.7865660786628722 1.8967294692993166 -0.98296290636062611 7.5000000000000009 0.92365968227386486 1.9220486283302309 1.1623311042785647 1.0000000180025095e-35 -0.98296290636062611 36.500000000000007 1.2379287481307986 -0.98296290636062611 1.2509842514991762 20.250000000000004 744.50000000000011 0.98974332000841592 652.50000000000011 0.98467409610748302 1.0000000180025095e-35 531.50000000000011 800.50000000000011 9.5000000000000018 -0.91597560048103321 1.1517069339752199 50.250000000000007 0.039075070992112167 1179.5000000000002 29.937527656555179 37.229768753051765
decision_type=2 2 2 2 2 2 2 2 2 2 2 2 2 2 2 2 2 2 2 2 2 2 2 2 2 2 2 2 2 2 2
left_child=1 4 3 13 11 19 -7 23 9 -6 17 12 -1 -2 -13 18 -17 29 -8 20 21 -3 -20 -4 -25 26 -15 -28 30 -5 -10
right_child=2 5 7 10 8 6 15 -9 28 -11 -12 14 -14 25 -16 16 -18 -19 22 -21 -22 -23 -24 24 -26 -27 27 -29 -30 -31 -32
leaf_value=6.3147521258077708 15.013839298975526 38.337921081287696 8.8547293243299521 38.777241017124254 12.220958410104117 -10.187108171668468 -12.306943751615393 11.52398363304102 2.027764628936926 -4.283804873786198 18.474154743980232 -1.1758850255584052 19.417392619902969 14.339670717523688 6.058080495293102 -2.32757248527292 -7.5305498763327883 1.3083989624319408 5.3897723801940387 4.754486539617619 -6.5353569009834729 2.0038341467563781 -2.6096954959693761 2.1382505735180639 -8.0730926395592899 0.40238777551138516 12.756066075636383 4.257281663580943 -4.7496032592013036 10.570173416337049 19.839439276535327
leaf_weight=5105 5478 99 1064 917 600 16571 855 1808 10363 12189 2430 4743 1024 2914 4929 6427 15956 116 2266 2821 2918 1127 4319 3106 1582 1070 1871 3035 1901 111 243
leaf_count=5105 5478 99 1064 917 600 16571 855 1808 10363 12189 2430 4743 1024 2914 4929 6427 15956 116 2266 2821 2918 1127 4319 3106 1582 1070 1871 3035 1901 111 243
internal_value=0.0197288 -2.80327 10.4757 13.5451 1.17591 -5.86802 -6.75751 3.19134 -1.10994 -3.50948 22.8808 4.83534 8.50387 11.2228 2.51066 -4.85187 -6.03658 32.2411 -1.2877 0.0568572 -3.14102 4.93783 0.143045 0.572185 -1.30764 8.88682 10.0477 7.49846 1.3437 35.7315 2.43586
internal_weight=119958 94456 25502 17942 41097 53359 46394 7560 25296 12789 3574 15801 6129 14368 9672 29823 22383 1144 7440 6965 4144 1226 6585 5752 4688 8890 7820 4906 12507 1028 10606
internal_count=119958 94456 25502 17942 41097 53359 46394 7560 25296 12789 3574 15801 6129 14368 9672 29823 22383 1144 7440 6965 4144 1226 6585 5752 4688 8890 7820 4906 12507 1028 10606
is_linear=0
shrinkage=0.05


Tree=22
num_leaves=32
num_cat=0
split_feature=4 19 31 31 31 26 1 4 25 32 31 31 26 17 1 22 0 4 7 17 7 26 4 1 0 19 25 26 0 4 7
split_gain=1.28513e+09 3.41497e+08 2.81387e+08 1.41941e+08 1.32907e+08 1.05732e+08 1.03347e+08 8.1887e+07 5.56746e+07 5.70344e+07 5.32714e+07 5.31378e+07 5.1608e+07 5.41694e+07 4.63063e+07 4.56092e+07 4.02957e+07 4.7018e+07 4.01564e+07 6.14163e+07 3.87774e+07 3.70161e+07 3.68396e+07 3.62958e+07 3.53208e+07 3.48053e+07 3.4694e+07 4.54239e+07 3.3362e+07 3.20586e+07 3.00431e+07
threshold=1.2918509840965273 1.6325030326843264 -0.91597560048103321 -0.98296290636062611 -0.7865660786628722 0.39282338321208959 39.500000000000007 1.9220486283302309 0.018492451868951324 0.37940952181816107 -0.98296290636062611 -0.98296290636062611 0.47832790017127996 1.018019497394562 37.500000000000007 29.937527656555179 123.50000000000001 0.99599999189376842 2.5000000000000004 0.74904578924179088 8.5000000000000018 0.16770856082439425 1.9220486283302309 119.50000000000001 69.250000000000014 0.65669643878936779 0.072857663035392775 0.59372383356094371 16.250000000000004 2.209128856658936 89.500000000000014
decision_type=2 2 2 2 2 2 2 2 2 2 2 2 2 2 2 2 2 2 2 2 2 2 2 2 2 2 2 2 2 2 2
left_child=2 3 6 14 7 8 10 24 -4 20 -1 15 13 -5 -2 30 17 -8 -7 -20 -10 29 -6 -16 -3 -22 -12 -28 -21 -13 -9
right_child=1 4 5 12 22 18 16 11 9 -11 26 21 -14 -15 23 -17 -18 -19 19 28 25 -23 -24 -25 -26 -27 27 -29 -30 -31 -32
leaf_value=6.4799044129418242 18.813215599752478 16.301321248048399 -1.9676597063804693 2.61075583796476 1.6695457110880998 5.3436214670350966 -9.6834105674917943 40.197993563492219 -1.3693613051980686 -12.630677260659539 4.8399293004956379 23.573368816493225 8.4227890721300049 -2.9938185219503506 6.4157185300133079 3.3557316656035137 4.8493859098271237 -2.5169839788659396 -9.5886928880663564 2.4731727108432704 -12.780684339677249 14.195523602803249 10.929804594756163 18.265114121005062 9.7199421876005445 -7.1828560436507374 -2.4951317388538961 12.815983435334264 -4.7692319949393847 55.361436126670064 16.568166854742802
leaf_weight=5599 1138 4045 3710 11783 2652 1556 2963 728 2442 6455 3155 416 2351 6799 5406 123 1376 10058 2757 3656 3258 1587 1805 734 4110 18801 6897 521 2814 98 165
leaf_count=5599 1138 4045 3710 11783 2652 1556 2963 728 2442 6455 3155 416 2351 6799 5406 123 1376 10058 2757 3656 3258 1587 1805 734 4110 18801 6897 521 2814 98 165
internal_value=0.0187424 6.82575 -3.91585 3.5344 12.729 -6.41069 -0.20661 15.6191 -7.75571 -8.44939 2.53643 22.5123 1.44315 0.560088 9.54925 31.9002 -3.28784 -4.14774 -2.08662 -3.33963 -7.3478 17.9725 5.41977 7.83224 12.9844 -8.00963 0.44814 -1.41976 -0.67677 29.6341 35.8319
internal_weight=119958 43940 76018 28211 15729 45449 30569 11272 34666 30956 16172 3117 20933 18582 7278 1016 14397 13021 10783 9227 24501 2101 4457 6140 8155 22059 10573 7418 6470 514 893
internal_count=119958 43940 76018 28211 15729 45449 30569 11272 34666 30956 16172 3117 20933 18582 7278 1016 14397 13021 10783 9227 24501 2101 4457 6140 8155 22059 10573 7418 6470 514 893
is_linear=0
shrinkage=0.05


Tree=23
num_leaves=32
num_cat=0
split_feature=19 31 31 4 31 26 19 33 33 4 3 0 7 31 33 31 1 19 4 22 26 3 6 33 26 25 26 1 7 1 4
split_gain=1.16296e+09 3.77728e+08 1.90466e+08 1.26073e+08 1.14317e+08 1.13634e+08 9.24035e+07 5.49822e+07 5.48061e+07 5.40479e+07 4.8849e+07 5.43647e+07 4.70748e+07 4.68795e+07 4.53738e+07 4.26418e+07 4.20884e+07 4.9548e+07 4.12811e+07 4.09541e+07 3.8979e+07 3.69447e+07 3.57634e+07 3.40379e+07 3.33296e+07 3.30959e+07 3.28886e+07 3.18119e+07 3.17656e+07 3.12059e+07 3.65375e+07
threshold=1.4978260993957522 -0.91597560048103321 -0.7865660786628722 1.9220486283302309 -0.98296290636062611 0.39282338321208959 1.1306379437446596 1177.5000000000002 1049.5000000000002 1.9220486283302309 0.85770529508590709 1.0000000180025095e-35 17.250000000000004 -0.98296290636062611 1211.5000000000002 -0.98296290636062611 36.500000000000007 1.2379287481307986 1.2472513914108279 29.937527656555179 0.47832790017127996 1.1623311042785647 0.95119047619047625 989.50000000000011 0.16770856082439425 0.025490137748420242 0.3275220394134522 140.50000000000003 7.5000000000000009 44.500000000000007 1.3407842516899111
decision_type=2 2 2 2 2 2 2 2 2 2 2 2 2 2 2 2 2 2 2 2 2 2 2 2 2 2 2 2 2 2 2
left_child=1 4 3 15 16 6 14 8 12 -4 11 20 -6 19 23 -2 17 -1 -18 -5 -7 26 -12 28 -15 -9 -17 29 -3 -10 -31
right_child=2 5 9 13 7 10 -8 25 27 -11 22 -13 -14 24 -16 21 18 -19 -20 -21 -22 -23 -24 -25 -26 -27 -28 -29 -30 30 -32
leaf_value=5.6424066756481155 13.813060402083455 -1.7364070054843912 0.47262829315656119 33.960078712904483 5.4565691312010429 -9.6972562619078335 -3.7736575656776949 4.0522029492928056 3.7313966376509797 10.384789827140926 4.3176509019574567 -7.1101524638019686 -5.8723221575562867 28.221634674326893 -13.253477230476902 7.6988627807246335 -1.0318274324714449 17.761793744410621 5.4996850684311935 3.1879452701506579 12.283081433588061 -0.54283000444027496 -3.0224171518972445 -2.5691878125102443 13.587207059587493 -8.9313315563059419 15.269967349340332 40.596629272172088 -9.1538188550637809 -2.976825531390086 4.618844278864378
leaf_weight=5111 5597 1596 5766 894 1106 284 16993 588 7454 1806 4454 4395 5365 515 4292 6326 4678 1010 5010 123 696 1051 2645 2892 1591 2970 1855 52 15098 5526 2219
leaf_count=5111 5597 1596 5766 894 1106 284 16993 588 7454 1806 4454 4395 5365 515 4292 6326 4678 1010 5010 123 696 1051 2645 2892 1591 2970 1855 52 15098 5526 2219
internal_value=0.0178053 -2.54165 9.4873 12.2924 1.06148 -5.31696 -6.59185 -1.0241 -0.0803752 2.83678 -1.13978 -4.73565 -3.93603 21.4229 -8.59744 10.3695 4.3965 7.64217 2.34584 30.2384 5.91327 8.28188 1.58283 -7.57713 17.1659 -6.78565 9.41557 1.55558 -8.44469 1.42201 -0.80061
internal_weight=119958 94434 25524 17952 41089 53345 40871 25280 21722 7572 12474 5375 6471 3123 23878 14829 15809 6121 9688 1017 980 9232 7099 19586 2106 3558 8181 15251 16694 15199 7745
internal_count=119958 94434 25524 17952 41089 53345 40871 25280 21722 7572 12474 5375 6471 3123 23878 14829 15809 6121 9688 1017 980 9232 7099 19586 2106 3558 8181 15251 16694 15199 7745
is_linear=0
shrinkage=0.05


Tree=24
num_leaves=32
num_cat=0
split_feature=4 19 31 31 31 7 1 19 4 26 0 19 26 3 19 3 1 24 3 0 33 22 24 5 3 31 17 33 24 23 1
split_gain=1.05871e+09 2.80768e+08 2.28636e+08 1.13859e+08 1.09937e+08 9.01212e+07 8.54639e+07 6.79964e+07 6.06713e+07 5.92277e+07 5.12542e+07 8.51338e+07 4.49184e+07 4.85065e+07 4.46778e+07 4.46578e+07 3.86653e+07 3.85093e+07 3.6407e+07 3.55662e+07 4.81611e+07 4.22785e+07 5.25314e+07 3.58268e+07 3.4972e+07 3.35441e+07 3.27662e+07 3.26667e+07 3.232e+07 3.2783e+07 3.22881e+07
threshold=1.2918509840965273 1.6325030326843264 -0.91597560048103321 -0.98296290636062611 -0.91597560048103321 16.250000000000004 40.500000000000007 2.0728172063827519 1.0592625141143801 0.59372383356094371 2.5000000000000004 0.73727351427078258 0.47832790017127996 1.018019497394562 2.0039062500000004 1.1623311042785647 37.500000000000007 21.268782615661625 1.3252907395362856 69.250000000000014 1061.5000000000002 14.454718112945558 27.219784736633304 0.980580693815988 0.80972057580947887 -0.98296290636062611 1.3931499123573305 1213.5000000000002 13.183533668518068 11.33945941925049 119.50000000000001
decision_type=2 2 2 2 2 2 2 2 2 2 2 2 2 2 2 2 2 2 2 2 2 2 2 2 2 2 2 2 2 2 2
left_child=2 3 6 16 7 9 10 19 27 24 -1 -12 13 -5 15 -6 -2 -8 -9 20 -3 -22 -23 -24 -4 -13 -26 -7 -16 -30 -18
right_child=1 4 5 12 14 8 17 18 -10 -11 11 25 -14 -15 28 -17 30 -19 -20 -21 21 22 23 -25 26 -27 -28 -29 29 -31 -32
leaf_value=13.363205689913329 17.063168323679005 1.2884080872491555 -6.7684796308437107 2.458396062993299 7.0617809528575437 -8.3245185408700895 -6.4689222362863958 30.458468392356327 -4.8211900899358762 4.8754659351357468 -7.6225369423436637 6.3954645200208411 7.8494752110812787 -2.8423519773495127 5.1588812827141748 -3.7575802178113458 5.6929698863364777 -1.0585610294583618 -1.7734712797341889 10.457537511831562 27.87429819247275 1.7176471865310103 30.769020973839787 15.339184603959986 -0.62033225541774351 1.1626083162370666 -13.694897644685824 -14.016083902208843 34.538810239118689 13.807800141056317 16.869039587067487
leaf_weight=973 1138 432 5992 11766 3643 14036 5240 905 13058 2220 2182 4763 2351 6816 614 1292 5406 8833 97 4381 966 538 509 1442 6553 8578 517 3073 272 638 734
leaf_count=973 1138 432 5992 11766 3643 14036 5240 905 13058 2220 2182 4763 2351 6816 614 1292 5406 8833 97 4381 966 538 509 1442 6553 8578 517 3073 272 638 734
internal_value=0.016915 6.19527 -3.5543 3.21088 11.548 -5.80316 -0.210767 15.0372 -7.38786 -2.67494 2.23112 1.53334 1.33789 0.514047 6.54014 4.22923 8.59796 -3.07308 27.3382 13.5465 17.028 18.996 15.5503 19.3647 -3.9582 3.03084 -1.57642 -9.3468 14.0233 20.0043 7.029
internal_weight=119958 43940 76018 28211 15729 45449 30569 9270 30167 15282 16496 15523 20933 18582 6459 4935 7278 14073 1002 8268 3887 3455 2489 1951 13062 13341 7070 17109 1524 910 6140
internal_count=119958 43940 76018 28211 15729 45449 30569 9270 30167 15282 16496 15523 20933 18582 6459 4935 7278 14073 1002 8268 3887 3455 2489 1951 13062 13341 7070 17109 1524 910 6140
is_linear=0
shrinkage=0.05


Tree=25
num_leaves=32
num_cat=0
split_feature=4 4 31 31 0 0 33 19 26 0 19 0 16 3 33 1 19 33 0 6 25 25 23 13 33 33 33 33 22 1 33
split_gain=9.89069e+08 2.75658e+08 2.03499e+08 1.37323e+08 8.47682e+07 8.25116e+07 7.63391e+07 5.90375e+07 6.07119e+07 4.78028e+07 6.51107e+07 4.67247e+07 4.64459e+07 4.63656e+07 5.04026e+07 4.54369e+07 4.43108e+07 4.13395e+07 4.08061e+07 3.80115e+07 3.78545e+07 3.78217e+07 3.38679e+07 3.31287e+07 3.25847e+07 3.24841e+07 3.96797e+07 3.16865e+07 3.20777e+07 3.10035e+07 2.62034e+07
threshold=1.2918509840965273 1.7908712625503542 -0.91597560048103321 -0.98296290636062611 4.5000000000000009 40.500000000000007 671.50000000000011 0.71503761410713207 0.31289640069007879 2.5000000000000004 0.82807883620262157 61.500000000000007 1.2171862125396731 1.0837719440460207 692.50000000000011 26.500000000000004 2.0728172063827519 1266.5000000000002 2.5000000000000004 0.99141615089890966 0.034828210249543197 0.0078204730525612848 25.052500724792484 9.5000000000000018 1205.5000000000002 1163.5000000000002 1049.5000000000002 1094.5000000000002 26.989400863647464 7.5000000000000009 1235.5000000000002
decision_type=2 2 2 2 2 2 2 2 2 2 2 2 2 2 2 2 2 2 2 2 2 2 2 2 2 2 2 2 2 2 2
left_child=2 3 5 11 30 9 18 -6 21 -1 -11 -2 16 14 23 -16 -8 -15 -3 -13 22 -9 -17 -5 -23 26 -7 -18 29 -29 -4
right_child=1 6 4 13 7 25 12 8 -10 10 -12 19 -14 17 15 20 27 -19 -20 -21 -22 24 -24 -25 -26 -27 -28 28 -30 -31 -32
leaf_value=12.98649720328792 14.165768403910803 14.385273126459323 3.1900989549507881 8.46182887625333 -9.8866358072182354 -7.3722572655987975 14.838242690575251 -1.3701997068876732 -1.909259363318019 -5.1200239966514021 3.3040869129981676 4.7906229343212123 6.3845731749508241 -0.25314906422194156 8.7987927575048808 5.1643035536494519 13.920090058976312 -13.739918569591939 -11.475857527790783 14.675049942083874 1.2720843333224556 -6.4065677386818694 18.702138022544371 -7.6779745306409541 -11.437061529602854 -8.6493158212753212 -0.58444716277291919 2.009113677560467 7.6508221601272801 36.049823395107801 -9.7244311148275724
leaf_weight=984 3149 237 3291 401 8662 2698 5213 2994 9641 2880 11268 5044 1215 5549 4072 2887 472 633 428 1205 10318 16540 550 1535 3997 2097 10659 73 143 799 446
leaf_count=984 3149 237 3291 401 8662 2698 5213 2994 9641 2880 11268 5044 1215 5549 4072 2887 472 633 428 1205 10318 16540 550 1535 3997 2097 10659 73 143 799 446
internal_value=-0.00272252 5.97254 -3.44891 4.02089 -5.56636 -0.294059 14.0118 -6.21088 -5.25106 2.33039 1.58926 9.19933 15.3789 2.14511 3.32728 4.1594 17.0099 -1.63411 -2.25918 6.69665 2.78596 -6.62024 7.33067 -4.33497 -7.38562 -2.86383 -1.95553 24.6233 29.6005 33.2001 1.64879
internal_weight=120080 43923 76157 35343 45571 30586 8580 41834 33172 15132 14148 9398 7915 25945 19763 17827 6700 6182 665 6249 13755 23531 3437 1936 20537 15454 13357 1487 1015 872 3737
internal_count=120080 43923 76157 35343 45571 30586 8580 41834 33172 15132 14148 9398 7915 25945 19763 17827 6700 6182 665 6249 13755 23531 3437 1936 20537 15454 13357 1487 1015 872 3737
is_linear=0
shrinkage=0.05


Tree=26
num_leaves=32
num_cat=0
split_feature=4 24 33 33 0 4 4 33 24 33 33 0 3 25 23 0 26 1 23 19 25 19 26 4 2 0 33 33 16 3 33
split_gain=8.96518e+08 2.53618e+08 1.79906e+08 1.67202e+08 1.37432e+08 1.07476e+08 7.94618e+07 7.70809e+07 7.26276e+07 7.04764e+07 6.28354e+07 5.1276e+07 4.98096e+07 4.75517e+07 4.72365e+07 4.57724e+07 4.56401e+07 4.20907e+07 3.96589e+07 3.86012e+07 3.62226e+07 3.60388e+07 3.49726e+07 3.69661e+07 3.37472e+07 3.17422e+07 3.72014e+07 3.14992e+07 3.0907e+07 3.33457e+07 3.0088e+07
threshold=1.5264912247657778 32.114032745361335 1177.5000000000002 1047.5000000000002 7.5000000000000009 1.8967294692993166 0.92365968227386486 1045.5000000000002 15.377653121948244 1235.5000000000002 954.50000000000011 34.250000000000007 0.99209472537040722 0.033893939107656486 8.7891974449157733 31.500000000000004 0.62967675924301159 54.500000000000007 21.313662528991703 1.1254921555519106 0.043337929993867881 1.1115900874137881 0.31289640069007879 0.94482493400573742 82.500000000000014 1.0000000180025095e-35 531.50000000000011 659.50000000000011 1.2227615714073183 1.0145456194877627 644.50000000000011
decision_type=2 2 2 2 2 2 2 2 2 2 2 2 2 2 2 2 2 2 2 2 2 2 2 2 2 2 2 2 2 2 2
left_child=1 2 3 4 10 7 30 -2 -7 11 12 -9 25 -4 -10 16 19 21 -18 -3 -13 -5 -8 -24 -19 26 -1 -25 29 -16 -6
right_child=5 15 13 17 6 8 22 9 14 -11 -12 20 -14 -15 28 -17 18 24 -20 -21 -22 -23 23 27 -26 -27 -28 -29 -30 -31 -32
leaf_value=32.789941618577714 1.5655924661633871 3.1272858971228175 -1.5302460660429695 0.35546456719879077 -15.61618012154867 6.1451866726467621 -4.200167968686582 17.59611184239046 37.545181414601096 -3.6606887867371882 13.596919757723292 12.620291973080864 6.1106915749917707 -9.5478347538475621 14.927502133352636 2.9831721670755083 72.032427572736552 -7.4885558113540158 20.006104684793033 16.021279420209154 6.2503884295474998 5.3721022289569769 12.333549429971184 -12.185713230375573 0.27367257239420184 -6.5283486039928604 0.83121145836340016 0.047530485269942559 5.0402872841772828 25.621880671326746 -7.0555424421956987
leaf_weight=106 4707 1363 2197 6553 1107 1617 19433 1942 308 998 1151 3605 2393 11687 1950 10245 51 1766 130 1011 5859 7891 557 582 6761 2252 646 5489 460 1164 14099
leaf_count=106 4707 1363 2197 6553 1107 1617 19433 1942 308 998 1151 3605 2393 11687 1950 10245 51 1766 130 1011 5859 7891 557 582 6761 2252 646 5489 460 1164 14099
internal_value=-0.00258641 -2.08338 -3.07504 -2.05431 -3.73863 8.96755 -4.80642 7.01331 15.0485 9.08058 2.99081 10.1954 0.728875 -8.27913 18.7571 4.47633 10.4636 1.45166 34.6655 8.61837 8.67679 3.09614 -3.13047 0.00582329 -1.33394 -3.5583 5.33603 -1.12522 17.1379 18.925 -7.67876
internal_weight=120080 97470 84670 70786 47815 22610 41267 17111 5499 12404 6548 11406 5397 13884 3882 12800 2555 22971 181 2374 9464 14444 26061 6628 8527 3004 752 6071 3574 3114 15206
internal_count=120080 97470 84670 70786 47815 22610 41267 17111 5499 12404 6548 11406 5397 13884 3882 12800 2555 22971 181 2374 9464 14444 26061 6628 8527 3004 752 6071 3574 3114 15206
is_linear=0
shrinkage=0.05


Tree=27
num_leaves=32
num_cat=0
split_feature=4 4 31 31 7 1 24 23 24 1 19 7 32 25 4 19 1 23 31 24 25 24 1 1 31 1 31 32 31 7 24
split_gain=8.21727e+08 2.23812e+08 1.65053e+08 1.15999e+08 7.02316e+07 6.71278e+07 6.69211e+07 6.47314e+07 5.75174e+07 6.47237e+07 5.26507e+07 5.77965e+07 5.84888e+07 4.46575e+07 4.15397e+07 7.91201e+07 4.10001e+07 3.34085e+07 4.31833e+07 3.20917e+07 3.17619e+07 3.10034e+07 4.35035e+07 3.09818e+07 3.84833e+07 3.0688e+07 3.24707e+07 3.34339e+07 3.0553e+07 3.74683e+07 2.94188e+07
threshold=1.2918509840965273 1.7908712625503542 -0.91597560048103321 -0.98296290636062611 3.5000000000000004 39.500000000000007 18.232449531555179 15.626900196075441 29.439297676086429 31.250000000000004 0.71503761410713207 36.500000000000007 0.60355338454246532 0.032977694645524032 1.0000000180025095e-35 0.73727351427078258 31.250000000000004 11.145564556121828 -0.6035533845424651 47.669288635253913 0.034828210249543197 27.219784736633304 34.500000000000007 66.500000000000014 -0.98296290636062611 20.500000000000004 0.37940952181816107 0.12940952181816107 0.37940952181816107 20.250000000000004 10.012492179870607
decision_type=2 2 2 2 2 2 2 2 2 2 2 2 2 2 2 2 2 2 2 2 2 2 2 2 2 2 2 2 2 2 2
left_child=2 3 5 16 -4 14 13 23 25 -10 -6 12 28 -3 -1 -16 -2 18 30 -17 -11 -9 -23 24 -8 26 27 -5 29 -12 -15
right_child=1 6 4 8 10 -7 7 21 9 20 11 -13 -14 17 15 19 -18 -19 -20 -21 -22 22 -24 -25 -26 -27 -28 -29 -30 -31 -32
leaf_value=11.854761176116568 16.791955808966581 26.342813886575371 2.6548231173160484 8.1542663720023985 -8.9468899358649061 -2.7825174506792436 44.469366216905343 -1.1528361040612924 18.936071486572914 10.427099831434933 0.86815107979236439 -7.8172390529678486 -10.741631470853504 5.990889226138882 -7.5157662195388175 2.2091703673214602 7.1381599734961014 -9.2967870413878853 0.54412352112383411 14.212645319129756 2.2148091667475875 25.099105467360925 11.123583254900812 15.252827444033963 23.217807325900726 -0.8640272479484632 -4.4764131646456446 -2.1416170023452668 -7.4732732553920274 -3.6674348771951624 24.897463183391416
leaf_weight=986 1272 247 2777 3166 9009 14420 291 391 812 1507 7879 10076 2374 412 2195 12402 8126 394 1193 583 5383 679 3095 672 795 13038 989 1050 2668 10788 411
leaf_count=986 1272 247 2777 3166 9009 14420 291 391 812 1507 7879 10076 2374 412 2195 12402 8126 394 1193 583 5383 679 3095 672 795 13038 989 1050 2668 10788 411
internal_value=-0.00245709 5.44392 -3.14361 3.68535 -5.05058 -0.302364 12.6878 15.6454 1.96136 5.58453 -5.5506 -4.64496 -3.29678 6.09484 1.90992 1.26397 8.44478 4.01963 6.62214 2.7481 4.01102 12.2495 13.638 23.6909 28.9123 0.431692 3.67734 5.59006 -2.46838 -1.75305 15.4327
internal_weight=120080 43923 76157 35343 45571 30586 8580 5923 25945 7702 42794 33785 23709 2657 16166 15180 9398 2410 2016 12985 6890 4165 3774 1758 1086 18243 5205 4216 21335 18667 823
internal_count=120080 43923 76157 35343 45571 30586 8580 5923 25945 7702 42794 33785 23709 2657 16166 15180 9398 2410 2016 12985 6890 4165 3774 1758 1086 18243 5205 4216 21335 18667 823
is_linear=0
shrinkage=0.05


Tree=28
num_leaves=32
num_cat=0
split_feature=4 4 31 31 0 4 33 33 6 33 33 33 0 6 24 33 0 6 24 32 0 31 3 16 33 6 31 33 16 6 7
split_gain=7.43747e+08 1.76544e+08 1.63524e+08 1.0063e+08 9.38794e+07 1.0693e+08 6.13773e+07 5.21339e+07 5.69632e+07 4.39578e+07 4.14439e+07 4.09555e+07 4.35994e+07 4.09551e+07 3.89012e+07 3.7147e+07 3.69867e+07 3.38255e+07 3.49506e+07 3.30861e+07 3.26738e+07 4.87664e+07 4.40143e+07 3.52122e+07 3.11148e+07 3.09709e+07 3.15798e+07 3.41958e+07 3.0864e+07 2.95466e+07 3.20701e+07
threshold=1.344949007034302 1.7908712625503542 -0.98296290636062611 -0.91597560048103321 3.5000000000000004 0.92365968227386486 671.50000000000011 1233.5000000000002 0.97530487804878063 1039.5000000000002 1273.5000000000002 1145.5000000000002 73.500000000000014 0.99095004095004102 29.695585250854496 1169.5000000000002 2.5000000000000004 0.98198051948051956 21.453955650329593 -0.6035533845424651 24.500000000000004 0.37940952181816107 0.93563184142112743 1.2680749297142031 1049.5000000000002 0.90454545454545465 0.37940952181816107 1266.5000000000002 0.99209472537040722 0.96490147783251246 14.500000000000002
decision_type=2 2 2 2 2 2 2 2 2 2 2 2 2 2 2 2 2 2 2 2 2 2 2 2 2 2 2 2 2 2 2
left_child=2 3 17 11 15 20 16 8 9 -7 -8 24 14 -10 -13 19 -3 18 -1 28 21 22 -6 -24 -2 -5 27 -27 -4 30 -26
right_child=1 6 4 25 5 7 10 -9 13 -11 -12 12 -14 -15 -16 -17 -18 -19 -20 -21 -22 -23 23 -25 29 26 -28 -29 -30 -31 -32
leaf_value=1.6356933857679086 0.50075914975232594 13.310156495862874 -3.1255711127401473 7.5004449738594747 -5.1960786195609048 -1.9317882898714087 13.974662696125936 -8.4763983384908048 -4.7968242232303844 2.7728828910683312 -5.5441592342094754 1.1836967051981162 -2.1472441417128385 13.338088299024783 13.37821277638669 -7.0184306331822786 -11.310949832228857 -0.70281638645869637 8.4657667982219333 12.012126650878013 -8.769455837330554 -12.412142890220146 6.7340728786637243 -10.348983110066769 6.9381176885715723 0.87362702213957533 -13.141154225164286 -10.556707379591261 11.754058574855797 7.7264090153386737 22.009311723811717
leaf_weight=4215 1288 237 1110 1370 9139 16044 7633 3417 14836 7190 282 1354 2511 318 1265 618 428 4770 3371 1416 10912 1917 1478 379 628 9635 471 702 508 9832 806
leaf_count=4215 1288 237 1110 1370 9139 16044 7633 3417 14836 7190 282 1354 2511 318 1265 618 428 4770 3371 1416 10912 1917 1478 379 628 9635 471 702 508 9832 806
internal_value=-0.00233422 5.7321 -2.70259 3.91584 -3.64761 -4.08178 12.0534 -2.55818 -2.03138 -0.475879 13.2792 6.32448 2.56032 -4.41627 7.07376 4.15484 -2.53621 2.59632 4.67078 6.43073 -6.7552 -5.05307 -3.77012 3.24755 7.86265 0.41819 -0.479543 0.0973772 1.54615 8.7043 15.4091
internal_weight=120080 38442 81638 29862 69282 65630 8580 41805 38388 23234 7915 17684 5130 15154 2619 3652 665 12356 7586 3034 23825 12913 10996 1857 12554 12178 10808 10337 1618 11266 1434
internal_count=120080 38442 81638 29862 69282 65630 8580 41805 38388 23234 7915 17684 5130 15154 2619 3652 665 12356 7586 3034 23825 12913 10996 1857 12554 12178 10808 10337 1618 11266 1434
is_linear=0
shrinkage=0.05


Tree=29
num_leaves=32
num_cat=0
split_feature=4 31 31 26 4 4 0 4 1 26 1 22 33 3 26 32 33 4 6 6 7 16 7 2 24 33 1 1 24 25 33
split_gain=6.77223e+08 2.13576e+08 1.00876e+08 8.4951e+07 7.62779e+07 7.0827e+07 6.97931e+07 6.63981e+07 4.40129e+07 4.26504e+07 3.96149e+07 4.89299e+07 3.49969e+07 3.3033e+07 3.29214e+07 4.07532e+07 3.27386e+07 3.16504e+07 3.03894e+07 2.96091e+07 3.72896e+07 2.94836e+07 2.89125e+07 2.81811e+07 2.71964e+07 2.98626e+07 2.70321e+07 2.69779e+07 4.08984e+07 3.63244e+07 2.56583e+07
threshold=1.5264912247657778 -0.91597560048103321 -0.7865660786628722 0.53733110427856456 1.1214168667793276 1.8967294692993166 2.5000000000000004 1.1352759003639223 31.250000000000004 0.2843537330627442 5.5000000000000009 11.342153549194338 1266.5000000000002 1.1676706671714785 1.0386406779289248 -0.91597560048103321 1145.5000000000002 0.74923312664031994 0.99196774193548398 0.95916666666666683 48.500000000000007 1.4170711636543276 7.5000000000000009 95.500000000000014 32.114032745361335 1119.5000000000002 42.500000000000007 29.250000000000004 27.925396919250492 0.043337929993867881 1163.5000000000002
decision_type=2 2 2 2 2 2 2 2 2 2 2 2 2 2 2 2 2 2 2 2 2 2 2 2 2 2 2 2 2 2 2
left_child=1 4 5 7 6 27 -1 9 24 -3 -7 -12 22 16 15 19 17 -8 -10 -4 -21 30 -9 -17 25 -6 -19 28 -2 -29 -13
right_child=2 3 14 -5 8 10 13 12 18 -11 11 21 -14 -15 -16 23 -18 26 -20 20 -22 -23 -24 -25 -26 -27 -28 29 -30 -31 -32
leaf_value=11.125751872911929 8.4357699031168618 -7.6150713374443697 12.896948599790273 2.3131027116952225 9.0097659294049421 -2.0567230969559844 -6.2290498460619901 5.9775374839851256 1.3321610505907022 -3.7648425994242469 29.383573410856435 19.451901405175118 -10.024861743496418 -12.08805548249644 22.03038871024664 -3.672528910390453 -7.0802865495606673 2.6438864679753724 12.085796752609424 -3.9849998823873181 8.1662674892262874 -9.319241891368744 -2.2324230013240531 28.47512048448835 15.152723387331111 -1.0464218617236285 -2.6269761753126302 10.989605422566351 22.956160304855175 4.852804829848024 8.8181155329529997
leaf_weight=984 1494 17220 950 5046 1942 277 2299 1141 21189 12352 698 1593 1366 867 208 2609 2651 5440 678 1174 1366 124 17828 70 876 1191 4400 3776 718 6672 881
leaf_count=984 1494 17220 950 5046 1942 277 2299 1141 21189 12352 698 1593 1366 867 208 2609 2651 5440 678 1174 1366 124 17828 70 876 1191 4400 3776 718 6672 881
internal_value=-0.00221751 -1.8107 7.79403 -3.86942 0.850173 9.88729 -1.7907 -4.49452 2.54853 -6.00686 16.1041 17.6304 -2.29522 -2.60246 2.46555 1.80588 -2.04641 -0.947075 1.66558 5.36643 2.54989 14.4727 -1.73859 -2.83254 7.36455 5.18694 0.286997 8.13272 13.149 7.0707 15.6652
internal_weight=120080 97470 22610 54953 42517 16233 16641 49907 25876 29572 3573 3296 20335 15657 6377 6169 14790 12139 21867 3490 2540 2598 18969 2679 4009 3133 9840 12660 2212 10448 2474
internal_count=120080 97470 22610 54953 42517 16233 16641 49907 25876 29572 3573 3296 20335 15657 6377 6169 14790 12139 21867 3490 2540 2598 18969 2679 4009 3133 9840 12660 2212 10448 2474
is_linear=0
shrinkage=0.05


Tree=30
num_leaves=32
num_cat=0
split_feature=4 19 33 32 0 33 33 1 23 24 24 1 4 1 33 33 3 6 0 33 33 7 5 0 0 2 6 33 33 23 19
split_gain=5.92132e+08 1.54996e+08 1.25875e+08 1.51414e+08 9.43534e+07 6.64089e+07 6.29912e+07 6.20354e+07 5.73092e+07 7.83131e+07 5.38896e+07 4.52512e+07 4.35413e+07 4.25505e+07 4.05434e+07 5.36261e+07 3.98342e+07 5.73859e+07 3.83978e+07 4.43016e+07 3.83532e+07 3.74174e+07 3.70389e+07 3.64984e+07 3.41426e+07 3.18488e+07 2.95315e+07 2.98978e+07 3.02552e+07 2.92404e+07 2.84452e+07
threshold=1.2918509840965273 1.6325030326843264 1177.5000000000002 -0.6035533845424651 1.0000000180025095e-35 1061.5000000000002 1266.5000000000002 86.500000000000014 10.48835325241089 20.231438636779789 37.021314620971687 5.5000000000000009 0.92907443642616283 54.500000000000007 1173.5000000000002 1049.5000000000002 0.94649675488471996 0.97259759759759767 5.5000000000000009 659.50000000000011 1073.5000000000002 34.500000000000007 0.9936507296621786 65.500000000000014 62.500000000000007 31.250000000000004 0.77500000000000013 644.50000000000011 788.50000000000011 14.308893680572512 1.8326972126960757
decision_type=2 2 2 2 2 2 2 2 2 2 2 2 2 2 2 2 2 2 2 2 2 2 2 2 2 2 2 2 2 2 2
left_child=2 10 3 16 -5 -3 7 8 11 -10 14 -7 -6 20 15 18 -1 26 -2 -20 -14 29 -23 -17 -12 -21 -18 -28 -29 -11 -13
right_child=1 5 -4 4 12 6 -8 -9 9 21 24 30 13 -15 -16 23 17 -19 19 25 -22 22 -24 -25 -26 -27 27 28 -30 -31 -32
